~o
<STREAMINFO> 1 39
<VECSIZE> 39<NULLD><MFCC_D_A_0><DIAGC>
~s "silst"
<MEAN> 39
 5.630495e+000 -1.146680e+001 4.289980e+000 6.782339e+000 -7.940112e+000 2.238455e+000 -4.473242e+000 -5.453821e+000 -1.980727e+000 -9.865934e-001 -1.179724e+000 -4.360785e-001 5.975634e+001 2.097084e-001 -5.627058e-002 1.378299e-001 -5.023311e-002 8.565737e-002 3.145948e-001 1.110821e-001 7.444165e-003 2.604266e-001 2.560032e-001 -1.127816e-001 -2.815785e-001 2.616187e-001 1.855262e-001 -1.354294e-001 1.073015e-001 -1.251750e-002 8.493327e-002 -4.877663e-002 -3.896659e-002 -8.111449e-002 -6.272253e-002 4.107556e-003 -4.407300e-002 -5.657791e-002 3.529537e-001
<VARIANCE> 39
 2.974085e+001 3.787649e+001 4.212418e+001 7.015700e+001 3.911864e+001 4.097051e+001 3.751236e+001 5.983759e+001 2.533452e+001 2.588734e+001 1.808911e+001 2.254921e+001 3.296639e+001 3.653709e+000 3.627335e+000 2.838662e+000 2.696489e+000 2.758169e+000 2.652167e+000 3.029169e+000 3.513996e+000 1.777745e+000 2.265999e+000 1.817425e+000 2.080287e+000 4.382231e+000 4.096971e-001 3.959900e-001 3.700005e-001 4.253359e-001 4.232728e-001 3.969239e-001 4.622784e-001 5.154147e-001 2.869568e-001 3.806766e-001 3.161213e-001 3.520942e-001 3.958936e-001
<GCONST> 1.187367e+002
~h "E"
<BEGINHMM>
<NUMSTATES> 5
<STATE> 2
<MEAN> 39
 1.173099e+001 -2.076056e+001 6.156399e+000 -9.464457e-001 -2.459082e+000 -1.033494e+001 -1.378782e+001 -1.228657e+001 -3.969027e+000 2.590840e+000 -1.224942e-001 -5.146239e+000 7.816525e+001 1.131639e-002 -3.278079e-001 -3.368750e-001 -1.567425e-001 -6.589304e-002 -2.923531e-001 -1.830341e-001 -1.744037e-001 2.530955e-001 2.754627e-001 1.110063e-001 -2.864892e-001 3.406818e-001 -6.545880e-002 2.082724e-001 8.608178e-002 -9.061930e-002 -6.105065e-002 3.831879e-001 2.370148e-001 2.125770e-001 -1.812692e-001 -2.257821e-001 -1.219302e-001 9.799363e-002 -2.656595e-001
<VARIANCE> 39
 1.267358e+001 1.889286e+001 3.334722e+001 1.489228e+002 1.982424e+001 1.076664e+002 2.275316e+001 5.565757e+001 1.996202e+001 2.578277e+001 1.853578e+001 1.640031e+001 1.467689e+001 3.869503e-001 8.720673e-001 1.533552e+000 1.591795e+000 1.261481e+000 2.227760e+000 1.648030e+000 1.527028e+000 1.565813e+000 1.568491e+000 1.207236e+000 9.452069e-001 5.034313e-001 1.387213e-001 1.817945e-001 2.804604e-001 2.710558e-001 2.257373e-001 3.005345e-001 3.550443e-001 3.887425e-001 2.388462e-001 2.611114e-001 2.573723e-001 1.444076e-001 1.575528e-001
<GCONST> 9.838614e+001
<STATE> 3
<MEAN> 39
 1.415987e+001 -1.869527e+001 6.560207e+000 1.591907e+000 -5.757428e+000 -1.721213e+000 -1.104395e+001 -1.569589e+001 -5.762897e+000 4.336716e+000 1.017051e+000 -3.011848e+000 7.689536e+001 2.197079e-001 4.943847e-001 -1.623479e-001 -9.561784e-001 -5.577363e-001 1.156794e+000 1.060049e+000 2.569252e-001 -7.605962e-001 -6.054776e-001 -2.623861e-001 3.279207e-001 -2.952221e-001 -6.051590e-002 2.511299e-001 1.738945e-001 1.643559e-001 1.048612e-001 1.604893e-001 1.573872e-001 3.373881e-001 6.109879e-002 -3.049515e-001 -2.608949e-001 2.532019e-002 -2.760459e-001
<VARIANCE> 39
 1.421776e+001 1.720441e+001 2.717215e+001 1.624136e+002 3.165885e+001 1.122723e+002 3.662255e+001 8.325751e+001 2.754621e+001 3.886815e+001 2.284018e+001 3.476696e+001 1.354423e+001 2.618482e-001 7.415664e-001 1.251453e+000 1.951290e+000 1.572309e+000 1.555038e+000 2.578940e+000 1.881484e+000 1.432207e+000 1.640187e+000 1.649214e+000 1.144319e+000 3.462104e-001 6.895982e-002 1.617437e-001 2.298046e-001 2.812444e-001 2.972580e-001 2.922074e-001 4.074960e-001 3.676082e-001 2.345756e-001 2.449825e-001 2.450883e-001 2.428491e-001 1.086815e-001
<GCONST> 1.007084e+002
<STATE> 4
<MEAN> 39
 1.372257e+001 -1.601803e+001 6.809072e+000 -1.941581e+000 -5.685274e+000 5.750195e-001 -7.885745e+000 -1.243834e+001 -8.313037e+000 -4.932215e-001 -2.159521e+000 -3.283610e+000 7.461001e+001 -8.300806e-001 1.137591e+000 1.392760e+000 3.843885e-001 3.222092e-001 1.715188e+000 1.291128e+000 2.362299e+000 1.211316e-001 -1.099979e+000 -8.625725e-001 3.005257e-001 -1.594811e+000 -5.639232e-001 -2.091612e-001 3.590404e-001 2.688404e-001 2.644664e-001 -1.148517e-001 -1.262000e-001 5.807935e-001 4.730588e-001 2.392315e-001 1.237073e-001 -5.096524e-002 -2.410477e-001
<VARIANCE> 39
 1.852252e+001 2.727294e+001 3.877128e+001 1.309448e+002 4.094407e+001 1.432207e+002 6.854804e+001 7.444318e+001 3.039798e+001 4.517541e+001 3.446337e+001 3.418354e+001 1.823408e+001 2.473585e+000 3.410919e+000 5.319028e+000 4.394087e+000 3.537081e+000 4.939069e+000 3.937117e+000 4.437841e+000 2.907414e+000 3.361328e+000 2.755610e+000 2.256926e+000 2.075944e+000 2.318228e-001 5.890008e-001 6.296265e-001 6.635453e-001 4.825787e-001 8.614774e-001 7.969739e-001 7.438636e-001 4.370130e-001 3.991849e-001 5.257483e-001 4.688233e-001 2.791769e-001
<GCONST> 1.280046e+002
<TRANSP> 5
 0.000000e+000 1.000000e+000 0.000000e+000 0.000000e+000 0.000000e+000
 0.000000e+000 8.006370e-001 1.993630e-001 0.000000e+000 0.000000e+000
 0.000000e+000 0.000000e+000 6.919920e-001 3.080080e-001 0.000000e+000
 0.000000e+000 0.000000e+000 0.000000e+000 5.609698e-001 4.390301e-001
 0.000000e+000 0.000000e+000 0.000000e+000 0.000000e+000 0.000000e+000
<ENDHMM>
~h "J"
<BEGINHMM>
<NUMSTATES> 5
<STATE> 2
<MEAN> 39
 1.101609e+001 -1.771416e+001 1.373278e+001 8.217039e+000 -2.585615e+000 -1.403834e+001 -1.394772e+001 -6.936388e+000 -3.904890e+000 -4.609515e+000 -7.173608e+000 -7.798244e+000 7.495209e+001 -4.637656e-001 -5.946540e-001 1.041244e+000 1.253094e+000 6.305138e-001 -1.600971e+000 -1.047600e+000 3.639122e-001 1.433469e+000 5.992908e-001 -7.817467e-001 -1.149696e+000 1.568104e-001 1.087686e-001 2.477724e-001 -2.248099e-001 -4.244671e-001 -3.852915e-001 4.359269e-001 5.211136e-001 2.017655e-001 -3.831750e-001 -3.761822e-001 9.454002e-003 2.742479e-001 -6.105557e-002
<VARIANCE> 39
 2.313420e+001 2.066338e+001 3.279538e+001 1.386979e+002 1.557227e+001 1.258327e+002 1.813030e+001 3.020505e+001 6.555341e+001 3.633974e+001 2.320464e+001 1.716599e+001 8.991113e+000 3.769546e-001 1.698354e+000 1.944586e+000 2.580694e+000 1.730328e+000 2.641522e+000 2.026348e+000 3.770316e+000 1.976880e+000 2.855164e+000 2.172259e+000 2.528787e+000 8.157290e-001 4.502591e-002 1.641465e-001 2.483453e-001 2.212761e-001 2.988153e-001 4.278086e-001 3.099443e-001 7.121536e-001 3.660493e-001 4.414484e-001 4.543113e-001 3.088926e-001 3.968141e-002
<GCONST> 1.056756e+002
<STATE> 3
<MEAN> 39
 1.013692e+001 -1.727423e+001 1.650407e+001 1.153734e+001 -2.766796e+000 -1.684442e+001 -1.508750e+001 -3.143270e+000 -1.590585e+000 -5.604986e+000 -8.577307e+000 -9.245034e+000 7.458727e+001 1.616863e-001 -1.579143e-002 -3.716727e-001 -3.779082e-001 1.407237e-001 6.759555e-001 -1.069213e-001 -5.824250e-001 -1.285610e-001 5.277455e-001 4.690833e-001 2.144298e-001 6.398400e-002 1.051165e-001 3.318410e-002 -2.424941e-001 -3.754746e-001 3.738836e-002 4.949032e-001 1.279673e-001 -3.737049e-001 -3.158113e-001 1.457716e-001 2.716706e-001 1.858352e-001 1.264158e-002
<VARIANCE> 39
 2.072226e+001 1.416394e+001 1.507075e+001 1.219918e+002 1.514626e+001 1.083673e+002 1.769394e+001 2.818977e+001 4.900143e+001 2.653926e+001 1.468916e+001 1.143024e+001 1.036093e+001 3.421436e-001 7.573949e-001 1.659358e+000 1.653733e+000 7.445015e-001 1.926199e+000 1.217368e+000 1.780694e+000 1.283505e+000 1.288604e+000 1.121127e+000 8.930815e-001 4.079191e-001 4.416775e-002 1.221304e-001 1.947772e-001 2.274680e-001 1.280836e-001 2.753550e-001 2.644885e-001 2.841801e-001 2.840966e-001 2.094249e-001 2.051215e-001 1.741385e-001 4.945923e-002
<GCONST> 9.009174e+001
<STATE> 4
<MEAN> 39
 1.259215e+001 -1.369752e+001 1.274690e+001 9.816045e+000 -1.930067e+000 -4.261721e+000 -1.145514e+001 -6.102511e+000 -1.389684e+000 -1.398658e+000 -3.016495e+000 -4.766641e+000 7.206020e+001 3.697757e-001 2.773458e-001 -9.162254e-001 -1.577787e+000 -1.887833e-001 2.036356e+000 9.191279e-001 -8.898827e-001 -1.246124e+000 -1.124464e-002 9.453532e-001 1.117125e+000 -3.956879e-002 -5.473963e-002 8.149435e-002 1.292261e-001 8.402690e-002 -1.360075e-001 -4.571790e-002 2.608948e-001 2.984300e-001 -3.481699e-002 -3.444775e-001 -3.208651e-001 4.015991e-002 -5.837700e-002
<VARIANCE> 39
 1.188140e+001 3.713358e+001 1.489476e+001 1.082847e+002 2.135363e+001 1.143561e+002 2.689075e+001 5.793693e+001 6.771693e+001 3.279282e+001 2.682426e+001 2.908494e+001 2.981511e+001 2.595101e-001 6.076890e-001 1.133869e+000 2.165505e+000 1.329657e+000 2.384699e+000 2.434040e+000 2.164999e+000 1.942950e+000 2.025051e+000 1.895354e+000 1.373574e+000 2.441878e-001 3.306110e-002 1.416620e-001 1.788144e-001 2.397432e-001 2.312367e-001 3.794902e-001 3.601810e-001 4.226998e-001 2.808837e-001 3.405682e-001 3.716012e-001 2.256417e-001 5.615001e-002
<GCONST> 1.003140e+002
<TRANSP> 5
 0.000000e+000 1.000000e+000 0.000000e+000 0.000000e+000 0.000000e+000
 0.000000e+000 5.900787e-001 4.099213e-001 0.000000e+000 0.000000e+000
 0.000000e+000 0.000000e+000 7.538347e-001 2.461653e-001 0.000000e+000
 0.000000e+000 0.000000e+000 0.000000e+000 6.890680e-001 3.109320e-001
 0.000000e+000 0.000000e+000 0.000000e+000 0.000000e+000 0.000000e+000
<ENDHMM>
~h "L"
<BEGINHMM>
<NUMSTATES> 5
<STATE> 2
<MEAN> 39
 1.192973e+001 -1.656805e+001 1.069866e+001 6.324663e+000 5.057642e-001 -7.396611e+000 -1.092389e+001 -5.379859e+000 -4.781458e+000 -2.486135e+000 -1.719582e+000 -3.594416e+000 7.370035e+001 -2.541994e-001 7.364311e-001 9.200752e-001 1.673935e+000 7.889281e-001 -1.018512e-001 1.675924e-002 2.926448e-002 -1.012951e+000 -9.184496e-001 -1.621882e-001 -2.638012e-002 -9.116946e-001 -9.870984e-002 1.639996e-001 8.664800e-002 1.665009e-001 -7.856568e-003 3.244949e-001 4.622050e-001 8.953188e-002 -7.795376e-002 -2.181929e-001 -4.456615e-001 -1.210475e-001 -1.926950e-001
<VARIANCE> 39
 1.443714e+001 1.461775e+001 9.963200e+001 2.683696e+002 2.774312e+001 6.886629e+001 2.066211e+001 2.920128e+001 3.763701e+001 4.195014e+001 4.194331e+001 2.277435e+001 1.174549e+001 3.821868e-001 7.462701e-001 2.315711e+000 4.005423e+000 3.633816e+000 3.392140e+000 3.264125e+000 2.705409e+000 4.106877e+000 2.430301e+000 2.670230e+000 7.931621e-001 7.035500e-001 3.757159e-002 7.803223e-002 2.636799e-001 2.085266e-001 2.707223e-001 4.071783e-001 3.963227e-001 2.921652e-001 5.302960e-001 2.931802e-001 4.030234e-001 1.550105e-001 5.596078e-002
<GCONST> 1.056216e+002
<STATE> 3
<MEAN> 39
 1.061579e+001 -1.236455e+001 1.262574e+001 1.235718e+001 3.810393e+000 -3.723464e+000 -8.290068e+000 -5.664857e+000 -8.549339e+000 -8.345628e+000 -5.899870e+000 -3.625513e+000 6.887220e+001 -5.380711e-001 5.642129e-001 5.098732e-001 1.487320e+000 9.572234e-001 7.594306e-001 3.271978e-001 7.674186e-001 7.641765e-001 -9.005553e-001 -1.205796e+000 -2.967473e-001 -1.002761e+000 1.766395e-001 -3.832647e-001 -4.421474e-001 -6.163668e-001 -4.477425e-001 -2.592394e-001 -2.702569e-001 -1.469211e-001 4.090747e-001 6.054483e-001 4.252718e-001 2.730041e-003 4.108042e-001
<VARIANCE> 39
 1.541775e+001 2.942404e+001 3.885728e+001 7.453236e+001 2.737036e+001 1.444088e+002 3.057693e+001 2.391494e+001 6.256628e+001 3.177788e+001 4.034448e+001 3.280855e+001 1.566954e+001 4.877385e-001 9.851389e-001 2.652872e+000 2.706761e+000 2.610231e+000 3.133013e+000 2.367803e+000 2.100901e+000 4.365295e+000 3.097501e+000 4.121987e+000 1.415669e+000 7.863370e-001 7.236735e-002 1.824984e-001 4.151306e-001 4.088847e-001 5.099345e-001 5.835330e-001 6.457808e-001 4.237121e-001 6.218511e-001 5.523467e-001 6.452115e-001 2.654601e-001 1.275039e-001
<GCONST> 1.137481e+002
<STATE> 4
<MEAN> 39
 1.259205e+001 -1.291783e+001 8.962136e+000 1.813397e+001 6.463057e+000 3.447618e+000 -1.259698e+001 -5.949051e+000 -1.111043e+000 -6.223188e+000 -2.753374e+000 -2.671405e+000 6.785732e+001 4.870589e-001 -4.162579e-001 -8.500966e-001 -1.005734e+000 -7.948116e-001 -7.032908e-001 -5.160631e-001 -8.571057e-001 -4.264809e-001 7.885616e-001 9.628070e-001 -1.437770e-001 6.015629e-001 7.875589e-002 7.406538e-002 -2.415219e-002 -2.932006e-001 -3.527574e-001 -9.504801e-002 1.586126e-001 -2.341291e-001 -2.814558e-001 1.897422e-001 1.386380e-001 1.100894e-002 9.189421e-002
<VARIANCE> 39
 1.210181e+001 2.074991e+001 2.800947e+001 5.937396e+001 3.038427e+001 1.149566e+002 2.801841e+001 4.984407e+001 6.545033e+001 2.948674e+001 3.057002e+001 1.995604e+001 1.802868e+001 4.053140e-001 1.704348e+000 1.636249e+000 2.634716e+000 2.512477e+000 4.296056e+000 3.293991e+000 4.640757e+000 4.430735e+000 3.262243e+000 2.493430e+000 1.553997e+000 8.129590e-001 1.028868e-001 3.601382e-001 3.993169e-001 4.136353e-001 3.793021e-001 9.473438e-001 6.723214e-001 8.075957e-001 9.977290e-001 5.239640e-001 6.049935e-001 2.981520e-001 2.084934e-001
<GCONST> 1.162466e+002
<TRANSP> 5
 0.000000e+000 1.000000e+000 0.000000e+000 0.000000e+000 0.000000e+000
 0.000000e+000 6.368210e-001 3.631790e-001 0.000000e+000 0.000000e+000
 0.000000e+000 0.000000e+000 6.830752e-001 3.169247e-001 0.000000e+000
 0.000000e+000 0.000000e+000 0.000000e+000 8.049499e-001 1.950501e-001
 0.000000e+000 0.000000e+000 0.000000e+000 0.000000e+000 0.000000e+000
<ENDHMM>
~h "O"
<BEGINHMM>
<NUMSTATES> 5
<STATE> 2
<MEAN> 39
 1.517521e+001 -9.692546e+000 3.103092e+000 -1.221340e+001 -1.580720e+001 -7.466945e+000 -3.353067e+000 1.930308e+000 -4.412663e+000 -7.205718e+000 -6.315781e+000 -5.150138e+000 7.505892e+001 1.797189e-001 1.558474e-001 -1.092984e+000 -8.130185e-001 -1.101957e+000 -4.397608e-001 5.620213e-001 4.328953e-001 5.484601e-001 5.087212e-002 -1.575618e-001 -3.113947e-001 2.994213e-001 -3.466004e-001 -3.558208e-001 3.343134e-001 4.224809e-001 5.399070e-001 4.428250e-001 6.893874e-002 -1.677079e-001 -9.824755e-002 2.055892e-001 1.670737e-002 1.433890e-001 -2.261120e-001
<VARIANCE> 39
 1.559392e+001 4.321598e+001 2.499800e+001 1.185317e+002 2.404002e+001 4.389301e+001 3.790109e+001 6.359787e+001 3.915125e+001 6.708604e+001 3.394367e+001 2.035719e+001 1.307592e+001 5.334213e-001 1.392955e+000 2.586667e+000 1.922265e+000 2.021389e+000 2.068328e+000 1.970852e+000 2.779076e+000 1.996154e+000 2.850690e+000 1.927004e+000 1.228150e+000 5.181478e-001 2.163112e-001 4.181325e-001 3.550845e-001 4.198347e-001 3.639857e-001 5.086336e-001 4.266303e-001 5.530003e-001 2.631777e-001 4.474494e-001 3.616684e-001 2.703026e-001 1.137598e-001
<GCONST> 1.102211e+002
<STATE> 3
<MEAN> 39
 1.731606e+001 -7.736352e+000 2.701971e+000 -6.830449e+000 -1.809291e+001 -4.577847e+000 -2.715474e-001 -2.114837e+000 -4.796346e-001 -1.033964e+000 -5.313015e+000 -3.720608e+000 7.345950e+001 -7.369564e-002 -7.202953e-001 -1.966011e-001 -2.953804e-002 2.768167e-001 6.108102e-001 4.569964e-001 -5.309036e-001 -4.845414e-001 3.708579e-002 3.904355e-002 3.404511e-001 1.340018e-001 -5.766260e-002 -8.360406e-002 1.582854e-001 1.448947e-001 2.744029e-001 1.582380e-001 -1.636950e-001 -1.393563e-001 -1.641287e-001 -3.337225e-002 1.037515e-001 6.831083e-002 -3.869028e-002
<VARIANCE> 39
 1.481281e+001 4.455876e+001 1.874358e+001 1.105677e+002 2.258123e+001 4.292607e+001 3.069431e+001 8.351860e+001 3.665251e+001 7.629345e+001 2.957920e+001 1.531872e+001 1.375700e+001 2.161554e-001 8.654130e-001 1.075204e+000 7.555241e-001 1.285070e+000 1.276766e+000 1.218398e+000 1.295880e+000 1.624169e+000 9.240674e-001 1.286500e+000 7.191818e-001 2.078227e-001 5.395551e-002 1.182513e-001 1.651772e-001 1.492569e-001 1.723604e-001 1.784867e-001 2.636385e-001 2.419355e-001 1.757543e-001 1.910257e-001 2.193527e-001 1.236345e-001 3.033017e-002
<GCONST> 8.954231e+001
<STATE> 4
<MEAN> 39
 1.467864e+001 -1.481234e+001 3.104969e+000 -8.619201e+000 -1.104564e+001 -2.173055e+000 -2.666830e+000 -7.824824e+000 -9.675426e+000 -3.333924e+000 -2.780926e+000 -2.124051e+000 7.545576e+001 -7.756974e-001 -2.848175e-001 1.706487e+000 1.231601e+000 1.731337e+000 6.614970e-001 -1.234338e+000 -8.147917e-001 -4.073811e-001 5.132158e-001 1.467068e-001 1.884349e-001 -5.257295e-001 -3.526259e-001 1.359085e-001 3.822265e-001 2.600019e-001 2.116390e-001 9.379405e-002 -3.199653e-002 6.085496e-001 4.459660e-001 -8.626056e-003 -2.260438e-001 -7.487342e-002 -2.898225e-001
<VARIANCE> 39
 2.104105e+001 3.315757e+001 3.825171e+001 1.354673e+002 4.864893e+001 6.611431e+001 5.446484e+001 7.856216e+001 4.545329e+001 4.668872e+001 3.471794e+001 2.308335e+001 1.202242e+001 1.354744e+000 2.384876e+000 4.703151e+000 2.006737e+000 2.838576e+000 2.998880e+000 3.452688e+000 5.231164e+000 2.675336e+000 3.406046e+000 2.721816e+000 1.320485e+000 1.085092e+000 2.495158e-001 5.215709e-001 5.496541e-001 3.608949e-001 5.475917e-001 6.088379e-001 7.689166e-001 7.098503e-001 4.431413e-001 4.137864e-001 4.707436e-001 2.427836e-001 1.744799e-001
<GCONST> 1.211002e+002
<TRANSP> 5
 0.000000e+000 1.000000e+000 0.000000e+000 0.000000e+000 0.000000e+000
 0.000000e+000 6.539779e-001 3.460222e-001 0.000000e+000 0.000000e+000
 0.000000e+000 0.000000e+000 8.342285e-001 1.657715e-001 0.000000e+000
 0.000000e+000 0.000000e+000 0.000000e+000 7.383059e-001 2.616941e-001
 0.000000e+000 0.000000e+000 0.000000e+000 0.000000e+000 0.000000e+000
<ENDHMM>
~h "S"
<BEGINHMM>
<NUMSTATES> 5
<STATE> 2
<MEAN> 39
 -1.554450e+000 -2.770536e+001 2.327138e+001 5.113534e+000 1.760578e+000 4.780815e-001 -4.673987e+000 -1.282678e+000 -4.294321e+000 2.708037e+000 -5.083960e+000 3.410155e-001 7.522040e+001 -3.381971e+000 -3.649829e+000 1.998119e+000 -1.464793e+000 3.094375e-001 5.176738e-001 1.373080e+000 2.016106e+000 6.994358e-001 1.487009e+000 6.086755e-001 1.140383e+000 1.300552e+000 3.712313e-001 4.006375e-001 -9.733978e-001 -1.972707e-001 -4.001396e-001 -3.602634e-001 -3.096730e-001 -3.716036e-001 -8.258355e-002 -2.124927e-001 8.987239e-002 -1.906843e-001 -2.659289e-001
<VARIANCE> 39
 5.253877e+001 4.556704e+001 6.844756e+001 1.600139e+002 2.766574e+001 8.411158e+001 5.692250e+001 3.482612e+001 4.980319e+001 4.350788e+001 5.319856e+001 1.767728e+001 1.692914e+001 1.986644e+000 3.281939e+000 5.369113e+000 3.642435e+000 2.401301e+000 3.331238e+000 6.557132e+000 3.728976e+000 1.957202e+000 2.749032e+000 2.205662e+000 1.541024e+000 1.021666e+000 5.192337e-001 9.580195e-001 5.996503e-001 8.118343e-001 3.942453e-001 5.047335e-001 8.119713e-001 7.172071e-001 3.954847e-001 4.586746e-001 4.958797e-001 2.821511e-001 2.695625e-001
<GCONST> 1.259539e+002
<STATE> 3
<MEAN> 39
 -7.250789e+000 -3.614989e+001 2.120498e+001 3.202678e+000 -8.125627e-001 5.017947e-001 -5.575956e+000 1.602872e+000 -1.820530e+000 3.822510e+000 -2.879850e+000 2.336690e+000 7.642824e+001 -2.552862e-001 -2.847251e-001 -1.921211e-001 -4.974728e-001 -2.277107e-001 8.288275e-002 -1.148190e-003 -1.059979e-001 -1.683191e-001 2.078219e-001 4.159249e-001 1.854794e-001 -6.004231e-003 6.503469e-001 8.163432e-001 -2.603399e-001 3.415184e-001 5.678408e-002 1.882882e-001 -4.585863e-002 -2.596648e-001 -1.004027e-001 -2.290986e-001 -1.520912e-002 -1.491965e-001 -3.875729e-001
<VARIANCE> 39
 2.465410e+001 2.516498e+001 5.740960e+001 1.607123e+002 1.708531e+001 5.342591e+001 7.365688e+001 2.013964e+001 3.815697e+001 5.286280e+001 3.020055e+001 1.012210e+001 9.006291e+000 1.292623e+000 1.795646e+000 1.723110e+000 2.181294e+000 1.789999e+000 1.890383e+000 1.661223e+000 1.364692e+000 1.367595e+000 1.317639e+000 1.506238e+000 1.136532e+000 5.494642e-001 2.905938e-001 4.310383e-001 5.097823e-001 4.003914e-001 2.459586e-001 2.881303e-001 5.045179e-001 3.521320e-001 2.757231e-001 3.368542e-001 2.689260e-001 2.271318e-001 1.317572e-001
<GCONST> 1.063771e+002
<STATE> 4
<MEAN> 39
 -3.777472e+000 -2.949859e+001 2.004604e+001 1.291300e+000 3.902256e-002 3.470890e+000 -3.067883e+000 1.872769e-001 -3.910217e+000 4.046794e+000 -9.214445e-001 2.735732e+000 7.345289e+001 2.228608e+000 3.494827e+000 -1.677717e+000 1.242213e+000 -4.865044e-001 6.172225e-001 -1.798583e-001 -6.712279e-001 1.589873e-002 -1.027674e+000 -3.392155e-002 -5.265749e-001 -2.326755e+000 2.386870e-001 4.124210e-001 -3.687694e-001 2.369692e-001 -3.729630e-001 -5.168431e-001 -1.778178e-001 -2.155792e-001 1.904094e-003 -2.772832e-001 -4.007319e-001 -2.504555e-001 -3.162372e-001
<VARIANCE> 39
 4.446588e+001 5.160802e+001 7.220221e+001 1.566383e+002 2.995626e+001 8.267734e+001 6.006956e+001 2.580550e+001 3.980248e+001 5.132495e+001 3.741010e+001 1.411135e+001 2.531262e+001 3.244991e+000 3.994502e+000 3.741959e+000 4.792706e+000 3.029983e+000 4.214892e+000 5.266417e+000 3.603999e+000 2.839061e+000 2.409106e+000 2.365725e+000 1.777788e+000 2.837239e+000 6.732215e-001 1.017416e+000 7.506920e-001 8.656517e-001 4.573098e-001 6.819235e-001 7.343019e-001 5.390291e-001 5.579813e-001 5.385205e-001 4.062352e-001 2.956597e-001 5.348194e-001
<GCONST> 1.295244e+002
<TRANSP> 5
 0.000000e+000 1.000000e+000 0.000000e+000 0.000000e+000 0.000000e+000
 0.000000e+000 5.608353e-001 4.391647e-001 0.000000e+000 0.000000e+000
 0.000000e+000 0.000000e+000 7.807229e-001 2.192772e-001 0.000000e+000
 0.000000e+000 0.000000e+000 0.000000e+000 6.024727e-001 3.975273e-001
 0.000000e+000 0.000000e+000 0.000000e+000 0.000000e+000 0.000000e+000
<ENDHMM>
~h "Z"
<BEGINHMM>
<NUMSTATES> 5
<STATE> 2
<MEAN> 39
 3.753500e+000 -2.446989e+001 2.247309e+001 7.771870e+000 1.659348e+000 1.716796e+000 -7.717153e+000 -3.610903e+000 -5.905451e+000 -1.173438e+000 -6.301910e+000 -9.162050e-001 7.449770e+001 -2.523886e+000 -2.909823e+000 3.603297e+000 -7.683685e-001 6.288862e-001 3.400252e-001 4.397310e-001 1.256292e+000 -6.296885e-002 1.113776e+000 1.155578e-001 5.520037e-001 1.394044e+000 3.682862e-001 7.167916e-001 -6.630942e-001 9.212296e-002 -7.866552e-002 -1.111302e-001 -2.860692e-002 -3.679363e-001 -1.381476e-001 -1.375386e-001 1.439677e-001 -1.866848e-001 -2.322118e-001
<VARIANCE> 39
 3.773116e+001 2.591028e+001 5.322859e+001 1.821101e+002 2.623249e+001 9.509222e+001 6.166064e+001 4.881830e+001 7.518935e+001 2.981110e+001 4.672350e+001 1.580354e+001 8.231180e+000 1.366071e+000 3.089829e+000 4.338071e+000 3.576499e+000 1.261269e+000 2.937345e+000 5.247622e+000 3.148960e+000 2.351631e+000 1.868060e+000 1.996360e+000 1.281474e+000 1.920473e+000 3.481380e-001 9.811246e-001 6.352500e-001 4.797998e-001 3.357493e-001 3.891888e-001 9.704598e-001 7.378631e-001 3.954579e-001 5.086366e-001 3.845566e-001 2.911810e-001 2.086636e-001
<GCONST> 1.213771e+002
<STATE> 3
<MEAN> 39
 -2.397758e+000 -2.772757e+001 2.928373e+001 4.753932e+000 2.290659e+000 1.411122e-001 -4.210597e+000 -2.021185e+000 -7.465806e+000 1.489474e+000 -7.171739e+000 -7.520097e-001 7.631706e+001 2.064875e-001 1.910717e-001 2.233822e-001 1.538547e-001 1.756219e-002 -4.391225e-001 -8.145441e-001 -6.642163e-001 -4.421861e-001 -2.811121e-001 1.999678e-001 -1.580277e-001 2.956722e-001 1.083119e+000 1.114029e+000 -1.290790e+000 3.984177e-001 -2.717639e-001 -1.372125e-001 -4.202964e-001 -5.680178e-001 -4.430095e-003 -4.304605e-001 1.592840e-002 -2.207962e-001 -5.265810e-001
<VARIANCE> 39
 2.914766e+001 2.847967e+001 5.075297e+001 1.997993e+002 2.469039e+001 1.032916e+002 5.175429e+001 4.387568e+001 8.404118e+001 2.711471e+001 5.045624e+001 1.644861e+001 6.114167e+000 2.355366e+000 2.073504e+000 3.946368e+000 2.654954e+000 1.601397e+000 4.071777e+000 3.373033e+000 3.019838e+000 1.934951e+000 1.501124e+000 1.343794e+000 1.156057e+000 9.024950e-001 3.148869e-001 5.614632e-001 9.239212e-001 6.594886e-001 2.601264e-001 4.491256e-001 7.393062e-001 4.465697e-001 3.558222e-001 3.438616e-001 2.746897e-001 2.114819e-001 1.905964e-001
<GCONST> 1.169060e+002
<STATE> 4
<MEAN> 39
 4.797545e+000 -2.317135e+001 2.314075e+001 1.051062e+001 2.257239e+000 1.533397e+000 -9.874687e+000 -5.104165e+000 -6.545095e+000 -2.124163e+000 -5.152607e+000 -1.628707e+000 7.463741e+001 2.427171e+000 2.614101e+000 -2.764732e+000 4.152143e-001 -8.218801e-001 -5.549853e-001 -8.701313e-001 -1.744503e+000 -2.038669e-001 -7.452115e-001 -1.093494e-001 -7.668236e-001 -8.437061e-001 1.565326e-001 3.400680e-001 -6.287545e-001 -5.987435e-002 -1.129611e-001 4.995372e-003 3.371758e-001 9.942702e-002 2.359295e-001 5.442449e-002 -9.491979e-002 -1.027932e-001 -2.657880e-001
<VARIANCE> 39
 3.287705e+001 3.647193e+001 5.011838e+001 1.577881e+002 3.327726e+001 1.343798e+002 3.628250e+001 3.642677e+001 6.409676e+001 2.346827e+001 4.519666e+001 1.653850e+001 9.824661e+000 2.079566e+000 3.291945e+000 4.705024e+000 3.007395e+000 1.950474e+000 3.265332e+000 4.371662e+000 3.630489e+000 2.268627e+000 2.223596e+000 1.727238e+000 1.243187e+000 1.010563e+000 3.445765e-001 6.335787e-001 8.190878e-001 4.218506e-001 3.556575e-001 5.668042e-001 4.369683e-001 5.025071e-001 3.726881e-001 3.339401e-001 3.444493e-001 2.462080e-001 2.015445e-001
<GCONST> 1.192793e+002
<TRANSP> 5
 0.000000e+000 1.000000e+000 0.000000e+000 0.000000e+000 0.000000e+000
 0.000000e+000 5.340679e-001 4.659322e-001 0.000000e+000 0.000000e+000
 0.000000e+000 0.000000e+000 6.307597e-001 3.692403e-001 0.000000e+000
 0.000000e+000 0.000000e+000 0.000000e+000 5.179321e-001 4.820679e-001
 0.000000e+000 0.000000e+000 0.000000e+000 0.000000e+000 0.000000e+000
<ENDHMM>
~h "a"
<BEGINHMM>
<NUMSTATES> 5
<STATE> 2
<MEAN> 39
 1.593343e+001 -1.542963e+001 7.748997e-001 -8.082100e+000 -1.083871e+001 -1.075307e+000 -1.579660e+000 -6.433561e+000 -7.415515e+000 -2.561427e+000 -1.114185e+000 -1.904142e+000 7.700253e+001 1.641961e-001 -7.595780e-001 -1.557771e+000 -1.086327e+000 -4.889255e-001 3.187132e-001 1.111123e+000 -3.486325e-001 -1.393198e-001 3.494838e-001 5.965295e-001 4.705784e-002 7.464294e-001 -4.834774e-001 2.285668e-002 5.961828e-001 6.172858e-001 5.356737e-001 3.282814e-001 -1.827721e-001 1.705997e-001 1.595421e-001 6.612516e-002 -2.396966e-001 -1.479908e-001 -5.294794e-001
<VARIANCE> 39
 1.940328e+001 2.378153e+001 2.851221e+001 1.391939e+002 4.020941e+001 6.933053e+001 4.596465e+001 8.989462e+001 2.632281e+001 6.588249e+001 3.408690e+001 2.185942e+001 1.011701e+001 8.317298e-001 1.756305e+000 3.443318e+000 2.589411e+000 2.820798e+000 2.702604e+000 2.760214e+000 3.360531e+000 1.904267e+000 3.474131e+000 2.208744e+000 2.234638e+000 7.654752e-001 2.444233e-001 3.807381e-001 4.227106e-001 5.087944e-001 3.817748e-001 4.663314e-001 5.372856e-001 7.686729e-001 3.175813e-001 4.894437e-001 4.183010e-001 3.346003e-001 1.987604e-001
<GCONST> 1.168226e+002
<STATE> 3
<MEAN> 39
 1.521256e+001 -1.716061e+001 -7.103732e-001 -8.687835e+000 -9.659883e+000 2.000935e+000 5.283641e-002 -6.942621e+000 -6.301711e+000 -6.813210e-001 -9.891256e-001 -2.558503e+000 7.706714e+001 -1.127514e-001 -2.333396e-002 3.576172e-001 1.479112e-001 1.018079e-001 5.464873e-003 -3.111725e-001 -2.624455e-001 -1.789988e-002 1.661599e-001 -1.118062e-001 -1.207473e-001 -1.717872e-001 -1.996947e-002 1.928067e-001 3.061200e-001 2.197011e-001 1.015112e-001 -1.097187e-001 -2.808377e-001 3.655748e-002 7.381840e-004 -1.088605e-001 -1.018458e-001 -5.971021e-003 -1.767977e-001
<VARIANCE> 39
 1.800504e+001 2.136854e+001 3.036811e+001 1.401632e+002 5.439361e+001 5.619701e+001 4.164109e+001 8.921983e+001 2.471673e+001 8.322856e+001 3.175026e+001 3.024940e+001 1.000659e+001 2.317799e-001 7.640434e-001 1.353417e+000 1.080032e+000 1.160620e+000 1.322268e+000 1.785428e+000 1.558504e+000 9.191827e-001 1.561259e+000 1.284898e+000 7.348590e-001 2.303621e-001 5.514206e-002 1.370323e-001 2.298806e-001 2.034774e-001 2.156514e-001 2.107881e-001 2.287259e-001 2.454794e-001 1.641486e-001 2.585628e-001 2.134746e-001 1.681816e-001 5.707192e-002
<GCONST> 9.469837e+001
<STATE> 4
<MEAN> 39
 1.506109e+001 -1.444405e+001 3.919219e+000 -5.954429e+000 -9.581920e+000 7.303291e-002 -4.011234e+000 -9.090669e+000 -8.300998e+000 -1.446145e+000 -2.152719e+000 -3.209198e+000 7.456477e+001 -6.372504e-001 1.312989e+000 1.697947e+000 1.817683e+000 1.158050e+000 6.762820e-001 -7.142614e-001 6.214931e-001 1.730089e-001 -5.713573e-001 -7.865312e-001 -1.161267e-001 -1.656114e+000 -3.766589e-001 8.844339e-002 1.606656e-001 3.885776e-001 3.511301e-001 3.416758e-001 2.485591e-001 5.426168e-001 2.341487e-001 -1.236676e-001 -6.264146e-002 3.897430e-002 -3.698666e-001
<VARIANCE> 39
 1.851063e+001 3.295555e+001 3.481611e+001 1.521420e+002 4.858979e+001 8.709016e+001 6.802760e+001 7.780330e+001 3.372349e+001 5.737857e+001 3.387140e+001 2.562550e+001 1.400608e+001 1.258454e+000 2.396626e+000 3.273258e+000 3.268916e+000 2.791075e+000 3.704416e+000 3.445816e+000 3.749908e+000 2.422113e+000 3.009932e+000 2.189343e+000 1.847566e+000 1.811917e+000 1.850008e-001 5.226039e-001 6.051911e-001 5.879728e-001 4.228356e-001 5.777541e-001 6.604101e-001 5.359848e-001 4.006547e-001 4.394657e-001 4.465302e-001 3.017288e-001 2.492017e-001
<GCONST> 1.219627e+002
<TRANSP> 5
 0.000000e+000 1.000000e+000 0.000000e+000 0.000000e+000 0.000000e+000
 0.000000e+000 5.431252e-001 4.568749e-001 0.000000e+000 0.000000e+000
 0.000000e+000 0.000000e+000 8.037415e-001 1.962585e-001 0.000000e+000
 0.000000e+000 0.000000e+000 0.000000e+000 5.794150e-001 4.205850e-001
 0.000000e+000 0.000000e+000 0.000000e+000 0.000000e+000 0.000000e+000
<ENDHMM>
~h "b"
<BEGINHMM>
<NUMSTATES> 5
<STATE> 2
<MEAN> 39
 1.140691e+001 -8.730001e-001 8.989673e+000 1.083148e+001 -2.068911e+000 6.939202e+000 2.234548e+000 -6.298096e-001 -3.080821e+000 -4.571316e+000 -6.008043e+000 -5.797455e+000 6.041473e+001 -6.978683e-001 7.623028e-001 8.038555e-001 1.340565e+000 7.162465e-001 8.357003e-001 6.989741e-001 5.658444e-001 3.241051e-001 -3.485981e-002 -8.198037e-002 5.490528e-002 -1.161110e+000 2.250659e-001 -5.937148e-001 -2.423793e-001 -5.846318e-001 -3.348011e-001 -5.632355e-001 -4.049410e-001 -4.265117e-001 -1.722365e-001 7.850471e-002 9.487876e-002 1.323400e-001 7.244990e-001
<VARIANCE> 39
 4.880286e+000 1.484900e+001 2.137372e+001 5.873948e+001 1.584804e+001 1.811264e+001 2.434440e+001 2.086048e+001 3.031878e+001 1.763550e+001 2.618604e+001 2.478070e+001 6.833777e+000 5.350955e-001 1.326412e+000 1.057742e+000 2.279423e+000 1.561750e+000 2.112941e+000 1.717674e+000 1.884899e+000 1.390594e+000 1.129513e+000 9.852322e-001 1.165366e+000 1.486587e+000 8.186082e-002 2.213005e-001 1.677298e-001 4.019342e-001 3.296628e-001 3.478039e-001 2.991840e-001 3.150319e-001 1.886510e-001 2.064976e-001 2.083941e-001 2.413632e-001 1.498875e-001
<GCONST> 9.418801e+001
<STATE> 3
<MEAN> 39
 1.063651e+001 -5.501264e-001 1.001887e+001 1.252020e+001 -1.271539e+000 7.270491e+000 2.926696e+000 -5.898938e-001 -3.112423e+000 -4.994268e+000 -6.385552e+000 -5.484336e+000 6.000071e+001 7.779797e-001 -1.838947e+000 -5.376442e-001 -1.551949e+000 -6.970810e-001 -1.254110e+000 -1.502992e+000 -1.382580e+000 -3.968711e-001 4.074125e-001 3.144099e-001 5.902578e-001 2.213976e+000 4.431291e-001 -9.419865e-001 -3.023983e-001 -8.804155e-001 -4.905994e-001 -8.702589e-001 -8.836985e-001 -6.032678e-001 -1.155847e-001 2.027504e-001 1.935393e-001 7.574506e-002 1.111072e+000
<VARIANCE> 39
 4.205455e+000 1.508511e+001 1.425633e+001 4.486250e+001 1.182533e+001 1.495321e+001 1.604734e+001 1.558821e+001 2.473615e+001 1.574883e+001 2.484756e+001 2.182454e+001 6.625210e+000 1.047216e+000 3.376048e+000 1.971775e+000 4.878020e+000 4.818672e+000 3.170383e+000 3.281078e+000 3.287389e+000 1.614944e+000 1.759264e+000 2.090693e+000 2.061386e+000 2.291506e+000 1.397092e-001 5.295213e-001 3.463044e-001 9.035096e-001 6.404021e-001 6.968652e-001 4.687271e-001 6.012365e-001 3.592462e-001 4.357880e-001 3.771759e-001 3.065994e-001 1.902737e-001
<GCONST> 1.075923e+002
<STATE> 4
<MEAN> 39
 1.468399e+001 -1.009775e+001 6.696106e+000 1.987330e+000 -5.351684e+000 1.137784e-001 -5.081714e+000 -6.953800e+000 -5.915908e+000 -3.342417e+000 -4.893595e+000 -3.406492e+000 7.121732e+001 1.094664e+000 -3.118352e+000 -8.983673e-001 -2.854610e+000 -1.532560e+000 -3.235508e+000 -2.703492e+000 -1.840234e+000 -1.631163e-001 7.909965e-001 8.935043e-001 4.746791e-001 3.637928e+000 -3.771509e-001 3.870572e-001 2.574029e-001 5.185789e-001 8.635370e-002 3.786817e-002 3.271383e-001 4.989438e-001 2.327951e-001 -1.218353e-001 -1.024176e-001 -3.100833e-001 -5.667235e-001
<VARIANCE> 39
 1.657483e+001 3.572476e+001 2.578923e+001 1.454512e+002 7.664226e+001 6.769668e+001 3.059127e+001 6.240298e+001 3.677095e+001 1.893903e+001 2.004720e+001 1.358366e+001 2.282022e+001 1.600958e+000 4.892455e+000 3.888200e+000 8.883167e+000 7.104416e+000 7.665016e+000 5.543263e+000 6.782481e+000 2.842236e+000 4.230812e+000 3.516638e+000 2.393574e+000 1.496226e+000 2.010414e-001 6.720806e-001 4.920698e-001 7.824473e-001 8.947994e-001 9.308153e-001 6.110322e-001 8.224288e-001 5.320337e-001 4.669921e-001 5.128538e-001 3.414917e-001 3.703328e-001
<GCONST> 1.279696e+002
<TRANSP> 5
 0.000000e+000 1.000000e+000 0.000000e+000 0.000000e+000 0.000000e+000
 0.000000e+000 7.776857e-001 2.223143e-001 0.000000e+000 0.000000e+000
 0.000000e+000 0.000000e+000 5.732582e-001 4.267418e-001 0.000000e+000
 0.000000e+000 0.000000e+000 0.000000e+000 4.449644e-001 5.550356e-001
 0.000000e+000 0.000000e+000 0.000000e+000 0.000000e+000 0.000000e+000
<ENDHMM>
~h "d"
<BEGINHMM>
<NUMSTATES> 5
<STATE> 2
<MEAN> 39
 1.059767e+001 -8.889946e+000 1.211977e+001 6.464345e+000 -1.864093e+000 3.563701e+000 -4.894655e+000 -7.416450e+000 -8.598392e+000 -4.619999e+000 -7.509441e+000 -4.639222e+000 6.654419e+001 -7.207061e-001 2.172033e+000 -3.963293e-002 2.569636e+000 7.327648e-001 1.577653e+000 1.780643e+000 1.807330e+000 1.340800e+000 1.889869e-001 2.537869e-001 1.445513e-001 -2.747711e+000 -1.793079e-001 -7.228737e-001 -2.267100e-003 -4.441221e-001 -2.131652e-001 -4.759938e-001 1.625551e-001 1.172680e-001 6.758792e-002 1.965374e-001 1.360081e-001 1.682692e-001 5.089102e-001
<VARIANCE> 39
 1.628986e+001 3.219463e+001 4.292861e+001 1.197600e+002 3.410929e+001 6.444621e+001 5.290821e+001 3.501470e+001 4.874046e+001 2.956553e+001 2.997343e+001 2.234380e+001 1.970288e+001 1.199753e+000 4.106304e+000 2.696976e+000 5.405610e+000 2.888608e+000 4.260859e+000 4.128941e+000 3.792642e+000 2.157742e+000 2.825588e+000 2.618174e+000 2.013290e+000 2.955851e+000 1.581209e-001 9.261504e-001 4.991908e-001 1.068051e+000 5.453255e-001 7.010524e-001 8.052821e-001 6.319340e-001 4.669805e-001 4.553034e-001 4.864802e-001 4.261518e-001 6.996974e-001
<GCONST> 1.248884e+002
<STATE> 3
<MEAN> 39
 9.448528e+000 -3.440063e+000 1.083921e+001 1.417231e+001 -5.345915e-001 6.968731e+000 5.720451e-001 -3.396205e+000 -4.219978e+000 -3.958016e+000 -4.626847e+000 -2.829858e+000 6.012300e+001 -6.651025e-001 -1.562984e+000 3.692145e-001 -2.228222e-001 4.729868e-002 -8.591919e-002 3.793090e-001 6.904309e-001 3.042197e-001 3.231547e-001 9.181360e-002 5.161862e-001 4.630290e-001 9.689843e-002 -1.449237e+000 3.630464e-001 -1.059133e+000 -3.405441e-001 -4.648064e-001 -6.255216e-001 -5.776256e-001 -5.020232e-001 4.305207e-002 -1.776142e-001 6.818057e-002 1.381838e+000
<VARIANCE> 39
 7.017217e+000 2.271548e+001 2.485662e+001 6.146057e+001 1.865326e+001 2.780202e+001 2.842450e+001 1.951003e+001 2.946661e+001 1.785731e+001 2.070825e+001 2.207180e+001 1.028704e+001 1.125588e+000 7.809474e+000 2.843604e+000 4.879169e+000 2.414488e+000 2.245019e+000 4.364659e+000 3.387573e+000 2.277069e+000 2.311459e+000 2.044507e+000 1.759169e+000 4.538024e+000 2.872930e-001 7.143253e-001 6.407200e-001 9.564458e-001 5.016828e-001 6.498882e-001 5.947282e-001 6.300135e-001 3.778236e-001 3.990514e-001 4.397188e-001 3.763366e-001 3.723193e-001
<GCONST> 1.161570e+002
<STATE> 4
<MEAN> 39
 8.690816e+000 -1.651525e+001 1.374143e+001 4.812424e+000 -2.336837e+000 3.866939e+000 -2.757454e+000 -5.152564e+000 -7.502911e+000 -3.037888e+000 -6.951686e+000 -1.583273e+000 6.993075e+001 5.007672e-002 -3.666843e+000 8.277790e-001 -2.925885e+000 -9.751137e-001 -1.526972e+000 -1.117512e+000 -1.268128e+000 -1.242944e+000 1.463892e-001 -6.029327e-002 7.544197e-001 3.552792e+000 1.493518e-001 6.214222e-001 -1.667907e-001 1.163775e-001 -1.689272e-001 -4.137680e-001 -1.677017e-001 -2.167353e-001 -9.039171e-002 -1.718028e-001 8.091331e-002 -2.509183e-001 -1.066288e-001
<VARIANCE> 39
 2.071618e+001 2.924046e+001 4.454896e+001 1.620650e+002 2.987025e+001 5.794251e+001 4.514054e+001 4.980758e+001 6.218382e+001 2.686540e+001 3.856903e+001 1.371983e+001 2.447892e+001 3.841240e+000 5.064394e+000 7.940985e+000 6.113425e+000 3.661043e+000 4.754192e+000 5.559391e+000 6.865709e+000 2.952344e+000 3.837242e+000 4.149933e+000 2.627676e+000 1.609896e+000 2.509593e-001 9.864382e-001 1.077103e+000 1.206085e+000 5.639616e-001 7.866380e-001 8.667883e-001 9.082365e-001 6.771655e-001 6.976163e-001 5.666868e-001 3.616636e-001 7.046145e-001
<GCONST> 1.328032e+002
<TRANSP> 5
 0.000000e+000 1.000000e+000 0.000000e+000 0.000000e+000 0.000000e+000
 0.000000e+000 3.447372e-001 6.552628e-001 0.000000e+000 0.000000e+000
 0.000000e+000 0.000000e+000 6.348439e-001 3.651561e-001 0.000000e+000
 0.000000e+000 0.000000e+000 0.000000e+000 4.097950e-001 5.902050e-001
 0.000000e+000 0.000000e+000 0.000000e+000 0.000000e+000 0.000000e+000
<ENDHMM>
~h "e"
<BEGINHMM>
<NUMSTATES> 5
<STATE> 2
<MEAN> 39
 1.280499e+001 -1.754486e+001 1.149921e+001 8.162542e+000 -2.667564e-001 -5.513081e+000 -1.433354e+001 -1.638220e+001 -8.374471e+000 -8.111038e-001 -4.306165e+000 -5.560670e+000 7.597684e+001 4.560306e-001 -4.365436e-001 -5.725299e-001 3.874648e-001 -6.320584e-001 -2.263991e+000 -1.069911e+000 -1.662132e+000 -2.129404e-001 1.541181e-001 -2.766005e-001 -7.487454e-001 1.008410e+000 -5.449410e-001 8.330712e-002 2.303062e-001 -3.279491e-001 -1.634137e-001 5.848018e-001 6.135087e-001 1.017014e+000 2.696422e-001 -1.028462e-001 -5.125436e-002 1.973962e-001 -5.513169e-001
<VARIANCE> 39
 1.552625e+001 1.528260e+001 2.614899e+001 1.508846e+002 1.573614e+001 1.521629e+002 2.016475e+001 3.558104e+001 2.675379e+001 2.055816e+001 2.241865e+001 1.303155e+001 8.937647e+000 1.396750e+000 2.121593e+000 3.383083e+000 3.441862e+000 1.693534e+000 4.336020e+000 3.068129e+000 3.814659e+000 2.394410e+000 3.059850e+000 2.694319e+000 1.419746e+000 9.192911e-001 3.078544e-001 5.433658e-001 5.953709e-001 5.482923e-001 3.398416e-001 7.420089e-001 4.239282e-001 5.520310e-001 3.680816e-001 3.794994e-001 5.805530e-001 2.931136e-001 2.185082e-001
<GCONST> 1.142068e+002
<STATE> 3
<MEAN> 39
 1.094228e+001 -1.885595e+001 1.195359e+001 5.728695e+000 -1.642590e+000 -1.167106e+001 -1.603613e+001 -1.509468e+001 -7.939972e+000 -1.453819e+000 -5.932163e+000 -6.844965e+000 7.706680e+001 1.766505e-002 1.325390e-001 -1.223638e-001 -3.710093e-001 -2.449932e-001 3.087004e-001 7.417692e-002 1.470366e-002 -1.338029e-001 -8.203381e-002 -3.449706e-002 4.462561e-002 -1.276549e-001 -8.142148e-002 1.916349e-001 1.452106e-001 -9.118631e-002 1.888911e-001 6.566029e-001 3.215808e-001 4.231702e-001 6.098420e-003 -1.082788e-001 3.102806e-002 1.956739e-001 -2.997310e-001
<VARIANCE> 39
 1.623526e+001 1.552355e+001 2.342253e+001 1.615296e+002 1.520896e+001 1.506563e+002 2.150364e+001 3.494952e+001 2.240701e+001 2.168142e+001 2.086548e+001 1.102699e+001 9.629476e+000 3.266099e-001 6.759507e-001 1.804666e+000 1.920377e+000 1.208729e+000 2.380902e+000 1.725597e+000 1.474771e+000 1.345050e+000 1.387216e+000 1.727759e+000 1.009931e+000 3.240293e-001 1.256277e-001 1.696434e-001 3.132113e-001 3.431322e-001 2.220668e-001 3.937105e-001 3.602385e-001 4.176975e-001 2.572557e-001 3.166930e-001 3.136286e-001 1.806585e-001 9.551930e-002
<GCONST> 9.733363e+001
<STATE> 4
<MEAN> 39
 1.281276e+001 -1.587805e+001 1.113046e+001 5.286102e+000 -2.236416e+000 -1.977995e+000 -1.238744e+001 -1.523800e+001 -9.815210e+000 -2.162768e+000 -4.712719e+000 -4.924172e+000 7.472230e+001 -7.246326e-001 7.922145e-001 1.013103e+000 -7.718682e-001 2.603229e-001 2.304025e+000 1.452031e+000 2.388996e+000 2.954474e-001 -7.128347e-001 -2.809227e-001 5.464973e-001 -1.172012e+000 -4.570480e-001 -1.387841e-001 3.865730e-001 6.336401e-002 1.670646e-001 8.867233e-002 1.389525e-001 7.332212e-001 4.124768e-001 7.113214e-002 3.234763e-002 1.214708e-002 -1.875314e-001
<VARIANCE> 39
 2.060710e+001 1.915055e+001 4.661406e+001 1.637282e+002 2.510204e+001 1.431444e+002 4.728596e+001 4.902284e+001 3.126090e+001 3.327359e+001 2.655374e+001 1.976985e+001 1.027537e+001 2.082755e+000 3.038552e+000 5.038316e+000 4.424897e+000 3.266755e+000 5.417735e+000 2.811834e+000 3.895401e+000 2.627442e+000 3.493560e+000 2.855192e+000 1.947184e+000 1.583496e+000 2.098012e-001 4.550141e-001 6.065910e-001 5.554847e-001 3.351874e-001 6.165850e-001 5.991700e-001 6.517693e-001 3.866289e-001 4.935284e-001 5.307094e-001 3.814763e-001 1.857317e-001
<GCONST> 1.217885e+002
<TRANSP> 5
 0.000000e+000 1.000000e+000 0.000000e+000 0.000000e+000 0.000000e+000
 0.000000e+000 4.189371e-001 5.810629e-001 0.000000e+000 0.000000e+000
 0.000000e+000 0.000000e+000 7.166184e-001 2.833816e-001 0.000000e+000
 0.000000e+000 0.000000e+000 0.000000e+000 4.834894e-001 5.165107e-001
 0.000000e+000 0.000000e+000 0.000000e+000 0.000000e+000 0.000000e+000
<ENDHMM>
~h "f"
<BEGINHMM>
<NUMSTATES> 5
<STATE> 2
<MEAN> 39
 6.137449e-001 -2.835690e+001 1.486127e+001 -2.368297e+000 -1.162667e+000 9.613873e+000 -8.724683e+000 3.234177e+000 -4.191550e+000 -7.664753e-001 1.527823e+000 -7.655372e-001 6.939323e+001 -8.028738e-001 -1.038100e+000 -1.209791e-001 -7.014399e-001 1.985312e-003 -4.245066e-004 -2.947478e-001 2.575961e-001 -3.630545e-003 1.845780e-001 2.663887e-001 2.058437e-001 -5.594690e-002 4.658605e-001 5.249573e-001 -2.112259e-001 2.838983e-001 -1.737690e-001 -2.804003e-001 9.526937e-002 -3.194992e-001 -5.878611e-003 -8.604880e-002 -1.301958e-001 -8.911576e-002 6.596176e-002
<VARIANCE> 39
 1.332718e+001 1.489396e+001 2.161112e+001 7.237424e+001 2.031665e+001 4.763697e+001 1.938241e+001 1.447077e+001 1.941026e+001 2.173740e+001 4.184888e+001 1.093123e+001 4.541471e+000 1.641895e+000 3.026894e+000 9.720161e-001 1.942770e+000 1.288128e+000 1.283327e+000 1.732597e+000 1.684040e+000 1.230732e+000 1.386948e+000 1.273470e+000 1.208181e+000 4.065795e-001 1.529556e-001 3.670247e-001 2.681018e-001 3.883528e-001 3.622477e-001 3.975542e-001 3.779724e-001 3.633614e-001 2.764128e-001 3.232550e-001 2.649956e-001 2.315077e-001 8.127834e-002
<GCONST> 9.761499e+001
<STATE> 3
<MEAN> 39
 8.216051e-003 -2.865664e+001 1.436725e+001 -4.256752e+000 2.565372e-001 6.866419e+000 -6.382650e+000 1.972779e+000 -4.713981e+000 1.442332e+000 -6.852046e-001 6.311995e-001 6.988554e+001 2.617883e+000 3.118297e+000 -5.534065e-001 2.206514e+000 -6.376085e-001 -1.513758e+000 5.260092e-001 -1.527048e+000 1.217870e-001 -6.096243e-001 -1.106467e+000 -8.438526e-001 3.549932e-001 9.391249e-001 1.265299e+000 -2.561958e-001 3.270188e-001 -6.368188e-001 -9.439601e-001 -3.621018e-001 -4.996987e-001 -6.983468e-002 -4.919805e-001 -3.752166e-001 -6.274245e-001 1.521465e-001
<VARIANCE> 39
 1.886585e+001 1.326397e+001 2.908430e+001 1.042862e+002 3.562822e+001 5.098962e+001 2.439384e+001 2.053709e+001 2.247064e+001 2.787206e+001 3.425603e+001 1.210425e+001 6.532952e+000 2.672061e+000 5.450790e+000 2.288685e+000 4.145233e+000 4.738144e+000 3.216136e+000 3.445749e+000 3.592278e+000 1.544150e+000 2.703847e+000 2.419003e+000 2.233577e+000 9.684604e-001 2.101856e-001 4.241832e-001 4.001369e-001 6.426494e-001 6.447696e-001 4.006994e-001 5.046248e-001 7.196404e-001 3.740256e-001 7.475783e-001 4.190765e-001 3.320133e-001 1.463635e-001
<GCONST> 1.152246e+002
<STATE> 4
<MEAN> 39
 1.170158e+001 -1.245394e+001 1.222167e+001 2.725183e+000 -6.481625e+000 -8.949514e-002 -6.865926e+000 -3.668640e+000 -3.862200e+000 -2.137643e+000 -4.920554e+000 -4.678852e+000 7.036055e+001 3.656732e+000 4.341216e+000 -1.465527e+000 9.572759e-001 -2.376670e+000 -3.529202e+000 -4.496039e-001 -2.073855e+000 -1.161978e-001 -1.218024e+000 -1.413016e+000 -1.754000e+000 8.945580e-001 -7.427464e-001 -1.164410e+000 -1.265838e-001 -7.093720e-001 1.735267e-001 2.489118e-001 1.446793e-003 2.975851e-001 -2.007739e-001 7.598215e-002 3.506052e-001 2.797576e-001 1.467182e-001
<VARIANCE> 39
 3.445805e+001 4.435822e+001 4.272097e+001 1.921684e+002 8.564802e+001 7.616232e+001 4.828121e+001 4.814271e+001 2.931492e+001 2.173685e+001 4.117371e+001 1.463349e+001 9.525100e+000 1.336234e+000 3.942799e+000 4.218207e+000 7.113759e+000 6.253397e+000 3.522490e+000 4.780644e+000 7.696294e+000 2.849978e+000 8.425487e+000 3.223174e+000 2.429210e+000 9.520502e-001 3.605205e-001 6.047292e-001 3.643672e-001 4.023061e-001 7.893003e-001 7.343014e-001 5.821738e-001 5.750188e-001 2.699242e-001 3.992440e-001 3.727864e-001 3.138729e-001 1.005970e-001
<GCONST> 1.248639e+002
<TRANSP> 5
 0.000000e+000 1.000000e+000 0.000000e+000 0.000000e+000 0.000000e+000
 0.000000e+000 8.656110e-001 1.343890e-001 0.000000e+000 0.000000e+000
 0.000000e+000 0.000000e+000 6.093121e-001 3.906879e-001 0.000000e+000
 0.000000e+000 0.000000e+000 0.000000e+000 4.484272e-001 5.515728e-001
 0.000000e+000 0.000000e+000 0.000000e+000 0.000000e+000 0.000000e+000
<ENDHMM>
~h "g"
<BEGINHMM>
<NUMSTATES> 5
<STATE> 2
<MEAN> 39
 1.194057e+001 -5.231766e+000 8.660449e+000 7.510914e+000 -5.135091e+000 1.915456e+000 -2.330053e+000 -5.125157e+000 -6.640601e+000 -3.398875e+000 -5.139065e+000 -6.834010e+000 6.369670e+001 -8.723853e-001 1.590371e+000 1.354576e-001 1.829148e+000 9.624479e-001 1.437290e+000 1.006400e+000 1.475519e+000 1.243863e+000 -2.703398e-001 -7.450217e-001 8.894864e-002 -2.285432e+000 -5.248617e-002 -7.316954e-001 2.151962e-002 -4.473960e-001 1.262203e-002 -3.089843e-001 -1.682055e-001 -1.322457e-001 -3.862364e-003 3.873287e-003 2.090498e-002 2.843115e-001 6.384459e-001
<VARIANCE> 39
 1.058217e+001 3.259348e+001 2.799778e+001 7.135513e+001 3.816328e+001 7.431686e+001 6.544425e+001 4.577345e+001 5.823357e+001 3.954736e+001 4.749753e+001 2.988798e+001 1.196562e+001 9.255009e-001 2.609924e+000 1.219256e+000 3.935259e+000 3.606201e+000 4.091637e+000 3.372003e+000 5.106222e+000 3.997272e+000 2.509625e+000 2.794298e+000 2.175097e+000 1.841554e+000 1.130989e-001 4.930194e-001 2.767702e-001 7.709102e-001 3.696613e-001 6.401471e-001 6.657137e-001 7.012926e-001 7.940124e-001 5.799385e-001 5.497072e-001 4.446432e-001 4.485217e-001
<GCONST> 1.216457e+002
<STATE> 3
<MEAN> 39
 9.620049e+000 -2.211659e+000 1.043250e+001 1.402122e+001 -1.846798e+000 5.274851e+000 -9.298509e-002 -2.477512e+000 -2.699254e+000 -3.568895e+000 -5.421149e+000 -4.347887e+000 5.929214e+001 -1.113859e-001 -8.874634e-001 1.723178e-002 -8.433692e-001 -2.891250e-001 -3.068229e-002 2.509391e-001 2.711356e-001 -2.665459e-001 1.422544e-001 4.403670e-001 3.503962e-001 5.488637e-001 4.079994e-001 -6.274039e-001 -7.856871e-002 -9.334807e-001 -6.234756e-001 -6.246438e-001 -3.274734e-001 -3.141245e-001 -3.997549e-001 1.227304e-001 3.101861e-001 -1.102517e-001 9.289996e-001
<VARIANCE> 39
 4.864286e+000 1.759126e+001 1.671404e+001 4.966512e+001 1.692235e+001 2.806294e+001 2.779496e+001 1.460465e+001 3.229260e+001 1.906146e+001 2.551108e+001 1.561989e+001 7.637687e+000 8.460882e-001 3.582712e+000 1.495592e+000 5.122458e+000 4.510743e+000 3.276306e+000 3.337047e+000 2.774224e+000 2.818262e+000 2.530616e+000 2.329376e+000 1.448512e+000 2.468260e+000 1.163824e-001 4.975562e-001 2.906057e-001 6.351699e-001 5.683842e-001 6.596106e-001 5.466670e-001 6.408793e-001 3.993654e-001 3.682964e-001 4.330999e-001 2.655500e-001 2.779477e-001
<GCONST> 1.096804e+002
<STATE> 4
<MEAN> 39
 1.201103e+001 -1.063448e+001 1.013778e+001 2.269292e+000 -7.327823e+000 -2.769078e-001 -2.733216e+000 -4.951876e+000 -7.544900e+000 -1.817522e+000 -2.713667e+000 -4.781928e+000 6.871268e+001 9.855500e-001 -1.254486e+000 -4.460245e-002 -1.959692e+000 -1.446610e+000 -2.243684e+000 -1.424766e+000 -1.095685e+000 -3.844314e-001 4.544786e-001 2.877590e-001 -1.516915e-001 2.432446e+000 5.714140e-002 5.559368e-001 -1.482218e-001 5.224656e-001 2.159217e-001 -3.137856e-002 -2.754293e-001 -9.917814e-002 3.235897e-001 -2.161919e-001 -3.478392e-001 -7.388264e-002 -3.107596e-001
<VARIANCE> 39
 1.720684e+001 8.079218e+001 2.628255e+001 1.001002e+002 6.089057e+001 8.166600e+001 5.833974e+001 8.463844e+001 5.341168e+001 2.850138e+001 4.567720e+001 1.953865e+001 3.477016e+001 1.036851e+000 4.032897e+000 2.695140e+000 4.720647e+000 3.755576e+000 4.445332e+000 4.139124e+000 5.772983e+000 2.660533e+000 3.077094e+000 3.631469e+000 2.266414e+000 1.800331e+000 1.535141e-001 6.052370e-001 5.281997e-001 8.470030e-001 9.256552e-001 1.232246e+000 1.082157e+000 1.110301e+000 7.027668e-001 5.932486e-001 7.756440e-001 3.909805e-001 4.380201e-001
<GCONST> 1.304790e+002
<TRANSP> 5
 0.000000e+000 1.000000e+000 0.000000e+000 0.000000e+000 0.000000e+000
 0.000000e+000 5.079319e-001 4.920681e-001 0.000000e+000 0.000000e+000
 0.000000e+000 0.000000e+000 6.956187e-001 3.043813e-001 0.000000e+000
 0.000000e+000 0.000000e+000 0.000000e+000 6.102250e-001 3.897750e-001
 0.000000e+000 0.000000e+000 0.000000e+000 0.000000e+000 0.000000e+000
<ENDHMM>
~h "h"
<BEGINHMM>
<NUMSTATES> 5
<STATE> 2
<MEAN> 39
 1.355950e+001 -1.562231e+001 7.970997e+000 2.392671e+000 -5.711291e+000 7.113063e+000 -1.966328e+000 -2.907275e+000 1.713088e+000 2.608119e+000 -1.542716e+000 -1.174179e-001 7.128366e+001 -8.206849e-001 -1.386604e+000 8.064445e-002 1.308533e+000 1.798747e+000 1.261925e+000 1.226675e+000 2.162702e+000 5.695694e-001 -3.581824e-001 7.273082e-001 6.868224e-001 -4.118060e-001 -2.589910e-001 -3.860025e-001 -2.219038e-001 6.807621e-002 -1.514845e-001 -3.333983e-001 1.821280e-001 1.339309e-001 -2.063239e-001 -1.171900e-001 4.727376e-002 4.789932e-002 -1.899263e-002
<VARIANCE> 39
 1.541311e+001 2.902766e+001 3.249469e+001 8.140166e+001 6.882619e+001 9.694582e+001 5.564837e+001 7.788873e+001 4.155374e+001 3.862487e+001 2.191316e+001 2.087364e+001 1.465022e+001 1.005878e+000 3.066359e+000 2.805350e+000 3.427766e+000 2.666889e+000 3.268360e+000 4.083599e+000 7.437375e+000 1.921375e+000 3.752625e+000 2.293520e+000 2.170664e+000 8.040252e-001 1.049379e-001 2.828954e-001 3.166253e-001 4.009867e-001 3.124128e-001 3.299240e-001 5.296039e-001 5.480963e-001 3.376716e-001 2.723185e-001 3.137212e-001 2.316049e-001 7.334335e-002
<GCONST> 1.146519e+002
<STATE> 3
<MEAN> 39
 9.995513e+000 -2.085527e+001 7.162610e+000 4.607696e+000 -2.040494e+000 7.154399e+000 3.544531e+000 4.633680e+000 1.537667e+000 6.348529e-001 -4.725975e-001 1.618000e+000 7.048089e+001 -1.304911e+000 -1.952091e+000 -3.485007e-001 1.917153e-001 4.075207e-001 2.182994e-001 9.765925e-001 7.064927e-001 -2.997142e-001 1.492906e-002 3.501807e-001 8.143958e-001 -2.052684e-001 -2.346457e-002 2.595260e-001 1.720621e-002 -5.454872e-001 -5.966616e-001 -3.720262e-001 -5.902224e-001 -6.478055e-001 -2.880835e-001 2.871771e-002 -1.354718e-001 -1.369990e-001 -2.432042e-002
<VARIANCE> 39
 9.284732e+000 2.970222e+001 4.184706e+001 6.144994e+001 7.133753e+001 5.368404e+001 4.491570e+001 4.537232e+001 3.139362e+001 2.555127e+001 3.886137e+001 2.071951e+001 1.216822e+001 1.217804e+000 2.939461e+000 2.708296e+000 3.763936e+000 3.019789e+000 3.950005e+000 3.839056e+000 6.014145e+000 2.487097e+000 3.663608e+000 2.246897e+000 1.883261e+000 9.578578e-001 1.146816e-001 3.289661e-001 3.503761e-001 5.394469e-001 3.946092e-001 4.212025e-001 3.824141e-001 7.228236e-001 3.532509e-001 4.287127e-001 4.038630e-001 3.036528e-001 9.813077e-002
<GCONST> 1.153896e+002
<STATE> 4
<MEAN> 39
 6.487530e+000 -2.463474e+001 6.942781e+000 3.607885e+000 -3.240474e+000 7.533792e+000 2.537578e+000 2.087763e+000 -5.158838e-001 1.198608e+000 6.986959e-001 3.500973e+000 6.944930e+001 -4.900114e-001 1.130773e+000 -4.283388e-002 4.847441e-002 -5.319375e-001 3.273891e-002 -5.898649e-001 -6.159352e-001 -1.834951e-001 1.256223e-001 2.041498e-001 -4.865296e-002 -1.229264e+000 1.393957e-001 6.183065e-001 -1.844726e-001 1.074795e-001 -1.885415e-001 -2.160524e-001 -2.124970e-001 -1.816129e-001 1.153555e-001 -5.664526e-002 -7.850912e-002 -1.873561e-001 -2.616200e-001
<VARIANCE> 39
 1.184716e+001 4.159200e+001 6.185392e+001 8.066747e+001 4.797034e+001 6.526501e+001 4.071462e+001 4.009154e+001 2.584209e+001 3.117334e+001 3.835326e+001 2.483775e+001 1.683523e+001 1.296435e+000 4.797255e+000 3.950367e+000 3.078319e+000 2.694411e+000 3.167573e+000 2.684884e+000 4.395716e+000 2.103575e+000 2.433969e+000 2.551136e+000 1.935404e+000 2.459857e+000 1.525734e-001 5.670792e-001 8.586860e-001 5.429934e-001 4.708848e-001 7.211492e-001 4.574818e-001 7.068650e-001 3.643330e-001 5.493816e-001 3.897264e-001 3.139442e-001 2.145667e-001
<GCONST> 1.206137e+002
<TRANSP> 5
 0.000000e+000 1.000000e+000 0.000000e+000 0.000000e+000 0.000000e+000
 0.000000e+000 4.733766e-001 5.266234e-001 0.000000e+000 0.000000e+000
 0.000000e+000 0.000000e+000 5.630500e-001 4.369500e-001 0.000000e+000
 0.000000e+000 0.000000e+000 0.000000e+000 7.137659e-001 2.862341e-001
 0.000000e+000 0.000000e+000 0.000000e+000 0.000000e+000 0.000000e+000
<ENDHMM>
~h "i"
<BEGINHMM>
<NUMSTATES> 5
<STATE> 2
<MEAN> 39
 7.730479e+000 -1.919367e+001 1.783952e+001 1.115167e+001 1.716317e+000 -5.431797e+000 -1.126879e+001 -9.445999e+000 -6.823476e+000 -2.125487e+000 -7.904201e+000 -6.582909e+000 7.321358e+001 1.309667e+000 9.656189e-001 -9.390247e-001 9.415585e-001 -8.730228e-002 -1.448445e+000 -1.025128e+000 -1.194151e+000 -2.669544e-001 -7.515720e-001 -5.376699e-001 -9.571713e-001 6.719691e-002 -4.553532e-001 -3.529638e-002 4.206349e-003 -7.055599e-001 -2.520625e-001 5.885832e-001 4.939892e-001 5.896125e-001 9.461156e-002 1.378794e-001 2.481629e-001 3.588660e-001 -2.433412e-001
<VARIANCE> 39
 3.808623e+001 2.895065e+001 5.275655e+001 1.705917e+002 2.370712e+001 1.516856e+002 3.220462e+001 3.855527e+001 4.350970e+001 2.461259e+001 4.277095e+001 2.414764e+001 1.336453e+001 3.807419e+000 6.149264e+000 6.713114e+000 3.636275e+000 2.412295e+000 5.039493e+000 4.477067e+000 4.581375e+000 2.617040e+000 3.731072e+000 2.612527e+000 2.178119e+000 1.742501e+000 3.907042e-001 7.116428e-001 6.850306e-001 5.744960e-001 4.005630e-001 9.089236e-001 5.673810e-001 6.674944e-001 4.001108e-001 4.069511e-001 4.739464e-001 3.301556e-001 2.703762e-001
<GCONST> 1.268766e+002
<STATE> 3
<MEAN> 39
 8.023147e+000 -1.872590e+001 1.709204e+001 1.051886e+001 1.331487e+000 -1.099540e+001 -1.270123e+001 -9.923394e+000 -7.702311e+000 -4.035235e+000 -9.450300e+000 -8.683168e+000 7.419731e+001 2.166217e-001 3.863888e-001 -4.790033e-001 -7.259924e-001 -2.235008e-001 6.175830e-001 -9.714429e-002 -2.938376e-001 -1.862607e-001 8.800904e-002 3.518554e-001 2.100398e-001 -1.357144e-001 -2.284734e-001 2.785340e-002 5.387483e-002 -3.694637e-001 -3.836356e-002 6.480300e-001 4.085000e-001 3.326764e-001 3.377049e-002 1.597890e-001 2.089155e-001 3.250123e-001 -2.086524e-001
<VARIANCE> 39
 2.638496e+001 2.304461e+001 4.028770e+001 1.650588e+002 2.053390e+001 1.570024e+002 3.016017e+001 3.538344e+001 3.732578e+001 2.262028e+001 3.110826e+001 2.219679e+001 1.623098e+001 1.159843e+000 2.090193e+000 3.513996e+000 2.507429e+000 1.362122e+000 3.308702e+000 2.681945e+000 2.613509e+000 1.674338e+000 1.913382e+000 2.038602e+000 1.397184e+000 1.073744e+000 3.234317e-001 3.883329e-001 5.214747e-001 4.357226e-001 2.859936e-001 6.001383e-001 6.243099e-001 6.077514e-001 3.258509e-001 3.745158e-001 3.162656e-001 2.799285e-001 1.862352e-001
<GCONST> 1.143038e+002
<STATE> 4
<MEAN> 39
 9.527143e+000 -1.607642e+001 1.404463e+001 8.087736e+000 4.944394e-001 2.067751e-001 -1.026771e+001 -1.077465e+001 -8.059812e+000 -2.279947e+000 -5.478659e+000 -4.672964e+000 7.135615e+001 -4.372058e-001 1.070858e+000 -3.871193e-001 -1.150210e+000 -7.345471e-001 1.976406e+000 1.847893e+000 1.429146e+000 6.068350e-002 -1.536433e-001 4.548949e-001 9.829937e-001 -1.319495e+000 -4.339724e-001 -1.814775e-001 1.867289e-001 5.105878e-002 -1.378735e-001 -1.345663e-001 3.035216e-001 6.419510e-001 3.545944e-001 2.385113e-002 -5.664878e-002 -1.327123e-003 -1.678444e-001
<VARIANCE> 39
 3.939363e+001 3.911635e+001 7.173227e+001 1.565951e+002 2.806874e+001 1.246015e+002 4.498542e+001 6.045877e+001 4.804888e+001 3.099028e+001 3.867807e+001 2.462606e+001 2.513055e+001 2.344921e+000 3.774395e+000 4.887620e+000 4.517090e+000 2.556160e+000 5.298484e+000 3.531264e+000 3.672350e+000 2.763960e+000 2.975708e+000 2.670899e+000 2.116035e+000 2.826396e+000 2.844666e-001 5.526858e-001 7.122230e-001 6.744496e-001 3.882232e-001 6.855727e-001 7.129984e-001 7.489673e-001 4.645558e-001 4.970848e-001 5.375183e-001 3.849659e-001 2.878644e-001
<GCONST> 1.283020e+002
<TRANSP> 5
 0.000000e+000 1.000000e+000 0.000000e+000 0.000000e+000 0.000000e+000
 0.000000e+000 2.700825e-001 7.299174e-001 0.000000e+000 0.000000e+000
 0.000000e+000 0.000000e+000 6.403317e-001 3.596682e-001 0.000000e+000
 0.000000e+000 0.000000e+000 0.000000e+000 3.484841e-001 6.515160e-001
 0.000000e+000 0.000000e+000 0.000000e+000 0.000000e+000 0.000000e+000
<ENDHMM>
~h "j"
<BEGINHMM>
<NUMSTATES> 5
<STATE> 2
<MEAN> 39
 1.035268e+001 -1.885596e+001 1.188480e+001 6.499846e+000 -2.659753e-001 -1.145430e+001 -1.504454e+001 -1.209817e+001 -7.356236e+000 -2.954993e+000 -6.274672e+000 -7.562005e+000 7.544029e+001 -2.431964e-001 1.641513e-001 8.275756e-001 8.814574e-001 3.889546e-001 -3.215481e-001 -4.543922e-001 8.587377e-002 1.977526e-001 -1.499405e-001 -7.649918e-001 -5.838385e-001 -3.384204e-001 -2.010621e-002 1.386460e-001 -2.191669e-002 -2.589721e-001 -4.932526e-002 4.735598e-001 3.311405e-001 2.550681e-001 -4.544761e-002 -6.008640e-002 1.700081e-002 1.394627e-001 -1.240308e-001
<VARIANCE> 39
 1.820962e+001 1.878413e+001 4.664648e+001 1.811452e+002 2.251534e+001 1.336893e+002 2.055306e+001 4.605406e+001 2.866920e+001 2.909006e+001 3.510057e+001 1.878841e+001 1.395143e+001 5.959185e-001 8.027022e-001 2.832638e+000 2.291733e+000 1.342694e+000 2.216946e+000 2.152672e+000 1.731288e+000 1.517425e+000 1.614072e+000 1.875720e+000 1.156542e+000 3.350086e-001 1.182286e-001 1.730157e-001 2.630034e-001 2.500408e-001 2.267460e-001 3.857493e-001 3.707573e-001 3.966627e-001 2.179497e-001 3.537241e-001 3.403513e-001 1.795329e-001 5.302536e-002
<GCONST> 1.021265e+002
<STATE> 3
<MEAN> 39
 1.133614e+001 -1.642430e+001 1.295326e+001 1.258922e+001 1.207187e+000 -6.151795e+000 -1.436642e+001 -1.207697e+001 -5.664905e+000 -2.202503e+000 -7.048091e+000 -8.227862e+000 7.282552e+001 -8.009682e-002 6.180542e-001 1.362723e-001 -2.743216e-001 2.902936e-001 1.379614e+000 4.886719e-001 3.817651e-001 1.305653e-002 6.080317e-002 -1.652965e-002 1.718494e-001 -6.147419e-001 -1.846398e-001 8.927383e-002 1.558337e-002 -5.049951e-001 -1.679842e-001 6.736668e-001 6.633095e-001 3.970593e-001 -4.857336e-002 6.839761e-002 2.553485e-001 4.872738e-001 -1.676209e-001
<VARIANCE> 39
 2.029990e+001 2.000501e+001 4.988678e+001 1.958296e+002 3.021683e+001 1.238225e+002 3.136627e+001 5.479870e+001 4.626896e+001 2.364080e+001 4.296044e+001 2.458622e+001 1.960212e+001 8.469842e-001 9.553604e-001 3.953312e+000 2.666524e+000 1.855829e+000 2.749485e+000 2.179484e+000 2.366759e+000 1.849170e+000 2.172724e+000 2.781415e+000 1.414525e+000 5.162382e-001 2.272650e-001 4.652189e-001 4.365869e-001 4.176758e-001 3.216297e-001 4.616428e-001 4.956877e-001 5.787864e-001 3.491888e-001 5.204696e-001 4.749136e-001 2.650679e-001 1.978782e-001
<GCONST> 1.144939e+002
<STATE> 4
<MEAN> 39
 1.129875e+001 -1.508187e+001 1.204681e+001 1.038978e+001 1.504368e+000 -1.790756e+000 -1.234988e+001 -1.173534e+001 -6.371422e+000 -1.765204e+000 -5.621824e+000 -5.957108e+000 7.157188e+001 -7.133771e-001 5.183786e-001 4.283052e-001 -9.969250e-001 -1.861528e-001 2.254106e+000 1.833147e+000 1.624722e+000 1.471169e-001 1.069744e-001 3.369687e-001 1.178102e+000 -9.533191e-001 -4.018625e-001 -3.152981e-001 1.197078e-001 -2.686819e-001 -2.911342e-001 -5.372188e-002 4.017986e-001 5.174479e-001 1.382602e-001 4.789950e-002 1.099334e-001 1.814707e-001 -2.995644e-002
<VARIANCE> 39
 2.535517e+001 2.138593e+001 6.313734e+001 1.626728e+002 3.256804e+001 1.078722e+002 3.870704e+001 5.516722e+001 5.120739e+001 2.580583e+001 4.556017e+001 2.532563e+001 2.293019e+001 2.238533e+000 5.199742e+000 6.071436e+000 4.169528e+000 2.945913e+000 4.755037e+000 3.641533e+000 4.165661e+000 2.488569e+000 4.469920e+000 3.697484e+000 1.711580e+000 2.620443e+000 1.955756e-001 6.331611e-001 6.297334e-001 5.300487e-001 3.401780e-001 6.269841e-001 5.269071e-001 5.962545e-001 4.107201e-001 5.177578e-001 6.527361e-001 3.562774e-001 2.625712e-001
<GCONST> 1.264397e+002
<TRANSP> 5
 0.000000e+000 1.000000e+000 0.000000e+000 0.000000e+000 0.000000e+000
 0.000000e+000 6.698528e-001 3.301472e-001 0.000000e+000 0.000000e+000
 0.000000e+000 0.000000e+000 3.675748e-001 6.324251e-001 0.000000e+000
 0.000000e+000 0.000000e+000 0.000000e+000 3.738310e-001 6.261690e-001
 0.000000e+000 0.000000e+000 0.000000e+000 0.000000e+000 0.000000e+000
<ENDHMM>
~h "k"
<BEGINHMM>
<NUMSTATES> 5
<STATE> 2
<MEAN> 39
 3.887822e+000 -9.927950e+000 3.063539e+000 7.051406e+000 -7.526478e+000 2.199409e+000 -1.524196e+000 -3.429422e+000 -3.305094e+000 -2.255844e+000 -1.235769e+000 -5.069121e-001 5.698244e+001 -4.445176e-001 -5.588741e-001 -7.146558e-001 -1.015963e+000 -9.088305e-001 -6.570972e-001 -1.636742e-001 3.152336e-001 1.887087e-001 1.462358e-001 3.891627e-001 3.290363e-001 -2.547904e-001 5.777832e-001 -5.044720e-001 4.368243e-001 -6.174569e-001 -4.946158e-002 -2.160487e-001 -2.186747e-001 3.186346e-002 -2.364219e-001 4.098501e-002 1.673333e-001 -2.409639e-001 1.168667e+000
<VARIANCE> 39
 1.052947e+001 2.816477e+001 2.787410e+001 5.006068e+001 1.743629e+001 2.680684e+001 2.159829e+001 2.516566e+001 2.348606e+001 2.213692e+001 1.953070e+001 1.940814e+001 1.001636e+001 2.871117e+000 4.091085e+000 2.283137e+000 4.176986e+000 3.706675e+000 3.777801e+000 3.338291e+000 3.268361e+000 2.457387e+000 2.328458e+000 2.550971e+000 2.205245e+000 5.499303e+000 3.098004e-001 5.942609e-001 4.344532e-001 6.809961e-001 7.310035e-001 7.969552e-001 6.991105e-001 7.062536e-001 4.116727e-001 4.936691e-001 4.693435e-001 3.565977e-001 3.739653e-001
<GCONST> 1.179544e+002
<STATE> 3
<MEAN> 39
 7.423502e+000 -1.754650e+001 4.119665e+000 -3.743134e+000 -1.075053e+001 -1.407248e+000 -2.640517e+000 5.886159e-002 -4.718050e+000 -6.691318e-001 1.483770e+000 -1.858448e+000 6.648952e+001 1.648805e+000 -2.087668e+000 1.672879e+000 -2.429970e+000 -5.202813e-002 -2.300359e-001 -9.150939e-002 9.114846e-001 -4.364610e-001 3.505689e-001 7.399932e-001 -5.329603e-001 3.772161e+000 1.231746e-001 8.854516e-001 5.169223e-001 1.036618e+000 3.993115e-001 6.245002e-002 -1.662983e-001 -6.117676e-001 -5.208217e-002 -1.178951e-001 -5.670999e-001 -1.622356e-001 -2.230484e-001
<VARIANCE> 39
 2.880445e+001 9.460760e+001 3.754009e+001 7.932927e+001 9.516181e+001 5.758799e+001 3.824882e+001 4.864397e+001 2.588614e+001 3.148956e+001 3.240315e+001 2.033942e+001 3.900438e+001 2.956995e+000 6.327659e+000 4.191678e+000 5.502018e+000 8.564661e+000 5.897506e+000 4.740444e+000 5.944566e+000 3.122864e+000 3.429268e+000 4.637997e+000 3.469431e+000 2.194837e+000 3.213306e-001 1.144575e+000 5.890946e-001 9.068342e-001 1.446358e+000 1.121993e+000 9.330910e-001 7.964316e-001 5.050755e-001 5.960414e-001 5.556490e-001 6.222996e-001 7.672427e-001
<GCONST> 1.358781e+002
<STATE> 4
<MEAN> 39
 9.858181e+000 -1.610423e+001 9.859145e+000 -1.886693e+000 -9.099857e+000 -2.630976e-001 -3.125469e+000 -1.175079e+000 -5.216972e+000 3.049070e-002 8.241443e-001 -2.670401e+000 7.010175e+001 1.550897e+000 1.863954e+000 1.097218e+000 1.423098e+000 1.457510e-001 -8.462956e-001 -6.828788e-001 -1.770864e+000 -2.535938e-001 -6.534629e-002 -1.252388e+000 -7.349622e-001 1.017429e+000 -7.733947e-002 5.622887e-001 -6.256280e-001 4.215404e-001 -1.666134e-001 -2.719612e-001 -9.107709e-002 -5.081046e-001 4.755620e-002 -2.527800e-001 -4.609571e-001 -3.844595e-002 -5.457785e-001
<VARIANCE> 39
 3.420062e+001 7.698839e+001 4.256150e+001 1.199546e+002 8.541893e+001 7.219899e+001 4.750824e+001 9.399344e+001 4.224113e+001 3.365483e+001 5.375644e+001 2.227698e+001 2.133582e+001 1.402429e+000 3.162610e+000 3.811270e+000 4.909318e+000 5.981560e+000 6.135419e+000 4.760245e+000 5.366922e+000 2.949452e+000 3.995981e+000 3.287798e+000 3.247423e+000 2.106361e+000 3.286257e-001 1.129326e+000 6.155278e-001 1.390994e+000 1.380307e+000 9.934682e-001 1.052902e+000 1.314606e+000 5.322067e-001 6.032807e-001 8.046762e-001 6.890969e-001 5.054766e-001
<GCONST> 1.365585e+002
<TRANSP> 5
 0.000000e+000 1.000000e+000 0.000000e+000 0.000000e+000 0.000000e+000
 0.000000e+000 7.850786e-001 2.149213e-001 0.000000e+000 0.000000e+000
 0.000000e+000 0.000000e+000 4.463017e-001 5.536984e-001 0.000000e+000
 0.000000e+000 0.000000e+000 0.000000e+000 6.033320e-001 3.966679e-001
 0.000000e+000 0.000000e+000 0.000000e+000 0.000000e+000 0.000000e+000
<ENDHMM>
~h "l"
<BEGINHMM>
<NUMSTATES> 5
<STATE> 2
<MEAN> 39
 1.296690e+001 -1.059760e+001 1.111629e+001 4.602425e+000 -4.540692e+000 -4.290765e-001 -5.858139e+000 -6.226732e+000 -6.776406e+000 -8.044252e+000 -1.001199e+001 -5.144217e+000 7.026469e+001 -2.124723e-001 8.977229e-001 5.396686e-001 8.589184e-001 1.934847e-001 9.583866e-002 5.303617e-001 1.017515e+000 2.238785e-001 -8.818967e-001 -1.115934e+000 -6.113719e-001 -8.162662e-001 -1.359597e-002 -4.435758e-001 -1.397960e-001 -1.861070e-001 -2.167684e-001 -2.975732e-001 -1.707128e-001 -2.108452e-001 3.022066e-002 4.389656e-001 4.134861e-001 9.632638e-002 3.407209e-001
<VARIANCE> 39
 1.917497e+001 3.889928e+001 3.030642e+001 1.763613e+002 1.167340e+002 1.371978e+002 4.877591e+001 3.726400e+001 7.162663e+001 4.293017e+001 3.501153e+001 1.918565e+001 1.059980e+001 4.910839e-001 1.212602e+000 2.192410e+000 2.768929e+000 2.910550e+000 3.363621e+000 2.829747e+000 2.489640e+000 2.243077e+000 2.228638e+000 2.899940e+000 1.824957e+000 7.413737e-001 1.205751e-001 2.606855e-001 3.499178e-001 4.540648e-001 5.023088e-001 7.261651e-001 5.734470e-001 4.646781e-001 4.635333e-001 4.713665e-001 5.591664e-001 3.998523e-001 1.326106e-001
<GCONST> 1.167892e+002
<STATE> 3
<MEAN> 39
 1.113972e+001 -1.095708e+001 1.305898e+001 -8.001569e-002 -7.065179e+000 -5.486477e+000 -5.138672e+000 -3.154017e+000 -9.741505e+000 -9.813973e+000 -1.190363e+001 -6.427210e+000 7.069199e+001 5.079019e-002 -3.718552e-001 -1.407606e-001 -2.050443e-001 -3.085124e-001 -4.255329e-001 -2.692886e-002 -7.018432e-002 3.189204e-001 5.816004e-001 1.753981e-001 2.627091e-001 4.314807e-001 9.368880e-002 -4.232065e-001 -3.318998e-001 -3.326406e-001 -8.169629e-002 -1.982204e-001 -2.153563e-001 -2.957497e-001 7.906712e-002 3.667201e-001 4.781979e-001 2.397977e-001 4.118254e-001
<VARIANCE> 39
 1.746749e+001 3.624270e+001 2.888836e+001 2.012594e+002 1.022095e+002 1.091845e+002 4.049086e+001 2.976065e+001 6.535680e+001 3.368114e+001 3.539661e+001 1.729651e+001 1.178556e+001 2.869042e-001 9.082116e-001 1.373891e+000 1.976043e+000 1.243523e+000 2.280758e+000 1.755156e+000 1.824558e+000 1.517400e+000 1.937202e+000 2.082534e+000 1.242116e+000 5.620025e-001 7.457142e-002 1.826925e-001 2.766968e-001 3.221588e-001 4.000147e-001 6.327495e-001 4.734500e-001 4.643285e-001 4.557729e-001 5.217164e-001 4.811734e-001 3.312798e-001 1.157876e-001
<GCONST> 1.080725e+002
<STATE> 4
<MEAN> 39
 1.398703e+001 -1.024085e+001 1.157482e+001 8.358292e+000 -7.205021e+000 -1.341197e+000 -4.116083e+000 -4.832119e+000 -3.477818e+000 -5.486344e+000 -9.630662e+000 -5.456654e+000 7.075294e+001 2.697660e-001 -9.491402e-001 -5.095378e-001 -6.450249e-001 -4.807849e-001 -8.217908e-001 -6.096048e-001 -4.742360e-001 -1.222756e-001 4.768290e-001 8.784067e-001 4.114391e-001 9.518490e-001 1.089300e-002 -3.113000e-002 -3.322484e-002 -8.502052e-002 4.309817e-002 8.149349e-002 -1.071029e-001 -1.661270e-001 -3.002773e-002 8.221743e-002 1.036306e-001 -1.846270e-002 3.855217e-002
<VARIANCE> 39
 1.719287e+001 3.723158e+001 2.598708e+001 2.156486e+002 1.210533e+002 8.318131e+001 6.275935e+001 3.550258e+001 4.736401e+001 3.009933e+001 4.086692e+001 2.128231e+001 1.521984e+001 3.447211e-001 1.007820e+000 1.434762e+000 1.995667e+000 1.786069e+000 3.513771e+000 2.846188e+000 2.641652e+000 2.136189e+000 2.639857e+000 3.136084e+000 2.412596e+000 5.329192e-001 5.904818e-002 1.977373e-001 2.431139e-001 3.891536e-001 2.331708e-001 4.009731e-001 3.899182e-001 3.658490e-001 2.462175e-001 3.148321e-001 4.671915e-001 2.979630e-001 1.045337e-001
<GCONST> 1.095096e+002
<TRANSP> 5
 0.000000e+000 1.000000e+000 0.000000e+000 0.000000e+000 0.000000e+000
 0.000000e+000 5.306110e-001 4.693890e-001 0.000000e+000 0.000000e+000
 0.000000e+000 0.000000e+000 5.265596e-001 4.734404e-001 0.000000e+000
 0.000000e+000 0.000000e+000 0.000000e+000 5.241545e-001 4.758455e-001
 0.000000e+000 0.000000e+000 0.000000e+000 0.000000e+000 0.000000e+000
<ENDHMM>
~h "m"
<BEGINHMM>
<NUMSTATES> 5
<STATE> 2
<MEAN> 39
 1.406834e+001 -7.038422e+000 1.008736e+001 5.718584e+000 -4.781215e+000 8.170066e-001 -5.809597e+000 -2.793000e+000 -4.021582e+000 -6.712727e+000 -7.727265e+000 -8.063663e+000 6.799342e+001 -3.708072e-001 6.673055e-001 6.868226e-001 9.182964e-001 8.575230e-001 8.910748e-001 2.974584e-001 7.079981e-001 4.833173e-001 -3.058824e-001 -8.699762e-001 -1.221789e+000 -8.060688e-001 -8.718535e-002 -4.307160e-001 -5.039614e-002 -7.259604e-002 -4.657335e-002 -3.485784e-001 -1.291397e-001 -9.749689e-002 7.909288e-002 2.173111e-001 2.230839e-001 2.048088e-001 2.762413e-001
<VARIANCE> 39
 1.318889e+001 1.445842e+001 2.025112e+001 7.238297e+001 2.480078e+001 7.561528e+001 2.829482e+001 3.052431e+001 6.752668e+001 3.720937e+001 3.424937e+001 2.381195e+001 6.062474e+000 4.537934e-001 1.887405e+000 1.732558e+000 2.745958e+000 3.335267e+000 2.263216e+000 2.629318e+000 2.352349e+000 2.180476e+000 1.767640e+000 1.798954e+000 2.172172e+000 7.587884e-001 9.467515e-002 2.741728e-001 2.916830e-001 5.320582e-001 5.145590e-001 3.720557e-001 4.616580e-001 3.204846e-001 3.500606e-001 3.167083e-001 3.434514e-001 4.670697e-001 1.045503e-001
<GCONST> 1.071693e+002
<STATE> 3
<MEAN> 39
 1.371403e+001 -6.573854e+000 1.079876e+001 7.097847e+000 -3.588935e+000 1.771036e+000 -5.630335e+000 -7.414404e-001 -1.552010e+000 -6.424568e+000 -7.856365e+000 -9.094000e+000 6.747933e+001 5.442465e-002 -1.140574e-003 -1.018354e-001 -2.202666e-001 -2.306821e-001 -1.046322e-001 5.161154e-002 3.871988e-002 -4.900266e-002 -6.697285e-003 2.147486e-001 3.009665e-001 1.085866e-001 1.260096e-001 -1.823646e-001 -2.689714e-001 -3.767928e-001 -3.692620e-001 -2.871211e-001 -1.892513e-002 -1.906706e-001 -1.715424e-001 3.829262e-002 2.189093e-001 4.032624e-001 2.517365e-001
<VARIANCE> 39
 9.460832e+000 1.224571e+001 1.450201e+001 7.239719e+001 2.757141e+001 7.807576e+001 2.963638e+001 3.343825e+001 6.728188e+001 3.195985e+001 2.914761e+001 2.053982e+001 4.899511e+000 3.102677e-001 5.333512e-001 7.445807e-001 1.371757e+000 1.401226e+000 1.536274e+000 1.360771e+000 1.293931e+000 1.147107e+000 9.168286e-001 9.820135e-001 1.164665e+000 4.346700e-001 5.794203e-002 1.895922e-001 1.837026e-001 3.530999e-001 3.724685e-001 2.244957e-001 3.142152e-001 2.690961e-001 2.513992e-001 2.401934e-001 2.432497e-001 2.904626e-001 7.085825e-002
<GCONST> 9.222009e+001
<STATE> 4
<MEAN> 39
 1.442742e+001 -7.311692e+000 9.397357e+000 4.013823e+000 -6.360779e+000 -3.787114e-001 -5.793118e+000 -3.025957e+000 -4.910549e+000 -6.917105e+000 -7.010304e+000 -6.378632e+000 6.902988e+001 2.636768e-001 -1.186480e+000 -9.363914e-001 -9.230170e-001 -8.509673e-001 -1.043939e+000 1.118064e-002 -6.280255e-001 -2.837770e-001 3.226351e-001 7.461254e-001 1.301189e+000 1.060942e+000 -2.323567e-001 -4.699255e-001 1.029305e-001 9.895303e-002 1.585553e-001 -2.200126e-001 -3.779028e-002 -6.464580e-002 8.965494e-002 1.550715e-001 1.549574e-002 -3.652123e-002 1.729319e-001
<VARIANCE> 39
 1.561419e+001 1.688654e+001 2.383257e+001 8.653946e+001 4.156687e+001 6.213732e+001 2.897907e+001 3.682738e+001 7.059893e+001 4.104324e+001 3.470604e+001 2.560966e+001 1.198839e+001 8.623117e-001 2.124327e+000 2.589539e+000 6.200801e+000 5.237599e+000 3.863411e+000 4.564727e+000 3.059840e+000 2.769600e+000 3.009061e+000 2.069831e+000 2.468058e+000 1.612010e+000 8.285763e-002 2.807880e-001 4.463202e-001 5.019305e-001 4.839689e-001 7.298830e-001 5.467070e-001 4.268235e-001 4.398521e-001 4.189823e-001 3.574673e-001 4.325985e-001 1.432064e-001
<GCONST> 1.169588e+002
<TRANSP> 5
 0.000000e+000 1.000000e+000 0.000000e+000 0.000000e+000 0.000000e+000
 0.000000e+000 4.704951e-001 5.295050e-001 0.000000e+000 0.000000e+000
 0.000000e+000 0.000000e+000 7.009866e-001 2.990134e-001 0.000000e+000
 0.000000e+000 0.000000e+000 0.000000e+000 4.339318e-001 5.660682e-001
 0.000000e+000 0.000000e+000 0.000000e+000 0.000000e+000 0.000000e+000
<ENDHMM>
~h "n"
<BEGINHMM>
<NUMSTATES> 5
<STATE> 2
<MEAN> 39
 1.282177e+001 -1.019832e+001 1.160913e+001 3.506974e+000 -4.404431e+000 -1.268184e+000 -8.451734e+000 -6.566207e+000 -7.895645e+000 -5.752669e+000 -6.527804e+000 -6.201703e+000 6.991691e+001 -6.964507e-002 1.436306e+000 1.688833e-001 1.486318e+000 3.880970e-001 6.490947e-001 2.490566e-001 1.593293e-002 3.311823e-001 -9.119873e-002 -8.974168e-001 -8.374211e-001 -1.286020e+000 -1.428722e-001 -2.558701e-001 -5.856956e-003 5.682026e-003 4.618972e-003 -1.338010e-001 1.432247e-001 1.336978e-001 1.481689e-001 1.299264e-001 8.035269e-002 7.887067e-002 9.197784e-002
<VARIANCE> 39
 1.504243e+001 2.311419e+001 2.432879e+001 9.159081e+001 3.161009e+001 1.113652e+002 5.213939e+001 3.203977e+001 7.058261e+001 3.960313e+001 3.403484e+001 2.728081e+001 1.255995e+001 4.472544e-001 1.553700e+000 2.155621e+000 5.148435e+000 3.500689e+000 3.470799e+000 3.738797e+000 2.273728e+000 2.107514e+000 2.257870e+000 2.555310e+000 2.606931e+000 9.781686e-001 9.712514e-002 3.822882e-001 3.302873e-001 9.024423e-001 5.384052e-001 5.586986e-001 7.295459e-001 4.264254e-001 4.205018e-001 4.072579e-001 5.360204e-001 4.319476e-001 1.937081e-001
<GCONST> 1.164972e+002
<STATE> 3
<MEAN> 39
 1.396689e+001 -6.185057e+000 1.075203e+001 1.014295e+001 -2.033854e+000 3.162009e+000 -6.746680e+000 -6.296896e+000 -3.094224e+000 -4.514281e+000 -7.854342e+000 -8.186256e+000 6.700167e+001 -2.235271e-001 9.837501e-002 -1.044528e-001 1.606703e-001 2.336759e-001 2.284839e-001 3.851549e-001 4.592872e-001 7.852264e-002 -1.164825e-001 2.242425e-001 2.010326e-001 -2.934967e-001 -1.190711e-001 -5.695680e-001 -1.540339e-001 -5.508646e-001 -2.307439e-001 -2.001878e-001 1.671151e-001 3.394362e-001 -7.407640e-002 -3.814938e-002 4.160946e-001 5.226254e-001 3.157468e-001
<VARIANCE> 39
 1.201568e+001 1.383093e+001 2.002882e+001 5.474224e+001 2.696806e+001 8.044620e+001 3.564346e+001 2.493554e+001 6.976688e+001 2.754072e+001 1.885228e+001 1.736520e+001 7.865643e+000 5.584033e-001 1.300752e+000 1.752010e+000 2.895687e+000 1.886330e+000 2.859021e+000 2.534680e+000 1.696028e+000 1.366443e+000 1.769383e+000 1.536154e+000 1.835237e+000 1.183898e+000 1.599967e-001 3.480717e-001 3.861653e-001 7.152991e-001 5.239471e-001 4.417846e-001 5.298113e-001 3.676603e-001 3.283054e-001 3.961868e-001 3.241335e-001 3.877355e-001 1.907879e-001
<GCONST> 1.071686e+002
<STATE> 4
<MEAN> 39
 1.219495e+001 -8.623639e+000 1.179349e+001 6.493018e+000 -3.103416e+000 7.610859e-001 -6.738832e+000 -4.274400e+000 -5.977699e+000 -5.847963e+000 -6.814386e+000 -6.248073e+000 6.790353e+001 -7.331982e-001 -1.206710e+000 -5.097513e-001 -1.251291e+000 -1.711187e-001 2.525034e-001 1.190100e+000 1.237926e+000 -4.654892e-002 1.028077e-002 1.055485e+000 1.208681e+000 2.647605e-001 -2.692066e-001 -5.704936e-001 -8.998559e-002 -5.895757e-001 -2.359746e-001 -2.234806e-001 7.568080e-002 3.371175e-002 1.331082e-002 2.015207e-001 1.317384e-001 1.597230e-001 2.718829e-001
<VARIANCE> 39
 1.945969e+001 2.397855e+001 3.890668e+001 9.776988e+001 2.781929e+001 7.405014e+001 3.969157e+001 2.840057e+001 7.096917e+001 3.354868e+001 2.903498e+001 1.903081e+001 2.078428e+001 2.159310e+000 2.589261e+000 4.603404e+000 5.929085e+000 4.255444e+000 5.317184e+000 4.095689e+000 2.578180e+000 2.351795e+000 3.865005e+000 2.039571e+000 2.182855e+000 2.859874e+000 1.946829e-001 6.777132e-001 5.208277e-001 7.787174e-001 5.648314e-001 5.703181e-001 6.223366e-001 5.380996e-001 3.323803e-001 3.957293e-001 3.677736e-001 4.027807e-001 3.147578e-001
<GCONST> 1.228551e+002
<TRANSP> 5
 0.000000e+000 1.000000e+000 0.000000e+000 0.000000e+000 0.000000e+000
 0.000000e+000 4.863691e-001 5.136309e-001 0.000000e+000 0.000000e+000
 0.000000e+000 0.000000e+000 5.402516e-001 4.597485e-001 0.000000e+000
 0.000000e+000 0.000000e+000 0.000000e+000 2.240383e-001 7.759616e-001
 0.000000e+000 0.000000e+000 0.000000e+000 0.000000e+000 0.000000e+000
<ENDHMM>
~h "o"
<BEGINHMM>
<NUMSTATES> 5
<STATE> 2
<MEAN> 39
 1.614172e+001 -6.995159e+000 8.523031e+000 -2.419040e+000 -1.447291e+001 -7.688986e+000 -4.618993e+000 -2.231132e+000 -5.447662e+000 -7.059272e+000 -7.427732e+000 -4.227822e+000 7.237734e+001 1.011479e+000 1.493923e+000 -9.772555e-001 -7.695812e-001 -1.976185e+000 -2.222266e+000 -5.090588e-001 -4.330986e-002 1.858460e-001 -9.261404e-001 -8.985819e-001 -7.723281e-001 4.067419e-001 -6.996422e-001 -5.729344e-001 1.218574e-001 3.019034e-001 6.219002e-001 6.075988e-001 1.746642e-001 1.874621e-001 9.807910e-002 3.882314e-001 3.036167e-001 1.384301e-001 -3.725351e-001
<VARIANCE> 39
 1.324414e+001 4.282091e+001 2.398662e+001 1.418522e+002 3.014835e+001 7.478178e+001 3.651864e+001 5.512149e+001 5.545312e+001 4.436869e+001 3.552734e+001 2.522055e+001 1.306537e+001 1.634580e+000 4.011158e+000 3.184064e+000 2.648392e+000 3.446144e+000 4.065868e+000 3.606337e+000 4.921410e+000 3.309410e+000 5.995445e+000 3.432487e+000 1.810758e+000 1.016209e+000 2.641515e-001 7.521572e-001 6.080331e-001 5.344946e-001 5.644098e-001 9.442976e-001 6.151814e-001 7.043173e-001 5.788180e-001 7.164947e-001 6.344332e-001 5.004738e-001 2.451868e-001
<GCONST> 1.253750e+002
<STATE> 3
<MEAN> 39
 1.606413e+001 -4.289022e+000 8.742238e+000 -2.347127e+000 -1.787356e+001 -1.088690e+001 -5.178395e+000 -2.553586e-001 -3.386574e+000 -6.615883e+000 -7.384135e+000 -5.856444e+000 7.150751e+001 -7.367218e-002 -4.030797e-001 -2.192883e-001 -7.453986e-002 8.196622e-002 3.876571e-001 4.358336e-001 -1.093852e-001 -2.708681e-001 -1.675146e-001 -2.005738e-001 4.256257e-002 9.918162e-002 -1.530824e-001 -3.010207e-001 9.690873e-002 1.967855e-001 4.851466e-001 5.246031e-001 1.109216e-001 -1.582831e-001 -1.525956e-001 1.011563e-001 1.433368e-001 2.062549e-001 -7.550810e-002
<VARIANCE> 39
 1.020148e+001 3.628445e+001 2.472443e+001 1.423937e+002 2.368634e+001 5.818859e+001 3.455959e+001 6.715589e+001 3.917931e+001 5.717865e+001 2.890144e+001 1.578380e+001 1.195431e+001 2.794484e-001 1.473103e+000 1.296146e+000 1.230802e+000 1.798929e+000 2.605000e+000 1.841457e+000 2.059908e+000 2.030946e+000 1.831845e+000 1.887480e+000 1.385588e+000 5.194438e-001 1.186326e-001 2.206747e-001 2.758417e-001 2.677132e-001 2.970126e-001 3.469915e-001 3.710547e-001 4.665529e-001 3.062544e-001 4.280230e-001 3.757105e-001 2.874950e-001 7.928905e-002
<GCONST> 1.040648e+002
<STATE> 4
<MEAN> 39
 1.480909e+001 -1.114887e+001 6.463790e+000 -3.244488e+000 -1.091925e+001 -5.012725e+000 -4.304303e+000 -6.271022e+000 -9.969780e+000 -7.994158e+000 -6.859141e+000 -2.782192e+000 7.382853e+001 -6.108049e-001 -7.818179e-001 5.429927e-001 1.329074e+000 2.126601e+000 1.201549e+000 -6.138761e-001 -1.272700e+000 -2.849823e-001 9.693235e-001 7.366292e-001 4.923812e-001 -2.944014e-001 -2.403046e-001 1.169169e-001 3.499248e-001 3.241254e-001 2.160505e-001 -3.102228e-002 -2.320593e-001 3.606178e-001 5.002800e-001 2.703494e-001 -1.082700e-003 -2.350916e-001 -2.791119e-001
<VARIANCE> 39
 1.634553e+001 4.099580e+001 2.722513e+001 1.584182e+002 5.026459e+001 8.146377e+001 4.310342e+001 7.357027e+001 5.269868e+001 4.233867e+001 2.910046e+001 1.627435e+001 1.568418e+001 7.726132e-001 2.256806e+000 2.979203e+000 2.615626e+000 2.955574e+000 3.989373e+000 4.723036e+000 5.143791e+000 3.098924e+000 3.257844e+000 2.194197e+000 2.569207e+000 1.330164e+000 1.468089e-001 3.149532e-001 3.749354e-001 3.790473e-001 4.391582e-001 5.879627e-001 6.341121e-001 7.261072e-001 4.720904e-001 6.032767e-001 5.291228e-001 3.877206e-001 1.473856e-001
<GCONST> 1.202408e+002
<TRANSP> 5
 0.000000e+000 1.000000e+000 0.000000e+000 0.000000e+000 0.000000e+000
 0.000000e+000 4.424167e-001 5.575833e-001 0.000000e+000 0.000000e+000
 0.000000e+000 0.000000e+000 7.444450e-001 2.555550e-001 0.000000e+000
 0.000000e+000 0.000000e+000 0.000000e+000 5.732386e-001 4.267615e-001
 0.000000e+000 0.000000e+000 0.000000e+000 0.000000e+000 0.000000e+000
<ENDHMM>
~h "p"
<BEGINHMM>
<NUMSTATES> 5
<STATE> 2
<MEAN> 39
 4.752450e+000 -7.922477e+000 3.840384e+000 8.011621e+000 -6.888049e+000 2.659438e+000 -7.170479e-001 -2.422592e+000 -2.586267e+000 -1.971779e+000 -1.392442e+000 -5.706415e-001 5.667372e+001 -9.548551e-001 -6.093904e-001 -6.904553e-001 -4.402768e-001 -5.835866e-001 -4.562029e-001 -2.664668e-001 -1.410021e-001 2.099211e-002 1.533632e-001 3.487497e-001 5.687399e-001 -7.361652e-001 4.531490e-001 -2.954361e-001 2.937107e-001 -2.746513e-001 1.850244e-001 2.973890e-002 -1.024114e-001 -4.789881e-002 -5.555256e-003 5.391646e-002 -5.739339e-002 -2.873317e-002 8.291178e-001
<VARIANCE> 39
 1.356091e+001 2.319579e+001 2.855774e+001 4.783232e+001 2.097148e+001 2.567733e+001 2.342111e+001 2.292848e+001 2.079876e+001 1.528300e+001 1.619290e+001 1.696159e+001 9.645854e+000 1.158985e+000 1.242071e+000 1.718931e+000 1.808155e+000 2.092336e+000 2.226626e+000 1.714789e+000 1.598657e+000 1.401813e+000 1.574389e+000 1.356955e+000 1.411355e+000 1.892908e+000 2.234232e-001 3.610468e-001 5.278474e-001 6.801267e-001 7.650896e-001 7.810382e-001 4.842481e-001 4.961844e-001 3.385053e-001 2.877243e-001 2.677691e-001 2.258018e-001 2.954523e-001
<GCONST> 1.051549e+002
<STATE> 3
<MEAN> 39
 4.681439e+000 -1.221371e+001 5.971790e+000 5.840109e+000 -5.701333e+000 3.997186e+000 -7.912724e-001 -1.092354e+000 -1.619878e+000 -7.364639e-002 -3.981522e-001 1.417122e+000 6.007682e+001 2.610409e+000 -6.335183e-001 2.084875e+000 -2.974385e-001 1.679544e+000 1.036884e+000 1.563450e-001 -3.765606e-002 3.846184e-001 8.786324e-001 1.850022e-002 3.234517e-001 3.805168e+000 7.989278e-001 3.850478e-001 -5.133367e-002 -2.103311e-001 -2.631526e-001 -6.659068e-001 -4.564084e-001 -4.716121e-001 -1.902948e-001 -2.205531e-001 -2.712491e-001 -4.797366e-001 7.299795e-001
<VARIANCE> 39
 1.700130e+001 2.182200e+001 3.387300e+001 5.810300e+001 2.989738e+001 3.698576e+001 2.112933e+001 2.221090e+001 2.447857e+001 2.059031e+001 1.480032e+001 1.333250e+001 3.052396e+001 3.359788e+000 4.029575e+000 3.336615e+000 4.905381e+000 5.631110e+000 5.027861e+000 3.416539e+000 4.991885e+000 2.814849e+000 2.270514e+000 2.468416e+000 2.481093e+000 2.147859e+000 3.690235e-001 6.229660e-001 8.067524e-001 7.156321e-001 1.115526e+000 1.015850e+000 6.955824e-001 8.003411e-001 4.632553e-001 6.490910e-001 4.102049e-001 3.434263e-001 6.126604e-001
<GCONST> 1.231444e+002
<STATE> 4
<MEAN> 39
 1.380257e+001 -1.115201e+001 9.857097e+000 2.237113e+000 -4.136884e+000 1.822983e+000 -2.292333e+000 -2.674766e+000 -1.461112e+000 1.420257e+000 -1.785890e+000 2.606658e-001 7.135625e+001 2.628952e+000 5.462282e-001 -4.423093e-001 -1.482925e+000 -9.934092e-001 -2.344676e+000 -1.783051e+000 -1.359706e+000 -4.304237e-001 -8.734086e-001 -6.851624e-001 -1.317577e+000 3.071949e+000 -7.949550e-001 2.926779e-002 -8.644382e-001 -2.978086e-002 -6.219076e-001 -6.281634e-001 -3.752069e-001 -1.725369e-001 -3.569631e-001 -6.152107e-001 -1.406968e-001 -3.777595e-001 -9.589321e-001
<VARIANCE> 39
 2.922060e+001 5.268338e+001 3.699934e+001 1.261415e+002 8.124810e+001 7.870827e+001 4.194666e+001 7.088817e+001 2.871069e+001 3.243459e+001 2.392249e+001 1.953679e+001 2.279875e+001 2.531737e+000 5.003050e+000 6.758540e+000 6.798059e+000 9.796356e+000 7.516318e+000 5.924610e+000 7.546646e+000 3.666914e+000 5.632911e+000 3.094067e+000 2.113775e+000 3.804685e+000 4.689650e-001 7.389425e-001 6.467322e-001 6.864915e-001 1.182169e+000 1.132730e+000 7.781636e-001 8.284665e-001 5.433546e-001 7.012870e-001 5.017977e-001 5.612787e-001 3.500541e-001
<GCONST> 1.357433e+002
<TRANSP> 5
 0.000000e+000 1.000000e+000 0.000000e+000 0.000000e+000 0.000000e+000
 0.000000e+000 8.219804e-001 1.780197e-001 0.000000e+000 0.000000e+000
 0.000000e+000 0.000000e+000 5.301079e-001 4.698921e-001 0.000000e+000
 0.000000e+000 0.000000e+000 0.000000e+000 4.713685e-001 5.286315e-001
 0.000000e+000 0.000000e+000 0.000000e+000 0.000000e+000 0.000000e+000
<ENDHMM>
~h "s"
<BEGINHMM>
<NUMSTATES> 5
<STATE> 2
<MEAN> 39
 -7.218213e+000 -2.819456e+001 2.800588e+001 -9.208702e+000 -3.415021e+000 1.162201e+001 -7.327851e+000 2.138883e+000 -5.522710e+000 3.170348e+000 -1.322304e+000 -9.492227e-001 7.396844e+001 -1.508153e+000 -1.187051e+000 3.637339e-001 -1.001916e+000 6.055566e-002 2.621233e-001 -2.577133e-001 6.686314e-001 3.274234e-001 4.429623e-001 4.107914e-001 3.170191e-001 -1.337839e-002 5.476753e-001 3.118688e-001 -4.650357e-001 3.573468e-001 -1.892259e-001 -3.704435e-001 4.283303e-002 -4.091647e-001 -8.725578e-002 -9.167097e-002 -9.898510e-002 -7.447625e-002 -2.962885e-002
<VARIANCE> 39
 2.751906e+001 3.703637e+001 1.802999e+001 1.403063e+002 6.559919e+001 2.508688e+001 4.758770e+001 3.941707e+001 1.834801e+001 3.024420e+001 3.302705e+001 1.184449e+001 5.101448e+000 4.062167e+000 2.670177e+000 3.505889e+000 2.541390e+000 2.117053e+000 2.699619e+000 2.024293e+000 3.728055e+000 1.757685e+000 1.906491e+000 1.628819e+000 1.172287e+000 3.252594e-001 2.944063e-001 3.119123e-001 6.395618e-001 3.534699e-001 4.343226e-001 5.088143e-001 4.080927e-001 5.544121e-001 3.005548e-001 3.163698e-001 3.111430e-001 2.208457e-001 6.409100e-002
<GCONST> 1.097196e+002
<STATE> 3
<MEAN> 39
 -7.513204e+000 -2.964291e+001 2.608409e+001 -1.059015e+001 -2.332515e+000 9.661547e+000 -7.110942e+000 1.078308e+000 -4.846997e+000 6.365263e+000 -9.705160e-001 4.450465e-001 7.379742e+001 3.025049e+000 1.941623e+000 -1.404081e+000 2.860255e+000 -2.760043e-002 -1.179826e+000 5.970604e-001 -1.984299e+000 -5.965183e-001 -4.403096e-001 -4.931516e-001 -2.702172e-001 -1.643328e-001 1.190565e+000 1.049381e+000 -6.499966e-001 7.532550e-001 -2.438711e-001 -6.021346e-001 -1.900796e-001 -6.234699e-001 -2.606297e-001 -7.293182e-001 -3.439442e-001 -4.023084e-001 -2.446624e-002
<VARIANCE> 39
 1.947874e+001 1.799442e+001 2.505813e+001 1.612841e+002 4.709989e+001 3.006761e+001 3.623895e+001 3.603796e+001 1.668287e+001 4.320171e+001 3.366336e+001 1.298532e+001 4.058897e+000 3.999940e+000 4.080057e+000 2.444390e+000 3.710336e+000 2.462045e+000 3.357561e+000 2.447818e+000 3.487429e+000 2.089073e+000 2.912179e+000 2.424312e+000 1.744379e+000 6.046807e-001 2.830318e-001 3.080340e-001 4.541230e-001 6.339464e-001 4.018399e-001 4.953803e-001 5.058545e-001 5.292673e-001 3.714362e-001 6.013978e-001 3.995885e-001 2.632295e-001 1.006373e-001
<GCONST> 1.136672e+002
<STATE> 4
<MEAN> 39
 7.068946e+000 -1.771362e+001 1.949006e+001 -4.103934e-001 -4.056989e+000 3.343231e+000 -7.689101e+000 -7.736455e+000 -8.459710e+000 5.983096e-001 -4.546091e+000 -2.595454e+000 7.340450e+001 4.816795e+000 3.353279e+000 -3.354073e+000 2.424211e+000 -1.364382e+000 -3.119523e+000 -4.566246e-001 -2.479906e+000 -6.403733e-001 -2.124655e+000 -1.015775e+000 -1.064094e+000 2.722717e-001 -8.300139e-001 -6.730005e-001 -8.930399e-002 -9.004722e-001 -1.192243e-001 3.641241e-002 -6.297961e-002 7.223539e-001 3.687939e-001 6.425456e-002 1.760530e-001 9.327620e-002 7.634427e-002
<VARIANCE> 39
 5.219419e+001 3.005779e+001 4.637182e+001 1.513795e+002 4.016498e+001 9.450545e+001 5.063734e+001 6.133873e+001 2.968838e+001 3.834443e+001 4.234372e+001 1.717968e+001 8.176671e+000 2.707796e+000 4.513574e+000 3.231364e+000 5.462952e+000 4.033176e+000 6.170621e+000 3.891655e+000 5.207149e+000 3.342046e+000 5.795122e+000 2.989018e+000 1.826306e+000 9.854451e-001 6.152049e-001 5.191193e-001 4.993343e-001 4.907486e-001 4.186387e-001 7.155637e-001 4.823000e-001 6.880865e-001 3.556207e-001 6.014047e-001 5.154600e-001 3.378075e-001 1.157817e-001
<GCONST> 1.258437e+002
<TRANSP> 5
 0.000000e+000 1.000000e+000 0.000000e+000 0.000000e+000 0.000000e+000
 0.000000e+000 8.787443e-001 1.212557e-001 0.000000e+000 0.000000e+000
 0.000000e+000 0.000000e+000 6.539629e-001 3.460372e-001 0.000000e+000
 0.000000e+000 0.000000e+000 0.000000e+000 4.988611e-001 5.011389e-001
 0.000000e+000 0.000000e+000 0.000000e+000 0.000000e+000 0.000000e+000
<ENDHMM>
~h "t"
<BEGINHMM>
<NUMSTATES> 5
<STATE> 2
<MEAN> 39
 5.128625e+000 -8.054449e+000 6.319935e+000 8.847598e+000 -6.010952e+000 3.651948e+000 -9.199102e-001 -2.962185e+000 -3.104694e+000 -2.318910e+000 -2.167190e+000 -1.104592e+000 5.793317e+001 -1.139592e+000 -1.392968e-001 -1.727915e+000 -1.800770e-001 -8.891721e-001 -8.348172e-001 2.743607e-001 2.586969e-001 2.150174e-001 8.087359e-002 4.864892e-001 5.496956e-001 -1.590929e+000 1.430324e-001 -7.856218e-001 2.622103e-001 -5.041472e-001 -5.222891e-002 -2.307304e-001 -3.144093e-001 -2.121675e-001 -1.487040e-001 8.575113e-002 -1.426571e-001 -1.046756e-002 8.627167e-001
<VARIANCE> 39
 1.634499e+001 2.756970e+001 4.637386e+001 6.244285e+001 2.414602e+001 2.702222e+001 2.327652e+001 2.511308e+001 2.155278e+001 1.980116e+001 2.250476e+001 2.182101e+001 1.656439e+001 1.157054e+000 2.523332e+000 2.670310e+000 3.360551e+000 2.216144e+000 3.008238e+000 2.924255e+000 2.359078e+000 1.932457e+000 2.048362e+000 1.686426e+000 1.432936e+000 2.261722e+000 1.675440e-001 6.621667e-001 7.431800e-001 7.935157e-001 5.004466e-001 7.821412e-001 5.177992e-001 4.734708e-001 3.390656e-001 3.739903e-001 3.505095e-001 2.847476e-001 4.657224e-001
<GCONST> 1.136346e+002
<STATE> 3
<MEAN> 39
 2.307527e+000 -1.288928e+001 4.006657e+000 6.281792e+000 -8.876184e+000 5.244624e-002 -2.604400e+000 -2.541215e+000 -3.108994e+000 -1.799706e+000 -1.924745e+000 -1.263304e-001 5.773285e+001 -3.568509e-001 -3.817746e+000 1.540457e+000 -1.526780e+000 4.433626e-001 1.855335e-001 -4.690205e-001 5.265874e-001 1.462698e-001 8.300564e-001 -1.555389e-001 7.045874e-001 2.754484e+000 4.105299e-001 -5.593879e-001 1.296880e+000 -4.291970e-001 5.610279e-001 3.553134e-001 -1.863505e-001 -6.533234e-002 -2.439541e-001 1.589974e-001 -1.320300e-001 -5.285770e-002 1.419096e+000
<VARIANCE> 39
 1.208451e+001 4.570965e+001 3.993692e+001 6.369140e+001 1.621966e+001 1.830209e+001 1.927864e+001 2.053935e+001 1.927055e+001 2.093322e+001 1.776585e+001 1.585433e+001 2.017359e+001 2.573609e+000 5.221608e+000 5.275006e+000 5.221012e+000 3.347959e+000 3.406127e+000 3.602484e+000 2.834666e+000 1.833057e+000 3.182661e+000 2.096308e+000 2.350504e+000 3.482465e+000 4.688024e-001 8.508306e-001 6.291699e-001 7.217246e-001 5.095943e-001 6.948614e-001 5.479532e-001 5.973628e-001 3.968356e-001 5.094832e-001 3.948171e-001 2.870474e-001 4.318979e-001
<GCONST> 1.189507e+002
<STATE> 4
<MEAN> 39
 4.545220e+000 -2.333545e+001 1.467733e+001 -1.414479e+000 -4.307538e+000 3.533628e+000 -4.383353e+000 -2.062130e+000 -4.530211e+000 1.882580e+000 -3.048471e+000 1.239540e+000 7.133994e+001 1.793910e+000 -6.536478e-001 1.696837e+000 -1.024719e+000 4.329718e-001 -2.970802e-001 -4.957100e-001 -1.337770e+000 -1.161926e+000 -1.342209e-001 -2.614304e-001 -1.217780e-002 3.444018e+000 3.090601e-001 1.310058e+000 -9.382682e-001 6.437990e-001 -4.203256e-001 -5.773413e-001 9.298497e-002 -4.477789e-001 -1.397593e-001 -5.617251e-001 -7.392189e-002 -3.671750e-001 -7.400026e-001
<VARIANCE> 39
 3.762143e+001 3.899258e+001 3.763421e+001 1.265132e+002 3.789566e+001 5.788280e+001 4.221212e+001 3.691828e+001 2.928052e+001 3.932376e+001 3.054882e+001 1.496501e+001 1.835616e+001 6.062879e+000 9.912159e+000 8.819586e+000 7.398571e+000 4.639499e+000 6.230840e+000 4.948033e+000 6.669490e+000 2.838962e+000 5.683916e+000 3.385939e+000 2.471349e+000 4.006982e+000 5.449234e-001 9.767549e-001 1.030962e+000 9.552761e-001 8.256888e-001 8.450968e-001 8.519431e-001 1.018667e+000 5.720839e-001 9.924490e-001 6.096911e-001 4.802319e-001 6.373622e-001
<GCONST> 1.366010e+002
<TRANSP> 5
 0.000000e+000 1.000000e+000 0.000000e+000 0.000000e+000 0.000000e+000
 0.000000e+000 7.152046e-001 2.847954e-001 0.000000e+000 0.000000e+000
 0.000000e+000 0.000000e+000 5.468413e-001 4.531586e-001 0.000000e+000
 0.000000e+000 0.000000e+000 0.000000e+000 5.737419e-001 4.262581e-001
 0.000000e+000 0.000000e+000 0.000000e+000 0.000000e+000 0.000000e+000
<ENDHMM>
~h "u"
<BEGINHMM>
<NUMSTATES> 5
<STATE> 2
<MEAN> 39
 1.284615e+001 -1.031420e+001 1.058032e+001 -5.915812e-001 -1.037616e+001 -5.538476e+000 -3.949863e+000 -2.737303e+000 -9.591191e+000 -9.658408e+000 -9.724464e+000 -5.235540e+000 7.076635e+001 3.368999e-001 5.108486e-001 -3.010988e-001 -8.901389e-002 -5.253521e-001 -4.394439e-001 1.268976e-001 -1.040988e-001 -3.048045e-001 -7.836501e-001 -5.742010e-001 -2.227069e-001 5.559682e-002 -4.681619e-001 -1.191865e-001 1.524578e-001 3.556779e-001 5.587854e-001 5.048534e-001 -7.577805e-003 5.435898e-002 3.532344e-001 5.899660e-001 3.805869e-001 1.321879e-001 -3.568584e-001
<VARIANCE> 39
 2.443277e+001 5.787156e+001 2.737894e+001 1.417955e+002 4.889610e+001 9.695312e+001 4.901585e+001 4.444484e+001 6.772259e+001 3.715069e+001 4.272369e+001 2.581693e+001 1.307980e+001 1.505080e+000 4.179213e+000 3.568813e+000 3.251531e+000 4.309686e+000 4.579070e+000 3.750876e+000 5.010004e+000 3.534534e+000 4.005412e+000 3.288100e+000 2.577023e+000 1.469595e+000 2.698565e-001 8.133606e-001 6.280358e-001 6.742476e-001 5.798457e-001 8.964243e-001 7.169401e-001 6.870367e-001 6.891017e-001 7.197860e-001 6.518249e-001 4.889596e-001 3.523655e-001
<GCONST> 1.295054e+002
<STATE> 3
<MEAN> 39
 1.199191e+001 -1.090582e+001 1.101283e+001 2.192780e+000 -7.910164e+000 -1.873461e+000 -3.581359e+000 -3.810370e+000 -8.644763e+000 -7.847276e+000 -8.166930e+000 -3.800657e+000 6.972713e+001 -7.895367e-001 -5.032478e-003 4.900453e-001 8.015011e-001 1.019332e+000 1.016404e+000 1.354468e-001 -3.917487e-002 3.589036e-001 8.430072e-001 5.865735e-001 2.275962e-001 -6.115506e-001 -5.348640e-001 -2.237701e-001 1.575288e-001 2.829219e-001 4.625480e-001 3.713810e-001 -1.331189e-002 2.675828e-001 4.472464e-001 5.583876e-001 3.978191e-001 5.500080e-002 -3.363040e-001
<VARIANCE> 39
 3.832234e+001 7.187244e+001 4.387136e+001 1.323865e+002 5.562479e+001 9.699400e+001 4.961687e+001 5.274040e+001 7.220659e+001 3.825697e+001 4.989199e+001 2.602360e+001 1.997754e+001 1.692370e+000 5.185977e+000 4.672300e+000 4.218987e+000 4.533267e+000 4.863858e+000 4.418463e+000 5.218346e+000 3.145348e+000 3.532757e+000 2.736826e+000 2.501927e+000 2.560219e+000 3.204656e-001 8.161433e-001 7.865591e-001 5.794412e-001 6.697276e-001 8.802764e-001 7.365673e-001 7.455334e-001 6.407408e-001 5.506738e-001 6.750669e-001 4.897492e-001 3.063031e-001
<GCONST> 1.328855e+002
<STATE> 4
<MEAN> 39
 1.004640e+001 -1.116487e+001 1.201964e+001 4.094251e+000 -5.786561e+000 3.371691e-001 -3.356820e+000 -3.266705e+000 -7.197603e+000 -5.680467e+000 -6.317424e+000 -3.293999e+000 6.827420e+001 -1.373987e+000 -4.346334e-001 5.645679e-001 9.898908e-001 1.394802e+000 1.323218e+000 2.034721e-001 4.674984e-001 8.891683e-001 1.276125e+000 8.976610e-001 2.543574e-001 -9.056859e-001 -2.366420e-001 -2.507155e-001 -7.523656e-002 -8.717194e-002 1.776575e-002 -5.802353e-002 -6.885143e-002 1.708522e-001 1.800254e-001 1.119986e-001 8.818463e-002 4.061719e-003 -7.134626e-002
<VARIANCE> 39
 3.976475e+001 7.885965e+001 5.818626e+001 1.185693e+002 5.725274e+001 8.602451e+001 4.839404e+001 5.945773e+001 6.158831e+001 3.343570e+001 4.628276e+001 2.767669e+001 3.260167e+001 2.523061e+000 6.366970e+000 4.982073e+000 4.588278e+000 4.108083e+000 5.322396e+000 4.372802e+000 3.609382e+000 3.000112e+000 3.331619e+000 3.259532e+000 2.461621e+000 3.063792e+000 2.308204e-001 6.142861e-001 6.814767e-001 6.238397e-001 6.607085e-001 7.297525e-001 6.572896e-001 8.686332e-001 5.553134e-001 4.947269e-001 4.973291e-001 4.350485e-001 2.905086e-001
<GCONST> 1.323999e+002
<TRANSP> 5
 0.000000e+000 1.000000e+000 0.000000e+000 0.000000e+000 0.000000e+000
 0.000000e+000 5.304856e-001 4.695144e-001 0.000000e+000 0.000000e+000
 0.000000e+000 0.000000e+000 8.608483e-002 9.139152e-001 0.000000e+000
 0.000000e+000 0.000000e+000 0.000000e+000 1.670734e-001 8.329265e-001
 0.000000e+000 0.000000e+000 0.000000e+000 0.000000e+000 0.000000e+000
<ENDHMM>
~h "v"
<BEGINHMM>
<NUMSTATES> 5
<STATE> 2
<MEAN> 39
 9.954667e+000 -1.382822e+001 1.523704e+001 5.062731e+000 -2.007210e+000 7.660207e+000 -6.118348e+000 -8.889955e-001 -5.431559e+000 -4.886641e+000 -3.813712e+000 -3.942551e+000 6.809573e+001 -1.358256e+000 -1.474313e+000 1.715741e+000 -7.554595e-002 1.228081e+000 1.315154e+000 -2.849207e-001 1.259184e+000 1.548203e-001 4.894323e-001 6.371942e-001 1.152205e-001 -1.357055e-001 1.359884e-001 -1.456117e-001 -2.874227e-001 -1.008878e-001 -8.028857e-002 -4.595923e-001 -7.844469e-002 -4.493445e-001 -1.492967e-001 1.480746e-001 7.943504e-002 4.378550e-002 3.244890e-001
<VARIANCE> 39
 1.924575e+001 2.432183e+001 2.385347e+001 8.675910e+001 2.562822e+001 5.051301e+001 1.729836e+001 2.741923e+001 2.460692e+001 1.804176e+001 4.824773e+001 1.624643e+001 5.660979e+000 5.993500e-001 1.749125e+000 1.586860e+000 1.391000e+000 1.952658e+000 1.939470e+000 1.791368e+000 2.393772e+000 1.394572e+000 2.168915e+000 1.536353e+000 9.994428e-001 5.271412e-001 1.324671e-001 3.281809e-001 2.328114e-001 2.805610e-001 2.655811e-001 4.150826e-001 2.852175e-001 4.027320e-001 2.356688e-001 3.523552e-001 2.573742e-001 1.848054e-001 1.207801e-001
<GCONST> 9.992297e+001
<STATE> 3
<MEAN> 39
 5.446232e+000 -2.003565e+001 1.961289e+001 2.968547e+000 2.512863e+000 7.986039e+000 -7.680327e+000 3.214460e-001 -6.900898e+000 -2.436361e+000 -3.088883e+000 -3.226483e+000 6.969173e+001 4.051174e-001 2.563143e-002 -3.579715e-001 3.572332e-001 -1.238802e-001 -9.992733e-001 -3.068973e-001 -1.042103e+000 -1.426726e-001 5.964181e-002 -2.398605e-001 -7.989948e-002 4.686695e-001 5.895440e-001 5.833604e-001 -6.484895e-001 2.368690e-001 -5.915177e-001 -8.294103e-001 -1.061888e-001 -5.884370e-001 7.494520e-002 -1.424423e-001 -2.388605e-001 -1.819385e-001 1.076757e-001
<VARIANCE> 39
 2.025109e+001 1.973447e+001 2.399072e+001 1.052258e+002 2.686618e+001 6.817014e+001 1.909763e+001 2.800801e+001 2.593035e+001 2.511969e+001 7.515566e+001 1.268002e+001 5.430659e+000 1.282683e+000 1.858171e+000 1.812266e+000 1.834151e+000 2.064343e+000 2.453758e+000 1.266136e+000 2.213808e+000 9.566419e-001 1.353506e+000 1.286318e+000 1.081109e+000 4.231929e-001 1.354876e-001 2.808914e-001 3.175785e-001 3.208428e-001 4.132927e-001 4.322859e-001 3.370425e-001 4.453238e-001 2.199458e-001 4.660479e-001 3.397160e-001 1.978472e-001 8.957851e-002
<GCONST> 1.022166e+002
<STATE> 4
<MEAN> 39
 1.120522e+001 -1.503433e+001 1.483984e+001 1.078140e+001 -3.723891e-001 3.429709e+000 -9.157791e+000 -6.906300e+000 -5.184019e+000 -2.991220e+000 -5.192961e+000 -5.210640e+000 7.032050e+001 1.379646e+000 1.163040e+000 -1.466466e+000 6.778595e-001 -1.344556e+000 -2.578126e+000 -4.835403e-001 -2.204054e+000 2.586606e-001 4.892921e-001 -7.633083e-001 -5.282270e-001 6.578967e-001 -1.492001e-001 -1.325827e-001 4.544829e-002 -2.176277e-001 -9.050900e-002 -2.665450e-003 4.737262e-002 1.411368e-001 6.942036e-003 9.604362e-002 1.640984e-001 6.110372e-002 4.274742e-002
<VARIANCE> 39
 2.132347e+001 1.727977e+001 3.141293e+001 2.123706e+002 4.783673e+001 7.036890e+001 1.634629e+001 4.586532e+001 3.568311e+001 1.569519e+001 4.325006e+001 1.838925e+001 7.706547e+000 1.486646e+000 3.149577e+000 3.109047e+000 3.973270e+000 3.658256e+000 4.063825e+000 2.492382e+000 4.549672e+000 1.625280e+000 3.642702e+000 3.609273e+000 1.374257e+000 7.401679e-001 1.477302e-001 2.905976e-001 3.465834e-001 3.783231e-001 3.153503e-001 3.994843e-001 2.943299e-001 4.266684e-001 2.861206e-001 3.273824e-001 3.475601e-001 2.236575e-001 6.243051e-002
<GCONST> 1.114239e+002
<TRANSP> 5
 0.000000e+000 1.000000e+000 0.000000e+000 0.000000e+000 0.000000e+000
 0.000000e+000 7.050759e-001 2.949242e-001 0.000000e+000 0.000000e+000
 0.000000e+000 0.000000e+000 6.888340e-001 3.111661e-001 0.000000e+000
 0.000000e+000 0.000000e+000 0.000000e+000 5.187125e-001 4.812875e-001
 0.000000e+000 0.000000e+000 0.000000e+000 0.000000e+000 0.000000e+000
<ENDHMM>
~h "w"
<BEGINHMM>
<NUMSTATES> 5
<STATE> 2
<MEAN> 39
 1.623862e+001 -5.003428e+000 6.033294e+000 -3.806282e+000 -1.809824e+001 -9.799598e+000 -4.296515e+000 -9.414552e-001 -3.110407e+000 -5.090691e+000 -5.629747e+000 -4.996000e+000 7.141860e+001 -1.271030e-002 8.119804e-001 6.103374e-001 4.529739e-001 -3.282235e-001 -6.378011e-001 -4.742619e-001 1.650530e-001 8.028617e-002 2.080262e-001 1.859004e-001 -2.916088e-001 -5.751933e-001 -8.676609e-002 -1.702800e-001 4.308448e-002 1.548280e-001 2.995076e-001 3.045152e-001 5.465123e-002 -2.129340e-001 -1.349369e-001 9.488458e-002 7.674796e-002 7.947247e-002 -4.962995e-002
<VARIANCE> 39
