~o
<STREAMINFO> 1 39
<VECSIZE> 39<NULLD><MFCC_D_A_0><DIAGC>
~h "E"
<BEGINHMM>
<NUMSTATES> 5
<STATE> 2
<MEAN> 39
 1.096447e+001 -1.707721e+001 7.742473e+000 4.154859e+000 -4.170963e+000 -4.178265e+000 -1.263999e+001 -1.243600e+001 -4.049945e+000 2.565299e+000 -1.002542e+000 -3.617952e+000 7.167205e+001 6.190230e-001 -9.723306e-001 -1.903203e-001 5.177048e-002 2.648249e-001 -1.027572e+000 -5.770416e-001 -9.586090e-001 4.778815e-001 1.029975e+000 3.740083e-001 -3.230360e-001 1.459627e+000 -1.737056e-001 1.027111e-001 -1.600275e-003 -9.472611e-002 -2.574075e-002 1.992902e-001 3.325171e-001 3.971584e-001 2.959411e-003 -2.600821e-001 -7.662024e-002 7.327372e-002 -2.142226e-001
<VARIANCE> 39
 2.792805e+001 2.237000e+001 2.574067e+001 1.291380e+002 2.499968e+001 1.044704e+002 2.941331e+001 7.772299e+001 2.927697e+001 2.523946e+001 1.910845e+001 1.492593e+001 6.359037e+001 1.823781e+000 1.523079e+000 2.300552e+000 1.858267e+000 1.966180e+000 3.064631e+000 2.635377e+000 3.148512e+000 2.173485e+000 2.427340e+000 1.584699e+000 1.299580e+000 2.475579e+000 3.205194e-001 3.124705e-001 3.656671e-001 3.256035e-001 3.256175e-001 4.506372e-001 4.430627e-001 6.060213e-001 2.886608e-001 3.388342e-001 3.769205e-001 2.354282e-001 4.006972e-001
<GCONST> 1.145907e+002
<STATE> 3
<MEAN> 39
 1.238867e+001 -2.054432e+001 6.509239e+000 7.384472e-001 -3.041955e+000 -8.853034e+000 -1.359068e+001 -1.344923e+001 -3.682734e+000 3.584466e+000 9.772418e-002 -4.673726e+000 7.805458e+001 7.928003e-002 -5.105204e-002 -3.279648e-001 -4.961441e-001 -2.425991e-001 2.967064e-001 2.326948e-001 -1.414345e-001 -1.805295e-001 3.830318e-002 9.236816e-002 -2.429182e-002 1.394972e-001 -8.747990e-003 2.272522e-001 6.278451e-002 -9.786452e-002 -6.770948e-002 3.514388e-001 2.100610e-001 1.486873e-001 -1.922698e-001 -2.124059e-001 -1.087888e-001 8.063047e-002 -2.147477e-001
<VARIANCE> 39
 1.336934e+001 1.752758e+001 3.183929e+001 1.537780e+002 2.315504e+001 1.173066e+002 2.103376e+001 6.014762e+001 2.148795e+001 2.790532e+001 1.981176e+001 1.972377e+001 1.239363e+001 2.880846e-001 6.075002e-001 1.194705e+000 1.633231e+000 1.138903e+000 1.723975e+000 1.715182e+000 1.329126e+000 1.310229e+000 1.061720e+000 1.125404e+000 9.646540e-001 3.832140e-001 7.113038e-002 1.349413e-001 2.130141e-001 2.176283e-001 2.011301e-001 2.425328e-001 3.179232e-001 2.684464e-001 1.936147e-001 2.097702e-001 1.982796e-001 1.382583e-001 1.059169e-001
<GCONST> 9.319463e+001
<STATE> 4
<MEAN> 39
 1.390643e+001 -1.829316e+001 5.159247e+000 -2.263960e+000 -5.858057e+000 -1.977181e+000 -9.613073e+000 -1.405298e+001 -7.341387e+000 1.634937e+000 -1.798750e-001 -3.559877e+000 7.669854e+001 5.843620e-002 1.088368e+000 3.609823e-001 -4.425401e-001 -3.734452e-001 1.421846e+000 1.199560e+000 1.096865e+000 -5.390169e-001 -1.210634e+000 -8.650801e-001 2.829151e-001 -8.819200e-001 -2.817632e-001 1.629771e-001 3.936662e-001 3.799420e-001 2.509043e-001 8.467996e-002 3.693621e-002 5.835485e-001 3.304749e-001 -1.133283e-001 -1.930731e-001 -2.133925e-002 -3.636694e-001
<VARIANCE> 39
 1.719050e+001 2.214101e+001 2.792350e+001 1.464070e+002 3.520122e+001 1.382310e+002 5.449176e+001 7.992652e+001 2.729653e+001 4.731235e+001 2.830281e+001 4.096637e+001 1.571182e+001 5.828910e-001 1.274107e+000 2.458475e+000 3.366907e+000 2.403941e+000 2.458254e+000 3.635949e+000 3.169075e+000 2.184388e+000 2.282642e+000 1.816220e+000 1.564849e+000 9.758860e-001 1.762356e-001 3.053543e-001 4.048079e-001 3.694640e-001 4.049550e-001 5.608202e-001 5.911334e-001 5.816240e-001 3.863139e-001 3.990405e-001 3.707717e-001 4.099409e-001 1.656272e-001
<GCONST> 1.155174e+002
<TRANSP> 5
 0.000000e+000 1.000000e+000 0.000000e+000 0.000000e+000 0.000000e+000
 0.000000e+000 6.189405e-001 3.810595e-001 0.000000e+000 0.000000e+000
 0.000000e+000 0.000000e+000 8.130667e-001 1.869333e-001 0.000000e+000
 0.000000e+000 0.000000e+000 0.000000e+000 6.872587e-001 3.127413e-001
 0.000000e+000 0.000000e+000 0.000000e+000 0.000000e+000 0.000000e+000
<ENDHMM>
~h "J"
<BEGINHMM>
<NUMSTATES> 5
<STATE> 2
<MEAN> 39
 1.017641e+001 -1.695234e+001 1.506283e+001 9.553901e+000 -2.629975e+000 -1.636076e+001 -1.369491e+001 -4.417836e+000 -3.343887e+000 -6.220863e+000 -8.416299e+000 -8.601882e+000 7.451491e+001 -2.656473e-001 -2.631306e-001 7.116914e-001 7.814134e-001 2.777888e-001 -9.531164e-001 -4.932563e-001 4.668342e-001 8.486671e-001 1.753490e-001 -4.727307e-001 -5.164829e-001 7.423349e-002 1.192375e-001 8.143756e-002 -2.538009e-001 -4.016340e-001 -1.308470e-001 4.617105e-001 2.398002e-001 -1.323025e-001 -2.906273e-001 -6.142730e-002 1.538151e-001 2.485134e-001 1.749145e-002
<VARIANCE> 39
 2.355104e+001 2.463091e+001 2.469771e+001 1.202627e+002 1.632177e+001 1.350564e+002 2.222004e+001 2.759590e+001 5.797197e+001 3.037634e+001 1.615965e+001 1.230739e+001 1.015769e+001 3.908428e-001 1.743297e+000 1.862276e+000 2.196942e+000 1.561023e+000 2.721843e+000 1.758718e+000 2.643985e+000 1.781344e+000 1.775210e+000 1.616752e+000 1.910405e+000 7.514880e-001 5.449750e-002 2.139060e-001 2.480756e-001 2.796247e-001 2.926581e-001 4.082788e-001 3.687342e-001 5.942265e-001 3.574913e-001 4.342144e-001 2.963797e-001 2.319490e-001 5.665371e-002
<GCONST> 1.030663e+002
<STATE> 3
<MEAN> 39
 1.100097e+001 -1.682430e+001 1.665971e+001 1.268948e+001 -2.715251e+000 -1.425514e+001 -1.482885e+001 -3.444098e+000 -4.525465e-001 -3.720415e+000 -7.318277e+000 -8.721737e+000 7.428709e+001 2.575220e-001 -8.410257e-002 -6.609877e-001 -8.095074e-001 1.513292e-001 1.144768e+000 -1.065626e-001 -1.026647e+000 -4.595288e-001 7.149737e-001 8.357361e-001 3.520145e-001 9.495736e-002 7.477634e-002 7.971756e-002 -1.856719e-001 -2.948237e-001 -2.317457e-002 4.163391e-001 2.110019e-001 -2.335172e-001 -3.253635e-001 6.446577e-003 2.020742e-001 1.918020e-001 -2.095305e-002
<VARIANCE> 39
 1.800305e+001 1.712061e+001 2.013167e+001 1.215138e+002 1.733891e+001 9.818618e+001 1.734297e+001 4.814251e+001 4.779573e+001 2.589806e+001 1.632180e+001 1.423283e+001 1.279407e+001 2.938069e-001 5.989932e-001 1.507534e+000 1.583332e+000 5.504974e-001 1.999994e+000 1.195876e+000 1.780865e+000 1.457668e+000 1.351966e+000 1.471539e+000 8.795498e-001 3.234194e-001 3.045070e-002 1.225140e-001 1.914948e-001 2.057998e-001 1.381728e-001 2.686825e-001 2.742242e-001 3.274397e-001 2.469115e-001 2.661884e-001 2.170042e-001 1.702489e-001 4.273781e-002
<GCONST> 9.058614e+001
<STATE> 4
<MEAN> 39
 1.209687e+001 -1.393052e+001 1.289241e+001 9.123762e+000 -1.454522e+000 -3.672142e+000 -1.198557e+001 -4.511642e+000 -9.239852e-001 -2.019284e+000 -2.412790e+000 -3.977648e+000 7.152344e+001 3.078237e-001 2.677719e-001 -8.176247e-001 -1.382923e+000 -1.058432e-001 1.916891e+000 8.425190e-001 -6.369266e-001 -1.080832e+000 -1.736031e-001 7.015123e-001 1.048118e+000 -9.649892e-002 -6.256481e-002 8.047421e-002 1.524562e-001 1.313711e-001 -8.287393e-002 -6.674752e-002 2.108537e-001 2.866644e-001 -3.979790e-003 -2.975852e-001 -3.141650e-001 9.850426e-003 -7.739624e-002
<VARIANCE> 39
 1.124788e+001 3.555172e+001 1.594261e+001 1.073917e+002 2.231053e+001 1.072136e+002 2.507161e+001 8.607452e+001 8.339774e+001 3.814339e+001 2.321185e+001 2.808625e+001 3.482376e+001 2.500262e-001 6.477615e-001 1.189545e+000 1.948683e+000 1.197155e+000 2.278787e+000 2.315974e+000 2.249806e+000 1.841500e+000 2.083716e+000 1.653777e+000 1.438028e+000 2.541220e-001 3.050364e-002 1.246616e-001 1.818295e-001 1.617474e-001 2.146897e-001 3.006412e-001 3.329207e-001 4.005015e-001 2.225998e-001 3.348419e-001 3.338368e-001 1.891790e-001 5.181678e-002
<GCONST> 9.900916e+001
<TRANSP> 5
 0.000000e+000 1.000000e+000 0.000000e+000 0.000000e+000 0.000000e+000
 0.000000e+000 7.561784e-001 2.438216e-001 0.000000e+000 0.000000e+000
 0.000000e+000 0.000000e+000 7.181092e-001 2.818908e-001 0.000000e+000
 0.000000e+000 0.000000e+000 0.000000e+000 6.726933e-001 3.273068e-001
 0.000000e+000 0.000000e+000 0.000000e+000 0.000000e+000 0.000000e+000
<ENDHMM>
~h "L"
<BEGINHMM>
<NUMSTATES> 5
<STATE> 2
<MEAN> 39
 1.139125e+001 -1.553917e+001 1.103677e+001 6.029174e+000 1.942950e+000 -6.536653e+000 -1.046184e+001 -6.286290e+000 -7.459668e+000 -5.075271e+000 -2.906098e+000 -3.145094e+000 7.267191e+001 -5.669418e-001 8.052147e-001 1.265471e+000 2.147563e+000 1.529423e+000 5.000312e-001 1.568388e-001 5.262828e-001 -4.693213e-001 -1.477935e+000 -9.314502e-001 -8.105044e-002 -1.224796e+000 -3.542635e-002 4.731470e-002 -2.653141e-002 -3.576817e-002 -2.256778e-001 2.177541e-001 3.300886e-001 8.855166e-002 1.766578e-001 3.481060e-002 -2.785093e-001 -1.536009e-001 -5.317473e-002
<VARIANCE> 39
 2.182073e+001 2.414047e+001 8.427330e+001 1.161184e+002 3.462644e+001 1.261062e+002 2.873609e+001 3.266935e+001 5.340508e+001 4.686118e+001 5.458978e+001 3.245523e+001 1.607758e+001 5.271652e-001 9.238368e-001 1.992148e+000 3.795490e+000 4.644722e+000 3.401359e+000 3.836675e+000 3.547872e+000 5.849954e+000 3.394523e+000 4.340933e+000 1.218961e+000 6.212973e-001 8.557440e-002 1.678712e-001 4.190862e-001 3.695701e-001 4.391384e-001 5.232510e-001 6.602830e-001 4.078085e-001 6.956676e-001 5.659198e-001 6.397654e-001 2.291651e-001 1.326982e-001
<GCONST> 1.175318e+002
<STATE> 3
<MEAN> 39
 1.103455e+001 -1.273711e+001 1.265210e+001 1.904303e+001 5.213918e+000 1.696623e-001 -9.847612e+000 -4.587902e+000 -3.635476e+000 -8.011732e+000 -5.392675e+000 -3.740113e+000 6.786031e+001 1.637826e-001 -3.016807e-001 -6.278946e-001 -2.158566e-002 -4.728573e-003 -3.787677e-001 -5.502833e-001 -4.641780e-002 3.804831e-001 1.388946e-001 3.066684e-001 -1.870115e-001 1.672061e-001 2.023260e-001 -2.396561e-001 -3.339218e-001 -5.264179e-001 -3.265440e-001 -3.245257e-001 -2.231740e-001 -3.835072e-001 -1.646613e-001 4.537832e-001 4.316933e-001 -2.086389e-002 3.595148e-001
<VARIANCE> 39
 8.672452e+000 2.380068e+001 2.274717e+001 8.298501e+001 3.118679e+001 1.398319e+002 2.670255e+001 2.931381e+001 7.106884e+001 2.407831e+001 2.515792e+001 2.324251e+001 1.611782e+001 4.915256e-001 1.399835e+000 2.128500e+000 2.637817e+000 1.781497e+000 4.651391e+000 2.334637e+000 2.820383e+000 3.604676e+000 2.459746e+000 2.938550e+000 1.362602e+000 1.195506e+000 6.211423e-002 2.636833e-001 3.625334e-001 4.219177e-001 4.430052e-001 7.892712e-001 5.093541e-001 5.224979e-001 8.561234e-001 4.823994e-001 5.171010e-001 2.531793e-001 1.532526e-001
<GCONST> 1.121314e+002
<STATE> 4
<MEAN> 39
 1.341137e+001 -1.401099e+001 6.358323e+000 1.173964e+001 2.988396e+000 -3.054942e-001 -1.356440e+001 -9.022778e+000 -3.920065e+000 -2.337191e+000 1.286012e+000 -2.765863e+000 6.961915e+001 2.317495e-001 2.333757e-001 -6.994265e-001 -1.543861e+000 -1.050137e+000 5.131036e-001 4.257937e-001 -6.822808e-001 -4.418511e-001 7.743785e-001 7.784315e-001 3.751904e-001 1.099931e-001 -1.566077e-001 2.379175e-001 1.980944e-001 2.632086e-002 -1.401944e-001 3.047573e-001 5.293601e-001 2.872043e-001 7.912756e-002 -1.937461e-001 -3.725648e-001 1.094953e-001 -2.691388e-001
<VARIANCE> 39
 1.187916e+001 2.437873e+001 2.235142e+001 9.472197e+001 3.469789e+001 1.224177e+002 3.000418e+001 5.699720e+001 5.535749e+001 2.890038e+001 2.611392e+001 2.040445e+001 2.861837e+001 3.997588e-001 1.428985e+000 1.352984e+000 2.487320e+000 2.575722e+000 3.280212e+000 3.788049e+000 4.145283e+000 3.605373e+000 2.896127e+000 2.906990e+000 1.436417e+000 9.567674e-001 5.003349e-002 2.337273e-001 2.219265e-001 3.215239e-001 3.069942e-001 5.122264e-001 4.397199e-001 5.091985e-001 6.878706e-001 3.961270e-001 4.286888e-001 2.601865e-001 7.844402e-002
<GCONST> 1.106101e+002
<TRANSP> 5
 0.000000e+000 1.000000e+000 0.000000e+000 0.000000e+000 0.000000e+000
 0.000000e+000 7.139426e-001 2.860574e-001 0.000000e+000 0.000000e+000
 0.000000e+000 0.000000e+000 8.128386e-001 1.871613e-001 0.000000e+000
 0.000000e+000 0.000000e+000 0.000000e+000 7.732884e-001 2.267117e-001
 0.000000e+000 0.000000e+000 0.000000e+000 0.000000e+000 0.000000e+000
<ENDHMM>
~h "O"
<BEGINHMM>
<NUMSTATES> 5
<STATE> 2
<MEAN> 39
 1.731921e+001 -6.083955e+000 3.923097e+000 -6.618634e+000 -1.797583e+001 -5.658747e+000 -2.424718e+000 -1.408517e+000 -2.159750e-001 -1.317623e+000 -4.835834e+000 -4.484489e+000 7.305553e+001 1.066749e-001 -1.613647e-001 -6.280140e-001 -4.566470e-001 -6.537421e-001 -2.870675e-002 5.735024e-001 6.923874e-002 2.580157e-001 1.493670e-001 -1.963466e-001 1.248407e-002 1.896880e-001 -1.885300e-001 -2.790552e-001 1.479009e-001 2.178843e-001 3.524264e-001 3.567254e-001 7.391748e-002 -6.693104e-002 -1.442532e-001 -2.127526e-002 1.473513e-002 9.805067e-002 -9.410449e-002
<VARIANCE> 39
 1.430250e+001 4.089112e+001 1.879985e+001 1.165643e+002 2.088700e+001 4.086757e+001 2.859196e+001 7.704562e+001 3.779772e+001 7.836215e+001 3.080077e+001 1.490723e+001 1.393114e+001 4.054342e-001 1.336466e+000 1.597379e+000 1.208918e+000 1.634565e+000 1.714447e+000 1.415072e+000 1.704022e+000 1.510109e+000 1.615434e+000 1.325227e+000 9.612235e-001 3.410148e-001 1.449460e-001 2.697264e-001 2.317545e-001 2.577856e-001 2.588001e-001 2.909778e-001 2.566234e-001 3.309305e-001 1.879174e-001 2.836651e-001 2.254266e-001 1.829019e-001 7.333164e-002
<GCONST> 9.911420e+001
<STATE> 3
<MEAN> 39
 1.556455e+001 -1.258609e+001 5.585041e-001 -1.115135e+001 -1.607085e+001 -4.292459e+000 1.163473e+000 -9.740059e-001 -4.641448e+000 -5.225365e+000 -6.427048e+000 -3.475979e+000 7.554160e+001 -1.860109e-001 -9.287264e-001 5.568034e-002 1.657738e-001 8.674967e-001 8.450508e-001 1.461801e-001 -1.081408e+000 -1.064985e+000 5.585572e-002 4.385520e-001 4.553153e-001 1.391824e-001 -8.794685e-002 3.988148e-002 3.538015e-001 2.430991e-001 3.608795e-001 3.028417e-003 -4.206145e-001 -2.162865e-001 -9.948859e-002 1.434495e-001 1.970477e-001 6.284295e-002 -1.066000e-001
<VARIANCE> 39
 1.790774e+001 3.037363e+001 1.892802e+001 1.134501e+002 3.106934e+001 5.018854e+001 3.548389e+001 8.485851e+001 3.506999e+001 7.110182e+001 2.907622e+001 2.156346e+001 1.131550e+001 2.251485e-001 9.404343e-001 1.664045e+000 9.463584e-001 1.564269e+000 1.421842e+000 1.797492e+000 2.015417e+000 1.734248e+000 1.448726e+000 1.802042e+000 9.181215e-001 2.408547e-001 6.774063e-002 1.596352e-001 2.326424e-001 1.909348e-001 2.490667e-001 2.345381e-001 2.921222e-001 3.549174e-001 2.347758e-001 2.568716e-001 2.915475e-001 1.678734e-001 4.174584e-002
<GCONST> 9.693895e+001
<STATE> 4
<MEAN> 39
 1.516235e+001 -1.467465e+001 2.940415e+000 -7.679012e+000 -1.123245e+001 -1.553921e+000 -2.407428e+000 -8.347276e+000 -9.692385e+000 -2.991541e+000 -1.944265e+000 -1.729094e+000 7.541824e+001 -8.076391e-001 -3.599654e-001 1.783945e+000 1.262893e+000 1.867110e+000 6.019222e-001 -1.446004e+000 -7.685406e-001 -3.671056e-001 4.141878e-001 1.193016e-001 1.625822e-001 -4.506505e-001 -4.003597e-001 1.138573e-001 4.686272e-001 2.785818e-001 2.278704e-001 6.115623e-002 -3.901716e-002 6.628044e-001 4.910624e-001 -1.064546e-002 -3.327722e-001 -9.653517e-002 -2.918860e-001
<VARIANCE> 39
 2.087898e+001 3.191644e+001 3.377051e+001 1.387091e+002 4.865717e+001 6.648035e+001 5.634725e+001 7.661163e+001 5.009606e+001 4.204092e+001 3.190879e+001 2.277143e+001 1.072820e+001 1.268312e+000 2.380302e+000 4.786913e+000 1.573772e+000 2.837088e+000 2.597021e+000 3.497780e+000 5.847988e+000 2.825766e+000 3.369596e+000 2.578951e+000 1.434600e+000 7.827258e-001 2.849686e-001 5.542737e-001 5.233448e-001 3.250973e-001 6.080988e-001 6.191299e-001 7.715369e-001 6.964078e-001 5.040821e-001 3.822233e-001 4.504648e-001 2.489699e-001 1.745909e-001
<GCONST> 1.203587e+002
<TRANSP> 5
 0.000000e+000 1.000000e+000 0.000000e+000 0.000000e+000 0.000000e+000
 0.000000e+000 8.290703e-001 1.709297e-001 0.000000e+000 0.000000e+000
 0.000000e+000 0.000000e+000 7.259508e-001 2.740492e-001 0.000000e+000
 0.000000e+000 0.000000e+000 0.000000e+000 6.369660e-001 3.630340e-001
 0.000000e+000 0.000000e+000 0.000000e+000 0.000000e+000 0.000000e+000
<ENDHMM>
~h "S"
<BEGINHMM>
<NUMSTATES> 5
<STATE> 2
<MEAN> 39
 -2.893732e+000 -2.990923e+001 2.277099e+001 4.842760e+000 1.209894e+000 5.617513e-001 -4.849255e+000 -2.940230e-001 -3.580330e+000 2.776383e+000 -4.441009e+000 9.087680e-001 7.552211e+001 -2.908032e+000 -3.214561e+000 1.533967e+000 -1.376373e+000 9.289234e-002 2.085482e-001 9.433169e-001 1.613942e+000 5.536278e-001 1.217260e+000 5.178936e-001 9.480914e-001 1.161885e+000 5.360643e-001 6.450871e-001 -9.064075e-001 -5.021200e-002 -3.312492e-001 -2.368044e-001 -2.769949e-001 -4.477084e-001 -1.213405e-001 -2.354662e-001 5.303642e-002 -2.166186e-001 -3.514557e-001
<VARIANCE> 39
 5.118106e+001 4.805826e+001 6.748084e+001 1.616649e+002 2.599528e+001 7.459642e+001 5.997298e+001 3.318317e+001 4.865329e+001 4.461617e+001 4.670341e+001 1.501769e+001 1.539589e+001 2.411072e+000 3.531423e+000 5.751038e+000 3.516477e+000 2.667962e+000 2.988999e+000 5.677261e+000 3.565097e+000 1.829480e+000 2.502519e+000 2.059912e+000 1.614614e+000 1.086495e+000 5.152071e-001 8.925280e-001 6.516400e-001 7.891526e-001 3.838166e-001 4.956551e-001 8.309630e-001 6.421131e-001 3.724554e-001 4.395529e-001 4.165781e-001 2.583707e-001 2.506446e-001
<GCONST> 1.248049e+002
<STATE> 3
<MEAN> 39
 -7.200002e+000 -3.597774e+001 2.064398e+001 2.705338e+000 -1.054480e+000 4.809726e-001 -5.630954e+000 1.444196e+000 -1.987847e+000 4.025485e+000 -2.331384e+000 2.539790e+000 7.572720e+001 2.790343e-001 3.832511e-001 -3.520251e-001 -6.248715e-002 -3.959792e-002 3.251966e-001 -5.069968e-002 -2.425663e-001 -1.641249e-001 -1.554483e-002 3.467714e-001 5.837609e-002 -3.627000e-001 5.681749e-001 7.387637e-001 -2.461040e-001 3.745000e-001 3.929234e-002 1.570734e-001 -2.530397e-002 -1.879419e-001 -5.408115e-002 -2.422183e-001 -5.902207e-002 -1.412414e-001 -3.847425e-001
<VARIANCE> 39
 2.357395e+001 2.538903e+001 6.165239e+001 1.618411e+002 1.718826e+001 5.489226e+001 7.585213e+001 2.031580e+001 3.745328e+001 5.576538e+001 3.121267e+001 1.005031e+001 1.152534e+001 1.397456e+000 1.914645e+000 1.767697e+000 2.490440e+000 1.530367e+000 2.124102e+000 1.914443e+000 1.485933e+000 1.409637e+000 1.371497e+000 1.508356e+000 1.124198e+000 7.542999e-001 2.844515e-001 4.406566e-001 4.211527e-001 3.856070e-001 2.554141e-001 3.263732e-001 4.762776e-001 3.287468e-001 2.953257e-001 3.561586e-001 2.875103e-001 2.365686e-001 1.458567e-001
<GCONST> 1.078044e+002
<STATE> 4
<MEAN> 39
 -2.071888e+000 -2.789486e+001 1.629238e+001 4.518768e+000 -5.444959e-001 3.994361e+000 -4.318330e+000 -4.089154e-003 -2.709150e+000 2.314216e+000 -4.859373e-001 2.552707e+000 7.027297e+001 2.039223e+000 3.332296e+000 -1.949413e+000 1.212028e+000 -7.129781e-001 2.497752e-001 6.467672e-002 -7.394742e-001 2.741136e-002 -9.582755e-001 -2.382549e-001 -4.992291e-001 -2.271865e+000 2.690737e-002 1.236380e-001 -2.075630e-001 -9.176938e-004 -3.026194e-001 -4.696094e-001 -6.041350e-002 -1.378739e-001 -2.563611e-002 -1.145088e-001 -3.075381e-001 -1.629940e-001 -7.984653e-002
<VARIANCE> 39
 3.396247e+001 5.231477e+001 8.650222e+001 1.362816e+002 3.228119e+001 7.091338e+001 5.898528e+001 2.513546e+001 4.517503e+001 4.854891e+001 3.155534e+001 1.429111e+001 3.384368e+001 3.320385e+000 4.528804e+000 2.915426e+000 3.841337e+000 2.562635e+000 3.378276e+000 4.653938e+000 3.169283e+000 2.549940e+000 2.302483e+000 2.086250e+000 1.669640e+000 2.720582e+000 4.530917e-001 7.470823e-001 6.020773e-001 6.549460e-001 4.250590e-001 5.918708e-001 5.694479e-001 4.637255e-001 4.733981e-001 4.291857e-001 3.764970e-001 2.645163e-001 5.028259e-001
<GCONST> 1.255800e+002
<TRANSP> 5
 0.000000e+000 1.000000e+000 0.000000e+000 0.000000e+000 0.000000e+000
 0.000000e+000 6.722941e-001 3.277059e-001 0.000000e+000 0.000000e+000
 0.000000e+000 0.000000e+000 8.066934e-001 1.933065e-001 0.000000e+000
 0.000000e+000 0.000000e+000 0.000000e+000 5.935993e-001 4.064007e-001
 0.000000e+000 0.000000e+000 0.000000e+000 0.000000e+000 0.000000e+000
<ENDHMM>
~h "Z"
<BEGINHMM>
<NUMSTATES> 5
<STATE> 2
<MEAN> 39
 5.775957e+000 -2.218419e+001 1.834479e+001 7.432459e+000 6.980482e-001 5.605049e-001 -7.715135e+000 -4.722456e+000 -5.911852e+000 -2.135183e+000 -6.541370e+000 -1.368302e+000 7.335754e+001 -2.545754e+000 -3.325726e+000 4.352849e+000 -7.683212e-001 6.501591e-001 2.804351e-001 -6.679279e-002 1.157098e+000 -1.359800e-001 1.021043e+000 -2.075298e-001 5.781173e-001 1.701985e+000 5.435867e-002 4.615727e-001 -1.200803e-001 -3.922224e-003 -4.211271e-002 -1.853631e-002 1.260283e-001 -2.229599e-001 -2.111249e-001 5.989221e-002 1.790118e-001 -1.415990e-001 -9.806389e-002
<VARIANCE> 39
 3.901672e+001 2.743377e+001 6.180772e+001 1.762910e+002 2.666300e+001 9.865703e+001 6.328424e+001 5.651994e+001 8.137125e+001 3.387049e+001 4.158716e+001 1.655365e+001 1.271430e+001 1.439778e+000 4.938324e+000 3.068958e+000 4.430272e+000 1.432402e+000 3.285205e+000 6.051331e+000 3.923162e+000 2.818880e+000 2.592018e+000 2.782397e+000 1.451795e+000 2.705561e+000 4.203975e-001 1.201257e+000 8.055825e-001 4.924659e-001 3.894127e-001 4.791327e-001 1.106022e+000 8.748177e-001 4.739394e-001 5.757376e-001 4.036343e-001 3.211527e-001 2.402414e-001
<GCONST> 1.265849e+002
<STATE> 3
<MEAN> 39
 -2.044027e+000 -2.661946e+001 2.948656e+001 2.931986e+000 1.683851e+000 -8.196967e-001 -4.094079e+000 -2.835804e+000 -8.665150e+000 1.492825e+000 -8.049969e+000 -1.134347e+000 7.607860e+001 -8.112634e-001 -7.163534e-001 1.285349e+000 -1.038197e-001 2.932128e-001 -1.357544e-001 -2.957883e-001 2.542077e-002 -3.065380e-001 1.771669e-001 2.575590e-001 7.458614e-002 6.189395e-001 1.035540e+000 1.123787e+000 -1.413917e+000 4.329206e-001 -2.471828e-001 -1.391866e-001 -3.989942e-001 -5.577345e-001 1.151132e-002 -4.556547e-001 9.095059e-002 -2.265806e-001 -5.378323e-001
<VARIANCE> 39
 3.657271e+001 2.430532e+001 5.061691e+001 1.972281e+002 2.423340e+001 9.414783e+001 5.904391e+001 4.116729e+001 7.423538e+001 2.996837e+001 4.669441e+001 1.496706e+001 6.180160e+000 2.740145e+000 2.665242e+000 4.591939e+000 2.863248e+000 1.609219e+000 4.228634e+000 4.623145e+000 3.869563e+000 2.208029e+000 1.789057e+000 1.437645e+000 1.289485e+000 1.128563e+000 3.707873e-001 6.853262e-001 7.503491e-001 7.414139e-001 2.907697e-001 4.674305e-001 8.796970e-001 5.128026e-001 3.423274e-001 3.829789e-001 3.057519e-001 2.219808e-001 2.226395e-001
<GCONST> 1.197887e+002
<STATE> 4
<MEAN> 39
 2.462249e+000 -2.534458e+001 2.417025e+001 9.937045e+000 2.374717e+000 7.572294e-001 -8.450857e+000 -3.406227e+000 -5.815855e+000 -1.125463e+000 -5.376363e+000 -1.068241e+000 7.484039e+001 1.765587e+000 1.796120e+000 -1.898144e+000 4.170056e-001 -5.570623e-001 -4.903854e-001 -7.982968e-001 -1.242534e+000 -2.235382e-001 -6.721026e-001 1.321393e-002 -5.272102e-001 -5.627020e-001 3.627861e-001 4.909384e-001 -6.448106e-001 9.324207e-003 -1.309919e-001 -1.836534e-002 1.267910e-001 -9.532009e-002 1.270968e-001 -5.844815e-002 -6.440651e-002 -1.229250e-001 -2.746436e-001
<VARIANCE> 39
 3.577894e+001 4.680695e+001 5.778677e+001 1.504480e+002 3.172763e+001 1.411029e+002 3.901130e+001 4.357270e+001 7.399085e+001 2.573910e+001 4.634829e+001 1.826357e+001 1.035946e+001 2.668521e+000 3.499157e+000 5.036471e+000 2.498176e+000 1.788406e+000 2.816777e+000 3.477511e+000 3.331160e+000 1.859528e+000 1.845123e+000 1.409887e+000 1.124686e+000 9.038422e-001 3.883275e-001 5.515624e-001 8.169567e-001 3.661133e-001 2.940943e-001 4.624840e-001 4.719490e-001 4.877743e-001 3.499072e-001 3.179670e-001 2.930689e-001 2.179019e-001 1.619525e-001
<GCONST> 1.180935e+002
<TRANSP> 5
 0.000000e+000 1.000000e+000 0.000000e+000 0.000000e+000 0.000000e+000
 0.000000e+000 4.610154e-001 5.389847e-001 0.000000e+000 0.000000e+000
 0.000000e+000 0.000000e+000 6.031176e-001 3.968823e-001 0.000000e+000
 0.000000e+000 0.000000e+000 0.000000e+000 6.953954e-001 3.046046e-001
 0.000000e+000 0.000000e+000 0.000000e+000 0.000000e+000 0.000000e+000
<ENDHMM>
~h "a"
<BEGINHMM>
<NUMSTATES> 5
<STATE> 2
<MEAN> 39
 1.631702e+001 -1.496289e+001 9.027372e-001 -6.305922e+000 -1.122422e+001 3.367057e-001 -8.107510e-001 -7.378930e+000 -6.943630e+000 -1.383015e+000 -1.058887e+000 -1.577240e+000 7.621990e+001 2.744205e-001 -7.161369e-001 -1.385032e+000 -1.076118e+000 -5.912002e-001 3.606503e-001 1.209960e+000 -4.666342e-001 -1.923679e-001 5.060070e-001 5.424041e-001 1.136465e-001 8.138108e-001 -4.515511e-001 4.665616e-003 5.313164e-001 5.184479e-001 4.956033e-001 2.577551e-001 -2.120980e-001 1.879739e-001 1.333350e-001 1.798137e-003 -1.880208e-001 -1.465746e-001 -4.546675e-001
<VARIANCE> 39
 2.064393e+001 2.393431e+001 2.668114e+001 1.347133e+002 4.331296e+001 6.932597e+001 4.571704e+001 9.094024e+001 2.633155e+001 6.691060e+001 3.300312e+001 2.135736e+001 1.319656e+001 9.932499e-001 1.798455e+000 3.162318e+000 2.312633e+000 2.652408e+000 2.502943e+000 2.421592e+000 3.126235e+000 1.731630e+000 3.041909e+000 2.040749e+000 1.986059e+000 1.000633e+000 2.518496e-001 3.644883e-001 4.027248e-001 4.744264e-001 3.837143e-001 4.286204e-001 4.617752e-001 7.001332e-001 2.826084e-001 4.517527e-001 3.840168e-001 3.007680e-001 1.984328e-001
<GCONST> 1.157561e+002
<STATE> 3
<MEAN> 39
 1.536688e+001 -1.706982e+001 -8.442637e-001 -8.695132e+000 -9.998001e+000 2.018310e+000 5.151200e-001 -6.961067e+000 -6.539577e+000 -7.068936e-001 -7.829800e-001 -2.439118e+000 7.715028e+001 -1.138315e-001 -3.428663e-002 2.731920e-001 1.130501e-001 1.437853e-001 5.808223e-002 -2.871922e-001 -2.294153e-001 -1.063405e-002 1.063919e-001 -1.001906e-001 -1.493675e-001 -1.534700e-001 -3.586122e-002 2.028496e-001 3.250610e-001 2.387777e-001 1.309620e-001 -9.657492e-002 -3.015530e-001 4.692068e-002 2.455884e-002 -9.370741e-002 -1.098943e-001 -1.944832e-002 -2.013751e-001
<VARIANCE> 39
 1.801630e+001 2.117896e+001 3.033751e+001 1.381979e+002 5.548838e+001 5.383299e+001 3.996709e+001 8.912354e+001 2.344835e+001 8.166168e+001 2.970508e+001 2.908358e+001 9.646775e+000 2.397538e-001 8.106187e-001 1.277251e+000 1.017441e+000 1.147703e+000 1.251017e+000 1.536936e+000 1.504117e+000 9.367621e-001 1.522768e+000 1.333995e+000 7.439973e-001 2.582573e-001 6.484607e-002 1.507575e-001 2.496819e-001 2.241626e-001 2.393955e-001 2.160533e-001 2.316891e-001 2.747530e-001 1.713348e-001 2.757009e-001 2.121465e-001 1.707796e-001 7.434485e-002
<GCONST> 9.534933e+001
<STATE> 4
<MEAN> 39
 1.481769e+001 -1.539623e+001 2.606695e+000 -7.194956e+000 -9.267347e+000 -3.736107e-001 -4.010352e+000 -8.204759e+000 -7.381999e+000 -1.530334e+000 -1.853971e+000 -3.345502e+000 7.522543e+001 -3.967209e-001 1.099653e+000 1.507648e+000 1.606758e+000 9.409082e-001 8.690898e-002 -1.118595e+000 2.041973e-001 8.872505e-002 -4.298609e-001 -6.501511e-001 -1.722904e-001 -1.290599e+000 -2.688249e-001 1.918537e-001 2.384882e-001 4.791861e-001 3.266703e-001 3.039694e-001 1.808875e-001 4.141483e-001 1.387115e-001 -1.555730e-001 -1.277868e-001 4.159398e-002 -3.772018e-001
<VARIANCE> 39
 1.892774e+001 3.386218e+001 3.245018e+001 1.556466e+002 4.964953e+001 8.353282e+001 5.647955e+001 8.071098e+001 3.286539e+001 6.163060e+001 3.254530e+001 2.762077e+001 1.607414e+001 6.474289e-001 1.989535e+000 2.301843e+000 2.455532e+000 2.660124e+000 2.857085e+000 2.683901e+000 3.122643e+000 2.129437e+000 2.979776e+000 2.029601e+000 1.669860e+000 1.252236e+000 1.612989e-001 3.978944e-001 4.550781e-001 4.624332e-001 3.775380e-001 5.324050e-001 5.552241e-001 5.093262e-001 3.552999e-001 3.902021e-001 4.013004e-001 2.678525e-001 2.181625e-001
<GCONST> 1.171461e+002
<TRANSP> 5
 0.000000e+000 1.000000e+000 0.000000e+000 0.000000e+000 0.000000e+000
 0.000000e+000 5.692955e-001 4.307045e-001 0.000000e+000 0.000000e+000
 0.000000e+000 0.000000e+000 7.914814e-001 2.085186e-001 0.000000e+000
 0.000000e+000 0.000000e+000 0.000000e+000 5.431229e-001 4.568771e-001
 0.000000e+000 0.000000e+000 0.000000e+000 0.000000e+000 0.000000e+000
<ENDHMM>
~h "b"
<BEGINHMM>
<NUMSTATES> 5
<STATE> 2
<MEAN> 39
 1.398080e+001 -4.134567e+000 5.379241e+000 3.927518e+000 -4.721488e+000 3.457417e+000 -6.730871e-001 -2.982228e+000 -5.718204e+000 -5.207686e+000 -6.231051e+000 -6.383080e+000 6.527988e+001 -1.120651e+000 2.490770e+000 1.454947e+000 2.895894e+000 1.585872e+000 2.395495e+000 1.862148e+000 1.757418e+000 8.054019e-001 -1.632496e-001 -5.622973e-001 -3.269156e-001 -3.020168e+000 -1.442609e-001 -5.357662e-001 1.228494e-001 -6.200239e-002 -7.416436e-002 -3.314686e-001 -1.838487e-001 -2.042773e-001 4.583225e-002 1.541837e-001 1.718617e-001 1.674205e-001 3.895444e-001
<VARIANCE> 39
 1.174703e+001 2.645834e+001 3.485468e+001 8.780698e+001 2.718590e+001 3.532621e+001 3.492648e+001 4.246373e+001 3.556365e+001 2.537006e+001 3.050070e+001 2.188879e+001 1.908399e+001 1.019817e+000 2.216884e+000 1.775614e+000 4.570691e+000 3.076125e+000 3.519440e+000 2.756603e+000 4.421527e+000 2.323924e+000 1.979057e+000 2.086273e+000 1.547654e+000 1.312389e+000 1.420844e-001 2.874027e-001 3.505910e-001 8.254606e-001 4.418769e-001 6.089590e-001 5.188668e-001 4.329622e-001 3.285074e-001 2.700408e-001 2.644362e-001 3.460363e-001 3.618683e-001
<GCONST> 1.135569e+002
<STATE> 3
<MEAN> 39
 1.090841e+001 -2.115632e-001 9.457444e+000 1.243552e+001 -1.464671e+000 7.495104e+000 3.079571e+000 -6.032025e-001 -2.870400e+000 -4.600359e+000 -5.961933e+000 -5.312002e+000 5.957949e+001 -1.709058e-001 -2.543882e-001 2.168404e-001 1.777609e-001 1.484248e-001 -6.451882e-002 -1.436411e-001 -2.002428e-001 5.170539e-003 7.209736e-002 6.323688e-002 2.830001e-001 1.692595e-001 3.527799e-001 -7.264645e-001 -3.014305e-001 -7.439373e-001 -3.934796e-001 -6.415209e-001 -6.012851e-001 -4.965168e-001 -1.797174e-001 1.180499e-001 1.201889e-001 9.620150e-002 8.910608e-001
<VARIANCE> 39
 3.804814e+000 1.295922e+001 1.622854e+001 4.850266e+001 1.270524e+001 1.473434e+001 1.933269e+001 1.823928e+001 2.657585e+001 1.521894e+001 2.381482e+001 2.305429e+001 5.192651e+000 7.139441e-001 2.086743e+000 1.188449e+000 2.852323e+000 2.015265e+000 1.785627e+000 2.048051e+000 1.849932e+000 1.209300e+000 1.074029e+000 1.055889e+000 1.234413e+000 2.259494e+000 1.054951e-001 3.525260e-001 1.992200e-001 5.630389e-001 4.431953e-001 4.612877e-001 4.009209e-001 4.211781e-001 2.345971e-001 2.643027e-001 2.542588e-001 2.532154e-001 2.133699e-001
<GCONST> 9.695892e+001
<STATE> 4
<MEAN> 39
 1.285612e+001 -7.273259e+000 7.967764e+000 5.669759e+000 -3.503533e+000 2.963637e+000 -2.499975e+000 -4.735113e+000 -5.141768e+000 -3.844374e+000 -5.513030e+000 -3.970671e+000 6.747309e+001 1.299746e+000 -3.181098e+000 -9.147348e-001 -2.873696e+000 -1.489491e+000 -2.964260e+000 -2.779250e+000 -2.017256e+000 -3.351447e-001 7.800112e-001 8.164186e-001 5.993817e-001 3.721961e+000 -8.970457e-002 3.229161e-002 8.239114e-002 5.676223e-002 -1.789257e-001 -3.380699e-001 -5.118946e-002 1.395165e-001 1.706443e-001 3.408976e-004 -5.549169e-003 -2.112170e-001 -4.251935e-002
<VARIANCE> 39
 1.444097e+001 4.166603e+001 2.446840e+001 1.338586e+002 5.284901e+001 4.838416e+001 3.441433e+001 4.696225e+001 3.521990e+001 1.638591e+001 2.163431e+001 1.618101e+001 3.661521e+001 1.443309e+000 4.534187e+000 3.418319e+000 9.006869e+000 7.338449e+000 6.129976e+000 4.802811e+000 6.438483e+000 2.420197e+000 3.683223e+000 3.629159e+000 2.657426e+000 1.500969e+000 2.606575e-001 9.267211e-001 5.057109e-001 1.016536e+000 8.004568e-001 1.012848e+000 7.722322e-001 8.482792e-001 5.243292e-001 5.142303e-001 4.377188e-001 3.198884e-001 6.281557e-001
<GCONST> 1.281653e+002
<TRANSP> 5
 0.000000e+000 1.000000e+000 0.000000e+000 0.000000e+000 0.000000e+000
 0.000000e+000 5.275570e-001 4.724430e-001 0.000000e+000 0.000000e+000
 0.000000e+000 0.000000e+000 7.975709e-001 2.024291e-001 0.000000e+000
 0.000000e+000 0.000000e+000 0.000000e+000 5.098608e-001 4.901393e-001
 0.000000e+000 0.000000e+000 0.000000e+000 0.000000e+000 0.000000e+000
<ENDHMM>
~h "d"
<BEGINHMM>
<NUMSTATES> 5
<STATE> 2
<MEAN> 39
 1.043653e+001 -6.851043e+000 1.111943e+001 8.444096e+000 -1.471298e+000 4.541952e+000 -3.004770e+000 -6.382768e+000 -7.668363e+000 -4.632903e+000 -6.049150e+000 -3.774636e+000 6.445795e+001 -6.872790e-001 1.709202e+000 1.141504e-001 2.132181e+000 6.361725e-001 1.174093e+000 1.476023e+000 1.568098e+000 1.073241e+000 1.396484e-001 1.398259e-001 1.445383e-001 -2.285175e+000 -6.161719e-002 -9.176456e-001 3.368500e-002 -5.392692e-001 -2.465077e-001 -3.768317e-001 -4.788037e-002 -5.943713e-002 -1.581508e-002 1.757123e-001 7.161745e-003 1.058794e-001 7.117403e-001
<VARIANCE> 39
 1.178220e+001 4.189904e+001 3.278999e+001 1.297694e+002 2.997866e+001 6.016109e+001 5.268165e+001 3.507644e+001 4.605030e+001 2.327210e+001 2.752180e+001 2.112487e+001 3.224283e+001 9.173851e-001 3.913009e+000 2.267318e+000 5.094969e+000 2.623039e+000 3.782519e+000 3.380377e+000 3.080680e+000 2.122090e+000 2.490079e+000 2.409536e+000 1.782212e+000 2.873163e+000 1.727305e-001 1.011227e+000 4.336667e-001 1.125412e+000 5.057895e-001 6.901398e-001 8.334658e-001 7.780351e-001 5.265315e-001 3.915767e-001 4.350030e-001 3.822388e-001 7.833030e-001
<GCONST> 1.230450e+002
<STATE> 3
<MEAN> 39
 8.961759e+000 -4.839428e+000 1.166005e+001 1.242981e+001 -9.329254e-001 6.486061e+000 1.860965e-001 -3.177799e+000 -4.903131e+000 -3.815701e+000 -5.324547e+000 -3.227677e+000 6.092443e+001 -4.421442e-001 -2.829703e+000 5.163768e-001 -1.234854e+000 -2.308667e-001 -2.722709e-001 4.408769e-005 8.786740e-002 -1.212411e-001 4.475376e-001 -1.070790e-001 7.388648e-001 1.687971e+000 1.182934e-001 -1.365649e+000 3.270910e-001 -1.141999e+000 -3.559284e-001 -6.022522e-001 -6.848004e-001 -6.357755e-001 -5.553836e-001 -1.413165e-002 -1.393932e-001 8.187863e-002 1.418517e+000
<VARIANCE> 39
 7.317055e+000 2.850542e+001 2.701342e+001 7.729838e+001 1.719953e+001 3.119293e+001 2.983331e+001 1.958616e+001 3.296913e+001 1.963046e+001 2.403968e+001 2.094050e+001 1.507963e+001 1.398632e+000 5.335444e+000 3.223167e+000 5.966774e+000 2.756900e+000 2.705169e+000 5.122672e+000 4.188094e+000 2.833459e+000 2.620089e+000 2.336856e+000 1.997023e+000 3.642205e+000 3.624944e-001 9.114025e-001 8.367483e-001 9.754484e-001 5.238385e-001 7.360636e-001 6.241527e-001 6.829414e-001 4.001208e-001 5.266914e-001 5.319937e-001 3.770716e-001 3.885585e-001
<GCONST> 1.203786e+002
<STATE> 4
<MEAN> 39
 9.072351e+000 -1.657159e+001 1.303230e+001 3.363970e+000 -3.017330e+000 2.782565e+000 -2.799024e+000 -5.550985e+000 -8.311703e+000 -3.396154e+000 -6.516809e+000 -1.057308e+000 7.054988e+001 1.336274e-001 -3.366852e+000 4.747683e-001 -2.681809e+000 -1.099952e+000 -1.642047e+000 -9.683089e-001 -1.088388e+000 -1.026607e+000 2.463163e-002 -6.954813e-003 6.250031e-001 3.297581e+000 6.050285e-002 6.678809e-001 -6.879497e-002 3.474930e-001 -6.078519e-002 -2.396622e-001 -1.348425e-001 -7.696959e-002 5.741968e-002 -1.190303e-001 2.401968e-002 -3.562558e-001 -2.614913e-001
<VARIANCE> 39
 1.966656e+001 2.811532e+001 4.543555e+001 1.922158e+002 3.207022e+001 6.553479e+001 4.356154e+001 4.569942e+001 6.364732e+001 2.807410e+001 4.135283e+001 1.453593e+001 3.101419e+001 3.742092e+000 6.179583e+000 7.887703e+000 6.282667e+000 3.631789e+000 4.856334e+000 5.682650e+000 7.245821e+000 3.354013e+000 4.372015e+000 4.189306e+000 2.517544e+000 2.193097e+000 2.623321e-001 1.174273e+000 1.147072e+000 1.402559e+000 5.544363e-001 8.817838e-001 8.916883e-001 8.805269e-001 7.155011e-001 6.442868e-001 5.962120e-001 3.994899e-001 9.075133e-001
<GCONST> 1.351283e+002
<TRANSP> 5
 0.000000e+000 1.000000e+000 0.000000e+000 0.000000e+000 0.000000e+000
 0.000000e+000 5.921350e-001 4.078650e-001 0.000000e+000 0.000000e+000
 0.000000e+000 0.000000e+000 4.749439e-001 5.250561e-001 0.000000e+000
 0.000000e+000 0.000000e+000 0.000000e+000 3.749002e-001 6.250998e-001
 0.000000e+000 0.000000e+000 0.000000e+000 0.000000e+000 0.000000e+000
<ENDHMM>
~h "e"
<BEGINHMM>
<NUMSTATES> 5
<STATE> 2
<MEAN> 39
 1.230277e+001 -1.678125e+001 1.242868e+001 8.733769e+000 3.862936e-001 -3.834685e+000 -1.393860e+001 -1.491846e+001 -7.432050e+000 -5.427517e-001 -4.317382e+000 -5.439573e+000 7.471047e+001 1.090381e+000 -3.369430e-001 -8.278759e-001 6.788916e-001 -4.551498e-001 -2.685411e+000 -1.451750e+000 -2.420527e+000 -4.443658e-001 3.617269e-002 -3.961594e-001 -8.515677e-001 1.454352e+000 -5.567939e-001 -3.333653e-002 1.110207e-001 -4.034092e-001 -2.755520e-001 3.186925e-001 4.833592e-001 8.455186e-001 2.248761e-001 -8.015931e-002 3.589040e-003 1.520004e-001 -4.274052e-001
<VARIANCE> 39
 1.677974e+001 1.549039e+001 2.891117e+001 1.412845e+002 1.509138e+001 1.448579e+002 1.986821e+001 4.311882e+001 3.159607e+001 2.075450e+001 2.193953e+001 1.247670e+001 1.433441e+001 2.293524e+000 3.183852e+000 4.009447e+000 3.925898e+000 1.894949e+000 4.765164e+000 3.125911e+000 3.938309e+000 2.704692e+000 3.520900e+000 2.909505e+000 1.535049e+000 1.480478e+000 3.485945e-001 6.490790e-001 6.170321e-001 6.002892e-001 3.054219e-001 6.844132e-001 4.613020e-001 6.727377e-001 3.266952e-001 3.305017e-001 4.871082e-001 2.903076e-001 2.770998e-001
<GCONST> 1.176743e+002
<STATE> 3
<MEAN> 39
 1.123457e+001 -1.894739e+001 1.185497e+001 6.711800e+000 -1.420799e+000 -1.117966e+001 -1.590780e+001 -1.568955e+001 -7.966041e+000 -1.310018e+000 -5.738682e+000 -6.816106e+000 7.717094e+001 -6.859937e-003 -2.207308e-002 -1.885687e-001 -3.100781e-001 -3.601860e-001 -1.504448e-001 -7.130004e-002 -1.738942e-001 -1.402535e-001 -7.191076e-002 -7.216194e-002 -7.740657e-002 6.876846e-002 -1.375058e-001 2.005798e-001 1.572505e-001 -1.718840e-001 1.524483e-001 7.292384e-001 3.640379e-001 5.197194e-001 2.867486e-002 -1.109268e-001 3.318320e-002 1.994178e-001 -3.490486e-001
<VARIANCE> 39
 1.679134e+001 1.421863e+001 2.128343e+001 1.626669e+002 1.421510e+001 1.557029e+002 1.956002e+001 3.365274e+001 2.133617e+001 2.008581e+001 2.170893e+001 1.100243e+001 8.266981e+000 3.753284e-001 7.317461e-001 1.918293e+000 1.940178e+000 1.146606e+000 2.698338e+000 1.621708e+000 1.513229e+000 1.387538e+000 1.398941e+000 1.719179e+000 1.003607e+000 3.909592e-001 1.650912e-001 2.045010e-001 3.247115e-001 3.372377e-001 2.255514e-001 4.419715e-001 3.844237e-001 4.997890e-001 2.816108e-001 3.248591e-001 3.578632e-001 1.869532e-001 1.163385e-001
<GCONST> 9.865840e+001
<STATE> 4
<MEAN> 39
 1.222083e+001 -1.702720e+001 1.074211e+001 5.253900e+000 -1.628792e+000 -5.605024e+000 -1.416921e+001 -1.508022e+001 -9.032360e+000 -1.984993e+000 -4.733221e+000 -5.566230e+000 7.535527e+001 -2.657764e-001 7.943034e-001 4.388989e-001 -6.224483e-001 1.686920e-001 1.964934e+000 1.184708e+000 1.594503e+000 -5.362810e-003 -6.767334e-001 -1.574005e-001 5.808037e-001 -9.558128e-001 -3.222012e-001 2.736454e-002 3.466993e-001 8.982087e-002 1.789658e-001 2.834900e-001 3.048991e-001 6.813123e-001 2.956955e-001 -3.279543e-002 -5.151073e-002 7.821306e-002 -2.471466e-001
<VARIANCE> 39
 1.885926e+001 1.866427e+001 3.279249e+001 1.652165e+002 2.106583e+001 1.537483e+002 3.739361e+001 4.395240e+001 3.247907e+001 2.933017e+001 2.562319e+001 1.950428e+001 1.273363e+001 1.101841e+000 1.898053e+000 3.640971e+000 3.597287e+000 2.606695e+000 4.207205e+000 3.035379e+000 3.121172e+000 2.196900e+000 3.068341e+000 2.580508e+000 1.619865e+000 1.152146e+000 2.012113e-001 3.656207e-001 4.996324e-001 4.954185e-001 3.147617e-001 5.391873e-001 4.950902e-001 5.827245e-001 3.657502e-001 4.392023e-001 4.843656e-001 3.457992e-001 1.664840e-001
<GCONST> 1.162465e+002
<TRANSP> 5
 0.000000e+000 1.000000e+000 0.000000e+000 0.000000e+000 0.000000e+000
 0.000000e+000 4.570123e-001 5.429878e-001 0.000000e+000 0.000000e+000
 0.000000e+000 0.000000e+000 7.180732e-001 2.819268e-001 0.000000e+000
 0.000000e+000 0.000000e+000 0.000000e+000 5.333536e-001 4.666465e-001
 0.000000e+000 0.000000e+000 0.000000e+000 0.000000e+000 0.000000e+000
<ENDHMM>
~h "f"
<BEGINHMM>
<NUMSTATES> 5
<STATE> 2
<MEAN> 39
 4.797316e+000 -2.251227e+001 1.521350e+001 1.305448e+000 -1.030878e+000 9.236878e+000 -5.858842e+000 1.980846e+000 -3.809813e+000 -1.046533e+000 -8.479896e-001 -1.684953e+000 6.931955e+001 -2.458103e+000 -3.061783e+000 1.088737e+000 -1.255360e+000 1.046961e+000 1.329382e+000 -2.763177e-001 1.509668e+000 -1.668021e-002 5.976927e-001 5.964226e-001 5.496698e-001 -1.328689e-001 2.203341e-001 1.352675e-001 -5.445524e-001 -3.746041e-001 -4.680723e-001 -7.249822e-001 -3.234396e-001 -4.547147e-001 -1.662811e-001 -1.366405e-001 2.217619e-002 -4.239818e-002 1.848147e-001
<VARIANCE> 39
 2.423951e+001 4.159074e+001 2.960166e+001 7.015224e+001 2.634146e+001 4.463827e+001 1.443473e+001 1.695590e+001 2.266343e+001 1.902093e+001 3.500784e+001 1.247764e+001 7.697867e+000 1.896920e+000 4.213882e+000 2.801114e+000 2.227433e+000 3.105936e+000 3.058671e+000 2.733636e+000 3.530209e+000 1.889619e+000 3.240614e+000 1.537456e+000 1.689172e+000 8.142710e-001 2.605877e-001 7.259418e-001 3.644899e-001 4.456546e-001 4.140358e-001 4.724391e-001 4.290273e-001 4.675598e-001 3.938490e-001 4.027951e-001 3.027446e-001 2.433549e-001 1.087785e-001
<GCONST> 1.105888e+002
<STATE> 3
<MEAN> 39
 -6.008486e-001 -2.939601e+001 1.470391e+001 -4.241853e+000 -1.111098e+000 8.592145e+000 -9.332866e+000 3.098191e+000 -4.573058e+000 -2.202235e-001 1.510406e+000 -3.104364e-001 6.938062e+001 -5.803943e-002 -1.697118e-001 -2.972225e-001 -6.215600e-002 -6.949507e-002 -2.023204e-001 1.728660e-002 -1.646677e-001 7.434856e-002 1.183913e-001 5.638473e-002 1.119217e-001 8.615175e-003 5.712489e-001 6.726045e-001 -1.012916e-001 4.995520e-001 -1.213048e-001 -2.343223e-001 1.558506e-001 -2.692426e-001 3.449109e-002 -1.479502e-001 -2.242911e-001 -1.872886e-001 6.071046e-002
<VARIANCE> 39
 1.051954e+001 9.659977e+000 2.199479e+001 7.190462e+001 2.127453e+001 4.971223e+001 1.930216e+001 1.535937e+001 1.957579e+001 2.340514e+001 4.420285e+001 1.070254e+001 4.873817e+000 1.081515e+000 1.677210e+000 8.007115e-001 2.199899e+000 1.129955e+000 1.034725e+000 1.884217e+000 1.303990e+000 1.057237e+000 1.107260e+000 1.339990e+000 1.141937e+000 4.673040e-001 2.188984e-001 4.696480e-001 1.979483e-001 3.256579e-001 3.636034e-001 3.562711e-001 3.472996e-001 3.467797e-001 2.410524e-001 3.627557e-001 2.766593e-001 2.947443e-001 8.555945e-002
<GCONST> 9.565086e+001
<STATE> 4
<MEAN> 39
 5.976291e+000 -2.046207e+001 1.290383e+001 -7.588730e-001 -3.459582e+000 4.060975e+000 -5.656623e+000 -1.123460e-001 -3.868403e+000 -4.150110e-001 -2.683812e+000 -1.795199e+000 6.995196e+001 3.694002e+000 4.543986e+000 -1.171193e+000 1.673396e+000 -1.935556e+000 -2.921727e+000 -1.851728e-002 -1.923596e+000 6.547057e-002 -1.147979e+000 -1.446445e+000 -1.514863e+000 6.364031e-001 9.251102e-002 2.976112e-002 -2.384632e-001 -2.958162e-001 -2.689192e-001 -4.336956e-001 -2.616994e-001 -1.600207e-001 -1.761584e-001 -2.114007e-001 -3.218751e-004 -1.898693e-001 1.814776e-001
<VARIANCE> 39
 5.201129e+001 9.078606e+001 3.757225e+001 1.434570e+002 7.136237e+001 7.282021e+001 3.295190e+001 3.378707e+001 2.665045e+001 2.896102e+001 4.291824e+001 1.930811e+001 7.723970e+000 1.552428e+000 3.663138e+000 3.798195e+000 7.027987e+000 6.754740e+000 3.193171e+000 4.634745e+000 6.085733e+000 2.326617e+000 6.108881e+000 2.798938e+000 2.333664e+000 1.063277e+000 8.146741e-001 1.724401e+000 4.540492e-001 5.542792e-001 9.009944e-001 9.423487e-001 5.687662e-001 7.966091e-001 3.419666e-001 7.100825e-001 4.912727e-001 4.957610e-001 1.264525e-001
<GCONST> 1.288481e+002
<TRANSP> 5
 0.000000e+000 1.000000e+000 0.000000e+000 0.000000e+000 0.000000e+000
 0.000000e+000 6.810668e-001 3.189332e-001 0.000000e+000 0.000000e+000
 0.000000e+000 0.000000e+000 8.494540e-001 1.505459e-001 0.000000e+000
 0.000000e+000 0.000000e+000 0.000000e+000 6.586413e-001 3.413587e-001
 0.000000e+000 0.000000e+000 0.000000e+000 0.000000e+000 0.000000e+000
<ENDHMM>
~h "g"
<BEGINHMM>
<NUMSTATES> 5
<STATE> 2
<MEAN> 39
 1.109801e+001 -4.198466e+000 9.193643e+000 1.041206e+001 -3.580276e+000 4.042363e+000 -8.425511e-001 -4.687348e+000 -5.293177e+000 -3.188623e+000 -4.610266e+000 -5.309855e+000 6.200501e+001 -7.116339e-001 1.063037e+000 2.375645e-001 1.440779e+000 7.684250e-001 9.441150e-001 6.653290e-001 1.011057e+000 7.882800e-001 -2.796900e-001 -6.177498e-001 1.279897e-001 -1.636381e+000 1.462290e-001 -5.986465e-001 -7.759088e-002 -6.111214e-001 -2.801415e-001 -3.711745e-001 -1.530934e-001 -8.631699e-002 -8.203895e-002 4.940093e-002 1.400197e-001 1.272653e-001 6.606231e-001
<VARIANCE> 39
 9.764594e+000 3.363258e+001 2.263153e+001 7.796850e+001 3.172444e+001 5.596146e+001 5.156223e+001 4.474804e+001 5.870544e+001 3.160708e+001 3.834842e+001 2.682907e+001 2.116022e+001 7.278931e-001 2.908880e+000 1.016005e+000 3.561256e+000 3.032360e+000 3.437281e+000 3.175143e+000 4.284939e+000 3.809578e+000 2.104328e+000 2.368727e+000 2.109936e+000 2.240807e+000 1.565347e-001 5.030068e-001 2.647412e-001 7.292542e-001 5.129383e-001 5.413619e-001 5.746243e-001 7.994760e-001 8.516577e-001 4.571635e-001 5.111393e-001 3.736058e-001 4.211141e-001
<GCONST> 1.194657e+002
<STATE> 3
<MEAN> 39
 9.597336e+000 -4.390936e+000 9.715996e+000 1.050318e+001 -3.355644e+000 4.305998e+000 -5.533388e-002 -2.940935e+000 -4.853600e+000 -3.474227e+000 -4.978331e+000 -4.530297e+000 6.085429e+001 4.504086e-001 -1.705938e+000 -1.496441e-001 -2.331022e+000 -1.215937e+000 -7.637355e-001 -1.519193e-002 5.757675e-002 -6.807267e-001 4.260504e-001 8.830085e-001 2.006652e-001 1.790816e+000 3.666683e-001 -4.113195e-001 5.323709e-003 -6.834472e-001 -4.559728e-001 -7.710012e-001 -5.791096e-001 -3.546501e-001 -1.503027e-001 6.311728e-002 7.242165e-002 -1.908755e-001 8.255386e-001
<VARIANCE> 39
 8.056251e+000 3.799289e+001 2.120323e+001 7.667281e+001 3.434430e+001 3.866728e+001 3.632124e+001 2.108526e+001 4.027315e+001 2.072111e+001 3.383057e+001 1.720157e+001 1.860203e+001 1.257257e+000 4.286030e+000 1.997172e+000 4.304438e+000 5.644535e+000 4.231283e+000 3.587564e+000 4.601927e+000 2.735501e+000 3.200078e+000 2.465230e+000 1.673620e+000 2.640137e+000 1.767101e-001 6.924523e-001 4.015302e-001 1.031916e+000 7.331862e-001 8.558794e-001 7.457649e-001 6.585957e-001 5.451046e-001 4.474336e-001 5.910172e-001 3.116527e-001 4.165922e-001
<GCONST> 1.208768e+002
<STATE> 4
<MEAN> 39
 1.296602e+001 -9.471110e+000 1.014917e+001 2.538226e+000 -9.323093e+000 -2.224049e+000 -3.984691e+000 -4.803598e+000 -6.779587e+000 -2.027218e+000 -2.887745e+000 -5.608933e+000 6.886722e+001 9.087648e-001 -7.600039e-001 -5.971694e-002 -1.459982e+000 -1.244174e+000 -2.159084e+000 -1.458212e+000 -9.357904e-001 -2.627581e-002 2.755152e-001 -7.225663e-002 -2.238202e-001 1.993672e+000 -6.073176e-002 4.497472e-001 -2.026230e-001 4.664904e-001 3.414274e-001 2.579136e-001 5.615422e-003 1.452334e-002 3.048903e-001 -1.925703e-001 -3.081997e-001 5.273105e-003 -4.006127e-001
<VARIANCE> 39
 1.573078e+001 8.092710e+001 2.184116e+001 9.840379e+001 6.330556e+001 7.840482e+001 4.579694e+001 9.361321e+001 4.794095e+001 2.902651e+001 4.228085e+001 2.518635e+001 2.939615e+001 1.083188e+000 3.353732e+000 2.731331e+000 4.801239e+000 3.057184e+000 4.336919e+000 3.898052e+000 4.966906e+000 2.162729e+000 2.889478e+000 3.833658e+000 2.559499e+000 1.958740e+000 1.387611e-001 6.816009e-001 4.439842e-001 9.104667e-001 9.006076e-001 9.258724e-001 8.791702e-001 1.092136e+000 6.270930e-001 5.020831e-001 7.707042e-001 4.062779e-001 3.310784e-001
<GCONST> 1.282535e+002
<TRANSP> 5
 0.000000e+000 1.000000e+000 0.000000e+000 0.000000e+000 0.000000e+000
 0.000000e+000 7.059919e-001 2.940081e-001 0.000000e+000 0.000000e+000
 0.000000e+000 0.000000e+000 5.966582e-001 4.033418e-001 0.000000e+000
 0.000000e+000 0.000000e+000 0.000000e+000 5.634832e-001 4.365168e-001
 0.000000e+000 0.000000e+000 0.000000e+000 0.000000e+000 0.000000e+000
<ENDHMM>
~h "h"
<BEGINHMM>
<NUMSTATES> 5
<STATE> 2
<MEAN> 39
 1.055198e+001 -2.058886e+001 4.946234e+000 3.395885e+000 -4.396752e+000 8.176375e+000 2.432288e+000 1.925273e+000 2.020909e+000 1.255318e+000 -3.831281e-001 2.303428e+000 7.000219e+001 -1.048176e+000 -1.642299e+000 -3.966303e-001 4.026284e-001 5.716737e-001 2.415006e-001 9.164863e-001 1.092630e+000 -4.407777e-002 -1.414518e-001 5.442459e-001 7.529904e-001 -2.839074e-001 -1.372438e-002 1.767864e-001 -1.950930e-002 -1.707281e-001 -3.022476e-001 -2.458042e-001 -2.436095e-001 -3.234622e-001 -1.614556e-001 8.374302e-003 -6.191055e-002 -7.600089e-002 -4.216928e-002
<VARIANCE> 39
 1.866421e+001 4.274383e+001 3.599895e+001 5.491833e+001 6.881970e+001 5.854369e+001 4.405468e+001 6.784634e+001 2.670530e+001 3.110555e+001 2.933058e+001 2.001502e+001 1.512586e+001 7.412588e-001 2.369114e+000 1.747285e+000 3.172841e+000 2.937014e+000 3.005548e+000 3.008366e+000 5.415250e+000 1.807951e+000 2.829137e+000 1.659870e+000 1.285902e+000 5.077420e-001 1.082749e-001 3.957315e-001 2.791300e-001 4.875819e-001 3.850245e-001 3.937266e-001 4.988249e-001 5.974771e-001 2.983860e-001 3.102798e-001 2.883863e-001 2.314211e-001 5.898493e-002
<GCONST> 1.108643e+002
<STATE> 3
<MEAN> 39
 6.186010e+000 -2.525002e+001 6.505893e+000 4.065391e+000 -3.176932e+000 7.169236e+000 2.761146e+000 2.818259e+000 -2.601130e-001 1.291904e+000 1.189580e+000 4.238982e+000 6.918099e+001 -4.112804e-001 1.165064e+000 1.593532e-001 2.744750e-001 -1.887869e-001 3.311311e-001 -4.371384e-001 -4.107012e-001 -2.729125e-003 2.165883e-001 3.114662e-001 2.000492e-002 -1.195220e+000 1.675710e-001 7.695730e-001 -1.175575e-001 1.617354e-001 -2.032140e-001 -2.073807e-001 -2.594629e-001 -2.713292e-001 4.630360e-002 -8.823349e-002 -1.235465e-001 -2.923124e-001 -3.052667e-001
<VARIANCE> 39
 1.108302e+001 3.222315e+001 5.487400e+001 8.317954e+001 4.486586e+001 6.225192e+001 3.999413e+001 2.767345e+001 2.984175e+001 3.437922e+001 3.669895e+001 2.609384e+001 1.611521e+001 1.007088e+000 3.882973e+000 3.540581e+000 2.125689e+000 2.674018e+000 2.436609e+000 2.353364e+000 3.594543e+000 1.885362e+000 2.316952e+000 2.066136e+000 1.608636e+000 2.076092e+000 1.393610e-001 3.771690e-001 8.144599e-001 5.068920e-001 4.776201e-001 6.267766e-001 4.890523e-001 6.922656e-001 4.056015e-001 5.596225e-001 4.192323e-001 3.093454e-001 1.873188e-001
<GCONST> 1.169804e+002
<STATE> 4
<MEAN> 39
 5.148655e+000 -1.551308e+001 2.044511e+000 6.167600e+000 -6.781208e+000 5.156528e+000 1.497085e+000 -9.747057e-001 -1.346343e-001 1.864408e-001 8.695160e-001 2.759826e+000 6.095728e+001 -1.858005e-001 1.697227e+000 -4.922967e-001 2.513061e-001 -5.554020e-001 -9.092512e-001 -7.290282e-001 -8.481559e-001 -1.843771e-001 -2.341063e-001 -4.281312e-001 -5.800447e-001 -1.194152e+000 9.051874e-002 -3.071614e-001 9.031209e-002 -1.456708e-001 -4.076142e-002 -7.886764e-002 -4.517982e-002 3.995806e-002 -8.836515e-002 -5.284634e-002 -8.973132e-002 -7.105734e-002 3.424095e-001
<VARIANCE> 39
 1.400095e+001 3.862308e+001 5.630837e+001 6.023537e+001 3.000206e+001 3.747112e+001 4.282970e+001 4.721476e+001 2.716053e+001 2.821102e+001 2.044150e+001 2.027322e+001 2.868741e+001 1.447575e+000 2.525560e+000 4.280891e+000 2.392640e+000 2.570836e+000 2.973189e+000 2.267029e+000 3.388162e+000 1.823116e+000 2.138528e+000 2.039137e+000 1.826184e+000 2.597725e+000 1.399952e-001 3.892598e-001 4.688808e-001 3.932630e-001 3.557246e-001 5.054040e-001 2.960518e-001 5.284135e-001 3.036372e-001 3.206510e-001 3.036178e-001 2.517048e-001 1.804271e-001
<GCONST> 1.133018e+002
<TRANSP> 5
 0.000000e+000 1.000000e+000 0.000000e+000 0.000000e+000 0.000000e+000
 0.000000e+000 7.691376e-001 2.308624e-001 0.000000e+000 0.000000e+000
 0.000000e+000 0.000000e+000 6.779634e-001 3.220366e-001 0.000000e+000
 0.000000e+000 0.000000e+000 0.000000e+000 6.450515e-001 3.549485e-001
 0.000000e+000 0.000000e+000 0.000000e+000 0.000000e+000 0.000000e+000
<ENDHMM>
~h "i"
<BEGINHMM>
<NUMSTATES> 5
<STATE> 2
<MEAN> 39
 7.027547e+000 -1.951301e+001 1.827811e+001 1.000954e+001 1.750216e+000 -8.674067e+000 -1.134087e+001 -8.858770e+000 -7.565794e+000 -3.197613e+000 -8.850446e+000 -7.460033e+000 7.367638e+001 1.027028e+000 7.294164e-001 -6.998861e-001 7.914742e-001 -4.913441e-002 -1.194643e+000 -9.156194e-001 -1.055511e+000 -2.300311e-001 -6.386970e-001 -4.722817e-001 -8.297853e-001 1.182391e-001 -2.865609e-001 6.733245e-002 -9.800529e-002 -5.802863e-001 -2.047356e-001 6.065562e-001 3.714302e-001 3.767756e-001 7.440241e-002 1.700811e-001 2.244945e-001 3.142369e-001 -2.392649e-001
<VARIANCE> 39
 3.027522e+001 2.329822e+001 4.585283e+001 1.465330e+002 2.032803e+001 1.645145e+002 3.315520e+001 3.508320e+001 4.033166e+001 2.767273e+001 3.967010e+001 2.500168e+001 1.519907e+001 3.488306e+000 5.251040e+000 5.860032e+000 3.732830e+000 2.069029e+000 5.408786e+000 3.845947e+000 4.026515e+000 2.170054e+000 3.302957e+000 2.529234e+000 1.997447e+000 1.607322e+000 4.063626e-001 6.335095e-001 6.722796e-001 5.968578e-001 3.836041e-001 9.012277e-001 6.711144e-001 7.100310e-001 3.828740e-001 4.087611e-001 4.302380e-001 3.395576e-001 2.555778e-001
<GCONST> 1.248570e+002
<STATE> 3
<MEAN> 39
 8.637559e+000 -1.844364e+001 1.620910e+001 1.064851e+001 1.303602e+000 -7.800105e+000 -1.271476e+001 -1.071628e+001 -7.430439e+000 -3.197053e+000 -8.579502e+000 -8.045052e+000 7.358329e+001 4.040548e-001 8.503667e-001 -7.675011e-001 -6.578470e-001 -2.988795e-001 9.455228e-001 1.848815e-001 -3.100892e-001 -1.753767e-001 1.165053e-001 3.351578e-001 2.952499e-001 -4.574277e-001 -3.995768e-001 -4.714077e-002 1.170390e-001 -4.279458e-001 -1.244881e-001 6.131783e-001 5.806369e-001 5.622798e-001 8.907178e-002 1.581835e-001 2.510948e-001 3.850138e-001 -2.461128e-001
<VARIANCE> 39
 2.959660e+001 2.407490e+001 4.123743e+001 1.744631e+002 2.206136e+001 1.691674e+002 3.265230e+001 3.787296e+001 3.875419e+001 2.287336e+001 3.612005e+001 2.726610e+001 1.830627e+001 1.767063e+000 3.171088e+000 4.550082e+000 2.891407e+000 1.660432e+000 4.397604e+000 3.483199e+000 3.629858e+000 2.137451e+000 2.371257e+000 2.464944e+000 1.700275e+000 1.708642e+000 4.139169e-001 5.477378e-001 6.231031e-001 6.182857e-001 3.529208e-001 7.025363e-001 6.870649e-001 6.962873e-001 3.904212e-001 4.257873e-001 3.817506e-001 3.211721e-001 2.549359e-001
<GCONST> 1.216465e+002
<STATE> 4
<MEAN> 39
 9.366038e+000 -1.535941e+001 1.376167e+001 1.130252e+001 8.574055e-001 -8.276665e-001 -1.056335e+001 -9.904985e+000 -5.857849e+000 -2.041781e+000 -5.812410e+000 -5.104009e+000 7.009771e+001 -2.573827e-001 8.294150e-001 -5.651768e-001 -1.040622e+000 -6.299969e-001 1.523912e+000 1.410875e+000 9.030712e-001 1.596810e-002 2.134467e-002 5.766516e-001 8.210849e-001 -9.346294e-001 -3.407524e-001 -2.176879e-001 1.793946e-001 -1.030565e-001 -9.621846e-002 -1.029710e-003 2.830867e-001 5.005963e-001 1.801355e-001 1.380464e-002 6.610096e-003 5.332814e-002 -6.252816e-002
<VARIANCE> 39
 3.137951e+001 3.299556e+001 5.925416e+001 1.654162e+002 2.978399e+001 1.227605e+002 4.338825e+001 5.793395e+001 5.624774e+001 2.533595e+001 3.612682e+001 2.637809e+001 3.839767e+001 1.950078e+000 3.649904e+000 4.169565e+000 3.929718e+000 2.110958e+000 4.504957e+000 3.956018e+000 3.857035e+000 2.514802e+000 2.605469e+000 2.449940e+000 2.159292e+000 2.619843e+000 2.716169e-001 4.278014e-001 5.360624e-001 5.455922e-001 3.106377e-001 5.593034e-001 5.673295e-001 6.920235e-001 4.232900e-001 4.128588e-001 4.579913e-001 3.554775e-001 2.376496e-001
<GCONST> 1.247950e+002
<TRANSP> 5
 0.000000e+000 1.000000e+000 0.000000e+000 0.000000e+000 0.000000e+000
 0.000000e+000 4.929658e-001 5.070342e-001 0.000000e+000 0.000000e+000
 0.000000e+000 0.000000e+000 4.351044e-001 5.648957e-001 0.000000e+000
 0.000000e+000 0.000000e+000 0.000000e+000 4.279532e-001 5.720468e-001
 0.000000e+000 0.000000e+000 0.000000e+000 0.000000e+000 0.000000e+000
<ENDHMM>
~h "j"
<BEGINHMM>
<NUMSTATES> 5
<STATE> 2
<MEAN> 39
 1.094407e+001 -1.891758e+001 1.010180e+001 5.029829e+000 -6.003018e-001 -1.027353e+001 -1.423075e+001 -1.241834e+001 -7.848399e+000 -2.711440e+000 -4.921768e+000 -6.701343e+000 7.560970e+001 -2.241776e-001 4.744592e-002 8.140792e-001 1.000647e+000 5.061976e-001 -6.505097e-001 -8.119174e-001 -2.654660e-001 2.989439e-001 8.539483e-002 -6.506498e-001 -6.518337e-001 -2.215825e-001 -4.123550e-002 1.565640e-001 5.117234e-002 -2.218845e-001 -1.277966e-001 3.695642e-001 3.384213e-001 3.554688e-001 -7.033934e-003 -1.540173e-001 -1.192900e-001 1.076714e-001 -1.349687e-001
<VARIANCE> 39
 1.930882e+001 1.894318e+001 5.056693e+001 1.882958e+002 2.278639e+001 1.376024e+002 2.375486e+001 4.639605e+001 3.154581e+001 3.242529e+001 3.767573e+001 2.251800e+001 1.316424e+001 7.716786e-001 1.008552e+000 3.261137e+000 2.545530e+000 1.755765e+000 2.375653e+000 2.522674e+000 2.191584e+000 1.663934e+000 2.324866e+000 2.057424e+000 1.336684e+000 3.534588e-001 1.436492e-001 2.048162e-001 2.771620e-001 3.159823e-001 2.463456e-001 4.236070e-001 3.770780e-001 4.476970e-001 2.579867e-001 3.602949e-001 3.913452e-001 2.148713e-001 5.520982e-002
<GCONST> 1.066273e+002
<STATE> 3
<MEAN> 39
 1.107781e+001 -1.720220e+001 1.301716e+001 1.090601e+001 7.753028e-001 -7.703827e+000 -1.458497e+001 -1.224636e+001 -6.100485e+000 -2.277370e+000 -7.079565e+000 -7.862782e+000 7.369471e+001 -7.725933e-002 4.968285e-001 3.165077e-001 6.272101e-002 2.752257e-001 9.751115e-001 3.057691e-001 3.495867e-001 -1.932679e-002 -1.194774e-001 -3.016313e-001 -1.037433e-001 -5.537794e-001 -1.277607e-001 1.279557e-001 -1.702677e-002 -4.278003e-001 -1.002491e-001 6.969107e-001 5.506964e-001 3.784236e-001 -3.918496e-002 4.687325e-002 2.275496e-001 3.602894e-001 -1.826542e-001
<VARIANCE> 39
 1.957509e+001 1.961609e+001 4.714849e+001 1.888313e+002 2.471917e+001 1.283954e+002 2.604077e+001 5.078197e+001 4.002160e+001 2.437620e+001 4.093967e+001 2.295030e+001 1.658373e+001 6.756285e-001 8.917042e-001 3.792955e+000 2.721595e+000 1.669350e+000 2.433600e+000 2.001001e+000 2.049734e+000 1.758659e+000 2.001496e+000 2.776696e+000 1.324131e+000 4.491476e-001 2.028954e-001 3.584173e-001 3.749518e-001 3.343470e-001 2.676023e-001 4.540821e-001 4.569889e-001 5.262776e-001 2.983196e-001 4.149624e-001 4.227156e-001 2.462349e-001 1.330993e-001
<GCONST> 1.103109e+002
<STATE> 4
<MEAN> 39
 1.118225e+001 -1.520346e+001 1.237372e+001 1.133792e+001 1.948588e+000 -2.769845e+000 -1.284512e+001 -1.126758e+001 -6.002050e+000 -2.314031e+000 -6.178084e+000 -6.592377e+000 7.145774e+001 -5.824305e-001 6.106837e-001 3.428070e-001 -8.467652e-001 -1.365708e-001 2.112304e+000 1.689923e+000 1.379706e+000 5.285990e-002 3.280136e-002 2.325650e-001 9.837716e-001 -9.102551e-001 -3.679230e-001 -2.323717e-001 1.048365e-001 -3.152601e-001 -2.468772e-001 1.066632e-001 4.825064e-001 4.838845e-001 1.247868e-001 1.237140e-001 1.548124e-001 2.691050e-001 -5.291792e-002
<VARIANCE> 39
 2.292676e+001 2.095719e+001 5.923877e+001 1.756832e+002 3.235152e+001 1.114126e+002 3.543700e+001 5.587035e+001 5.487315e+001 2.452413e+001 4.757501e+001 2.612595e+001 2.340892e+001 1.836349e+000 4.044078e+000 5.358986e+000 3.600238e+000 2.560852e+000 4.021089e+000 3.400906e+000 3.479833e+000 2.226930e+000 3.758472e+000 3.549475e+000 1.741314e+000 1.969037e+000 1.925222e-001 6.391115e-001 5.478952e-001 4.931560e-001 3.529544e-001 6.173400e-001 5.296181e-001 5.760660e-001 4.275658e-001 5.572751e-001 6.458372e-001 3.727415e-001 2.713891e-001
<GCONST> 1.244800e+002
<TRANSP> 5
 0.000000e+000 1.000000e+000 0.000000e+000 0.000000e+000 0.000000e+000
 0.000000e+000 6.232887e-001 3.767113e-001 0.000000e+000 0.000000e+000
 0.000000e+000 0.000000e+000 4.522298e-001 5.477702e-001 0.000000e+000
 0.000000e+000 0.000000e+000 0.000000e+000 4.630646e-001 5.369353e-001
 0.000000e+000 0.000000e+000 0.000000e+000 0.000000e+000 0.000000e+000
<ENDHMM>
~h "k"
<BEGINHMM>
<NUMSTATES> 5
<STATE> 2
<MEAN> 39
 5.326007e+000 -1.064901e+001 4.335334e+000 6.579432e+000 -6.148661e+000 3.289713e+000 -1.610578e+000 -3.685998e+000 -4.353202e+000 -2.169622e+000 -1.479134e+000 -1.749976e+000 5.918206e+001 -1.196378e+000 1.508413e-001 -1.115713e+000 -1.665222e-001 -7.997780e-001 -1.931901e-001 3.311951e-001 4.204828e-001 5.284849e-001 1.014243e-001 1.360459e-001 6.912383e-001 -1.745834e+000 3.420934e-001 -5.359570e-001 2.472152e-001 -6.054716e-001 -1.135632e-001 -4.653036e-001 -3.669023e-001 -5.982688e-002 -1.380603e-001 2.107908e-002 1.188926e-001 -9.744234e-002 9.627981e-001
<VARIANCE> 39
 1.657022e+001 3.195082e+001 3.471601e+001 6.445214e+001 2.449210e+001 4.328879e+001 3.607260e+001 3.925183e+001 3.441774e+001 2.960811e+001 2.692796e+001 2.450248e+001 2.339421e+001 1.552869e+000 2.864520e+000 2.201487e+000 4.011137e+000 2.716316e+000 4.804003e+000 4.324825e+000 3.715893e+000 2.590877e+000 2.836390e+000 2.551916e+000 1.917675e+000 3.398387e+000 4.259587e-001 6.208781e-001 6.448433e-001 8.679488e-001 6.594008e-001 9.542722e-001 9.170336e-001 8.322856e-001 5.525244e-001 5.853487e-001 5.520827e-001 4.409807e-001 5.809849e-001
<GCONST> 1.245487e+002
<STATE> 3
<MEAN> 39
 3.136498e+000 -1.216710e+001 2.159619e+000 3.250419e+000 -9.040389e+000 2.382535e-001 -2.172589e+000 -2.326086e+000 -3.355505e+000 -1.453808e+000 -5.524680e-001 -7.824650e-002 5.811099e+001 1.194475e+000 -1.910786e+000 4.294873e-001 -2.663998e+000 -6.780345e-001 -6.864467e-001 -2.557236e-001 8.223195e-001 -3.673882e-001 2.090174e-001 8.851862e-001 -3.045112e-001 2.742085e+000 6.879932e-001 -1.402878e-001 7.461009e-001 -1.989354e-001 1.427304e-001 -1.639746e-002 -1.237952e-001 1.184871e-002 -2.266116e-001 -2.505973e-002 -4.089887e-002 -3.773395e-001 1.069449e+000
<VARIANCE> 39
 1.197146e+001 3.922707e+001 2.730895e+001 6.515718e+001 2.550350e+001 2.531144e+001 2.084912e+001 2.888450e+001 2.043530e+001 2.261793e+001 1.850509e+001 1.613402e+001 2.343090e+001 2.918328e+000 6.992421e+000 3.307807e+000 4.678068e+000 7.675725e+000 5.110672e+000 4.131683e+000 4.733274e+000 2.689678e+000 2.952543e+000 3.463606e+000 3.060294e+000 3.891939e+000 2.784365e-001 8.022673e-001 4.301828e-001 8.819001e-001 8.919442e-001 7.515510e-001 6.404190e-001 6.784544e-001 3.914919e-001 4.849647e-001 5.906932e-001 3.512548e-001 5.317790e-001
<GCONST> 1.237950e+002
<STATE> 4
<MEAN> 39
 9.417629e+000 -1.792928e+001 7.973648e+000 -3.877349e+000 -9.657342e+000 -7.610039e-001 -2.959203e+000 -4.751407e-001 -5.438532e+000 -3.109080e-001 1.413541e+000 -2.442537e+000 7.019080e+001 1.630226e+000 6.774597e-001 1.381176e+000 2.210901e-001 -1.331973e-001 -6.872671e-001 -4.671748e-001 -8.909195e-001 -3.409306e-001 8.170615e-002 -5.810577e-001 -7.690683e-001 1.931504e+000 -6.895863e-002 8.328403e-001 -3.015315e-001 8.031049e-001 4.722546e-002 -1.153202e-001 -8.439852e-002 -6.107435e-001 5.699288e-002 -1.891041e-001 -5.299623e-001 -5.317799e-002 -6.315882e-001
<VARIANCE> 39
 2.953377e+001 8.399238e+001 4.263090e+001 1.053607e+002 9.831118e+001 7.561464e+001 4.664260e+001 7.996186e+001 3.662253e+001 3.516386e+001 4.759072e+001 2.208190e+001 2.545626e+001 1.923010e+000 6.523044e+000 4.559561e+000 7.481761e+000 6.762208e+000 6.090486e+000 4.735587e+000 6.942438e+000 2.996474e+000 3.750788e+000 4.442345e+000 3.162589e+000 3.514228e+000 3.297753e-001 1.261313e+000 7.944583e-001 1.335354e+000 1.649730e+000 1.230574e+000 1.108420e+000 1.222531e+000 5.591352e-001 6.580492e-001 7.492552e-001 7.353690e-001 5.026276e-001
<GCONST> 1.398949e+002
<TRANSP> 5
 0.000000e+000 1.000000e+000 0.000000e+000 0.000000e+000 0.000000e+000
 0.000000e+000 6.915249e-001 3.084750e-001 0.000000e+000 0.000000e+000
 0.000000e+000 0.000000e+000 5.536475e-001 4.463525e-001 0.000000e+000
 0.000000e+000 0.000000e+000 0.000000e+000 6.879912e-001 3.120087e-001
 0.000000e+000 0.000000e+000 0.000000e+000 0.000000e+000 0.000000e+000
<ENDHMM>
~h "l"
<BEGINHMM>
<NUMSTATES> 5
<STATE> 2
<MEAN> 39
 1.275774e+001 -1.208203e+001 1.064209e+001 2.126632e+000 -5.597684e+000 -2.139920e+000 -5.944561e+000 -6.349653e+000 -7.734555e+000 -7.481483e+000 -9.021523e+000 -4.371416e+000 7.152077e+001 -7.673225e-002 1.020181e+000 5.240295e-001 7.621766e-001 -9.564552e-002 7.635682e-002 6.738053e-001 8.168737e-001 -8.652738e-002 -1.069818e+000 -1.275598e+000 -5.284101e-001 -8.300617e-001 -5.996640e-002 -2.469214e-001 -6.435481e-002 -3.065388e-002 -6.209574e-002 -1.603300e-001 -1.324750e-001 -6.897306e-002 8.633807e-002 2.687269e-001 2.118039e-001 -8.088206e-002 1.604292e-001
<VARIANCE> 39
 1.918790e+001 3.546983e+001 3.591083e+001 2.048492e+002 1.124558e+002 1.367621e+002 5.003975e+001 4.677649e+001 6.584180e+001 4.379659e+001 3.543989e+001 2.047227e+001 1.337915e+001 5.247684e-001 1.548921e+000 2.628036e+000 3.272237e+000 3.138513e+000 3.644675e+000 3.188900e+000 2.841080e+000 2.590882e+000 2.386201e+000 3.229886e+000 1.810083e+000 1.000911e+000 1.137140e-001 2.958836e-001 3.726327e-001 5.304910e-001 5.064636e-001 7.145934e-001 5.530344e-001 4.361204e-001 4.211887e-001 4.804021e-001 5.626857e-001 3.928843e-001 1.546203e-001
<GCONST> 1.193983e+002
<STATE> 3
<MEAN> 39
 1.211001e+001 -1.032019e+001 1.233995e+001 2.011132e+000 -7.232626e+000 -3.367513e+000 -4.481861e+000 -4.094332e+000 -8.515018e+000 -9.299751e+000 -1.174002e+001 -6.255020e+000 7.038050e+001 -4.557465e-002 6.652477e-003 1.408083e-001 1.032967e-001 -2.435934e-001 -3.745837e-001 5.671475e-002 2.872366e-001 2.284753e-001 1.028336e-001 -1.699264e-001 -1.272023e-001 7.219736e-002 6.775030e-002 -4.421839e-001 -2.752103e-001 -3.148527e-001 -8.067030e-002 -2.004048e-001 -2.649042e-001 -2.970438e-001 8.617075e-002 4.331958e-001 5.093736e-001 2.416977e-001 4.050076e-001
<VARIANCE> 39
 1.887300e+001 3.678551e+001 2.631401e+001 2.115631e+002 1.059684e+002 1.165087e+002 4.471688e+001 3.506132e+001 7.129450e+001 3.936467e+001 3.632663e+001 1.632765e+001 1.105861e+001 3.373719e-001 1.262908e+000 1.531602e+000 2.160583e+000 1.553049e+000 2.801358e+000 1.821292e+000 1.965032e+000 1.517154e+000 2.083808e+000 2.433327e+000 1.546568e+000 8.576778e-001 7.545589e-002 2.174819e-001 2.690452e-001 3.703103e-001 4.112935e-001 6.391316e-001 5.160338e-001 4.565529e-001 4.586915e-001 5.045918e-001 5.475638e-001 3.369381e-001 1.406780e-001
<GCONST> 1.114506e+002
<STATE> 4
<MEAN> 39
 1.210128e+001 -1.181821e+001 1.266789e+001 2.595140e+000 -7.437757e+000 -5.412907e+000 -5.122238e+000 -3.933247e+000 -6.618479e+000 -7.112430e+000 -1.057384e+001 -5.617213e+000 7.189326e+001 1.340975e-001 -7.007192e-001 -4.371379e-001 -3.137293e-001 -1.421764e-001 -5.054558e-001 -3.714146e-001 -3.229696e-001 1.967753e-001 5.532306e-001 6.908204e-001 3.551489e-001 6.422955e-001 3.096250e-002 -6.856237e-002 -8.937687e-002 -6.011389e-002 4.297360e-002 8.057290e-002 -9.275350e-002 -1.669984e-001 -3.909451e-002 1.178813e-001 1.492591e-001 1.939487e-002 5.128385e-002
<VARIANCE> 39
 1.990345e+001 3.943462e+001 2.910484e+001 2.333633e+002 1.143182e+002 1.125044e+002 5.486958e+001 3.575379e+001 5.509406e+001 3.311650e+001 3.278951e+001 2.246310e+001 1.693763e+001 3.177238e-001 9.698589e-001 1.334486e+000 2.026368e+000 1.511035e+000 2.500667e+000 2.277063e+000 2.207578e+000 1.711000e+000 2.207971e+000 2.386352e+000 1.819247e+000 6.743689e-001 5.900849e-002 1.993394e-001 2.475322e-001 3.438254e-001 2.370947e-001 4.061007e-001 3.439705e-001 3.619606e-001 2.513132e-001 3.453551e-001 3.726059e-001 2.785970e-001 1.391961e-001
<GCONST> 1.083037e+002
<TRANSP> 5
 0.000000e+000 1.000000e+000 0.000000e+000 0.000000e+000 0.000000e+000
 0.000000e+000 4.508420e-001 5.491580e-001 0.000000e+000 0.000000e+000
 0.000000e+000 0.000000e+000 5.798992e-001 4.201008e-001 0.000000e+000
 0.000000e+000 0.000000e+000 0.000000e+000 6.532100e-001 3.467901e-001
 0.000000e+000 0.000000e+000 0.000000e+000 0.000000e+000 0.000000e+000
<ENDHMM>
~h "m"
<BEGINHMM>
<NUMSTATES> 5
<STATE> 2
<MEAN> 39
 1.408982e+001 -6.520384e+000 1.034817e+001 7.249154e+000 -3.828132e+000 1.937967e+000 -5.707696e+000 -1.737869e+000 -2.136053e+000 -6.141705e+000 -6.927386e+000 -7.825872e+000 6.757328e+001 -2.946404e-001 5.092272e-001 4.578052e-001 6.547191e-001 6.999428e-001 7.869546e-001 2.808321e-001 5.533015e-001 4.161431e-001 -2.002443e-001 -5.716866e-001 -8.728254e-001 -6.284170e-001 -2.746934e-002 -2.913727e-001 -7.306866e-002 -1.189349e-001 -1.336418e-001 -2.925346e-001 -8.813138e-002 -1.067906e-001 -1.365268e-002 1.374980e-001 1.820424e-001 2.074488e-001 2.154898e-001
<VARIANCE> 39
 1.145901e+001 1.414070e+001 1.841454e+001 7.460090e+001 2.928938e+001 7.494260e+001 2.825337e+001 3.299253e+001 6.168848e+001 3.183581e+001 3.170615e+001 2.374283e+001 6.727272e+000 3.699117e-001 1.489797e+000 1.400730e+000 2.248028e+000 2.386574e+000 1.746219e+000 2.088833e+000 1.810447e+000 1.703516e+000 1.396058e+000 1.695008e+000 1.987568e+000 5.812376e-001 7.957512e-002 2.458678e-001 2.248914e-001 4.348175e-001 4.327547e-001 3.073767e-001 3.806215e-001 2.816419e-001 3.071361e-001 2.774976e-001 3.085561e-001 3.802046e-001 8.575191e-002
<GCONST> 1.019105e+002
<STATE> 3
<MEAN> 39
 1.330124e+001 -6.595849e+000 1.085212e+001 6.915843e+000 -3.545906e+000 2.002683e+000 -5.211669e+000 -7.942156e-001 -2.148198e+000 -6.652062e+000 -8.010089e+000 -8.959689e+000 6.707855e+001 1.279661e-001 -7.661469e-002 -2.919221e-001 -3.745639e-001 -4.511496e-001 -2.493756e-001 1.263877e-001 -7.791245e-002 -2.398169e-001 -3.623495e-003 3.470577e-001 4.934428e-001 1.992302e-001 1.047884e-001 -2.598835e-001 -2.990308e-001 -3.743699e-001 -3.455485e-001 -3.201493e-001 -1.933536e-002 -2.073023e-001 -1.432372e-001 7.575167e-002 2.262366e-001 4.226581e-001 2.841865e-001
<VARIANCE> 39
 1.074052e+001 1.161225e+001 1.448088e+001 6.894281e+001 2.619120e+001 7.527285e+001 2.888181e+001 3.262926e+001 7.368404e+001 3.554676e+001 3.136381e+001 2.240937e+001 7.517888e+000 4.507624e-001 6.242540e-001 9.849827e-001 1.881945e+000 1.781546e+000 1.641036e+000 1.586152e+000 1.430333e+000 1.257704e+000 1.096521e+000 1.101350e+000 1.295082e+000 6.387973e-001 6.915188e-002 2.040894e-001 2.129164e-001 4.176719e-001 4.306351e-001 2.586669e-001 3.511242e-001 2.641641e-001 2.908032e-001 2.662459e-001 2.658200e-001 3.117047e-001 8.213669e-002
<GCONST> 9.695546e+001
<STATE> 4
<MEAN> 39
 1.334409e+001 -7.405903e+000 8.815455e+000 5.070986e+000 -6.349616e+000 4.861591e-001 -4.713427e+000 -2.243758e+000 -3.858282e+000 -6.234201e+000 -5.973207e+000 -5.559188e+000 6.742587e+001 1.784907e-001 -1.076188e+000 -8.712137e-001 -8.656507e-001 -7.554131e-001 -8.374295e-001 7.857680e-002 -6.409883e-001 -3.300158e-001 3.405141e-001 6.821557e-001 1.183615e+000 8.950659e-001 -1.835661e-001 -4.075565e-001 1.150481e-001 9.450540e-002 1.861442e-001 -1.696462e-001 -1.010888e-001 -1.078649e-001 8.749312e-002 1.529718e-001 -6.622449e-003 -4.355609e-002 1.783017e-001
<VARIANCE> 39
 2.426620e+001 1.573314e+001 2.420374e+001 9.219869e+001 4.436774e+001 6.640968e+001 3.404324e+001 3.580336e+001 6.934228e+001 3.900664e+001 3.781617e+001 2.742445e+001 2.776081e+001 1.054632e+000 1.933592e+000 2.523315e+000 5.430340e+000 4.711404e+000 3.394845e+000 4.279834e+000 2.784818e+000 2.444828e+000 2.724457e+000 2.069589e+000 2.466501e+000 1.903206e+000 1.115353e-001 2.855913e-001 3.813518e-001 4.949761e-001 4.937561e-001 6.823272e-001 5.307624e-001 3.716271e-001 4.180133e-001 3.883409e-001 3.506469e-001 4.094383e-001 1.448070e-001
<GCONST> 1.178310e+002
<TRANSP> 5
 0.000000e+000 1.000000e+000 0.000000e+000 0.000000e+000 0.000000e+000
 0.000000e+000 6.629366e-001 3.370635e-001 0.000000e+000 0.000000e+000
 0.000000e+000 0.000000e+000 6.373655e-001 3.626345e-001 0.000000e+000
 0.000000e+000 0.000000e+000 0.000000e+000 4.507564e-001 5.492436e-001
 0.000000e+000 0.000000e+000 0.000000e+000 0.000000e+000 0.000000e+000
<ENDHMM>
~h "n"
<BEGINHMM>
<NUMSTATES> 5
<STATE> 2
<MEAN> 39
 1.329041e+001 -8.606008e+000 1.114011e+001 7.013880e+000 -2.900028e+000 1.459040e+000 -7.499907e+000 -6.362405e+000 -5.149133e+000 -4.817132e+000 -6.766308e+000 -6.908649e+000 6.852146e+001 -6.855213e-002 1.144259e+000 1.211401e-001 1.226140e+000 4.776295e-001 4.725849e-001 1.577479e-001 -3.467068e-002 2.710687e-001 -5.883994e-002 -6.839333e-001 -7.196152e-001 -1.004995e+000 -1.017284e-001 -2.971072e-001 -2.203644e-002 -1.285923e-001 -9.233131e-002 -1.627728e-001 1.001417e-001 1.916672e-001 5.685571e-002 3.301193e-002 1.645163e-001 2.256524e-001 1.392511e-001
<VARIANCE> 39
 1.373963e+001 2.324117e+001 2.204606e+001 9.079943e+001 3.162238e+001 1.053808e+002 4.598204e+001 2.799954e+001 7.538515e+001 3.241726e+001 2.736918e+001 2.460890e+001 1.458712e+001 4.745523e-001 1.479182e+000 1.804611e+000 3.886756e+000 2.498466e+000 2.754026e+000 2.994614e+000 1.944403e+000 1.713310e+000 1.906070e+000 2.266686e+000 2.169637e+000 9.636889e-001 9.101966e-002 3.230228e-001 3.056600e-001 7.877175e-001 4.825132e-001 4.814646e-001 6.160201e-001 3.894511e-001 3.846815e-001 3.728652e-001 4.792814e-001 4.271459e-001 1.657790e-001
<GCONST> 1.121721e+002
<STATE> 3
<MEAN> 39
 1.288207e+001 -6.974912e+000 1.161509e+001 8.672232e+000 -2.403264e+000 5.772651e-001 -7.763423e+000 -6.259175e+000 -5.667539e+000 -5.560531e+000 -8.045044e+000 -7.951655e+000 6.698627e+001 -1.747783e-001 -1.723788e-001 -3.734277e-001 -1.778382e-001 5.980755e-002 2.716476e-001 6.937101e-001 6.830886e-001 -8.514838e-002 -2.441392e-001 4.500790e-001 6.204256e-001 -1.281772e-001 -1.771387e-001 -6.491152e-001 -2.393950e-001 -7.591062e-001 -3.044479e-001 -1.884675e-001 2.919522e-001 3.398575e-001 -3.730502e-002 1.527221e-002 3.977487e-001 5.060100e-001 3.651116e-001
<VARIANCE> 39
 1.235648e+001 1.607489e+001 2.026392e+001 6.509558e+001 2.682902e+001 8.600954e+001 3.970107e+001 2.653204e+001 7.417276e+001 3.278480e+001 2.137786e+001 1.816928e+001 9.311193e+000 8.693909e-001 1.691435e+000 1.947125e+000 4.122864e+000 1.870154e+000 3.668150e+000 3.089677e+000 2.014862e+000 1.661195e+000 2.285545e+000 1.701007e+000 1.710456e+000 2.113856e+000 1.733896e-001 3.726076e-001 4.451548e-001 7.498677e-001 6.344864e-001 4.983622e-001 5.679112e-001 3.915127e-001 3.470219e-001 4.678755e-001 3.516069e-001 4.170006e-001 2.124674e-001
<GCONST> 1.124418e+002
<STATE> 4
<MEAN> 39
 1.233047e+001 -8.483495e+000 1.031642e+001 6.716861e+000 -3.228931e+000 7.705440e-001 -5.565604e+000 -3.839510e+000 -5.720260e+000 -6.148267e+000 -6.378111e+000 -5.725494e+000 6.757416e+001 -5.725937e-001 -1.116239e+000 -8.569754e-001 -1.537168e+000 -6.873476e-001 -2.591799e-002 1.245517e+000 1.066809e+000 -1.036594e-001 3.897101e-003 1.080359e+000 1.238785e+000 2.870369e-001 -2.387137e-001 -4.928505e-001 8.620203e-003 -4.491367e-001 -2.244830e-001 -1.898649e-001 -6.875928e-003 -4.726199e-002 2.692813e-002 2.301801e-001 8.402325e-002 1.002962e-001 2.379484e-001
<VARIANCE> 39
 1.855592e+001 2.574255e+001 3.400222e+001 1.181211e+002 2.582550e+001 6.845926e+001 4.117708e+001 2.756293e+001 7.106196e+001 3.213061e+001 2.958302e+001 2.079302e+001 2.980399e+001 1.709752e+000 2.112014e+000 3.738705e+000 5.921358e+000 4.096265e+000 4.986458e+000 3.821764e+000 2.546421e+000 2.227269e+000 3.775305e+000 2.053895e+000 2.151621e+000 3.181597e+000 1.724657e-001 7.398995e-001 4.902899e-001 9.073552e-001 5.595676e-001 5.130336e-001 5.936418e-001 5.650330e-001 3.347663e-001 3.979736e-001 3.663114e-001 4.251753e-001 3.533306e-001
<GCONST> 1.225275e+002
<TRANSP> 5
 0.000000e+000 1.000000e+000 0.000000e+000 0.000000e+000 0.000000e+000
 0.000000e+000 6.242093e-001 3.757907e-001 0.000000e+000 0.000000e+000
 0.000000e+000 0.000000e+000 4.000726e-001 5.999274e-001 0.000000e+000
 0.000000e+000 0.000000e+000 0.000000e+000 2.590494e-001 7.409506e-001
 0.000000e+000 0.000000e+000 0.000000e+000 0.000000e+000 0.000000e+000
<ENDHMM>
~h "o"
<BEGINHMM>
<NUMSTATES> 5
<STATE> 2
<MEAN> 39
 1.631878e+001 -5.520472e+000 9.202747e+000 -9.751903e-001 -1.469708e+001 -7.379872e+000 -5.113300e+000 -1.779292e+000 -3.800360e+000 -5.835351e+000 -6.544188e+000 -4.732795e+000 7.136027e+001 1.075623e+000 1.518295e+000 -7.574793e-001 -6.979154e-001 -1.997681e+000 -2.374380e+000 -5.148730e-001 -1.418764e-001 1.652080e-001 -7.361941e-001 -9.069149e-001 -7.633916e-001 5.244586e-001 -6.485944e-001 -6.178551e-001 5.319005e-002 2.297750e-001 5.806816e-001 5.738438e-001 1.865541e-001 1.076545e-001 -1.888316e-002 2.605667e-001 2.479492e-001 1.645403e-001 -2.764215e-001
<VARIANCE> 39
 1.240756e+001 4.258447e+001 2.322673e+001 1.367150e+002 2.900305e+001 6.687013e+001 3.512479e+001 5.210923e+001 5.098141e+001 4.606009e+001 3.925570e+001 2.134033e+001 1.395609e+001 1.523594e+000 3.716775e+000 3.070229e+000 2.982302e+000 3.525415e+000 4.013356e+000 3.641166e+000 5.007501e+000 3.001777e+000 5.232673e+000 3.420986e+000 1.743370e+000 1.130827e+000 2.746985e-001 6.494008e-001 5.115604e-001 5.110566e-001 5.345942e-001 8.214260e-001 5.477488e-001 6.196041e-001 5.056682e-001 6.777751e-001 6.380112e-001 4.388508e-001 1.973015e-001
<GCONST> 1.234489e+002
<STATE> 3
<MEAN> 39
 1.618936e+001 -4.017859e+000 8.845132e+000 -2.007560e+000 -1.790762e+001 -1.097827e+001 -5.428768e+000 -6.541646e-001 -3.297703e+000 -6.348227e+000 -7.177754e+000 -5.822927e+000 7.149862e+001 -4.953262e-002 -3.610845e-001 -2.556211e-001 -1.093505e-001 -2.551095e-002 2.721614e-001 3.771269e-001 -5.554722e-002 -2.389619e-001 -2.263433e-001 -1.937548e-001 -2.293917e-002 1.390955e-001 -1.943432e-001 -3.445089e-001 1.234525e-001 2.005257e-001 5.247969e-001 5.999153e-001 1.466393e-001 -1.253701e-001 -1.381280e-001 1.293218e-001 1.620878e-001 2.146384e-001 -9.473356e-002
<VARIANCE> 39
 9.622390e+000 3.753456e+001 2.535186e+001 1.425083e+002 2.309704e+001 5.379299e+001 3.380216e+001 6.666011e+001 4.013811e+001 5.919789e+001 2.757730e+001 1.621245e+001 1.185022e+001 3.204421e-001 1.475263e+000 1.340118e+000 1.188106e+000 1.681013e+000 2.538934e+000 1.811050e+000 2.318408e+000 2.082680e+000 1.863956e+000 1.929154e+000 1.327080e+000 5.944917e-001 1.454393e-001 2.318547e-001 3.012075e-001 2.873387e-001 3.250092e-001 3.887260e-001 3.814817e-001 4.839450e-001 3.158123e-001 4.954699e-001 3.641621e-001 2.937507e-001 8.864044e-002
<GCONST> 1.052222e+002
<STATE> 4
<MEAN> 39
 1.544448e+001 -9.724355e+000 6.580752e+000 -2.863603e+000 -1.274010e+001 -5.196468e+000 -3.510936e+000 -4.717461e+000 -8.274255e+000 -7.884181e+000 -7.248418e+000 -3.219640e+000 7.336877e+001 -4.965759e-001 -9.293706e-001 2.833104e-001 1.055874e+000 1.984443e+000 1.319068e+000 -3.068934e-001 -1.231454e+000 -5.660461e-001 6.660488e-001 7.129731e-001 7.187155e-001 -1.469927e-001 -2.261395e-001 5.186423e-002 3.336046e-001 3.483019e-001 3.318639e-001 1.281742e-002 -2.796923e-001 1.836510e-001 3.806021e-001 3.232866e-001 1.125502e-001 -1.534092e-001 -2.474371e-001
<VARIANCE> 39
 1.560494e+001 3.881240e+001 2.360580e+001 1.497873e+002 4.283439e+001 8.014114e+001 3.919552e+001 7.636154e+001 5.832802e+001 4.526699e+001 2.803142e+001 1.623083e+001 1.461222e+001 5.239035e-001 1.965880e+000 2.404678e+000 2.360052e+000 2.914491e+000 3.324246e+000 4.407541e+000 5.017882e+000 2.860431e+000 3.178430e+000 2.240849e+000 2.413937e+000 9.948942e-001 1.307466e-001 2.910715e-001 3.481811e-001 3.266897e-001 3.743655e-001 5.341434e-001 5.459118e-001 6.872336e-001 5.352535e-001 5.313469e-001 5.120029e-001 4.004079e-001 1.248926e-001
<GCONST> 1.171486e+002
<TRANSP> 5
 0.000000e+000 1.000000e+000 0.000000e+000 0.000000e+000 0.000000e+000
 0.000000e+000 5.101024e-001 4.898976e-001 0.000000e+000 0.000000e+000
 0.000000e+000 0.000000e+000 7.024364e-001 2.975636e-001 0.000000e+000
 0.000000e+000 0.000000e+000 0.000000e+000 5.717574e-001 4.282425e-001
 0.000000e+000 0.000000e+000 0.000000e+000 0.000000e+000 0.000000e+000
<ENDHMM>
~h "p"
<BEGINHMM>
<NUMSTATES> 5
<STATE> 2
<MEAN> 39
 5.867906e+000 -7.174176e+000 4.413608e+000 8.403180e+000 -6.124062e+000 3.464099e+000 -2.566209e-001 -2.384505e+000 -2.647953e+000 -2.115033e+000 -1.719344e+000 -1.003000e+000 5.750770e+001 -1.227385e+000 -3.270786e-001 -7.281403e-001 -7.912147e-002 -5.279265e-001 -3.286439e-001 -5.486535e-002 4.672016e-002 1.076610e-001 1.646538e-001 3.778449e-001 5.656338e-001 -1.311100e+000 2.784764e-001 -4.086094e-001 9.843871e-002 -3.935440e-001 -2.049027e-002 -1.676508e-001 -2.209670e-001 -1.351244e-001 -4.904678e-002 2.797060e-002 -2.024407e-002 -4.529159e-003 6.980863e-001
<VARIANCE> 39
 1.798321e+001 2.468601e+001 2.820694e+001 4.870986e+001 2.187893e+001 2.699990e+001 2.426577e+001 2.490625e+001 2.240368e+001 1.553908e+001 1.837453e+001 1.770030e+001 1.399390e+001 1.192734e+000 1.991806e+000 1.705171e+000 3.372685e+000 2.541823e+000 3.305920e+000 2.218277e+000 2.304574e+000 1.522161e+000 1.727426e+000 1.376350e+000 1.381967e+000 2.340495e+000 2.252896e-001 4.092355e-001 4.799834e-001 6.935257e-001 6.896758e-001 7.952603e-001 5.110054e-001 4.848715e-001 3.250424e-001 3.042082e-001 2.659165e-001 2.363629e-001 2.619685e-001
<GCONST> 1.089946e+002
<STATE> 3
<MEAN> 39
 3.410566e+000 -1.089543e+001 3.422498e+000 5.616892e+000 -8.247346e+000 1.727017e+000 -1.587549e+000 -1.946884e+000 -2.031208e+000 -8.046464e-001 -5.111370e-001 6.986899e-001 5.723434e+001 1.526750e+000 -8.075734e-001 1.404248e+000 -4.102040e-001 1.163970e+000 9.957402e-001 2.336106e-001 1.454627e-001 3.639063e-001 6.903462e-001 7.843269e-002 4.412735e-001 2.549607e+000 9.485255e-001 1.651448e-001 4.486697e-001 -7.242385e-002 3.285272e-001 -2.913175e-002 -1.340370e-001 -2.098272e-001 -5.622469e-002 -1.502996e-002 -2.014479e-001 -2.487652e-001 1.115843e+000
<VARIANCE> 39
 1.246885e+001 1.441139e+001 2.620934e+001 4.332812e+001 1.757879e+001 2.716066e+001 1.734707e+001 1.987019e+001 1.981657e+001 1.451455e+001 1.259901e+001 1.233274e+001 1.546325e+001 3.681703e+000 2.767810e+000 3.594312e+000 3.339729e+000 4.514943e+000 3.773984e+000 2.441648e+000 3.175557e+000 2.163027e+000 2.104545e+000 1.876796e+000 2.050487e+000 3.461778e+000 2.809895e-001 4.061572e-001 7.102306e-001 6.612440e-001 9.924125e-001 9.688112e-001 5.573301e-001 7.280548e-001 3.942703e-001 4.339058e-001 3.489728e-001 2.978262e-001 3.870409e-001
<GCONST> 1.143095e+002
<STATE> 4
<MEAN> 39
 1.219261e+001 -1.230949e+001 9.840973e+000 2.572024e+000 -3.204961e+000 3.305992e+000 -1.135166e+000 -1.420263e+000 -1.269699e+000 1.403940e+000 -1.491919e+000 1.065316e+000 7.007439e+001 2.842729e+000 3.471338e-001 7.516988e-003 -1.290323e+000 -3.018170e-001 -1.664337e+000 -1.405610e+000 -1.156163e+000 -3.015865e-001 -5.835623e-001 -5.767800e-001 -1.035636e+000 3.476833e+000 -5.348296e-001 1.879836e-001 -8.134658e-001 -5.031529e-002 -6.971043e-001 -8.088839e-001 -5.471420e-001 -3.476187e-001 -3.634128e-001 -5.918492e-001 -1.849413e-001 -4.807475e-001 -7.431945e-001
<VARIANCE> 39
 3.470628e+001 4.687783e+001 3.599022e+001 1.223249e+002 6.924350e+001 7.640771e+001 3.658033e+001 5.768487e+001 2.764795e+001 3.161263e+001 2.255626e+001 1.885106e+001 2.802251e+001 2.544759e+000 5.000031e+000 7.989216e+000 7.067712e+000 1.004193e+001 7.872436e+000 5.689776e+000 7.570427e+000 3.689298e+000 5.536649e+000 3.021539e+000 2.520541e+000 3.484884e+000 6.917256e-001 8.434844e-001 6.732417e-001 7.451278e-001 1.177447e+000 1.219110e+000 7.616825e-001 8.487721e-001 5.375888e-001 7.705484e-001 4.990823e-001 5.514288e-001 5.029170e-001
<GCONST> 1.366920e+002
<TRANSP> 5
 0.000000e+000 1.000000e+000 0.000000e+000 0.000000e+000 0.000000e+000
 0.000000e+000 8.092394e-001 1.907606e-001 0.000000e+000 0.000000e+000
 0.000000e+000 0.000000e+000 5.972065e-001 4.027935e-001 0.000000e+000
 0.000000e+000 0.000000e+000 0.000000e+000 5.794677e-001 4.205323e-001
 0.000000e+000 0.000000e+000 0.000000e+000 0.000000e+000 0.000000e+000
<ENDHMM>
~h "s"
<BEGINHMM>
<NUMSTATES> 5
<STATE> 2
<MEAN> 39
 2.005367e+000 -2.038706e+001 2.582026e+001 -5.488276e+000 -2.001125e+000 9.796544e+000 -6.004806e+000 -1.587450e+000 -7.307651e+000 1.860689e+000 -4.378144e+000 -2.260185e+000 7.396958e+001 -3.924255e+000 -2.790382e+000 3.056808e+000 -2.155448e+000 1.461597e+000 2.241410e+000 5.679681e-002 2.849530e+000 7.960402e-001 1.185697e+000 9.880539e-001 9.387205e-001 2.589386e-001 -6.813528e-002 -1.811314e-001 -8.420340e-001 -1.519869e-001 -4.817518e-001 -7.213572e-001 -2.175380e-001 -2.030504e-001 8.024593e-002 -1.443538e-001 4.350382e-002 -1.077313e-001 -5.443324e-002
<VARIANCE> 39
 5.750492e+001 4.142161e+001 5.756243e+001 1.572425e+002 6.930011e+001 5.557703e+001 7.294405e+001 7.593213e+001 2.947720e+001 3.461092e+001 4.802533e+001 1.755872e+001 8.986176e+000 2.115310e+000 3.156515e+000 6.052256e+000 2.969347e+000 4.364783e+000 5.549415e+000 3.681195e+000 5.083619e+000 3.414585e+000 3.400271e+000 2.502687e+000 1.630621e+000 6.632460e-001 7.151973e-001 6.621031e-001 1.044309e+000 4.832565e-001 5.973668e-001 6.469819e-001 5.524277e-001 1.272610e+000 4.404008e-001 4.302536e-001 4.967452e-001 2.892141e-001 9.909119e-002
<GCONST> 1.270018e+002
<STATE> 3
<MEAN> 39
 -9.333768e+000 -3.004496e+001 2.755250e+001 -1.055832e+001 -4.292585e+000 1.137167e+001 -7.928532e+000 2.326162e+000 -5.057305e+000 3.836112e+000 -5.875376e-001 -5.595075e-001 7.372362e+001 -2.662671e-001 -3.862815e-001 -3.366981e-001 -1.511410e-001 -2.116510e-001 -2.938823e-001 -1.006316e-001 -2.193429e-001 6.255623e-002 2.617751e-001 1.472303e-001 1.491875e-001 -5.868553e-002 7.149635e-001 4.731812e-001 -2.464735e-001 5.780005e-001 1.329481e-003 -2.041448e-001 1.430265e-001 -3.806802e-001 -1.317109e-001 -1.177649e-001 -1.367052e-001 -7.215215e-002 -8.427348e-003
<VARIANCE> 39
 9.158778e+000 2.261651e+001 1.431756e+001 1.356202e+002 6.024743e+001 2.243676e+001 3.941831e+001 3.603240e+001 1.568705e+001 3.103806e+001 2.580005e+001 1.011201e+001 4.829705e+000 2.067557e+000 1.168151e+000 1.273055e+000 2.325128e+000 1.152457e+000 1.229368e+000 1.841941e+000 1.720731e+000 1.126169e+000 1.475791e+000 1.389649e+000 1.006300e+000 2.762921e-001 3.054800e-001 2.860298e-001 3.511477e-001 3.556405e-001 2.738568e-001 3.498339e-001 3.140927e-001 4.398164e-001 2.850623e-001 3.149424e-001 2.739670e-001 2.079410e-001 5.900886e-002
<GCONST> 9.845413e+001
<STATE> 4
<MEAN> 39
 -3.802224e-001 -2.421196e+001 2.261519e+001 -4.624609e+000 -3.171908e+000 6.737490e+000 -6.494894e+000 -2.891950e+000 -6.583421e+000 3.708414e+000 -2.246963e+000 -5.223915e-001 7.337851e+001 4.582634e+000 3.303956e+000 -2.650691e+000 3.151842e+000 -7.129367e-001 -2.242323e+000 2.441330e-002 -2.576969e+000 -7.747222e-001 -1.628772e+000 -9.012966e-001 -8.555557e-001 -4.499045e-002 2.560076e-001 2.786776e-001 -4.607731e-001 -1.618126e-001 -2.569562e-001 -3.938378e-001 -2.402537e-001 2.180685e-002 5.722658e-002 -4.497662e-001 -1.460337e-001 -2.224543e-001 5.108052e-002
<VARIANCE> 39
 7.259448e+001 5.959404e+001 4.371585e+001 1.688814e+002 4.238520e+001 5.951879e+001 4.223383e+001 6.020856e+001 2.660701e+001 5.530448e+001 4.320435e+001 1.771825e+001 6.204930e+000 3.065558e+000 3.727980e+000 3.297776e+000 4.727525e+000 4.167562e+000 5.734097e+000 3.355285e+000 4.333214e+000 2.907336e+000 4.279213e+000 2.666161e+000 1.723091e+000 8.986310e-001 1.228657e+000 1.111954e+000 5.645276e-001 9.566913e-001 4.229243e-001 6.629066e-001 5.398330e-001 9.529642e-001 4.536156e-001 8.360029e-001 5.373077e-001 3.621259e-001 1.140973e-001
<GCONST> 1.283452e+002
<TRANSP> 5
 0.000000e+000 1.000000e+000 0.000000e+000 0.000000e+000 0.000000e+000
 0.000000e+000 7.004064e-001 2.995936e-001 0.000000e+000 0.000000e+000
 0.000000e+000 0.000000e+000 8.665072e-001 1.334928e-001 0.000000e+000
 0.000000e+000 0.000000e+000 0.000000e+000 6.939822e-001 3.060178e-001
 0.000000e+000 0.000000e+000 0.000000e+000 0.000000e+000 0.000000e+000
<ENDHMM>
~h "t"
<BEGINHMM>
<NUMSTATES> 5
<STATE> 2
<MEAN> 39
 5.153692e+000 -8.688672e+000 6.367257e+000 7.649004e+000 -6.433626e+000 3.085539e+000 -1.555012e+000 -3.316866e+000 -3.680214e+000 -2.287936e+000 -2.411289e+000 -1.261932e+000 5.854382e+001 -1.102564e+000 -2.290537e-001 -1.414784e+000 -1.223396e-002 -7.150087e-001 -5.342644e-001 3.419495e-001 4.102061e-001 3.679065e-001 1.575142e-001 4.125764e-001 5.564054e-001 -1.472335e+000 1.421235e-001 -8.147758e-001 3.156704e-001 -4.895790e-001 2.996250e-002 -1.816627e-001 -2.749507e-001 -1.297639e-001 -1.081249e-001 1.014330e-001 -1.158355e-001 8.902793e-003 9.023096e-001
<VARIANCE> 39
 1.768502e+001 2.761777e+001 5.027537e+001 7.063242e+001 2.505808e+001 3.107667e+001 2.666897e+001 2.616607e+001 2.352928e+001 1.965466e+001 2.305100e+001 2.082466e+001 2.465231e+001 1.227850e+000 3.624827e+000 3.060138e+000 4.349302e+000 2.388579e+000 3.747702e+000 3.119787e+000 2.593628e+000 2.049319e+000 2.240172e+000 1.704421e+000 1.444455e+000 3.176267e+000 1.899997e-001 6.809332e-001 1.008800e+000 8.319660e-001 5.773975e-001 8.707859e-001 5.830297e-001 5.283119e-001 3.718290e-001 4.035679e-001 3.832184e-001 2.843702e-001 5.996636e-001
<GCONST> 1.179991e+002
<STATE> 3
<MEAN> 39
 2.134218e+000 -1.385210e+001 4.693745e+000 5.724210e+000 -8.527443e+000 5.135262e-001 -2.530902e+000 -2.271029e+000 -2.918584e+000 -1.241182e+000 -2.019666e+000 7.892036e-002 5.845041e+001 -1.531665e-001 -3.970373e+000 1.932873e+000 -1.809039e+000 6.624922e-001 3.090602e-001 -5.433431e-001 5.089444e-001 5.279619e-002 9.242456e-001 -1.695028e-001 7.364974e-001 3.236012e+000 4.739324e-001 -3.382558e-001 1.153204e+000 -3.443917e-001 4.790343e-001 2.348322e-001 -1.929536e-001 -1.636263e-001 -3.171320e-001 4.761335e-002 -1.250180e-001 -1.041706e-001 1.302681e+000
<VARIANCE> 39
 1.152398e+001 4.931055e+001 4.415968e+001 6.934116e+001 1.825913e+001 1.972836e+001 1.939700e+001 1.917876e+001 1.899963e+001 2.238575e+001 1.826806e+001 1.458103e+001 2.443166e+001 2.951854e+000 4.892713e+000 5.516023e+000 5.623994e+000 3.787712e+000 3.767926e+000 3.806375e+000 3.005178e+000 1.897617e+000 3.401189e+000 2.251281e+000 2.454938e+000 3.168575e+000 4.983083e-001 9.772894e-001 8.344536e-001 7.380612e-001 5.453298e-001 7.688319e-001 5.422456e-001 6.095335e-001 3.797602e-001 5.817105e-001 4.116449e-001 2.897500e-001 5.315517e-001
<GCONST> 1.211648e+002
<STATE> 4
<MEAN> 39
 4.763936e+000 -2.343348e+001 1.467475e+001 -1.368837e+000 -4.581061e+000 3.396368e+000 -3.907833e+000 -1.831714e+000 -4.774788e+000 1.499580e+000 -2.791089e+000 1.638539e+000 7.162509e+001 1.756341e+000 -4.227897e-001 1.391303e+000 -8.284330e-001 3.071665e-001 -2.869836e-001 -3.313280e-001 -1.234560e+000 -1.112070e+000 -3.318206e-001 -2.793671e-001 -3.779582e-002 3.103245e+000 2.420938e-001 1.283954e+000 -9.829001e-001 6.508079e-001 -4.022470e-001 -5.293016e-001 8.300808e-002 -4.117301e-001 -7.771105e-002 -5.101784e-001 -8.121126e-002 -3.848089e-001 -8.250065e-001
<VARIANCE> 39
 3.898791e+001 3.968431e+001 3.866994e+001 1.380701e+002 4.055803e+001 6.073584e+001 4.384954e+001 3.754874e+001 3.058694e+001 4.297069e+001 3.249731e+001 1.571431e+001 1.784150e+001 5.986140e+000 1.028607e+001 9.673474e+000 7.146467e+000 4.877873e+000 6.067895e+000 5.204729e+000 6.634539e+000 2.947352e+000 5.982316e+000 3.378270e+000 2.540363e+000 4.895405e+000 5.626798e-001 1.011238e+000 1.085371e+000 1.009185e+000 8.341227e-001 8.635036e-001 8.295612e-001 1.046572e+000 5.936326e-001 9.994009e-001 6.121087e-001 4.830118e-001 6.083477e-001
<GCONST> 1.378318e+002
<TRANSP> 5
 0.000000e+000 1.000000e+000 0.000000e+000 0.000000e+000 0.000000e+000
 0.000000e+000 7.346547e-001 2.653452e-001 0.000000e+000 0.000000e+000
 0.000000e+000 0.000000e+000 4.783117e-001 5.216883e-001 0.000000e+000
 0.000000e+000 0.000000e+000 0.000000e+000 5.859583e-001 4.140417e-001
 0.000000e+000 0.000000e+000 0.000000e+000 0.000000e+000 0.000000e+000
<ENDHMM>
~h "u"
<BEGINHMM>
<NUMSTATES> 5
<STATE> 2
<MEAN> 39
 1.260677e+001 -8.766064e+000 1.099166e+001 2.500456e+000 -9.156322e+000 -2.960578e+000 -4.046933e+000 -2.667350e+000 -7.362735e+000 -7.214235e+000 -6.957736e+000 -3.981599e+000 6.860163e+001 9.243492e-001 1.136923e+000 -4.824225e-001 -1.657508e-001 -1.009972e+000 -1.051372e+000 6.795273e-002 1.406952e-001 -1.818002e-001 -1.104426e+000 -1.005154e+000 -7.088451e-001 1.805227e-001 -4.475039e-001 -1.610026e-001 5.226406e-002 1.841743e-001 3.659907e-001 3.070235e-001 -2.931789e-002 1.135107e-001 3.332808e-001 4.029409e-001 2.108663e-001 3.473794e-002 -2.748871e-001
<VARIANCE> 39
 2.629029e+001 7.412762e+001 2.645719e+001 1.297010e+002 4.337109e+001 8.841529e+001 5.036824e+001 4.752557e+001 6.900571e+001 3.938936e+001 4.469332e+001 2.587087e+001 2.324818e+001 1.956174e+000 4.423698e+000 3.586439e+000 3.557085e+000 3.805277e+000 4.160422e+000 3.975235e+000 4.709171e+000 3.107728e+000 4.318661e+000 3.445186e+000 2.348288e+000 1.973103e+000 2.821149e-001 7.564360e-001 5.440111e-001 6.178545e-001 5.049117e-001 8.182710e-001 5.897976e-001 6.109652e-001 6.862433e-001 6.537111e-001 5.600713e-001 4.336514e-001 3.192143e-001
<GCONST> 1.293969e+002
<STATE> 3
<MEAN> 39
 1.302491e+001 -9.118301e+000 1.005372e+001 4.667847e-001 -1.025120e+001 -5.071698e+000 -3.756231e+000 -2.166597e+000 -8.324093e+000 -9.313416e+000 -9.665195e+000 -5.492444e+000 6.975610e+001 -3.674512e-001 1.015678e-001 2.205453e-002 5.326496e-001 5.887575e-001 5.368409e-001 1.624305e-001 -1.315648e-001 1.048151e-001 2.569853e-001 1.449107e-001 1.393088e-001 -3.881464e-001 -5.513065e-001 -3.562572e-001 2.450957e-001 3.052135e-001 6.312312e-001 5.954060e-001 -2.707672e-003 -6.046812e-004 2.356105e-001 6.215975e-001 5.133369e-001 2.550510e-001 -2.621911e-001
<VARIANCE> 39
 2.437476e+001 5.701479e+001 2.546219e+001 1.407545e+002 5.190831e+001 9.898396e+001 5.056038e+001 4.536738e+001 6.835356e+001 3.640164e+001 4.607849e+001 2.846125e+001 1.719946e+001 1.155453e+000 3.885664e+000 3.089356e+000 3.161212e+000 3.683267e+000 4.134631e+000 3.637941e+000 4.943811e+000 3.873573e+000 3.215099e+000 2.792155e+000 2.369519e+000 2.306129e+000 2.890641e-001 6.111028e-001 6.053982e-001 5.835623e-001 5.915440e-001 8.558851e-001 7.614030e-001 7.498402e-001 6.608618e-001 6.531035e-001 6.742184e-001 4.788241e-001 2.871205e-001
<GCONST> 1.286304e+002
<STATE> 4
<MEAN> 39
 9.496903e+000 -8.192283e+000 9.206241e+000 7.187163e+000 -5.305148e+000 2.782371e+000 -1.386047e+000 -1.491385e+000 -3.691825e+000 -4.772488e+000 -4.583157e+000 -2.302630e+000 6.384622e+001 -9.455836e-001 -3.837507e-001 -1.973493e-002 5.745881e-001 8.898198e-001 8.455507e-001 1.903016e-001 1.788711e-001 4.988123e-001 7.597995e-001 6.848642e-001 2.589403e-001 -6.964472e-001 -1.402239e-001 -2.588755e-001 7.274643e-002 -8.584948e-002 3.649994e-002 -9.772819e-003 -6.553243e-002 3.723850e-002 5.666037e-002 1.440482e-001 7.507920e-002 2.232177e-002 7.358922e-002
<VARIANCE> 39
 2.900274e+001 6.303172e+001 3.842098e+001 9.563316e+001 4.810799e+001 7.776091e+001 4.023696e+001 4.206628e+001 6.456696e+001 3.181305e+001 3.946699e+001 2.623063e+001 4.059734e+001 1.530870e+000 3.825476e+000 3.275162e+000 3.027793e+000 3.090590e+000 3.520678e+000 2.987468e+000 2.895835e+000 2.322957e+000 2.413187e+000 2.516948e+000 1.931491e+000 2.133249e+000 2.257885e-001 3.973818e-001 3.718556e-001 4.230646e-001 4.844475e-001 5.195771e-001 4.722792e-001 4.990362e-001 4.270215e-001 4.005551e-001 4.204473e-001 3.309986e-001 2.253108e-001
<GCONST> 1.216879e+002
<TRANSP> 5
 0.000000e+000 1.000000e+000 0.000000e+000 0.000000e+000 0.000000e+000
 0.000000e+000 3.909154e-001 6.090846e-001 0.000000e+000 0.000000e+000
 0.000000e+000 0.000000e+000 4.424865e-001 5.575134e-001 0.000000e+000
 0.000000e+000 0.000000e+000 0.000000e+000 5.265716e-001 4.734284e-001
 0.000000e+000 0.000000e+000 0.000000e+000 0.000000e+000 0.000000e+000
<ENDHMM>
~h "v"
<BEGINHMM>
<NUMSTATES> 5
<STATE> 2
<MEAN> 39
 1.162571e+001 -1.173048e+001 1.118373e+001 4.549604e+000 -3.381422e+000 4.952384e+000 -6.041320e+000 -3.931855e+000 -5.805529e+000 -5.086705e+000 -4.702956e+000 -3.656962e+000 6.790792e+001 -1.188996e+000 -8.651932e-001 1.770056e+000 2.988438e-001 1.035975e+000 1.577286e+000 -7.956748e-002 1.476091e+000 2.380740e-001 5.495077e-002 2.351914e-001 1.318798e-002 -6.159430e-001 -1.504608e-001 -4.277536e-001 9.468709e-002 -1.512474e-001 7.278262e-002 -1.747935e-001 -5.391920e-002 -8.993971e-002 -3.880833e-002 2.773690e-001 2.184823e-001 2.981689e-002 2.962679e-001
<VARIANCE> 39
 1.826524e+001 2.224161e+001 3.947313e+001 9.300987e+001 3.065293e+001 6.876424e+001 2.016462e+001 3.930733e+001 2.837007e+001 2.069954e+001 3.666170e+001 1.992541e+001 1.688373e+001 8.970514e-001 2.406038e+000 2.331022e+000 2.202091e+000 2.522229e+000 2.915238e+000 2.365566e+000 3.298508e+000 1.783599e+000 2.884278e+000 1.979807e+000 1.207421e+000 9.658909e-001 1.028796e-001 2.325766e-001 2.555440e-001 2.737602e-001 2.788259e-001 3.922572e-001 3.240511e-001 4.070148e-001 2.680508e-001 3.459286e-001 2.636203e-001 1.790139e-001 1.192878e-001
<GCONST> 1.067569e+002
<STATE> 3
<MEAN> 39
 7.388154e+000 -1.720531e+001 1.777994e+001 4.035144e+000 5.400879e-001 8.311166e+000 -7.235786e+000 2.319231e-001 -6.348924e+000 -3.975225e+000 -3.275657e+000 -3.867948e+000 6.862294e+001 -8.480257e-001 -1.159226e+000 1.001627e+000 -1.005806e-001 9.523824e-001 5.205759e-001 -2.226617e-001 4.136274e-001 -7.027160e-002 5.118026e-001 4.355641e-001 1.688082e-001 2.427533e-001 4.360933e-001 2.615703e-001 -5.962989e-001 2.717454e-002 -3.561147e-001 -7.168568e-001 -7.357927e-002 -6.377128e-001 -6.742309e-002 -3.303627e-002 -1.282936e-001 -2.708228e-002 2.600204e-001
<VARIANCE> 39
 1.772022e+001 1.731568e+001 2.371880e+001 9.892895e+001 2.294925e+001 6.141059e+001 1.535432e+001 2.630950e+001 2.411209e+001 2.060518e+001 5.991594e+001 1.412258e+001 5.803748e+000 8.208822e-001 1.548270e+000 1.452973e+000 1.171213e+000 1.520210e+000 1.593708e+000 1.152375e+000 2.254769e+000 9.697285e-001 1.418840e+000 1.226538e+000 8.456708e-001 4.473364e-001 1.192874e-001 3.043471e-001 2.367458e-001 2.526585e-001 2.989177e-001 4.369684e-001 2.731661e-001 4.149132e-001 2.120444e-001 3.821489e-001 2.582338e-001 1.886669e-001 1.079633e-001
<GCONST> 9.718063e+001
<STATE> 4
<MEAN> 39
 7.335319e+000 -1.862835e+001 1.872130e+001 8.411781e+000 2.064927e+000 4.076568e+000 -8.704108e+000 -3.112657e+000 -5.915928e+000 -2.785507e+000 -4.647822e+000 -4.302411e+000 7.025784e+001 8.201966e-001 5.749511e-001 -8.281664e-001 3.801785e-001 -6.467426e-001 -1.458253e+000 -3.296850e-001 -1.442506e+000 6.753361e-003 1.004449e-001 -5.291606e-001 -2.305895e-001 4.425327e-001 2.496962e-001 2.826399e-001 -3.314789e-001 -9.354968e-003 -3.184669e-001 -3.411421e-001 -4.928811e-002 -2.527904e-001 3.916200e-002 -6.088331e-003 -3.511112e-002 -6.952786e-002 4.446081e-002
<VARIANCE> 39
 2.391154e+001 2.264967e+001 2.916391e+001 1.631019e+002 2.877040e+001 1.171289e+002 1.909744e+001 4.429372e+001 3.120475e+001 1.816114e+001 7.059921e+001 1.725419e+001 7.877956e+000 1.187108e+000 2.035230e+000 2.082996e+000 2.699598e+000 2.510098e+000 3.500363e+000 1.745409e+000 3.145856e+000 1.233856e+000 1.954755e+000 2.063778e+000 1.088607e+000 5.798229e-001 1.944310e-001 3.381159e-001 3.489236e-001 3.714843e-001 4.175638e-001 5.889808e-001 3.390973e-001 4.558263e-001 2.283532e-001 3.693652e-001 3.867076e-001 1.987123e-001 6.564626e-002
<GCONST> 1.086439e+002
<TRANSP> 5
 0.000000e+000 1.000000e+000 0.000000e+000 0.000000e+000 0.000000e+000
 0.000000e+000 6.078003e-001 3.921997e-001 0.000000e+000 0.000000e+000
 0.000000e+000 0.000000e+000 6.531099e-001 3.468900e-001 0.000000e+000
 0.000000e+000 0.000000e+000 0.000000e+000 7.591310e-001 2.408690e-001
 0.000000e+000 0.000000e+000 0.000000e+000 0.000000e+000 0.000000e+000
<ENDHMM>
~h "w"
<BEGINHMM>
<NUMSTATES> 5
<STATE> 2
<MEAN> 39
 1.594326e+001 -6.106086e+000 5.328654e+000 -4.989487e+000 -1.749916e+001 -9.962270e+000 -4.346713e+000 -6.634467e-001 -4.290797e+000 -6.567047e+000 -6.034998e+000 -5.202874e+000 7.215714e+001 3.119517e-002 9.426168e-001 6.157087e-001 2.735353e-001 -6.404951e-001 -7.628046e-001 -3.502026e-001 4.883773e-001 2.485781e-001 9.502992e-002 -3.292796e-002 -4.589218e-001 -6.120920e-001 -1.039681e-001 -1.336663e-001 1.040074e-001 2.380379e-001 3.150729e-001 2.781496e-001 -1.264626e-002 -2.465775e-001 -5.187280e-002 2.176458e-001 1.177082e-001 7.705364e-002 -9.440766e-002
<VARIANCE> 39
 1.212655e+001 4.016813e+001 3.166329e+001 1.323205e+002 3.067926e+001 7.270358e+001 3.991436e+001 8.119957e+001 4.510446e+001 9.701406e+001 3.823061e+001 1.525420e+001 1.100554e+001 3.059000e-001 1.059086e+000 1.155346e+000 1.608433e+000 2.050626e+000 1.784494e+000 2.198170e+000 2.921743e+000 1.863857e+000 1.737681e+000 2.027026e+000 1.351111e+000 5.549976e-001 6.017787e-002 1.539172e-001 2.064948e-001 2.708638e-001 2.566124e-001 3.244842e-001 4.107239e-001 3.490250e-001 3.526852e-001 4.437281e-001 3.228214e-001 2.621567e-001 5.804123e-002
<GCONST> 1.042296e+002
<STATE> 3
<MEAN> 39
 1.554317e+001 -3.302119e+000 8.161925e+000 -2.317616e+000 -1.710564e+001 -1.058551e+001 -6.040047e+000 -1.081485e+000 -4.825050e+000 -5.756774e+000 -5.513673e+000 -6.482236e+000 6.926124e+001 -3.818981e-001 -1.062089e-002 3.671781e-001 7.967871e-001 9.215918e-001 1.146918e+000 3.966875e-001 -2.618500e-001 -1.580233e-001 2.803876e-001 -5.527055e-002 2.347590e-001 -7.428417e-001 -2.740775e-001 -4.118696e-001 -7.974366e-002 2.208901e-001 5.877104e-001 6.486157e-001 2.048260e-001 -1.269065e-001 -6.320705e-003 5.554159e-002 2.396786e-002 2.805284e-001 -6.577631e-002
<VARIANCE> 39
