~o
<STREAMINFO> 1 39
<VECSIZE> 39<NULLD><MFCC_D_A_0><DIAGC>
~s "silst"
<MEAN> 39
 -1.152339e+01 -2.241556e+00 -8.096504e-01 -1.607183e+00 2.465405e+00 -1.488506e+00 4.588234e-01 1.069682e+00 2.841600e+00 -8.476974e-01 2.453820e-01 -1.593960e-01 4.786081e+01 -8.014067e-02 3.050891e-02 3.206298e-02 4.172228e-02 -3.806232e-02 3.031358e-02 3.004690e-02 3.522696e-02 2.111220e-02 5.797077e-02 8.357225e-02 8.525576e-02 -1.856970e-01 5.683810e-02 2.542188e-02 5.011472e-02 -2.982881e-02 -7.099824e-02 -5.895039e-02 -8.069718e-02 -4.672964e-02 -4.617485e-02 -2.223608e-02 -1.244195e-02 -1.923893e-02 1.202533e-01
<VARIANCE> 39
 2.716417e+01 3.236875e+01 2.823823e+01 2.660266e+01 3.292892e+01 4.627067e+01 3.508828e+01 3.649315e+01 3.814488e+01 3.196448e+01 2.884342e+01 2.589586e+01 6.358802e+01 1.634681e+00 2.220584e+00 2.014450e+00 2.045135e+00 2.453675e+00 2.809942e+00 3.000928e+00 2.553426e+00 2.775929e+00 2.480849e+00 2.230533e+00 1.893124e+00 2.550170e+00 2.824994e-01 3.897731e-01 3.619159e-01 4.001625e-01 4.685469e-01 5.190845e-01 5.653381e-01 4.919474e-01 5.213791e-01 4.821377e-01 4.321079e-01 3.596895e-01 3.660645e-01
<GCONST> 1.173353e+02
~h "E"
<BEGINHMM>
<NUMSTATES> 5
<STATE> 2
<MEAN> 39
 1.363118e+001 -1.569730e+001 9.450521e+000 1.309219e+001 -4.954176e+000 4.841660e+000 -1.353835e+001 -1.992797e+001 -2.931807e+000 5.923363e+000 -5.915718e-001 -2.754696e+000 7.221146e+001 9.788852e-001 -4.740771e-001 2.005206e-001 5.085265e-001 1.748470e-002 -5.693048e-001 -9.141785e-001 -1.503813e+000 -6.665642e-003 1.292283e+000 2.680559e-001 -2.192325e-001 1.397989e+000 -3.334423e-001 1.773489e-001 -2.021401e-001 -2.569933e-001 -1.235356e-001 6.996574e-002 6.455800e-001 8.099449e-001 -3.583114e-003 -4.288585e-001 1.231728e-001 2.539805e-001 -3.994096e-001
<VARIANCE> 39
 5.538192e+001 1.253534e+001 3.416100e+001 5.521201e+001 1.889355e+001 2.375146e+001 2.771937e+001 4.068580e+001 3.077145e+001 1.837970e+001 2.174378e+001 2.158287e+001 3.622248e+001 2.410081e+000 2.085493e+000 2.426980e+000 2.006815e+000 2.170654e+000 2.789115e+000 3.314317e+000 5.470229e+000 2.004464e+000 2.650878e+000 1.453876e+000 1.420585e+000 2.408247e+000 4.163016e-001 4.147325e-001 4.330593e-001 3.943430e-001 2.792341e-001 3.991190e-001 4.690584e-001 7.221636e-001 3.135034e-001 3.173190e-001 3.200252e-001 2.722673e-001 4.204237e-001
<GCONST> 1.137309e+002
<STATE> 3
<MEAN> 39
 1.561394e+001 -1.734073e+001 9.715751e+000 1.299732e+001 -7.320857e+000 3.243263e+000 -1.137862e+001 -2.173309e+001 -5.277934e+000 7.520023e+000 1.843272e+000 -4.722601e-001 7.570335e+001 1.199002e-001 4.449756e-002 -3.781074e-001 -7.642775e-001 -6.062891e-001 4.839635e-001 1.057273e+000 -1.238427e-001 -5.418972e-001 -6.503069e-002 3.584386e-001 6.294624e-001 8.981292e-002 -4.113006e-002 1.782040e-001 -1.565543e-002 -1.372034e-001 1.850977e-002 2.828623e-001 2.767663e-001 3.364305e-001 4.885374e-002 -2.886431e-001 -1.855103e-001 -2.794807e-003 -2.140398e-001
<VARIANCE> 39
 3.077559e+001 9.228217e+000 2.310182e+001 4.441665e+001 1.625238e+001 3.313332e+001 2.012357e+001 2.489540e+001 3.315055e+001 1.544870e+001 1.731715e+001 1.777781e+001 1.046379e+001 3.244129e-001 8.001364e-001 7.468689e-001 1.650138e+000 1.382548e+000 1.596425e+000 2.135405e+000 1.563386e+000 1.284562e+000 1.265166e+000 1.234361e+000 9.878170e-001 3.028203e-001 9.004485e-002 1.737989e-001 1.452484e-001 1.968917e-001 2.638093e-001 1.734651e-001 2.802187e-001 3.160312e-001 2.060588e-001 1.967173e-001 2.247042e-001 1.847784e-001 1.085626e-001
<GCONST> 8.960031e+001
<STATE> 4
<MEAN> 39
 1.626418e+001 -1.435791e+001 6.318896e+000 6.376345e+000 -1.008984e+001 8.953027e+000 -3.251646e+000 -1.902081e+001 -6.754534e+000 4.615303e+000 8.639991e-001 1.612946e+000 7.425658e+001 -3.880648e-001 1.120549e+000 3.483580e-002 -7.192818e-001 -5.502668e-002 8.611873e-001 1.547252e+000 2.155944e+000 5.599018e-001 -1.325957e+000 -1.000959e+000 -2.171676e-001 -1.004838e+000 -4.313482e-001 -4.350123e-003 2.866050e-001 4.049097e-001 3.961844e-001 -3.049578e-001 -3.724760e-001 6.693468e-001 4.268790e-001 -1.052780e-001 -3.516600e-002 -2.765802e-001 -3.308242e-001
<VARIANCE> 39
 5.382542e+001 2.270307e+001 2.515358e+001 6.371587e+001 3.646172e+001 3.944602e+001 3.822977e+001 4.197223e+001 4.026827e+001 2.881173e+001 2.895818e+001 2.663485e+001 1.879120e+001 1.220771e+000 2.170150e+000 1.948719e+000 2.697432e+000 3.411341e+000 2.659071e+000 3.449807e+000 3.574009e+000 2.020409e+000 2.033787e+000 1.785786e+000 2.284420e+000 1.572075e+000 2.471389e-001 5.193200e-001 4.125798e-001 3.715045e-001 4.771827e-001 4.767177e-001 5.484436e-001 7.190755e-001 4.365983e-001 4.203055e-001 5.032789e-001 4.770117e-001 1.711114e-001
<GCONST> 1.168494e+002
<TRANSP> 5
 0.000000e+000 1.000000e+000 0.000000e+000 0.000000e+000 0.000000e+000
 0.000000e+000 6.243947e-001 3.756053e-001 0.000000e+000 0.000000e+000
 0.000000e+000 0.000000e+000 7.674866e-001 2.325134e-001 0.000000e+000
 0.000000e+000 0.000000e+000 0.000000e+000 6.237479e-001 3.762521e-001
 0.000000e+000 0.000000e+000 0.000000e+000 0.000000e+000 0.000000e+000
<ENDHMM>
~h "J"
<BEGINHMM>
<NUMSTATES> 5
<STATE> 2
<MEAN> 39
 1.574826e+001 -1.361449e+001 1.458884e+001 2.240235e+001 -3.950955e+000 -3.637986e+000 -1.173497e+001 -3.194870e+000 5.284615e+000 -1.872270e+000 -7.932797e+000 -7.247136e+000 7.195664e+001 -2.671966e-001 -1.507951e-001 4.842467e-001 5.393476e-001 7.223809e-002 -5.516465e-001 -5.053189e-001 5.433040e-001 7.862998e-001 2.224234e-001 -3.247092e-001 -6.863903e-001 -4.892490e-002 7.025220e-002 7.022706e-002 -2.076829e-001 -3.876177e-001 -7.797123e-002 3.882982e-001 2.333453e-001 -3.261027e-001 -3.632407e-001 -1.822228e-002 2.644928e-001 3.271731e-001 3.374754e-002
<VARIANCE> 39
 2.845683e+000 1.207212e+001 1.586317e+001 1.044789e+001 1.387522e+001 1.620163e+001 1.580325e+001 4.239769e+001 1.674628e+001 2.427443e+001 2.232616e+001 1.384210e+001 4.491607e+000 2.447333e-001 1.049949e+000 1.105957e+000 2.123521e+000 1.068435e+000 2.137386e+000 2.017327e+000 2.710346e+000 2.079078e+000 1.753617e+000 1.961276e+000 2.454588e+000 2.943338e-001 4.296451e-002 1.421342e-001 2.082940e-001 3.000181e-001 2.354288e-001 3.893553e-001 4.253878e-001 5.553674e-001 2.979434e-001 3.702997e-001 3.661696e-001 2.609491e-001 2.135880e-002
<GCONST> 8.904956e+001
<STATE> 3
<MEAN> 39
 1.520658e+001 -1.569148e+001 1.547727e+001 2.150387e+001 -5.540402e+000 -4.008762e+000 -1.368481e+001 -7.357977e+000 3.453457e+000 1.775010e+000 -3.862297e+000 -6.885299e+000 7.356277e+001 3.570015e-001 -6.475978e-002 -1.039115e+000 -1.184134e+000 6.814549e-002 1.618363e+000 3.716956e-001 -2.205375e+000 -1.414801e+000 8.423252e-001 1.621760e+000 1.201439e+000 2.314380e-001 9.756865e-002 7.627457e-002 -2.061153e-001 -3.591286e-001 -5.668582e-002 5.416529e-001 5.724631e-001 -2.182509e-001 -4.412639e-001 -1.605045e-001 -2.165368e-002 2.701619e-001 -1.603100e-002
<VARIANCE> 39
 2.901342e+000 1.086437e+001 1.534349e+001 1.415902e+001 1.202834e+001 1.726603e+001 8.218644e+000 3.413587e+001 2.218029e+001 1.289464e+001 1.889096e+001 1.504808e+001 8.837791e+000 2.639105e-001 6.841058e-001 8.758334e-001 1.983106e+000 4.347939e-001 1.787257e+000 1.255387e+000 1.670823e+000 1.334776e+000 1.392598e+000 2.004716e+000 1.101846e+000 2.434731e-001 3.228667e-002 1.188505e-001 1.391065e-001 1.851517e-001 1.500571e-001 1.782243e-001 2.542666e-001 3.661408e-001 2.487991e-001 2.886388e-001 2.955755e-001 1.842726e-001 2.180152e-002
<GCONST> 7.970791e+001
<STATE> 4
<MEAN> 39
 1.385010e+001 -1.163638e+001 1.301267e+001 1.609378e+001 -1.988201e+000 4.959539e+000 -1.136552e+001 -2.483112e+000 5.239009e+000 -2.066695e+000 -7.713670e-001 -8.473783e-001 6.866019e+001 1.297345e-001 1.693184e-001 -6.415444e-001 -1.279904e+000 -1.463663e-001 1.453962e+000 1.012962e+000 -9.509032e-001 -8.841902e-001 -7.632487e-002 3.368892e-001 1.164635e+000 2.661172e-002 -5.737969e-002 -5.219651e-002 6.183128e-002 1.050645e-001 3.864292e-003 -7.360475e-002 1.935042e-001 2.892919e-001 1.165338e-001 -1.816508e-001 -3.481516e-001 -1.608243e-001 -7.830749e-003
<VARIANCE> 39
 1.065749e+001 2.203402e+001 1.099597e+001 1.758949e+001 2.407216e+001 2.406716e+001 1.995669e+001 1.384806e+002 5.937466e+001 5.064846e+001 1.927998e+001 1.950855e+001 2.592700e+001 2.461585e-001 8.136846e-001 1.165065e+000 1.827010e+000 1.827044e+000 1.908134e+000 3.027355e+000 2.258277e+000 2.010266e+000 2.395560e+000 1.470595e+000 1.575476e+000 2.293950e-001 3.409354e-002 1.108886e-001 1.437116e-001 1.575163e-001 2.144362e-001 3.049724e-001 3.782127e-001 6.165262e-001 3.564703e-001 3.771704e-001 4.911132e-001 2.552592e-001 2.837932e-002
<GCONST> 9.594498e+001
<TRANSP> 5
 0.000000e+000 1.000000e+000 0.000000e+000 0.000000e+000 0.000000e+000
 0.000000e+000 7.813863e-001 2.186137e-001 0.000000e+000 0.000000e+000
 0.000000e+000 0.000000e+000 5.911248e-001 4.088753e-001 0.000000e+000
 0.000000e+000 0.000000e+000 0.000000e+000 6.496897e-001 3.503104e-001
 0.000000e+000 0.000000e+000 0.000000e+000 0.000000e+000 0.000000e+000
<ENDHMM>
~h "L"
<BEGINHMM>
<NUMSTATES> 5
<STATE> 2
<MEAN> 39
 1.417698e+001 -1.373367e+001 5.813170e+000 1.429595e+001 9.204849e-001 3.599016e+000 -1.168911e+001 -1.029289e+001 -4.989635e+000 -2.505733e+000 3.155212e+000 8.744218e-001 7.139365e+001 -1.005646e+000 1.369187e+000 5.628498e-001 1.501897e+000 3.817170e+000 1.734245e+000 -1.285992e+000 1.610319e+000 1.881491e+000 -2.112685e+000 -1.743972e+000 3.510982e-001 -1.789784e+000 -2.237184e-001 8.296230e-002 3.690745e-001 -6.462350e-002 -1.690688e-001 7.119496e-001 4.935050e-001 -2.346439e-002 5.677242e-001 2.886521e-001 -5.552341e-001 -1.153256e-001 -1.119243e-001
<VARIANCE> 39
 7.489217e+001 2.559510e+001 3.975562e+001 9.538833e+001 4.661718e+001 7.184753e+001 2.642712e+001 3.237138e+001 5.251492e+001 4.414724e+001 2.836860e+001 4.623866e+001 1.906012e+001 3.823021e-001 6.285451e-001 2.875054e+000 3.382397e+000 2.960261e+000 3.013828e+000 3.778035e+000 4.286848e+000 3.117015e+000 5.544606e+000 5.324718e+000 9.825853e-001 4.114498e-001 6.091106e-002 4.944355e-001 2.640410e-001 3.754250e-001 5.624559e-001 7.622866e-001 4.181640e-001 5.620968e-001 3.482008e-001 4.128008e-001 5.190583e-001 4.226800e-001 1.349730e-001
<GCONST> 1.160901e+002
<STATE> 3
<MEAN> 39
 1.136149e+001 -1.075969e+001 1.020116e+001 2.044936e+001 9.364088e+000 1.070467e+001 -1.183121e+001 -4.956758e+000 3.004268e+000 -6.597505e+000 -3.703969e+000 9.868162e-003 6.631915e+001 -1.237689e-001 -3.195189e-001 -5.693644e-002 3.497940e-001 1.141190e-001 1.499551e-002 -3.799708e-001 2.683627e-001 7.248016e-001 -1.120401e-001 -3.202074e-001 -2.848319e-001 -7.484424e-002 3.725724e-001 -3.108709e-001 -3.483171e-001 -3.038779e-001 -7.582656e-001 -7.444789e-001 -6.756730e-002 -5.628988e-001 -7.399054e-001 3.436489e-001 4.754987e-001 -2.095598e-001 4.740863e-001
<VARIANCE> 39
 2.787407e+001 1.629587e+001 2.289953e+001 5.588434e+001 2.753050e+001 3.644384e+001 2.179015e+001 4.134936e+001 2.083582e+001 2.083023e+001 2.732607e+001 2.135315e+001 2.025614e+001 7.450252e-001 1.870368e+000 2.168616e+000 2.280484e+000 2.838163e+000 5.892186e+000 2.073737e+000 3.641664e+000 3.533087e+000 2.058930e+000 2.678433e+000 1.615734e+000 1.188534e+000 4.463881e-002 2.951519e-001 3.568279e-001 5.127801e-001 4.672896e-001 7.494501e-001 5.516117e-001 6.317281e-001 5.146456e-001 5.458058e-001 4.842836e-001 2.167404e-001 1.108153e-001
<GCONST> 1.106513e+002
<STATE> 4
<MEAN> 39
 1.467692e+001 -1.410225e+001 5.049020e+000 1.672583e+001 2.736231e+000 4.432953e+000 -1.447565e+001 -1.220549e+001 -3.602007e+000 -2.995131e+000 1.504690e+000 -1.801909e+000 6.992773e+001 5.467042e-001 1.929930e-001 -6.603774e-001 -1.528517e+000 -1.518076e+000 -2.310056e-001 4.379431e-001 -1.510823e+000 -1.264056e+000 8.719892e-001 8.478507e-001 2.407958e-001 3.883093e-001 -1.404361e-001 3.224240e-001 1.984119e-001 -1.838047e-001 -1.299834e-001 3.265720e-001 4.212660e-001 2.384691e-001 2.053107e-001 -2.572150e-003 -1.943872e-001 1.975109e-001 -2.574991e-001
<VARIANCE> 39
 3.907811e+001 2.232846e+001 2.275544e+001 5.519768e+001 3.937764e+001 5.158091e+001 3.505285e+001 4.818144e+001 6.182466e+001 3.685645e+001 2.594317e+001 2.252852e+001 3.038046e+001 5.653878e-001 1.531532e+000 1.260163e+000 2.227089e+000 2.604818e+000 4.030051e+000 3.940709e+000 3.874223e+000 3.671528e+000 3.427506e+000 3.268071e+000 1.941136e+000 8.395041e-001 9.670645e-002 2.307545e-001 2.094328e-001 3.223128e-001 3.724615e-001 5.320974e-001 5.289215e-001 7.187278e-001 7.472176e-001 6.483064e-001 5.801228e-001 2.807679e-001 8.323634e-002
<GCONST> 1.142087e+002
<TRANSP> 5
 0.000000e+000 1.000000e+000 0.000000e+000 0.000000e+000 0.000000e+000
 0.000000e+000 5.087221e-001 4.912779e-001 0.000000e+000 0.000000e+000
 0.000000e+000 0.000000e+000 7.813718e-001 2.186282e-001 0.000000e+000
 0.000000e+000 0.000000e+000 0.000000e+000 7.895535e-001 2.104466e-001
 0.000000e+000 0.000000e+000 0.000000e+000 0.000000e+000 0.000000e+000
<ENDHMM>
~h "O"
<BEGINHMM>
<NUMSTATES> 5
<STATE> 2
<MEAN> 39
 1.974769e+001 -2.106038e+000 5.226925e+000 2.059304e+000 -1.982087e+001 -2.358396e+000 -8.370257e-001 -7.980364e+000 2.237969e+000 5.227827e+000 -2.261951e+000 -3.554219e+000 7.080490e+001 1.314579e-001 -2.331677e-001 -4.264738e-001 -4.747873e-001 -7.118903e-001 5.215230e-002 6.387367e-001 -4.303659e-001 -8.125535e-002 4.166479e-001 -1.691917e-001 1.328620e-001 2.383023e-001 -1.937808e-001 -3.972897e-001 2.122392e-002 1.179341e-001 3.071156e-001 4.010015e-001 5.725622e-002 1.223804e-001 -1.122252e-001 -2.409702e-001 2.362682e-002 9.769248e-002 -5.372874e-002
<VARIANCE> 39
 1.146293e+001 2.023020e+001 1.690302e+001 1.108210e+001 1.533693e+001 2.604670e+001 1.813383e+001 1.602481e+001 2.492413e+001 2.086335e+001 2.365854e+001 1.330261e+001 9.263028e+000 4.555268e-001 1.744527e+000 8.109529e-001 7.257088e-001 1.489828e+000 2.244190e+000 1.220260e+000 1.241133e+000 1.334073e+000 1.354335e+000 9.695144e-001 9.172224e-001 2.423850e-001 2.024984e-001 3.684469e-001 1.434019e-001 1.598467e-001 2.587442e-001 2.266690e-001 1.817411e-001 2.602452e-001 1.833093e-001 1.773513e-001 1.729845e-001 1.785998e-001 5.833478e-002
<GCONST> 8.616549e+001
<STATE> 3
<MEAN> 39
 1.973644e+001 -8.468137e+000 1.999846e+000 9.003529e-001 -2.030670e+001 2.956179e+000 5.017442e+000 -1.132026e+001 -4.384729e+000 2.705389e+000 -1.940152e+000 -5.711792e-002 7.319508e+001 -1.411944e-001 -1.077421e+000 -1.991273e-001 5.091144e-001 9.671052e-001 1.113558e+000 7.193569e-002 -1.074715e+000 -1.525277e+000 -5.732654e-001 6.702257e-001 9.389629e-001 1.843941e-001 -1.707961e-001 1.839243e-001 1.989724e-001 3.498669e-001 6.574010e-001 -5.926668e-002 -6.055089e-001 9.189156e-002 1.129657e-001 -1.253644e-001 1.301390e-001 -7.013828e-003 -1.687317e-001
<VARIANCE> 39
 2.281426e+001 1.210484e+001 1.345223e+001 9.423657e+000 2.443769e+001 2.772787e+001 1.264521e+001 2.614618e+001 4.626030e+001 1.798975e+001 2.016698e+001 1.704068e+001 8.356601e+000 3.633277e-001 1.535580e+000 9.604035e-001 8.545684e-001 1.692360e+000 1.292756e+000 1.538429e+000 1.706664e+000 2.066245e+000 1.151557e+000 1.205936e+000 1.026954e+000 2.310213e-001 1.132325e-001 2.004816e-001 1.426960e-001 1.748071e-001 2.447144e-001 2.664646e-001 2.833113e-001 3.356714e-001 3.036743e-001 1.561203e-001 2.811165e-001 2.288887e-001 6.394455e-002
<GCONST> 8.862782e+001
<STATE> 4
<MEAN> 39
 1.813373e+001 -1.010373e+001 2.362164e+000 4.525472e+000 -1.335855e+001 5.412345e+000 1.601956e+000 -1.430199e+001 -8.109964e+000 7.111595e-001 4.462868e-001 1.083879e+000 7.303065e+001 -1.233331e+000 -9.036963e-002 9.808183e-001 1.470249e+000 2.868752e+000 9.955235e-001 -1.459921e+000 9.858682e-001 7.082751e-001 -8.997591e-001 -7.766549e-003 5.300422e-002 -9.448570e-001 -5.538421e-001 -2.299337e-002 4.076399e-001 1.887728e-001 2.013884e-001 -1.106553e-001 -5.150553e-002 1.014761e+000 6.285990e-001 -1.598834e-001 -1.962288e-001 -1.560558e-001 -3.823789e-001
<VARIANCE> 39
 4.651030e+001 2.175142e+001 2.774543e+001 2.498428e+001 5.202089e+001 3.507647e+001 2.161687e+001 5.085529e+001 8.628381e+001 1.837872e+001 3.147968e+001 1.987459e+001 1.261561e+001 2.174697e+000 4.524981e+000 3.864317e+000 1.921856e+000 2.812739e+000 1.880247e+000 4.083381e+000 5.972557e+000 3.383110e+000 2.113457e+000 1.944112e+000 1.804116e+000 2.145430e+000 3.457709e-001 6.693351e-001 5.864184e-001 3.481360e-001 7.222939e-001 4.010207e-001 5.875804e-001 5.986454e-001 7.464486e-001 3.317314e-001 5.011460e-001 3.956005e-001 2.081606e-001
<GCONST> 1.192089e+002
<TRANSP> 5
 0.000000e+000 1.000000e+000 0.000000e+000 0.000000e+000 0.000000e+000
 0.000000e+000 8.461055e-001 1.538946e-001 0.000000e+000 0.000000e+000
 0.000000e+000 0.000000e+000 6.638318e-001 3.361682e-001 0.000000e+000
 0.000000e+000 0.000000e+000 0.000000e+000 5.623956e-001 4.376044e-001
 0.000000e+000 0.000000e+000 0.000000e+000 0.000000e+000 0.000000e+000
<ENDHMM>
~h "S"
<BEGINHMM>
<NUMSTATES> 5
<STATE> 2
<MEAN> 39
 1.523927e+000 -3.239764e+001 1.620264e+001 1.606268e+001 2.759292e+000 7.673022e+000 -1.043374e+001 2.482372e+000 2.069843e+000 -1.698279e+000 1.241268e+000 2.372152e+000 7.405087e+001 -2.858119e+000 -3.969524e+000 1.268114e+000 -7.886882e-001 2.804420e-001 1.162237e-002 -4.488824e-001 1.858514e+000 5.037140e-001 5.696495e-001 2.902636e-001 4.876288e-001 1.108657e+000 3.800758e-001 7.559204e-001 -8.197640e-001 -2.447503e-001 -4.319585e-001 -3.409758e-001 9.373568e-002 -7.913864e-001 -2.596969e-001 -1.101638e-002 -2.840370e-001 -2.965613e-001 -2.839268e-001
<VARIANCE> 39
 3.788569e+001 5.351661e+001 3.493378e+001 2.780791e+001 2.844064e+001 2.850874e+001 1.758149e+001 2.713338e+001 1.583076e+001 1.489882e+001 1.453929e+001 1.281460e+001 1.326180e+001 2.391593e+000 3.817343e+000 4.843360e+000 2.667948e+000 2.605326e+000 2.129154e+000 2.307479e+000 4.583444e+000 2.381846e+000 1.675954e+000 1.981356e+000 1.502743e+000 6.642272e-001 4.151019e-001 8.011325e-001 4.631931e-001 3.463137e-001 3.638920e-001 4.042934e-001 4.010785e-001 5.503360e-001 4.281284e-001 3.076514e-001 3.070940e-001 2.263878e-001 1.527467e-001
<GCONST> 1.102898e+002
<STATE> 3
<MEAN> 39
 -3.679793e+000 -3.918179e+001 1.420430e+001 1.274400e+001 6.106015e-001 5.471822e+000 -1.249091e+001 3.108021e+000 2.437827e+000 -1.474904e+000 6.792911e-001 2.134225e+000 7.460281e+001 -1.081224e-002 8.391827e-002 -2.196379e-001 -2.398446e-001 -1.136270e-001 1.218722e-001 5.914767e-002 -2.360980e-001 -2.090750e-001 -4.747547e-002 1.333105e-001 5.053774e-002 -1.306483e-001 4.300357e-001 6.504542e-001 -7.011677e-002 1.480254e-001 1.418787e-002 1.710556e-001 2.294107e-001 -1.289512e-001 -7.453331e-002 -8.660252e-002 7.124001e-002 -4.554051e-003 -2.504503e-001
<VARIANCE> 39
 6.527258e+000 1.447763e+001 2.674465e+001 1.614901e+001 1.138815e+001 1.528649e+001 1.312171e+001 1.534580e+001 1.398923e+001 1.143437e+001 1.542292e+001 9.909266e+000 1.142053e+001 9.097243e-001 1.198711e+000 1.398186e+000 1.293570e+000 1.303147e+000 1.177837e+000 1.342680e+000 1.247271e+000 1.313696e+000 9.638278e-001 1.285371e+000 9.578224e-001 3.769957e-001 2.033589e-001 4.046080e-001 2.926502e-001 2.487204e-001 1.896436e-001 2.054109e-001 2.655491e-001 2.945696e-001 2.498633e-001 2.336726e-001 2.388082e-001 1.932382e-001 7.652365e-002
<GCONST> 8.699190e+001
<STATE> 4
<MEAN> 39
 2.800357e-001 -3.134182e+001 1.404868e+001 1.141616e+001 -1.308820e-001 9.946605e+000 -7.382331e+000 1.984087e+000 6.517458e-001 -1.631097e+000 2.572936e+000 2.921179e+000 7.192094e+001 1.687852e+000 4.035872e+000 -1.376327e+000 5.120012e-001 -7.668544e-001 3.587849e-001 1.348082e+000 -8.209089e-001 3.274443e-001 -4.809661e-001 -1.862549e-001 -3.020263e-001 -2.326552e+000 4.052281e-002 4.170954e-001 -4.254061e-001 2.176453e-001 -2.633281e-001 -5.252228e-001 -1.431467e-001 -2.914346e-001 2.219890e-001 -6.486849e-002 -3.879778e-001 -1.574792e-001 -3.414864e-001
<VARIANCE> 39
 3.325299e+001 6.873710e+001 7.429726e+001 3.938184e+001 3.700166e+001 3.051393e+001 3.536626e+001 1.834940e+001 2.554989e+001 1.820900e+001 2.393841e+001 1.506913e+001 2.681058e+001 3.714130e+000 4.641519e+000 3.828880e+000 4.317087e+000 2.883844e+000 3.570241e+000 2.980052e+000 3.417871e+000 3.291440e+000 2.058128e+000 2.199572e+000 1.568106e+000 2.904385e+000 6.299534e-001 1.341020e+000 6.972034e-001 7.341465e-001 4.361552e-001 5.677987e-001 6.725326e-001 5.377662e-001 6.429057e-001 4.262664e-001 4.154224e-001 2.739941e-001 5.128310e-001
<GCONST> 1.233530e+002
<TRANSP> 5
 0.000000e+000 1.000000e+000 0.000000e+000 0.000000e+000 0.000000e+000
 0.000000e+000 6.206197e-001 3.793803e-001 0.000000e+000 0.000000e+000
 0.000000e+000 0.000000e+000 8.290293e-001 1.709707e-001 0.000000e+000
 0.000000e+000 0.000000e+000 0.000000e+000 6.037955e-001 3.962045e-001
 0.000000e+000 0.000000e+000 0.000000e+000 0.000000e+000 0.000000e+000
<ENDHMM>
~h "Z"
<BEGINHMM>
<NUMSTATES> 5
<STATE> 2
<MEAN> 39
 1.025417e+001 -2.111305e+001 1.270070e+001 1.786131e+001 3.014101e+000 7.342950e+000 -1.135065e+001 -3.572025e+000 6.420848e-002 -5.505207e+000 -2.314811e+000 1.537587e-002 7.219317e+001 -2.130723e+000 -4.122938e+000 3.771544e+000 -2.174612e-001 5.747746e-001 6.884190e-001 -1.674902e+000 2.360289e+000 5.830528e-001 1.606562e-002 6.063555e-001 4.647278e-001 1.564282e+000 -9.358614e-002 3.431720e-001 1.570651e-001 -3.134247e-002 -6.501432e-002 2.322089e-003 4.033869e-001 -3.535609e-001 -3.850025e-001 4.772705e-001 1.381339e-001 -8.666450e-002 -5.717184e-002
<VARIANCE> 39
 4.531916e+001 4.655421e+001 5.314743e+001 4.722077e+001 1.959824e+001 2.615788e+001 2.675924e+001 7.066203e+001 3.115942e+001 1.192135e+001 1.262893e+001 1.197697e+001 1.084325e+001 1.131635e+000 5.170001e+000 2.594893e+000 1.922265e+000 1.829856e+000 1.293887e+000 3.128360e+000 3.336741e+000 3.259189e+000 1.783653e+000 1.742444e+000 1.353271e+000 2.293052e+000 3.118581e-001 1.346693e+000 7.186942e-001 2.707697e-001 4.356797e-001 3.130561e-001 3.892114e-001 9.406967e-001 4.481723e-001 2.899329e-001 3.196270e-001 2.634135e-001 1.381836e-001
<GCONST> 1.122968e+002
<STATE> 3
<MEAN> 39
 3.079520e+000 -3.067255e+001 2.170880e+001 1.888184e+001 5.664764e+000 9.406373e+000 -1.141018e+001 2.183033e+000 1.408956e+000 -1.983888e+000 -5.645065e-001 1.208658e+000 7.470703e+001 -7.226856e-001 -9.598798e-001 1.063891e+000 -6.440637e-002 4.229144e-001 3.301148e-001 -1.615493e-001 1.269335e-001 -2.790916e-001 3.833155e-001 2.756374e-001 2.526996e-002 5.457897e-001 7.230250e-001 1.174716e+000 -8.169335e-001 2.258319e-002 -1.769516e-001 -5.830839e-002 1.984574e-001 -7.316980e-001 -2.119439e-001 -1.724888e-001 -1.262044e-001 -1.640914e-001 -3.915878e-001
<VARIANCE> 39
 2.299890e+001 2.829051e+001 2.803586e+001 3.079545e+001 1.703074e+001 1.942604e+001 2.020333e+001 2.709786e+001 1.775385e+001 1.315849e+001 1.302749e+001 1.200370e+001 4.630438e+000 2.217251e+000 2.961726e+000 3.402655e+000 1.341295e+000 1.233839e+000 1.065757e+000 2.151496e+000 3.306745e+000 2.056041e+000 1.081095e+000 1.076024e+000 1.048285e+000 8.753324e-001 2.646037e-001 7.808626e-001 5.740988e-001 2.346306e-001 2.371239e-001 1.732831e-001 4.220804e-001 4.179915e-001 2.975774e-001 2.248222e-001 2.255559e-001 2.021073e-001 1.232193e-001
<GCONST> 9.908888e+001
<STATE> 4
<MEAN> 39
 6.731951e+000 -2.549969e+001 1.987205e+001 1.844803e+001 4.496208e+000 9.321054e+000 -1.185149e+001 -1.878428e+000 -1.139421e+000 -3.935585e+000 -1.048525e+000 -4.500594e-001 7.393085e+001 2.087052e+000 3.084531e+000 -1.960172e+000 -1.213795e-001 -7.678051e-001 -2.641348e-001 1.633855e-001 -2.195970e+000 -5.751374e-001 -3.777245e-001 -3.621900e-001 -7.212963e-001 -7.784813e-001 2.338276e-001 6.045320e-001 -7.663256e-001 -1.520960e-002 -2.158223e-001 -2.037388e-001 3.471737e-001 -1.548775e-001 2.623318e-001 1.740649e-001 -1.667556e-001 -8.073312e-002 -3.590665e-001
<VARIANCE> 39
 3.137505e+001 4.661520e+001 5.942237e+001 4.967750e+001 2.144863e+001 3.186461e+001 3.057246e+001 2.685231e+001 2.315187e+001 1.561264e+001 1.860742e+001 1.660086e+001 9.104897e+000 1.826036e+000 3.936742e+000 3.760300e+000 2.003588e+000 1.764333e+000 1.719584e+000 3.075183e+000 3.575868e+000 2.233118e+000 1.905712e+000 1.467229e+000 1.347093e+000 9.321480e-001 3.237466e-001 7.373645e-001 7.557955e-001 2.934576e-001 3.105150e-001 2.654699e-001 4.612422e-001 5.141504e-001 3.420746e-001 3.417214e-001 3.247650e-001 2.478103e-001 1.786024e-001
<GCONST> 1.103215e+002
<TRANSP> 5
 0.000000e+000 1.000000e+000 0.000000e+000 0.000000e+000 0.000000e+000
 0.000000e+000 4.507793e-001 5.492207e-001 0.000000e+000 0.000000e+000
 0.000000e+000 0.000000e+000 7.293088e-001 2.706912e-001 0.000000e+000
 0.000000e+000 0.000000e+000 0.000000e+000 6.272084e-001 3.727916e-001
 0.000000e+000 0.000000e+000 0.000000e+000 0.000000e+000 0.000000e+000
<ENDHMM>
~h "a"
<BEGINHMM>
<NUMSTATES> 5
<STATE> 2
<MEAN> 39
 1.921778e+001 -1.256835e+001 2.679128e+000 3.177556e+000 -1.526603e+001 6.456930e+000 2.813010e+000 -1.429965e+001 -6.881651e+000 4.301515e+000 9.424064e-001 1.051216e+000 7.486501e+001 4.655899e-001 -1.391292e-001 -6.410550e-001 -4.086461e-001 -1.211627e+000 -2.260869e-002 1.342919e+000 -1.406808e+000 -4.708377e-001 1.471889e+000 3.708395e-001 5.457563e-001 5.091720e-001 -5.242201e-001 -8.274511e-002 2.778176e-001 3.095541e-001 5.501795e-001 6.587236e-002 -3.474632e-001 5.887473e-001 3.626675e-001 -2.660974e-001 -9.906676e-002 -1.849072e-001 -4.151133e-001
<VARIANCE> 39
 3.212897e+001 1.643484e+001 2.199553e+001 2.059048e+001 2.469593e+001 2.659213e+001 3.087605e+001 3.914046e+001 3.080933e+001 2.048157e+001 2.816396e+001 1.409831e+001 8.281527e+000 1.406252e+000 2.290041e+000 2.280624e+000 1.723872e+000 2.123572e+000 2.178147e+000 2.466756e+000 3.115622e+000 1.889493e+000 1.619198e+000 1.651586e+000 1.452024e+000 7.589417e-001 3.439206e-001 4.791171e-001 3.265160e-001 4.057907e-001 3.129934e-001 3.237298e-001 4.457090e-001 5.839390e-001 2.904912e-001 2.904333e-001 3.374169e-001 2.682410e-001 2.175615e-001
<GCONST> 1.061585e+002
<STATE> 3
<MEAN> 39
 1.873487e+001 -1.423576e+001 3.084051e+000 2.886893e+000 -1.599809e+001 8.096396e+000 3.999857e+000 -1.595681e+001 -6.065055e+000 7.422836e+000 1.785918e+000 2.195915e+000 7.493105e+001 -1.522392e-001 1.252498e-001 3.147697e-001 1.948961e-001 3.309887e-001 1.177497e-001 -4.600675e-001 -5.827152e-002 1.125010e-001 -1.482898e-001 -4.262304e-002 -9.472672e-002 -2.092062e-001 -1.041932e-001 1.646796e-001 1.551931e-001 1.909723e-001 3.748129e-001 3.896642e-002 -2.906220e-001 2.756206e-001 1.125566e-001 -3.503682e-001 -1.505139e-001 -1.584143e-001 -2.054857e-001
<VARIANCE> 39
 1.838937e+001 1.488235e+001 1.402032e+001 1.931918e+001 2.011405e+001 3.135806e+001 2.233563e+001 2.620023e+001 3.408054e+001 1.987444e+001 2.273116e+001 1.356655e+001 7.955433e+000 2.792425e-001 1.076836e+000 7.873518e-001 9.663928e-001 1.090455e+000 1.191343e+000 1.634205e+000 1.240958e+000 1.139459e+000 1.280875e+000 1.439596e+000 8.639478e-001 3.693467e-001 8.761031e-002 1.655515e-001 1.516242e-001 1.522505e-001 2.255051e-001 1.705289e-001 2.247553e-001 2.992530e-001 1.894043e-001 2.130733e-001 2.119737e-001 1.644066e-001 8.638036e-002
<GCONST> 8.615189e+001
<STATE> 4
<MEAN> 39
 1.744137e+001 -1.116673e+001 4.746719e+000 5.269269e+000 -1.269572e+001 7.433898e+000 8.600191e-001 -1.468740e+001 -6.671887e+000 3.316945e+000 4.461512e-001 6.475262e-002 7.245610e+001 -1.138460e+000 1.126407e+000 7.178168e-001 1.491573e+000 2.264270e+000 3.724089e-001 -7.918046e-001 1.891475e+000 1.111606e+000 -1.448692e+000 -6.819052e-001 -6.261862e-001 -1.789432e+000 -4.639590e-001 -5.941018e-002 4.917855e-002 2.037120e-001 3.112340e-001 -7.553460e-002 2.294517e-002 6.509980e-001 3.011861e-001 -1.622613e-001 4.124413e-002 1.395952e-001 -3.097160e-001
<VARIANCE> 39
 4.051103e+001 2.877262e+001 2.971777e+001 4.389752e+001 4.223701e+001 4.798804e+001 4.522034e+001 4.264569e+001 4.939515e+001 2.458111e+001 3.073028e+001 1.991957e+001 1.783679e+001 1.325136e+000 3.066209e+000 2.027391e+000 1.961063e+000 2.306408e+000 2.457923e+000 3.003655e+000 3.406015e+000 2.086326e+000 2.225264e+000 2.023044e+000 1.965031e+000 2.482445e+000 2.119251e-001 5.870270e-001 5.307766e-001 4.158450e-001 5.302109e-001 4.669773e-001 5.425186e-001 6.780376e-001 5.278850e-001 3.566158e-001 4.797994e-001 3.710335e-001 3.009479e-001
<GCONST> 1.175700e+002
<TRANSP> 5
 0.000000e+000 1.000000e+000 0.000000e+000 0.000000e+000 0.000000e+000
 0.000000e+000 6.101357e-001 3.898643e-001 0.000000e+000 0.000000e+000
 0.000000e+000 0.000000e+000 7.752303e-001 2.247697e-001 0.000000e+000
 0.000000e+000 0.000000e+000 0.000000e+000 4.617247e-001 5.382753e-001
 0.000000e+000 0.000000e+000 0.000000e+000 0.000000e+000 0.000000e+000
<ENDHMM>
~h "b"
<BEGINHMM>
<NUMSTATES> 5
<STATE> 2
<MEAN> 39
 1.249216e+001 8.291486e-001 7.079959e+000 1.396671e+001 -1.658297e+000 7.917202e+000 3.939419e+000 -2.525833e+000 -1.221655e+000 -2.134701e+000 -2.676450e+000 -3.189646e+000 6.129730e+001 -1.535187e+000 1.283810e+000 1.057458e+000 1.989951e+000 1.577968e+000 9.965056e-001 1.100395e+000 1.797521e+000 8.349125e-001 -6.120133e-001 2.543074e-003 2.756728e-001 -2.247627e+000 3.254650e-001 -7.129158e-001 -9.064655e-002 -2.517725e-001 -5.634670e-001 -2.676766e-001 -4.371805e-001 -6.828034e-001 -2.881351e-001 1.187499e-001 7.114732e-002 1.445574e-001 6.852472e-001
<VARIANCE> 39
 3.190904e+001 1.904442e+001 3.291723e+001 3.289056e+001 1.859562e+001 2.449062e+001 2.126659e+001 2.417361e+001 2.553592e+001 1.625261e+001 1.723405e+001 3.547693e+001 1.958010e+001 6.619193e-001 1.938149e+000 1.088298e+000 1.931513e+000 2.617965e+000 1.737448e+000 1.930471e+000 2.621428e+000 2.604059e+000 1.537416e+000 1.264501e+000 1.410396e+000 1.533294e+000 1.614701e-001 2.998086e-001 2.118190e-001 4.049664e-001 4.935371e-001 2.995314e-001 3.191308e-001 3.316579e-001 2.552304e-001 2.281897e-001 2.033438e-001 3.471191e-001 1.674335e-001
<GCONST> 1.024550e+002
<STATE> 3
<MEAN> 39
 1.024645e+001 1.316056e+000 9.699895e+000 1.772584e+001 -3.700171e-001 8.863287e+000 4.571313e+000 -5.859609e-001 2.952294e-001 -3.110017e+000 -2.811359e+000 -2.495127e+000 5.845115e+001 1.905235e-001 -6.553950e-001 -6.943186e-002 -1.743580e-001 -3.056524e-001 -2.572937e-001 -6.098573e-001 -4.783200e-001 -8.449994e-002 -5.773896e-002 -2.779481e-002 8.922035e-002 5.118086e-001 4.893188e-001 -5.985441e-001 -2.021916e-001 -4.790775e-001 -4.234453e-001 -2.934009e-001 -5.906540e-001 -5.856507e-001 -1.533293e-001 1.676106e-001 -3.585956e-002 -6.232865e-002 7.769947e-001
<VARIANCE> 39
 1.459357e+001 1.423917e+001 2.290976e+001 1.447562e+001 9.966087e+000 1.207456e+001 1.392465e+001 1.340115e+001 1.107015e+001 1.265446e+001 1.548542e+001 1.405401e+001 1.312759e+001 8.581367e-001 2.124097e+000 9.842563e-001 1.767511e+000 2.225094e+000 1.247810e+000 2.251188e+000 1.697330e+000 8.535808e-001 9.021971e-001 7.904686e-001 1.162891e+000 1.807201e+000 1.266566e-001 4.502025e-001 2.130458e-001 3.321770e-001 5.150292e-001 2.691949e-001 4.540004e-001 3.864112e-001 2.243849e-001 2.394337e-001 2.159523e-001 2.331366e-001 2.409073e-001
<GCONST> 9.293390e+001
<STATE> 4
<MEAN> 39
 1.375902e+001 -6.098965e+000 5.807386e+000 1.132039e+001 -5.160637e+000 5.582432e+000 -1.100389e+000 -6.092533e+000 -1.499645e+000 -2.890634e+000 -3.080173e+000 -1.989401e+000 6.707236e+001 2.169361e+000 -3.001780e+000 -7.439483e-001 -1.721206e+000 -2.259154e+000 -1.231040e+000 -2.629836e+000 -3.077284e+000 -7.684094e-001 8.147592e-001 -7.301303e-002 3.351865e-001 3.436049e+000 -2.103341e-001 1.362405e-001 2.774800e-001 2.030262e-001 9.740067e-002 -9.217217e-003 7.565737e-002 -1.234755e-001 5.380740e-002 3.619908e-001 1.106251e-001 -8.769279e-003 -5.228867e-002
<VARIANCE> 39
 6.894891e+001 3.473008e+001 4.317515e+001 5.623871e+001 7.251524e+001 4.023555e+001 3.060211e+001 3.692599e+001 1.939172e+001 2.068922e+001 2.104733e+001 2.121464e+001 3.540977e+001 1.301609e+000 6.378299e+000 3.353277e+000 6.656584e+000 8.865913e+000 3.708525e+000 7.494848e+000 4.217376e+000 2.363334e+000 3.960972e+000 2.338158e+000 3.254364e+000 1.592697e+000 3.757560e-001 8.388936e-001 5.368307e-001 5.820137e-001 9.649550e-001 7.113028e-001 8.233864e-001 7.039859e-001 3.413844e-001 3.999122e-001 3.304404e-001 3.066416e-001 5.900227e-001
<GCONST> 1.267764e+002
<TRANSP> 5
 0.000000e+000 1.000000e+000 0.000000e+000 0.000000e+000 0.000000e+000
 0.000000e+000 5.827053e-001 4.172947e-001 0.000000e+000 0.000000e+000
 0.000000e+000 0.000000e+000 7.728887e-001 2.271114e-001 0.000000e+000
 0.000000e+000 0.000000e+000 0.000000e+000 4.402619e-001 5.597381e-001
 0.000000e+000 0.000000e+000 0.000000e+000 0.000000e+000 0.000000e+000
<ENDHMM>
~h "d"
<BEGINHMM>
<NUMSTATES> 5
<STATE> 2
<MEAN> 39
 1.086591e+001 -2.804440e+000 1.000278e+001 1.818724e+001 4.141859e-001 9.887455e+000 1.508310e+000 -5.087296e+000 -1.664762e+000 -3.472186e+000 -3.010682e+000 -1.034320e+000 6.074141e+001 -1.058823e+000 1.168915e+000 -2.694093e-001 9.064039e-001 6.621854e-001 3.860306e-002 1.091339e+000 1.717691e+000 7.082511e-001 -1.913432e-001 6.260094e-001 6.575689e-001 -1.842816e+000 1.812347e-001 -1.207198e+000 1.092623e-001 -3.634101e-001 -5.229125e-001 -1.990034e-001 -4.290823e-001 -3.230304e-001 -2.032885e-001 7.401985e-002 -8.776811e-002 -4.265485e-002 9.170731e-001
<VARIANCE> 39
 1.085414e+001 2.639452e+001 2.014595e+001 2.350753e+001 2.830401e+001 2.024275e+001 2.821067e+001 2.390347e+001 1.853245e+001 1.271863e+001 1.413677e+001 1.846877e+001 1.543786e+001 7.487506e-001 4.287507e+000 1.627584e+000 2.111831e+000 2.761460e+000 2.042287e+000 2.720889e+000 3.814031e+000 2.122422e+000 1.545447e+000 2.072947e+000 1.645624e+000 2.546554e+000 1.399143e-001 8.836130e-001 3.353283e-001 4.197210e-001 5.382540e-001 3.549280e-001 5.261061e-001 6.642485e-001 3.827924e-001 3.165345e-001 4.068395e-001 3.584147e-001 3.699466e-001
<GCONST> 1.081559e+002
<STATE> 3
<MEAN> 39
 9.760558e+000 -2.881178e+000 9.633021e+000 1.868294e+001 -8.052882e-002 9.308879e+000 2.629968e+000 -3.451699e+000 -1.364338e+000 -3.693455e+000 -2.448521e+000 -3.178131e-001 5.954242e+001 -1.708586e-001 -3.504423e+000 2.727965e-001 -5.507526e-001 -9.866243e-001 -1.160535e-001 -8.003308e-001 3.588065e-001 1.070655e-001 -2.491269e-001 -5.834427e-002 3.657475e-001 1.723803e+000 3.481920e-001 -1.420908e+000 5.064628e-001 -6.493074e-001 -5.418829e-001 -7.398020e-002 -8.429007e-001 -6.962248e-001 -4.525207e-001 -5.885785e-003 -2.583427e-001 -1.930703e-001 1.406494e+000
<VARIANCE> 39
 1.062029e+001 2.940092e+001 1.650640e+001 2.499627e+001 2.013735e+001 1.630809e+001 2.145670e+001 1.924334e+001 1.448815e+001 1.449277e+001 1.191676e+001 1.603138e+001 1.656195e+001 1.297214e+000 5.747211e+000 2.490910e+000 3.347689e+000 2.236573e+000 1.993112e+000 3.356425e+000 5.117291e+000 3.207752e+000 1.812667e+000 1.738896e+000 2.003853e+000 2.312964e+000 2.594464e-001 1.124988e+000 4.820329e-001 4.396019e-001 5.227312e-001 3.345600e-001 5.859662e-001 9.614822e-001 4.269657e-001 4.461237e-001 4.199145e-001 3.480185e-001 3.667914e-001
<GCONST> 1.112979e+002
<STATE> 4
<MEAN> 39
 1.126048e+001 -1.615850e+001 1.074264e+001 1.524894e+001 -4.218772e+000 8.912346e+000 -1.904416e+000 -4.868419e+000 -2.467235e+000 -4.789012e+000 -3.378452e+000 -2.431624e-001 6.851759e+001 6.586607e-001 -3.798411e+000 1.147359e+000 -1.541549e+000 -1.568897e+000 -3.495393e-001 -1.843173e+000 -1.449947e+000 -1.122278e+000 -1.626637e-001 -5.565732e-001 1.492885e-001 3.424612e+000 1.290800e-001 7.952675e-001 1.043466e-001 9.372037e-002 2.135345e-001 -2.120384e-001 -8.154428e-002 -4.073245e-001 -9.947039e-002 2.602497e-001 -4.728009e-002 -1.534758e-001 -9.748407e-002
<VARIANCE> 39
 2.073870e+001 3.872337e+001 3.524088e+001 7.266831e+001 3.731670e+001 3.123393e+001 3.597898e+001 6.290395e+001 4.234116e+001 1.785254e+001 2.218662e+001 1.402108e+001 2.364566e+001 3.281654e+000 7.488635e+000 3.544261e+000 3.455164e+000 3.535114e+000 1.980252e+000 4.227306e+000 1.094837e+001 3.516245e+000 3.282822e+000 2.930533e+000 2.873676e+000 1.388768e+000 2.399741e-001 1.426705e+000 9.844119e-001 8.238243e-001 3.945075e-001 4.975564e-001 8.220949e-001 8.829073e-001 7.487491e-001 3.979281e-001 5.990365e-001 3.747055e-001 6.858594e-001
<GCONST> 1.266114e+002
<TRANSP> 5
 0.000000e+000 1.000000e+000 0.000000e+000 0.000000e+000 0.000000e+000
 0.000000e+000 5.687638e-001 4.312361e-001 0.000000e+000 0.000000e+000
 0.000000e+000 0.000000e+000 4.307398e-001 5.692602e-001 0.000000e+000
 0.000000e+000 0.000000e+000 0.000000e+000 3.266931e-001 6.733068e-001
 0.000000e+000 0.000000e+000 0.000000e+000 0.000000e+000 0.000000e+000
<ENDHMM>
~h "e"
<BEGINHMM>
<NUMSTATES> 5
<STATE> 2
<MEAN> 39
 1.505237e+001 -1.502359e+001 1.221617e+001 1.762295e+001 -3.644777e-001 6.587558e+000 -1.224679e+001 -1.852104e+001 -5.780668e+000 1.087736e+000 -2.824815e+000 -4.830421e+000 7.386881e+001 1.322485e+000 3.566932e-001 -3.845366e-001 1.296003e+000 -2.859080e-001 -1.653432e+000 -1.292679e+000 -3.006641e+000 -7.451856e-001 6.252153e-001 -9.365543e-001 -9.006938e-001 1.043969e+000 -6.695051e-001 -1.430108e-001 2.133702e-002 -4.769643e-001 -2.888443e-001 3.785398e-002 5.468143e-001 1.010552e+000 3.455807e-001 -1.126586e-001 7.204688e-002 2.275787e-001 -4.157524e-001
<VARIANCE> 39
 2.974096e+001 1.344391e+001 4.216449e+001 5.193212e+001 1.934422e+001 2.877393e+001 2.254573e+001 3.647808e+001 2.894957e+001 2.101499e+001 2.390212e+001 2.257231e+001 9.642494e+000 2.709540e+000 3.730286e+000 3.270149e+000 4.699012e+000 1.828343e+000 2.637221e+000 2.949268e+000 4.693267e+000 2.583334e+000 2.223571e+000 3.365570e+000 1.793064e+000 1.053477e+000 3.430369e-001 8.176602e-001 5.721263e-001 5.494946e-001 2.568240e-001 4.824131e-001 4.826523e-001 7.267081e-001 3.596584e-001 2.977036e-001 5.690532e-001 3.905115e-001 2.721523e-001
<GCONST> 1.156015e+002
<STATE> 3
<MEAN> 39
 1.508151e+001 -1.604906e+001 1.293411e+001 2.080739e+001 -9.500298e-001 2.558922e+000 -1.395398e+001 -1.928831e+001 -4.697463e+000 1.630118e+000 -4.853202e+000 -6.802973e+000 7.459767e+001 -1.993011e-002 5.662028e-002 -9.988539e-002 -2.522884e-001 -2.993053e-001 1.680310e-002 3.391962e-001 -5.760463e-002 -1.364261e-001 -6.605143e-002 -1.032088e-001 1.582104e-001 -1.332605e-002 -1.817151e-001 1.136438e-001 1.228018e-002 -3.402826e-001 1.285060e-001 4.675085e-001 3.396839e-001 6.465524e-001 1.401697e-001 -2.467681e-001 1.470641e-001 2.627617e-001 -2.732242e-001
<VARIANCE> 39
 1.472757e+001 1.065221e+001 2.516738e+001 4.150860e+001 1.625366e+001 2.329452e+001 1.706956e+001 2.935430e+001 2.364267e+001 1.593877e+001 2.659763e+001 2.097518e+001 7.332475e+000 3.767717e-001 8.726606e-001 1.350259e+000 2.190190e+000 1.184758e+000 2.104665e+000 1.451383e+000 1.933406e+000 1.449680e+000 1.306222e+000 1.847928e+000 1.462551e+000 2.983647e-001 1.661216e-001 2.316108e-001 2.561118e-001 2.688588e-001 1.936456e-001 2.529716e-001 2.944326e-001 5.999829e-001 2.507916e-001 2.572644e-001 3.808935e-001 1.987226e-001 9.921993e-002
<GCONST> 9.411095e+001
<STATE> 4
<MEAN> 39
 1.556116e+001 -1.352881e+001 9.804649e+000 1.483400e+001 -2.810752e+000 6.640400e+000 -8.640206e+000 -1.845648e+001 -7.369213e+000 -3.281542e-001 -3.075005e+000 -3.159777e+000 7.356068e+001 -5.969482e-001 1.007261e+000 4.847134e-002 -1.201422e+000 1.393840e-002 1.138530e+000 1.502204e+000 2.483159e+000 7.056926e-001 -1.071451e+000 -2.063512e-001 4.872512e-001 -1.103344e+000 -4.607661e-001 -1.204330e-001 3.722737e-001 8.114973e-002 1.733143e-001 8.530815e-003 -2.918648e-002 8.090578e-001 4.490411e-001 -1.540609e-002 3.166616e-002 -8.796486e-002 -2.650277e-001
<VARIANCE> 39
 3.074443e+001 2.177715e+001 3.779182e+001 7.524166e+001 3.030814e+001 3.570505e+001 3.669184e+001 4.498474e+001 3.367646e+001 2.759383e+001 3.213121e+001 3.491872e+001 1.289687e+001 1.451835e+000 3.273470e+000 3.606272e+000 2.582273e+000 3.588127e+000 3.777737e+000 2.912705e+000 3.984178e+000 2.439502e+000 2.024064e+000 3.123147e+000 2.548260e+000 1.621374e+000 2.382290e-001 5.597536e-001 4.727157e-001 5.684351e-001 3.330581e-001 4.543432e-001 5.375080e-001 8.579332e-001 4.332707e-001 4.011927e-001 6.276649e-001 5.131320e-001 1.718889e-001
<GCONST> 1.193141e+002
<TRANSP> 5
 0.000000e+000 1.000000e+000 0.000000e+000 0.000000e+000 0.000000e+000
 0.000000e+000 4.291754e-001 5.708246e-001 0.000000e+000 0.000000e+000
 0.000000e+000 0.000000e+000 7.352879e-001 2.647121e-001 0.000000e+000
 0.000000e+000 0.000000e+000 0.000000e+000 4.331843e-001 5.668157e-001
 0.000000e+000 0.000000e+000 0.000000e+000 0.000000e+000 0.000000e+000
<ENDHMM>
~h "f"
<BEGINHMM>
<NUMSTATES> 5
<STATE> 2
<MEAN> 39
 7.539248e+000 -2.302380e+001 1.274829e+001 7.490367e+000 -3.151849e+000 1.390320e+001 -5.293596e+000 2.198408e+000 -7.930890e-001 -2.620778e+000 3.067351e+000 -1.249788e+000 6.986119e+001 -2.869146e+000 -4.028372e+000 7.325924e-001 -1.438604e+000 7.113742e-001 1.259223e+000 -9.784609e-001 2.021721e+000 -3.312500e-001 -4.134069e-001 6.747600e-001 6.766726e-002 -3.846558e-002 2.583777e-001 4.015940e-001 -4.793395e-001 -3.103694e-001 -4.076910e-001 -6.552989e-001 -2.701581e-001 -7.948454e-001 -3.152011e-001 5.902053e-002 -1.324870e-001 -6.671648e-002 1.032626e-001
<VARIANCE> 39
 2.790904e+001 4.660331e+001 1.555242e+001 2.063059e+001 1.658205e+001 1.638021e+001 1.341250e+001 1.504628e+001 1.153257e+001 1.171662e+001 9.822833e+000 1.078231e+001 6.298887e+000 1.581686e+000 4.603054e+000 2.010268e+000 2.195182e+000 2.382756e+000 2.722743e+000 2.226102e+000 4.157276e+000 2.214241e+000 1.648360e+000 1.651094e+000 9.123272e-001 9.203699e-001 3.034805e-001 8.790854e-001 2.156652e-001 3.158935e-001 3.016819e-001 2.835866e-001 3.448645e-001 4.642221e-001 4.868954e-001 2.703809e-001 2.686264e-001 2.016044e-001 6.723430e-002
<GCONST> 1.001845e+002
<STATE> 3
<MEAN> 39
 1.315413e+000 -3.040282e+001 1.182500e+001 1.801124e+000 -3.669372e+000 1.350480e+001 -1.033865e+001 3.834247e+000 -2.234009e+000 -3.084774e+000 5.832623e+000 -1.413419e+000 6.913631e+001 -1.109414e-001 -1.286113e-001 -2.527899e-001 -1.503543e-001 -1.105455e-001 -1.196424e-001 -1.220434e-001 3.462164e-002 1.137957e-001 1.019274e-001 1.365274e-001 -7.911131e-003 -6.199499e-002 4.100388e-001 4.859650e-001 -3.042640e-002 4.337178e-001 1.305551e-002 -9.343593e-002 2.945924e-001 -2.332165e-001 6.617340e-002 4.915541e-002 -1.808547e-001 -2.845475e-003 2.448249e-002
<VARIANCE> 39
 5.569096e+000 7.770124e+000 1.119948e+001 1.564543e+001 8.746757e+000 1.055715e+001 1.612740e+001 1.582505e+001 1.172340e+001 1.266753e+001 1.384066e+001 9.618460e+000 4.220437e+000 6.508191e-001 7.251980e-001 5.941026e-001 1.402252e+000 9.170189e-001 8.767579e-001 1.799001e+000 1.309491e+000 1.084986e+000 1.075605e+000 1.180950e+000 9.347922e-001 4.464226e-001 1.433450e-001 4.162079e-001 1.164652e-001 2.825535e-001 1.896344e-001 2.234187e-001 2.560745e-001 3.219818e-001 2.414675e-001 2.465992e-001 2.565372e-001 1.920844e-001 6.081051e-002
<GCONST> 8.064101e+001
<STATE> 4
<MEAN> 39
 6.294147e+000 -2.402541e+001 9.641519e+000 6.770517e+000 -4.910828e+000 1.150107e+001 -5.295929e+000 1.138290e+000 -7.851976e-001 -2.460858e+000 2.911162e+000 -1.085730e+000 6.921030e+001 3.382715e+000 4.978601e+000 -2.055788e-001 2.806061e+000 -6.484150e-001 -2.022786e+000 1.285987e+000 -2.923622e+000 -7.108103e-002 4.414568e-001 -1.573156e+000 -6.252515e-001 1.254296e-001 4.352476e-001 7.003638e-001 -1.129389e-002 2.862061e-004 -2.233526e-001 -5.366752e-001 -2.715071e-001 -6.867065e-001 -2.017464e-001 2.323094e-001 -1.468337e-001 -2.844892e-001 1.239280e-001
<VARIANCE> 39
 3.280169e+001 8.043390e+001 2.111306e+001 4.715169e+001 3.794836e+001 2.360850e+001 3.217805e+001 3.143620e+001 1.460930e+001 1.465593e+001 1.643791e+001 1.359698e+001 8.133942e+000 1.833847e+000 4.515008e+000 1.945185e+000 4.172009e+000 4.896700e+000 2.582014e+000 3.019604e+000 4.654923e+000 2.501713e+000 1.942872e+000 2.446865e+000 1.917534e+000 6.970100e-001 4.763677e-001 1.563366e+000 2.755043e-001 6.847281e-001 3.941232e-001 4.155843e-001 5.006351e-001 8.140525e-001 3.992771e-001 2.880186e-001 4.633184e-001 3.051409e-001 1.944159e-001
<GCONST> 1.147750e+002
<TRANSP> 5
 0.000000e+000 1.000000e+000 0.000000e+000 0.000000e+000 0.000000e+000
 0.000000e+000 6.442786e-001 3.557214e-001 0.000000e+000 0.000000e+000
 0.000000e+000 0.000000e+000 8.745359e-001 1.254641e-001 0.000000e+000
 0.000000e+000 0.000000e+000 0.000000e+000 6.569412e-001 3.430588e-001
 0.000000e+000 0.000000e+000 0.000000e+000 0.000000e+000 0.000000e+000
<ENDHMM>
~h "g"
<BEGINHMM>
<NUMSTATES> 5
<STATE> 2
<MEAN> 39
 1.253173e+001 -1.858595e+000 7.845692e+000 1.483948e+001 -3.251173e+000 6.641308e+000 1.801552e+000 -4.603848e+000 -1.346316e+000 -5.205587e-001 -1.210962e+000 -4.342765e+000 6.171762e+001 -1.303323e+000 1.250102e+000 2.416723e-001 1.368258e+000 1.318511e+000 1.817320e-001 4.137067e-001 2.102562e+000 1.497178e+000 -6.457779e-001 -5.988625e-001 2.994877e-001 -2.131190e+000 1.865240e-001 -7.078834e-001 3.103450e-002 -1.954524e-001 -2.947284e-001 2.358787e-002 -3.886865e-001 -5.331380e-001 -3.474752e-001 -1.108641e-001 5.431239e-002 2.777616e-001 5.829459e-001
<VARIANCE> 39
 1.301830e+001 2.794755e+001 2.565041e+001 3.094786e+001 3.572969e+001 5.727114e+001 4.077490e+001 3.973115e+001 4.343559e+001 2.782003e+001 2.354155e+001 3.647331e+001 1.464246e+001 9.939485e-001 2.204211e+000 9.181350e-001 2.000226e+000 3.956460e+000 3.643430e+000 4.205078e+000 5.017427e+000 5.017150e+000 1.694040e+000 2.959924e+000 2.199268e+000 1.268994e+000 1.377527e-001 3.514316e-001 1.453732e-001 3.386083e-001 5.346818e-001 4.090392e-001 4.494570e-001 6.799989e-001 7.636120e-001 4.903986e-001 5.273649e-001 4.604103e-001 2.347440e-001
<GCONST> 1.145704e+002
<STATE> 3
<MEAN> 39
 9.819751e+000 -1.933429e-001 9.473886e+000 1.831014e+001 -8.536875e-001 7.254896e+000 1.559861e+000 -2.443648e+000 2.599171e-001 -2.520041e+000 -2.635132e+000 -2.565129e+000 5.792649e+001 1.729501e-001 -9.468472e-001 -2.785881e-001 -8.972344e-001 -1.105825e+000 -2.195124e-001 9.067091e-002 2.502487e-001 -4.266644e-001 -1.063247e-001 6.262680e-001 2.440813e-001 5.179181e-001 5.278361e-001 -5.988940e-001 -1.196842e-001 -7.379841e-001 -7.536114e-001 -2.800822e-001 -2.005119e-001 -3.194111e-001 -3.748218e-001 9.735513e-002 2.656460e-001 -1.451308e-001 8.584824e-001
<VARIANCE> 39
 6.683760e+000 1.149219e+001 1.386310e+001 1.998596e+001 1.486149e+001 2.022844e+001 1.444386e+001 1.523424e+001 1.600691e+001 1.332733e+001 1.275217e+001 1.476682e+001 5.745105e+000 9.069127e-001 3.200669e+000 1.431615e+000 4.187035e+000 4.930882e+000 3.315787e+000 2.771077e+000 2.116761e+000 2.366617e+000 2.024454e+000 2.537327e+000 1.414864e+000 1.886373e+000 1.118156e-001 4.584926e-001 2.638623e-001 4.557475e-001 6.272453e-001 4.020579e-001 4.555283e-001 5.954165e-001 4.029211e-001 2.764140e-001 3.597034e-001 2.416414e-001 2.140847e-001
<GCONST> 1.020408e+002
<STATE> 4
<MEAN> 39
 1.456894e+001 -9.029356e+000 7.044894e+000 9.343794e+000 -1.042156e+001 4.828877e+000 3.369201e-001 -4.225350e+000 -4.510620e+000 -2.395564e+000 2.044187e+000 -2.996114e+000 6.693584e+001 1.410098e+000 -1.338064e+000 2.003170e-001 -9.824591e-001 -1.472352e+000 -1.116036e+000 -1.638035e+000 -1.726685e+000 -5.953129e-001 1.350198e-001 -3.261077e-001 -8.959420e-002 2.267695e+000 -1.395086e-001 6.743634e-001 1.487882e-001 7.272187e-001 8.839535e-001 3.020611e-002 -3.653925e-001 -4.388900e-001 4.882662e-001 1.617358e-001 -7.042682e-001 2.201983e-002 -3.200030e-001
<VARIANCE> 39
 1.414414e+001 7.145846e+001 2.398139e+001 3.608475e+001 4.752255e+001 7.604872e+001 4.329367e+001 8.822398e+001 4.768250e+001 2.261352e+001 2.421950e+001 1.874520e+001 2.599098e+001 7.922196e-001 4.795736e+000 1.954947e+000 4.815771e+000 4.799976e+000 4.148063e+000 4.195429e+000 6.623295e+000 2.869415e+000 2.684402e+000 3.207458e+000 2.935158e+000 1.517339e+000 1.632392e-001 6.530930e-001 5.570972e-001 9.310851e-001 6.673335e-001 9.877202e-001 1.043914e+000 1.160659e+000 6.694821e-001 4.303673e-001 7.044395e-001 4.652743e-001 3.525441e-001
<GCONST> 1.262296e+002
<TRANSP> 5
 0.000000e+000 1.000000e+000 0.000000e+000 0.000000e+000 0.000000e+000
 0.000000e+000 5.112753e-001 4.887247e-001 0.000000e+000 0.000000e+000
 0.000000e+000 0.000000e+000 7.128787e-001 2.871213e-001 0.000000e+000
 0.000000e+000 0.000000e+000 0.000000e+000 5.959796e-001 4.040203e-001
 0.000000e+000 0.000000e+000 0.000000e+000 0.000000e+000 0.000000e+000
<ENDHMM>
~h "h"
<BEGINHMM>
<NUMSTATES> 5
<STATE> 2
<MEAN> 39
 1.080224e+001 -2.201264e+001 3.669781e+000 7.021481e+000 -7.723009e+000 1.075030e+001 2.814225e+000 3.711572e+000 3.827166e+000 2.603871e-001 3.031020e+000 3.523913e+000 7.009167e+001 -1.182953e+000 -2.048996e+000 -3.464974e-001 2.746520e-001 3.881951e-001 4.782655e-002 7.944047e-001 2.027378e+000 -4.356959e-001 -9.500989e-001 7.849156e-001 6.124899e-001 -1.703539e-001 3.571219e-002 2.683553e-001 7.295494e-002 -9.883374e-002 -2.487580e-001 -1.873963e-001 -2.770413e-001 -7.431180e-001 -2.308224e-001 1.519558e-001 -2.174424e-001 -1.029366e-001 -1.282295e-002
<VARIANCE> 39
 2.882798e+001 5.540290e+001 4.880010e+001 3.802665e+001 4.069368e+001 3.119976e+001 4.200749e+001 5.797584e+001 1.948379e+001 2.606522e+001 1.616326e+001 2.117088e+001 1.558880e+001 9.739046e-001 2.542350e+000 2.082841e+000 2.784224e+000 2.842362e+000 3.065477e+000 2.924222e+000 5.526229e+000 2.390627e+000 2.047090e+000 1.803738e+000 1.490935e+000 5.284390e-001 1.516309e-001 5.559937e-001 2.998536e-001 4.833460e-001 4.248427e-001 3.889439e-001 4.892998e-001 5.799288e-001 3.639991e-001 3.886169e-001 3.063919e-001 3.032421e-001 5.702140e-002
<GCONST> 1.112258e+002
<STATE> 3
<MEAN> 39
 7.203863e+000 -2.635109e+001 6.077197e+000 8.075514e+000 -6.491759e+000 1.219744e+001 2.927203e+000 3.821296e+000 5.067143e-001 -5.671691e-001 4.879885e+000 4.974183e+000 6.989483e+001 -4.588997e-001 1.238243e+000 1.143728e-001 4.761871e-001 2.085361e-001 1.851900e-001 -2.028020e-001 -8.706844e-001 5.695618e-002 2.595093e-001 1.450274e-001 -1.019861e-002 -1.234524e+000 1.135981e-001 8.512473e-001 -1.575254e-001 2.163629e-001 -8.706022e-002 -3.293282e-001 -8.147728e-002 -4.771246e-001 1.480484e-001 1.562694e-001 -1.740230e-001 -1.454970e-001 -3.903207e-001
<VARIANCE> 39
 2.162272e+001 3.891220e+001 5.128717e+001 3.366797e+001 3.305436e+001 2.874623e+001 4.148919e+001 2.706783e+001 1.811823e+001 2.255540e+001 1.393245e+001 2.228253e+001 1.453170e+001 1.224563e+000 4.197663e+000 3.150937e+000 2.115575e+000 2.315031e+000 1.724034e+000 2.345370e+000 3.317015e+000 1.559985e+000 1.755180e+000 1.532854e+000 1.231760e+000 1.775798e+000 2.008601e-001 3.950313e-001 7.494387e-001 3.600401e-001 4.372434e-001 4.739836e-001 4.432326e-001 6.417854e-001 3.466943e-001 4.343591e-001 4.283599e-001 3.556106e-001 1.673607e-001
<GCONST> 1.111233e+002
<STATE> 4
<MEAN> 39
 6.115873e+000 -1.687739e+001 2.271213e+000 9.524533e+000 -7.751173e+000 8.636571e+000 2.680977e+000 6.899854e-002 2.697347e+000 3.430297e-001 3.506961e+000 4.183669e+000 6.278391e+001 -1.036687e-001 2.116885e+000 -2.612965e-001 4.558407e-001 -1.086064e-001 -1.061857e+000 -4.426413e-001 -1.381683e+000 -2.334500e-001 1.689090e-001 -4.166186e-001 -3.820454e-001 -1.186151e+000 8.349670e-002 -1.082885e-001 -4.461185e-002 -1.927506e-001 -1.490491e-001 -2.198335e-001 -9.572196e-002 -7.967806e-002 -1.813140e-001 -6.945114e-002 -1.800769e-001 -1.354989e-001 2.333212e-001
<VARIANCE> 39
 2.943946e+001 5.234166e+001 6.502051e+001 4.870293e+001 3.069632e+001 3.564399e+001 3.924858e+001 3.547230e+001 2.450035e+001 2.923704e+001 1.687079e+001 2.137179e+001 3.018491e+001 2.409026e+000 3.967821e+000 5.005469e+000 2.130647e+000 2.396731e+000 2.697707e+000 2.698893e+000 3.169809e+000 1.582065e+000 1.865204e+000 2.169398e+000 2.171164e+000 3.793283e+000 2.139274e-001 4.494917e-001 6.023081e-001 3.053370e-001 3.338781e-001 4.254894e-001 3.201627e-001 4.630598e-001 3.067256e-001 2.708446e-001 3.009355e-001 2.798289e-001 1.907043e-001
<GCONST> 1.152709e+002
<TRANSP> 5
 0.000000e+000 1.000000e+000 0.000000e+000 0.000000e+000 0.000000e+000
 0.000000e+000 7.407587e-001 2.592413e-001 0.000000e+000 0.000000e+000
 0.000000e+000 0.000000e+000 6.620430e-001 3.379570e-001 0.000000e+000
 0.000000e+000 0.000000e+000 0.000000e+000 5.907497e-001 4.092503e-001
 0.000000e+000 0.000000e+000 0.000000e+000 0.000000e+000 0.000000e+000
<ENDHMM>
~h "i"
<BEGINHMM>
<NUMSTATES> 5
<STATE> 2
<MEAN> 39
 1.008332e+001 -1.865620e+001 1.574247e+001 2.241199e+001 2.772403e+000 5.258138e+000 -1.179021e+001 -7.022779e+000 -1.042546e+000 -2.396068e+000 -3.002215e+000 -5.701602e+000 7.095074e+001 1.393807e+000 1.417971e+000 -3.742309e-001 1.460230e+000 2.739852e-001 -7.336648e-001 -5.960615e-001 -1.791488e+000 -7.438787e-002 5.623090e-002 -1.109442e+000 -9.295440e-001 -3.487862e-002 -3.234494e-001 3.139647e-002 -1.810750e-001 -6.952461e-001 -3.343014e-001 1.611437e-001 3.737084e-001 1.681640e-001 -2.444104e-003 1.004887e-001 9.763353e-002 2.979802e-001 -1.756439e-001
<VARIANCE> 39
 4.702906e+001 5.422436e+001 6.085727e+001 7.475488e+001 2.920318e+001 3.575197e+001 2.559782e+001 5.363091e+001 2.986989e+001 1.712588e+001 2.995168e+001 3.580885e+001 1.498624e+001 3.535844e+000 8.559724e+000 5.637523e+000 4.078477e+000 2.531097e+000 3.377002e+000 3.792536e+000 5.460187e+000 2.603548e+000 2.408861e+000 2.787679e+000 2.403897e+000 1.835359e+000 3.464348e-001 8.365115e-001 6.038707e-001 5.807423e-001 3.502010e-001 5.440941e-001 5.183626e-001 8.401181e-001 4.244915e-001 3.177512e-001 4.636063e-001 3.898393e-001 2.566008e-001
<GCONST> 1.242587e+002
<STATE> 3
<MEAN> 39
 1.218499e+001 -1.657780e+001 1.312570e+001 2.190752e+001 2.382658e+000 4.959916e+000 -1.158584e+001 -1.086458e+001 -2.089876e+000 -1.594739e+000 -3.913055e+000 -5.864252e+000 7.119646e+001 5.081193e-001 1.236837e+000 -7.952223e-001 -4.118301e-001 -5.247014e-001 1.175223e-001 6.565837e-001 -9.411716e-001 -2.453867e-001 1.883736e-001 -2.691753e-001 1.443411e-001 -4.669309e-001 -6.945257e-001 -3.316336e-001 1.440952e-001 -8.119575e-001 -3.058977e-001 4.214676e-001 5.121993e-001 7.556696e-001 4.328864e-002 -3.701132e-002 3.730631e-001 4.947272e-001 -2.045277e-001
<VARIANCE> 39
 4.395341e+001 4.594789e+001 5.812740e+001 7.903667e+001 3.017593e+001 4.169542e+001 2.862662e+001 5.834099e+001 3.404405e+001 1.904506e+001 3.055946e+001 3.603079e+001 1.390558e+001 2.220587e+000 5.514131e+000 4.317865e+000 2.608332e+000 1.912549e+000 2.773901e+000 3.125386e+000 5.262651e+000 2.680039e+000 1.898115e+000 2.633919e+000 2.041431e+000 2.127464e+000 5.172885e-001 9.187617e-001 7.643358e-001 5.553193e-001 3.932361e-001 6.459772e-001 6.048574e-001 9.346540e-001 5.108241e-001 4.274836e-001 4.414947e-001 3.872766e-001 3.013545e-001
<GCONST> 1.238197e+002
<STATE> 4
<MEAN> 39
 1.220003e+001 -1.446408e+001 1.272032e+001 2.130770e+001 8.703680e-001 5.013193e+000 -1.041900e+001 -1.229868e+001 -3.077270e+000 -2.004945e+000 -4.411273e+000 -5.302267e+000 6.945630e+001 -3.077586e-001 6.565744e-001 -5.690836e-001 -1.529023e+000 -7.736185e-001 8.238932e-001 1.219925e+000 2.929346e-001 -3.156784e-001 -2.305966e-001 4.327508e-001 9.365764e-001 -6.174478e-001 -2.664246e-001 -1.069544e-001 5.380087e-002 -1.650396e-001 -4.779622e-002 2.346003e-002 1.649890e-001 5.311234e-001 1.853732e-001 -5.323449e-002 7.700162e-002 6.368612e-002 -1.155267e-001
<VARIANCE> 39
 2.873093e+001 3.400069e+001 4.844627e+001 6.726239e+001 3.199538e+001 4.721708e+001 3.644505e+001 6.593763e+001 4.147866e+001 1.987104e+001 3.066236e+001 3.345476e+001 2.950443e+001 1.520613e+000 3.290121e+000 2.725794e+000 2.556648e+000 1.853434e+000 2.321302e+000 3.426114e+000 4.709810e+000 2.475840e+000 1.937190e+000 2.255210e+000 2.014838e+000 2.369488e+000 2.532870e-001 4.795210e-001 4.338824e-001 4.207495e-001 2.883699e-001 4.701132e-001 5.485984e-001 8.177685e-001 4.410324e-001 3.514877e-001 4.440020e-001 3.853073e-001 2.320366e-001
<GCONST> 1.188242e+002
<TRANSP> 5
 0.000000e+000 1.000000e+000 0.000000e+000 0.000000e+000 0.000000e+000
 0.000000e+000 3.578245e-001 6.421755e-001 0.000000e+000 0.000000e+000
 0.000000e+000 0.000000e+000 2.236730e-001 7.763270e-001 0.000000e+000
 0.000000e+000 0.000000e+000 0.000000e+000 6.353673e-001 3.646327e-001
 0.000000e+000 0.000000e+000 0.000000e+000 0.000000e+000 0.000000e+000
<ENDHMM>
~h "j"
<BEGINHMM>
<NUMSTATES> 5
<STATE> 2
<MEAN> 39
 1.350524e+001 -1.548837e+001 8.214428e+000 1.691185e+001 -9.596990e-001 3.713365e+000 -1.103108e+001 -1.537773e+001 -4.680604e+000 1.626807e+000 -2.317057e-001 -2.747938e+000 7.326105e+001 1.360067e-001 4.273905e-001 1.846805e-002 9.267799e-001 9.712003e-001 -3.445628e-002 -1.163995e+000 -6.239659e-001 4.633983e-001 2.283404e-001 -1.861547e-001 -4.885421e-001 -2.739888e-001 -1.494636e-001 1.675779e-001 4.463454e-003 -3.877791e-001 -2.279968e-001 1.950877e-001 4.933319e-001 4.924443e-001 1.557528e-001 -2.410115e-001 -1.820133e-001 1.073676e-001 -1.552197e-001
<VARIANCE> 39
 7.668949e+001 1.438105e+001 5.700480e+001 1.180474e+002 3.397638e+001 3.490123e+001 2.737465e+001 6.371160e+001 5.797462e+001 3.781705e+001 5.355905e+001 4.675922e+001 2.014603e+001 2.233256e+000 3.982537e+000 2.406906e+000 3.893455e+000 2.854749e+000 2.895039e+000 3.211246e+000 4.071540e+000 2.898698e+000 2.501452e+000 2.837763e+000 2.303021e+000 6.264641e-001 1.641855e-001 4.872096e-001 2.759229e-001 4.547570e-001 3.016562e-001 4.734874e-001 2.535497e-001 5.618616e-001 3.438061e-001 3.262059e-001 4.876719e-001 4.514779e-001 1.027173e-001
<GCONST> 1.185840e+002
<STATE> 3
<MEAN> 39
 1.385927e+001 -1.482728e+001 9.512701e+000 1.993773e+001 -2.223040e-002 2.666489e+000 -1.218247e+001 -1.699788e+001 -4.399459e+000 1.512539e+000 -2.235166e+000 -4.714944e+000 7.283373e+001 -1.019872e-001 6.077473e-001 -2.339459e-002 -1.372640e-001 4.650052e-001 6.708010e-001 1.834159e-001 3.692319e-001 3.605851e-001 -3.245830e-001 -2.882577e-001 -1.172089e-001 -4.491957e-001 -1.851006e-001 2.246646e-002 1.390824e-003 -5.828349e-001 -2.629396e-001 3.645491e-001 5.921725e-001 5.531113e-001 -7.408543e-003 -1.570110e-001 1.705502e-001 3.828149e-001 -1.381390e-001
<VARIANCE> 39
 5.242212e+001 1.287179e+001 4.963489e+001 9.605347e+001 3.754409e+001 2.252199e+001 2.365250e+001 6.054573e+001 5.167651e+001 2.400322e+001 4.514428e+001 3.460256e+001 1.868700e+001 1.347201e+000 2.165832e+000 2.378063e+000 3.900717e+000 2.829221e+000 3.079903e+000 2.125518e+000 3.249142e+000 2.128368e+000 2.362770e+000 2.728751e+000 2.555141e+000 6.409286e-001 2.338090e-001 5.945243e-001 3.249762e-001 3.405378e-001 2.237846e-001 2.221100e-001 2.560579e-001 6.628881e-001 3.586925e-001 3.358470e-001 4.811394e-001 2.629456e-001 1.480831e-001
<GCONST> 1.135373e+002
<STATE> 4
<MEAN> 39
 1.303754e+001 -1.235797e+001 8.822173e+000 1.893197e+001 2.331685e+000 6.122073e+000 -1.073028e+001 -1.307378e+001 -2.379730e+000 -5.870078e-001 -2.250472e+000 -3.587708e+000 6.949256e+001 -6.186203e-001 6.932707e-001 -2.933559e-001 -1.310540e+000 -4.223351e-001 9.096481e-001 1.602149e+000 1.666472e+000 1.484593e-001 -6.428149e-001 4.353241e-001 9.614332e-001 -8.603551e-001 -3.759960e-001 -3.619433e-001 1.093150e-001 -2.122968e-001 -3.214466e-001 -1.728666e-001 3.440005e-001 5.338005e-001 4.314032e-002 -1.899503e-002 7.685640e-002 1.290354e-001 -2.862830e-002
<VARIANCE> 39
 5.804610e+001 2.236031e+001 5.810880e+001 1.056438e+002 3.953782e+001 3.041180e+001 3.848315e+001 6.118857e+001 6.264807e+001 2.524580e+001 4.635028e+001 3.604004e+001 2.813936e+001 1.836060e+000 5.601412e+000 3.605695e+000 2.916446e+000 2.516790e+000 2.561784e+000 2.952960e+000 3.825339e+000 2.329523e+000 1.892420e+000 3.533278e+000 2.155457e+000 2.314856e+000 2.059683e-001 7.911646e-001 4.745765e-001 5.071318e-001 3.020858e-001 3.849427e-001 4.546548e-001 7.092112e-001 5.338144e-001 3.623033e-001 6.763211e-001 4.628740e-001 2.340301e-001
<GCONST> 1.230946e+002
<TRANSP> 5
 0.000000e+000 1.000000e+000 0.000000e+000 0.000000e+000 0.000000e+000
 0.000000e+000 2.369400e-001 7.630600e-001 0.000000e+000 0.000000e+000
 0.000000e+000 0.000000e+000 4.302611e-001 5.697390e-001 0.000000e+000
 0.000000e+000 0.000000e+000 0.000000e+000 4.559165e-001 5.440835e-001
 0.000000e+000 0.000000e+000 0.000000e+000 0.000000e+000 0.000000e+000
<ENDHMM>
~h "k"
<BEGINHMM>
<NUMSTATES> 5
<STATE> 2
<MEAN> 39
 3.798357e+000 -8.762671e+000 1.709792e+000 1.104276e+001 -6.822649e+000 4.147680e+000 -5.608770e-001 -5.066998e+000 -2.297753e+000 -3.377189e+000 -2.349792e-001 5.155354e-001 5.585658e+001 -1.106877e+000 -5.153060e-003 -7.724018e-001 -4.976211e-001 -7.147644e-001 -1.005577e+000 -2.928232e-001 -7.714271e-002 1.655014e-001 -6.036781e-002 -1.577490e-001 4.808910e-001 -1.072258e+000 6.411641e-001 -3.980727e-001 2.758518e-001 -3.511117e-001 -2.537092e-001 -2.724410e-002 -2.276682e-001 -3.171938e-002 -1.725630e-001 1.990635e-001 2.714352e-001 -2.375373e-001 9.322647e-001
<VARIANCE> 39
 1.049287e+001 2.944831e+001 1.965713e+001 1.885582e+001 1.673104e+001 2.510090e+001 1.783319e+001 2.366003e+001 2.256577e+001 1.741162e+001 1.676611e+001 1.843926e+001 8.243098e+000 1.363908e+000 1.766261e+000 1.382643e+000 1.848702e+000 1.863874e+000 2.443915e+000 2.258198e+000 2.404317e+000 1.997168e+000 1.948953e+000 1.569992e+000 1.515163e+000 1.931868e+000 2.687202e-001 6.220324e-001 2.959878e-001 4.529988e-001 5.396750e-001 6.645704e-001 5.758988e-001 5.959285e-001 4.093969e-001 4.022618e-001 3.630293e-001 3.334864e-001 3.695547e-001
<GCONST> 1.063339e+002
<STATE> 3
<MEAN> 39
 3.023506e+000 -9.612085e+000 2.377330e-001 8.081819e+000 -9.807201e+000 8.674399e-001 -2.090650e+000 -4.795994e+000 -1.522409e+000 -2.827924e+000 8.703094e-002 9.651227e-001 5.636978e+001 2.418399e+000 -2.006797e+000 4.291298e-001 -2.810367e+000 -2.458409e+000 -6.354923e-001 -8.200278e-001 1.053589e+000 -5.814734e-001 4.358541e-001 1.403950e+000 -1.262378e+000 3.329518e+000 8.012658e-001 -3.042268e-001 7.595490e-001 2.489059e-002 1.549266e-002 4.225660e-001 -2.526368e-002 1.753149e-001 -1.390153e-001 1.420398e-001 2.957717e-001 -4.074885e-001 1.020064e+000
<VARIANCE> 39
 1.865285e+001 3.402583e+001 1.864585e+001 3.137108e+001 3.053150e+001 2.934677e+001 1.713076e+001 1.639119e+001 1.874485e+001 1.521908e+001 1.531745e+001 1.478465e+001 1.823027e+001 1.884984e+000 9.942168e+000 3.177880e+000 3.923383e+000 6.532140e+000 6.364633e+000 3.563293e+000 3.700412e+000 2.900525e+000 2.587685e+000 2.434544e+000 2.098566e+000 2.371732e+000 2.916101e-001 6.368100e-001 3.665252e-001 7.529092e-001 8.072503e-001 5.304590e-001 5.061245e-001 5.128595e-001 4.016993e-001 3.363717e-001 3.638017e-001 3.261269e-001 4.168634e-001
<GCONST> 1.170111e+002
<STATE> 4
<MEAN> 39
 1.149488e+001 -1.755048e+001 5.563421e+000 1.877567e+000 -1.529756e+001 2.690062e+000 -3.913484e+000 -9.176257e-001 -3.931784e+000 -1.667617e+000 5.162737e+000 -3.705022e+000 6.886497e+001 1.922099e+000 4.085682e-001 2.056434e+000 8.621399e-001 2.557949e-001 6.491968e-001 -1.121909e-001 -8.183737e-001 -2.414216e-001 7.948508e-001 2.781318e-001 -5.418648e-001 2.112774e+000 -2.495885e-001 1.166536e+000 -9.346982e-002 1.158626e+000 8.620380e-001 8.882663e-002 2.077818e-001 -1.013215e+000 1.766698e-001 1.134175e-001 -7.244552e-001 4.138401e-001 -8.056722e-001
<VARIANCE> 39
 2.527064e+001 1.061650e+002 4.809646e+001 5.321977e+001 8.067276e+001 6.725475e+001 4.243824e+001 4.232019e+001 3.556476e+001 2.952716e+001 2.554886e+001 1.612308e+001 2.374023e+001 2.107095e+000 9.189133e+000 3.159089e+000 7.297784e+000 7.029103e+000 3.853175e+000 4.023095e+000 7.444614e+000 3.681454e+000 2.448942e+000 4.211523e+000 3.111281e+000 4.226412e+000 3.151712e-001 1.280865e+000 7.883310e-001 1.116961e+000 1.560478e+000 1.022310e+000 8.483731e-001 8.661686e-001 5.578329e-001 5.724318e-001 5.480093e-001 5.179566e-001 4.342804e-001
<GCONST> 1.345589e+002
<TRANSP> 5
 0.000000e+000 1.000000e+000 0.000000e+000 0.000000e+000 0.000000e+000
 0.000000e+000 7.778206e-001 2.221794e-001 0.000000e+000 0.000000e+000
 0.000000e+000 0.000000e+000 4.768798e-001 5.231202e-001 0.000000e+000
 0.000000e+000 0.000000e+000 0.000000e+000 6.583728e-001 3.416272e-001
 0.000000e+000 0.000000e+000 0.000000e+000 0.000000e+000 0.000000e+000
<ENDHMM>
~h "l"
<BEGINHMM>
<NUMSTATES> 5
<STATE> 2
<MEAN> 39
 1.537610e+001 -7.703901e+000 9.677330e+000 1.087235e+001 -5.168652e+000 7.585489e+000 -4.132062e+000 -8.896947e+000 -1.577673e+000 -3.999664e+000 -7.282082e+000 -3.909499e+000 6.962521e+001 2.724633e-004 1.475952e+000 7.246036e-002 1.132886e+000 1.041702e+000 1.651935e-001 4.498664e-001 7.115219e-001 1.020985e+000 -5.129818e-001 -1.645932e+000 -8.660390e-001 -9.344644e-001 -8.108007e-002 -4.220895e-001 -6.737310e-002 6.404915e-002 -2.941373e-001 -3.216631e-001 -4.526198e-002 -8.914232e-002 -5.535769e-002 2.899297e-001 2.070619e-001 4.067640e-002 1.496083e-001
<VARIANCE> 39
 3.190614e+001 2.579774e+001 4.258626e+001 8.678566e+001 1.317000e+002 5.083706e+001 5.794112e+001 3.369181e+001 2.928977e+001 3.261299e+001 4.209440e+001 2.736947e+001 1.599721e+001 1.171948e+000 2.432202e+000 2.125557e+000 2.683323e+000 4.008936e+000 3.704452e+000 3.574058e+000 4.183358e+000 2.807296e+000 2.734192e+000 3.279306e+000 2.118117e+000 9.622723e-001 1.769799e-001 4.055024e-001 4.159354e-001 6.656564e-001 4.702665e-001 5.532678e-001 5.572034e-001 6.097677e-001 3.970009e-001 4.083257e-001 5.779671e-001 4.747694e-001 1.640339e-001
<GCONST> 1.205392e+002
<STATE> 3
<MEAN> 39
 1.449089e+001 -6.601637e+000 1.075686e+001 1.498076e+001 -2.161476e+000 8.141665e+000 -4.079419e+000 -7.412787e+000 7.336721e-001 -4.630866e+000 -9.430280e+000 -4.603648e+000 6.752049e+001 -1.031228e-001 -1.283095e-001 5.106318e-002 7.750517e-001 -1.248056e-001 -8.314441e-001 1.206863e-001 7.169761e-001 1.731311e-001 -9.162985e-002 1.520968e-001 -1.395632e-001 -7.972766e-002 1.094372e-001 -5.898210e-001 -1.000915e-001 -2.595153e-001 -5.268225e-001 -4.166422e-001 -2.362850e-001 -2.589987e-001 -4.490327e-001 2.053849e-001 6.206040e-001 1.462749e-001 4.440181e-001
<VARIANCE> 39
 2.426384e+001 2.832499e+001 3.104796e+001 8.642736e+001 1.461943e+002 4.258727e+001 6.613089e+001 2.543675e+001 2.911846e+001 3.387302e+001 4.853832e+001 2.762600e+001 1.442865e+001 4.687506e-001 1.517374e+000 1.128510e+000 1.829872e+000 1.620859e+000 2.254628e+000 1.988523e+000 1.976137e+000 1.819536e+000 1.207407e+000 2.305099e+000 1.242811e+000 6.730510e-001 1.393374e-001 2.470051e-001 2.366017e-001 3.419523e-001 4.000509e-001 7.391283e-001 5.618840e-001 5.429780e-001 3.993018e-001 4.219679e-001 6.891289e-001 4.992200e-001 1.256200e-001
<GCONST> 1.103143e+002
<STATE> 4
<MEAN> 39
 1.539557e+001 -8.259518e+000 1.101274e+001 1.594565e+001 -6.804908e+000 1.659272e+000 -3.013405e+000 -4.718136e+000 -4.791445e-001 -4.521931e+000 -8.099797e+000 -6.272221e+000 6.971396e+001 2.753954e-001 -8.283406e-001 -1.645873e-001 -3.765582e-001 -7.331738e-001 -7.286353e-001 -6.118129e-001 -4.952982e-001 -4.887636e-001 2.438750e-001 6.555898e-001 3.020632e-001 7.552779e-001 6.317578e-003 -6.860749e-002 -7.538982e-003 -2.393425e-001 2.734244e-003 2.218361e-001 -1.185004e-001 -3.254738e-001 -1.856757e-002 1.949235e-001 7.523940e-002 1.400845e-001 7.929210e-002
<VARIANCE> 39
 2.127226e+001 3.505363e+001 3.929322e+001 9.659260e+001 1.247114e+002 4.033603e+001 7.324454e+001 2.920837e+001 1.871545e+001 2.424137e+001 4.463443e+001 2.272218e+001 1.296637e+001 3.616721e-001 1.150252e+000 1.300120e+000 2.293043e+000 1.733804e+000 3.584874e+000 2.639825e+000 2.127927e+000 1.677235e+000 2.085663e+000 3.304377e+000 2.650172e+000 5.220014e-001 8.713108e-002 2.434282e-001 2.226353e-001 3.504592e-001 2.254011e-001 4.282230e-001 3.718913e-001 3.811607e-001 2.913769e-001 3.007244e-001 5.148779e-001 3.185780e-001 9.493481e-002
<GCONST> 1.075737e+002
<TRANSP> 5
 0.000000e+000 1.000000e+000 0.000000e+000 0.000000e+000 0.000000e+000
 0.000000e+000 4.080449e-001 5.919551e-001 0.000000e+000 0.000000e+000
 0.000000e+000 0.000000e+000 5.711245e-001 4.288755e-001 0.000000e+000
 0.000000e+000 0.000000e+000 0.000000e+000 6.673367e-001 3.326633e-001
 0.000000e+000 0.000000e+000 0.000000e+000 0.000000e+000 0.000000e+000
<ENDHMM>
~h "m"
<BEGINHMM>
<NUMSTATES> 5
<STATE> 2
<MEAN> 39
 1.563465e+001 -4.989477e+000 8.793932e+000 1.328746e+001 -8.188794e-001 8.673268e+000 -4.043597e+000 -3.029313e+000 3.572364e+000 -3.015557e+000 -4.918367e+000 -8.459440e+000 6.682581e+001 -3.010167e-001 1.992899e-001 2.277000e-001 4.056099e-001 6.562693e-001 4.333282e-001 -2.223773e-002 4.247513e-001 5.569571e-001 -4.471774e-002 -3.816103e-001 -7.584190e-001 -3.773312e-001 5.765531e-002 -2.348608e-001 -4.641846e-002 -1.575368e-001 -3.754968e-001 -2.984053e-001 -5.379727e-002 -1.224782e-001 -2.254063e-001 8.668730e-002 2.782107e-001 4.206184e-001 1.888852e-001
<VARIANCE> 39
 1.244063e+001 7.958574e+000 1.349676e+001 1.642587e+001 1.846779e+001 2.237139e+001 2.392583e+001 2.108608e+001 2.198971e+001 1.491214e+001 1.570588e+001 2.540143e+001 6.340805e+000 3.666661e-001 1.033337e+000 6.254758e-001 1.319806e+000 1.882931e+000 1.437848e+000 1.728160e+000 1.314572e+000 1.279155e+000 9.627543e-001 1.389902e+000 1.993320e+000 4.530573e-001 8.574217e-002 2.416332e-001 1.289949e-001 3.498755e-001 3.772655e-001 2.325664e-001 3.224892e-001 2.396412e-001 2.220100e-001 2.120917e-001 2.331186e-001 3.407963e-001 7.556987e-002
<GCONST> 8.849979e+001
<STATE> 3
<MEAN> 39
 1.532456e+001 -5.530566e+000 8.732828e+000 1.305377e+001 -1.814703e+000 7.835073e+000 -3.956668e+000 -2.467311e+000 3.965513e+000 -2.479649e+000 -4.518082e+000 -8.405884e+000 6.708108e+001 3.345596e-001 -1.872762e-001 -4.701825e-001 -7.737000e-001 -1.329489e+000 -9.395756e-001 1.250197e-001 -2.331349e-001 -7.126371e-001 5.664960e-003 7.413683e-001 1.250201e+000 4.144677e-001 8.089439e-002 -2.791217e-001 -9.079778e-002 -2.736343e-001 -6.063799e-001 -3.439718e-001 1.092555e-001 -2.297095e-001 -3.529154e-001 6.272016e-002 2.033791e-001 5.298846e-001 2.392424e-001
<VARIANCE> 39
 2.254006e+001 9.738292e+000 1.760148e+001 2.399832e+001 1.781476e+001 2.357561e+001 2.689561e+001 2.155200e+001 1.982540e+001 1.419044e+001 1.699364e+001 2.756838e+001 1.015702e+001 9.017928e-001 9.598509e-001 7.345507e-001 2.035170e+000 2.654852e+000 2.013808e+000 1.931808e+000 1.723029e+000 1.092197e+000 1.050516e+000 1.076694e+000 1.495059e+000 1.049137e+000 1.007274e-001 2.914789e-001 1.738237e-001 4.777574e-001 3.556316e-001 3.069012e-001 4.419456e-001 3.032373e-001 2.479526e-001 2.431644e-001 2.194234e-001 3.617574e-001 1.051857e-001
<GCONST> 9.558712e+001
<STATE> 4
<MEAN> 39
 1.612495e+001 -6.361029e+000 6.253863e+000 8.728689e+000 -8.256528e+000 4.287037e+000 -2.216470e+000 -3.059672e+000 1.156210e+000 -2.639251e+000 -2.342154e+000 -3.615819e+000 6.829037e+001 1.701347e-001 -1.023877e+000 -2.976574e-001 -6.692218e-001 -1.576229e+000 -5.819885e-001 6.646520e-001 -6.297567e-001 -1.071494e+000 1.450490e-001 4.737454e-001 1.584435e+000 7.010033e-001 -2.095017e-001 -3.247654e-001 2.780462e-001 4.274975e-001 3.619185e-001 2.196054e-001 -1.194800e-001 -2.562704e-001 -1.787465e-002 1.523599e-001 -1.220312e-001 -1.285195e-001 1.303548e-003
<VARIANCE> 39
 4.213614e+001 1.520306e+001 2.221875e+001 4.450611e+001 6.720219e+001 3.595836e+001 3.998024e+001 2.683093e+001 2.296221e+001 1.892560e+001 1.832327e+001 2.761561e+001 3.179038e+001 1.493997e+000 2.032124e+000 1.343962e+000 3.966459e+000 3.744127e+000 3.419131e+000 4.576197e+000 2.529388e+000 1.930901e+000 2.089566e+000 1.934162e+000 2.702884e+000 1.875491e+000 1.382340e-001 2.899043e-001 2.808439e-001 4.477220e-001 6.832982e-001 5.853865e-001 5.929609e-001 4.198419e-001 3.097236e-001 3.112582e-001 3.275236e-001 3.827862e-001 1.469449e-001
<GCONST> 1.130938e+002
<TRANSP> 5
 0.000000e+000 1.000000e+000 0.000000e+000 0.000000e+000 0.000000e+000
 0.000000e+000 7.393802e-001 2.606199e-001 0.000000e+000 0.000000e+000
 0.000000e+000 0.000000e+000 4.397467e-001 5.602534e-001 0.000000e+000
 0.000000e+000 0.000000e+000 0.000000e+000 4.197676e-001 5.802324e-001
 0.000000e+000 0.000000e+000 0.000000e+000 0.000000e+000 0.000000e+000
<ENDHMM>
~h "n"
<BEGINHMM>
<NUMSTATES> 5
<STATE> 2
<MEAN> 39
 1.600961e+001 -6.181516e+000 8.687625e+000 1.367129e+001 -1.568918e+000 9.222058e+000 -4.139476e+000 -6.750091e+000 1.560173e+000 -2.562548e+000 -6.333900e+000 -7.029140e+000 6.738665e+001 -3.135512e-001 7.816070e-001 4.383362e-002 7.909751e-001 8.479462e-001 1.629944e-001 7.191159e-002 1.468746e-001 3.802353e-001 -6.006789e-002 -5.808659e-001 -1.073604e+000 -7.316208e-001 -5.535715e-002 -3.476864e-001 -2.496410e-003 -1.676955e-001 -2.781883e-001 -2.403633e-001 -5.152720e-003 2.193188e-001 -1.329470e-001 -2.203814e-002 3.885016e-001 4.324939e-001 1.649967e-001
<VARIANCE> 39
 1.015349e+001 9.695168e+000 1.567542e+001 2.204273e+001 2.796060e+001 2.825607e+001 2.663095e+001 2.280580e+001 2.289649e+001 1.755133e+001 1.888449e+001 2.459469e+001 9.051095e+000 3.613031e-001 1.221818e+000 1.413984e+000 2.783053e+000 2.587994e+000 1.913872e+000 2.155079e+000 1.926308e+000 1.683297e+000 1.508805e+000 2.301627e+000 2.591745e+000 6.692327e-001 9.379762e-002 2.507367e-001 2.595454e-001 4.864308e-001 4.020377e-001 3.300519e-001 5.088356e-001 3.965841e-001 2.807629e-001 3.304661e-001 3.197008e-001 4.219446e-001 1.090619e-001
<GCONST> 9.938864e+001
<STATE> 3
<MEAN> 39
 1.561531e+001 -5.556480e+000 8.583163e+000 1.426266e+001 -1.332946e+000 7.849030e+000 -4.454736e+000 -6.164819e+000 1.180714e+000 -2.716972e+000 -5.688222e+000 -8.021782e+000 6.699642e+001 -1.926064e-001 -4.416741e-001 -6.513166e-001 -3.995433e-001 -2.826204e-001 -5.550976e-001 3.177468e-001 1.381971e+000 -2.326185e-001 -8.386959e-001 9.948396e-001 1.320425e+000 -8.903872e-002 -1.383197e-001 -4.747429e-001 -1.194037e-001 -3.794431e-001 -5.361643e-001 -2.613803e-001 1.444946e-001 2.285264e-001 -1.672816e-001 -4.261236e-002 3.383189e-001 6.224936e-001 1.444880e-001
<VARIANCE> 39
 1.658294e+001 1.101343e+001 2.131138e+001 2.466573e+001 2.260577e+001 2.512380e+001 2.483733e+001 2.663613e+001 2.416964e+001 2.067949e+001 1.938137e+001 1.910323e+001 1.208582e+001 1.322723e+000 1.568362e+000 1.920894e+000 3.599838e+000 2.422733e+000 2.425570e+000 2.988462e+000 2.044233e+000 1.615206e+000 1.799482e+000 1.834541e+000 1.874504e+000 1.942770e+000 1.944378e-001 3.758463e-001 4.209595e-001 5.619545e-001 3.740844e-001 4.209838e-001 5.588789e-001 4.868631e-001 2.914602e-001 3.494019e-001 2.873878e-001 4.493864e-001 1.605453e-001
<GCONST> 1.064486e+002
<STATE> 4
<MEAN> 39
 1.575295e+001 -7.624269e+000 6.733800e+000 1.217226e+001 -3.021870e+000 6.163264e+000 -3.910843e+000 -2.307102e+000 5.092776e-001 -5.418603e+000 -2.860525e+000 -3.380541e+000 6.789699e+001 -6.168402e-001 -8.006154e-001 -5.455265e-001 -8.312323e-001 -1.319506e+000 -6.539337e-001 9.401928e-001 8.164660e-001 -5.555723e-001 -5.404849e-002 1.158123e+000 1.506271e+000 -1.396225e-001 -2.938825e-001 -2.535212e-001 2.424258e-001 -9.192578e-002 -3.770342e-001 -1.629645e-003 1.109507e-001 -4.522026e-001 -1.005803e-001 4.845663e-001 -1.201846e-001 -1.728005e-001 -5.219483e-003
<VARIANCE> 39
 3.034528e+001 2.009654e+001 3.434772e+001 5.354065e+001 2.877732e+001 3.007220e+001 2.832200e+001 2.861886e+001 2.215040e+001 2.705567e+001 2.229914e+001 2.671007e+001 2.758717e+001 2.003716e+000 2.116728e+000 2.826961e+000 3.589135e+000 3.331882e+000 3.285857e+000 3.713061e+000 2.692762e+000 1.744398e+000 2.306278e+000 1.712904e+000 2.210652e+000 2.622894e+000 1.482246e-001 6.915377e-001 5.261368e-001 6.735581e-001 4.127946e-001 4.521981e-001 6.462982e-001 7.332668e-001 3.244978e-001 4.931307e-001 3.528213e-001 5.680476e-001 2.049973e-001
<GCONST> 1.165514e+002
<TRANSP> 5
 0.000000e+000 1.000000e+000 0.000000e+000 0.000000e+000 0.000000e+000
 0.000000e+000 6.764171e-001 3.235830e-001 0.000000e+000 0.000000e+000
 0.000000e+000 0.000000e+000 3.308496e-001 6.691504e-001 0.000000e+000
 0.000000e+000 0.000000e+000 0.000000e+000 2.810762e-001 7.189237e-001
 0.000000e+000 0.000000e+000 0.000000e+000 0.000000e+000 0.000000e+000
<ENDHMM>
~h "o"
<BEGINHMM>
<NUMSTATES> 5
<STATE> 2
<MEAN> 39
 1.818308e+001 -3.308696e+000 8.693083e+000 8.575018e+000 -1.354632e+001 -9.928222e-001 -1.982790e+000 -5.982221e+000 -7.568240e-001 -2.827435e+000 -5.923730e+000 -4.617982e+000 7.005440e+001 1.328296e+000 2.461951e+000 -1.984345e-001 -5.197344e-001 -1.567290e+000 -2.370424e+000 -5.605854e-001 -1.219641e+000 4.613807e-001 8.435597e-001 -1.054036e+000 -7.753681e-001 3.775882e-001 -6.979414e-001 -7.567675e-001 -2.702380e-002 1.240763e-001 3.925121e-001 3.205148e-001 -1.406483e-002 2.834796e-001 -7.122381e-002 1.139974e-001 5.034189e-001 2.821774e-001 -2.851352e-001
<VARIANCE> 39
 2.129863e+001 2.979190e+001 3.059494e+001 2.612899e+001 3.219392e+001 3.190019e+001 1.930474e+001 1.754155e+001 2.987050e+001 3.327397e+001 4.528421e+001 1.878840e+001 1.240769e+001 2.334941e+000 4.852677e+000 2.331816e+000 3.092609e+000 4.333392e+000 3.963112e+000 2.626421e+000 4.974099e+000 3.988924e+000 2.396617e+000 4.383965e+000 1.970039e+000 1.012425e+000 3.155059e-001 7.964460e-001 5.463884e-001 4.513005e-001 5.013257e-001 7.202358e-001 4.678681e-001 4.578402e-001 4.953305e-001 4.924425e-001 6.330755e-001 3.550910e-001 2.203146e-001
<GCONST> 1.182249e+002
<STATE> 3
<MEAN> 39
 1.806177e+001 4.635654e-001 1.143210e+001 8.954803e+000 -1.764810e+001 -7.279674e+000 -4.034023e+000 -6.826882e+000 1.060906e-001 1.543753e-001 -4.094906e+000 -4.652705e+000 6.927270e+001 -1.521153e-002 -2.693678e-001 -9.250483e-002 -2.658655e-003 -2.237723e-001 2.646838e-002 3.214223e-001 -1.253770e-001 -2.202708e-001 -1.372170e-002 -1.097324e-001 -1.203020e-002 1.393594e-001 -1.484223e-001 -4.200375e-001 -8.470274e-002 4.933442e-002 3.408023e-001 5.951488e-001 2.159711e-001 1.787317e-001 -7.200339e-002 -2.123195e-001 1.577744e-002 1.098445e-001 -6.503144e-002
<VARIANCE> 39
 9.065745e+000 2.011844e+001 2.254809e+001 1.579272e+001 2.340837e+001 2.658882e+001 1.427696e+001 2.241146e+001 2.738543e+001 1.690566e+001 2.685220e+001 1.586654e+001 9.523295e+000 4.159413e-001 1.368008e+000 8.798854e-001 9.859824e-001 1.419961e+000 2.428123e+000 1.541027e+000 1.609490e+000 1.797277e+000 1.442406e+000 2.163701e+000 1.154344e+000 4.732557e-001 1.435476e-001 2.429828e-001 1.859919e-001 2.289943e-001 3.134829e-001 3.198255e-001 2.785547e-001 3.655254e-001 3.295408e-001 2.166977e-001 3.680999e-001 3.068366e-001 7.213167e-002
<GCONST> 9.342038e+001
<STATE> 4
<MEAN> 39
 1.846106e+001 -6.303346e+000 6.899284e+000 8.115113e+000 -1.338040e+001 1.046458e+000 -4.800215e-001 -8.732615e+000 -4.293267e+000 -3.931206e+000 -6.068114e+000 -3.627276e+000 7.148199e+001 -4.470010e-001 -1.133089e+000 -3.062323e-001 8.242432e-001 2.133668e+000 1.809702e+000 -2.831094e-001 -5.875661e-001 -6.483546e-001 -3.934809e-001 5.689160e-001 9.821913e-001 -2.589019e-001 -2.956557e-001 2.713644e-002 1.832262e-001 2.942545e-001 4.829899e-001 -7.872465e-003 -4.113842e-001 2.105609e-001 2.873764e-001 1.667760e-001 3.061435e-001 3.323304e-003 -2.765623e-001
<VARIANCE> 39
 1.661579e+001 2.640127e+001 2.697642e+001 2.504254e+001 4.787635e+001 3.868597e+001 2.621325e+001 4.386734e+001 4.421253e+001 2.950628e+001 3.286744e+001 2.180473e+001 1.272728e+001 9.735467e-001 1.858538e+000 1.874101e+000 1.918022e+000 2.945826e+000 2.586290e+000 4.409218e+000 4.644207e+000 2.989205e+000 2.389799e+000 2.555974e+000 2.604555e+000 1.298712e+000 1.518286e-001 2.976634e-001 3.397656e-001 2.638331e-001 4.433039e-001 4.993334e-001 5.212884e-001 6.838089e-001 6.439137e-001 4.419846e-001 5.446995e-001 5.427878e-001 1.194999e-001
<GCONST> 1.135377e+002
<TRANSP> 5
 0.000000e+000 1.000000e+000 0.000000e+000 0.000000e+000 0.000000e+000
 0.000000e+000 4.629529e-001 5.370470e-001 0.000000e+000 0.000000e+000
 0.000000e+000 0.000000e+000 7.677501e-001 2.322499e-001 0.000000e+000
 0.000000e+000 0.000000e+000 0.000000e+000 5.759989e-001 4.240011e-001
 0.000000e+000 0.000000e+000 0.000000e+000 0.000000e+000 0.000000e+000
<ENDHMM>
~h "p"
<BEGINHMM>
<NUMSTATES> 5
<STATE> 2
<MEAN> 39
 4.402728e+000 -6.735303e+000 2.718813e+000 1.198486e+001 -6.281977e+000 4.166307e+000 9.858584e-002 -4.245645e+000 -1.320921e+000 -2.338330e+000 -1.919906e-002 8.892886e-001 5.549610e+001 -1.127444e+000 -5.347620e-001 -9.989446e-001 -6.863820e-001 -8.025377e-001 -9.494510e-001 -4.883857e-001 -3.084821e-001 -2.351279e-001 -1.811371e-001 8.683439e-002 4.059869e-001 -8.951798e-001 4.566984e-001 -2.184920e-001 2.227924e-001 -1.084202e-001 3.321215e-002 2.052719e-001 -6.131743e-002 -3.953920e-002 4.536176e-002 9.181364e-002 -2.069802e-002 -1.146415e-001 6.215366e-001
<VARIANCE> 39
 1.378678e+001 2.554453e+001 2.262416e+001 2.295290e+001 1.868836e+001 2.291260e+001 1.947726e+001 1.679181e+001 2.151010e+001 1.364153e+001 1.265302e+001 1.390361e+001 9.707702e+000 9.348255e-001 1.043312e+000 9.656757e-001 1.200907e+000 1.231040e+000 1.348116e+000 1.219020e+000 1.512264e+000 1.255050e+000 1.088774e+000 1.021866e+000 1.222379e+000 1.164265e+000 1.281732e-001 3.486567e-001 3.124133e-001 4.363378e-001 5.167003e-001 4.902950e-001 3.875879e-001 4.683148e-001 3.388695e-001 2.196794e-001 2.254146e-001 2.269489e-001 2.021473e-001
<GCONST> 9.534666e+001
<STATE> 3
<MEAN> 39
 2.444152e+000 -9.342890e+000 9.702127e-001 9.856992e+000 -8.090253e+000 2.478743e+000 -1.328741e+000 -4.231013e+000 -6.075656e-001 -2.124434e+000 2.670046e-001 1.899442e+000 5.544351e+001 1.944081e+000 -6.262104e-001 1.613921e+000 5.146807e-001 9.244890e-001 2.031028e+000 4.446813e-001 6.123695e-001 7.814961e-001 4.006069e-001 3.219318e-001 9.456811e-002 2.395461e+000 1.190136e+000 1.619272e-001 6.298140e-001 2.176090e-001 1.964091e-001 4.095284e-001 -5.763381e-002 -3.591513e-001 -5.667307e-002 2.230983e-001 -7.211515e-002 -2.243215e-001 1.135870e+000
<VARIANCE> 39
 1.591509e+001 1.748149e+001 1.364889e+001 2.103237e+001 1.111751e+001 1.669354e+001 1.413444e+001 1.635236e+001 1.726914e+001 1.291202e+001 1.190185e+001 1.254829e+001 2.446699e+001 2.512418e+000 2.789428e+000 1.957725e+000 2.644255e+000 2.391737e+000 2.519178e+000 2.197351e+000 3.117985e+000 2.456184e+000 1.208393e+000 1.610504e+000 1.411994e+000 2.071060e+000 2.197137e-001 4.733452e-001 3.775299e-001 5.152671e-001 6.851978e-001 7.397842e-001 5.183347e-001 7.041928e-001 4.147567e-001 2.830172e-001 3.508607e-001 2.818151e-001 2.857471e-001
<GCONST> 1.058951e+002
<STATE> 4
<MEAN> 39
 1.265662e+001 -9.562518e+000 7.998212e+000 1.164332e+001 -5.251733e+000 9.795844e+000 5.618305e-001 -2.898679e+000 1.530810e+000 -4.114460e-001 1.119613e+000 1.481107e+000 6.641626e+001 3.791176e+000 5.990961e-001 1.174450e+000 -5.060993e-001 -6.990044e-001 -6.994313e-002 -7.850721e-001 -2.059474e+000 -5.536122e-001 8.107491e-001 -6.495405e-001 -8.532279e-001 3.712059e+000 -4.469963e-001 1.812692e-001 -6.427166e-001 -2.965881e-001 -5.314202e-001 -1.120674e+000 -4.730259e-001 -7.271587e-001 -5.451980e-001 -8.438603e-002 -3.034796e-001 -2.950769e-001 -4.856625e-001
<VARIANCE> 39
 3.874562e+001 3.938911e+001 1.793803e+001 4.505524e+001 4.359066e+001 3.545087e+001 2.480613e+001 3.699907e+001 2.159339e+001 2.243519e+001 1.489467e+001 1.531219e+001 2.496011e+001 2.437026e+000 5.595922e+000 4.282817e+000 5.242777e+000 8.624195e+000 8.106773e+000 5.625267e+000 5.612895e+000 3.628760e+000 2.495790e+000 2.540307e+000 2.034775e+000 2.946981e+000 5.878931e-001 8.431296e-001 4.202223e-001 5.308518e-001 8.266740e-001 9.157301e-001 6.725023e-001 7.323318e-001 5.431573e-001 3.640096e-001 4.204151e-001 3.438319e-001 4.910540e-001
<GCONST> 1.255933e+002
<TRANSP> 5
 0.000000e+000 1.000000e+000 0.000000e+000 0.000000e+000 0.000000e+000
 0.000000e+000 8.198742e-001 1.801259e-001 0.000000e+000 0.000000e+000
 0.000000e+000 0.000000e+000 5.455001e-001 4.544999e-001 0.000000e+000
 0.000000e+000 0.000000e+000 0.000000e+000 5.358302e-001 4.641698e-001
 0.000000e+000 0.000000e+000 0.000000e+000 0.000000e+000 0.000000e+000
<ENDHMM>
~h "s"
<BEGINHMM>
<NUMSTATES> 5
<STATE> 2
<MEAN> 39
 2.934103e+000 -2.320391e+001 2.583389e+001 4.808723e+000 -7.359182e+000 1.440949e+001 -2.666103e-001 -1.209561e+000 -4.972403e+000 1.085612e+000 5.749305e-001 -6.716186e-001 7.465768e+001 -4.407423e+000 -3.698581e+000 2.956153e+000 -1.958881e+000 3.303964e-001 6.391360e-001 -3.253998e-001 2.748325e+000 -2.172164e-001 2.481642e-001 1.017549e+000 6.578988e-001 3.972207e-001 1.044390e-001 7.682233e-002 -8.923527e-001 -8.432854e-002 -3.684215e-001 -6.337736e-001 -4.407066e-001 -7.416073e-001 5.280910e-003 2.710221e-002 -2.851517e-001 -1.999411e-001 -1.500455e-001
<VARIANCE> 39
 6.023794e+001 5.296080e+001 5.945352e+001 3.501692e+001 2.629033e+001 3.360604e+001 2.856507e+001 7.550547e+001 2.196732e+001 3.856170e+001 2.101348e+001 1.588540e+001 7.110698e+000 2.256861e+000 2.454744e+000 6.127739e+000 3.035844e+000 2.776603e+000 2.767773e+000 3.119196e+000 7.194456e+000 3.020761e+000 1.929550e+000 2.664344e+000 1.572786e+000 5.105988e-001 8.736377e-001 8.194740e-001 8.877976e-001 3.985343e-001 3.332877e-001 3.571409e-001 3.767155e-001 1.062158e+000 3.746752e-001 3.394400e-001 4.179229e-001 2.797288e-001 7.568469e-002
<GCONST> 1.174620e+002
<STATE> 3
<MEAN> 39
 -8.696293e+000 -3.304203e+001 2.696576e+001 -2.346244e+000 -9.693349e+000 1.248607e+001 -5.026536e+000 2.758137e-001 -5.202197e+000 2.130769e+000 1.691537e+000 -5.198530e-001 7.422301e+001 -6.620782e-002 -2.544493e-001 -4.371029e-001 -1.274498e-001 -5.551299e-002 -1.585143e-001 -2.799256e-001 -1.467963e-001 8.047929e-002 1.093192e-001 1.217940e-001 -1.970886e-003 -8.394184e-002 5.838683e-001 4.360849e-001 -2.005222e-001 4.537223e-001 1.633632e-001 4.524053e-002 1.540035e-001 -1.386599e-001 3.575853e-002 -4.635257e-002 -1.092677e-002 -1.877498e-002 -4.455724e-002
<VARIANCE> 39
 6.327557e+000 1.129295e+001 1.906881e+001 2.564712e+001 1.370092e+001 2.442536e+001 2.335679e+001 3.217331e+001 1.729415e+001 3.324583e+001 1.585455e+001 1.000358e+001 3.853206e+000 1.559973e+000 9.457271e-001 9.787024e-001 1.953664e+000 1.129210e+000 1.064299e+000 1.541768e+000 1.328833e+000 1.001610e+000 1.302308e+000 1.113091e+000 8.297141e-001 1.883789e-001 2.316617e-001 2.778720e-001 2.339697e-001 3.049749e-001 1.888987e-001 1.781324e-001 2.569212e-001 3.154686e-001 2.185175e-001 2.400675e-001 2.164349e-001 1.654648e-001 4.044173e-002
<GCONST> 8.702583e+001
<STATE> 4
<MEAN> 39
 -3.853799e-001 -2.806787e+001 2.104004e+001 4.956017e+000 -6.715045e+000 1.217155e+001 -3.749668e+000 -1.701331e+000 -4.402350e+000 1.106100e+000 2.529394e+000 -5.525408e-001 7.311346e+001 4.471993e+000 3.992290e+000 -2.313641e+000 2.963339e+000 5.566764e-001 -4.865705e-001 6.896421e-002 -2.439726e+000 -3.461815e-002 -8.250241e-001 -8.927916e-001 -8.701261e-001 -4.808646e-001 5.611603e-001 6.859049e-001 -3.322014e-001 -5.708990e-002 -2.627344e-001 -3.674562e-001 -2.473502e-001 -5.525587e-001 -2.122561e-002 -8.315684e-002 -4.257006e-001 -1.920738e-001 3.541715e-002
<VARIANCE> 39
 4.278214e+001 5.601843e+001 4.511011e+001 4.299602e+001 2.160863e+001 2.809962e+001 2.596735e+001 5.771714e+001 1.912869e+001 5.262056e+001 2.184601e+001 1.944993e+001 6.995685e+000 3.439190e+000 4.419941e+000 2.641006e+000 4.596317e+000 2.785869e+000 2.241450e+000 2.564012e+000 3.874283e+000 2.351243e+000 1.966308e+000 2.183772e+000 1.619062e+000 5.897262e-001 7.363486e-001 9.971349e-001 4.213124e-001 8.202950e-001 3.448518e-001 3.934487e-001 4.176670e-001 5.659382e-001 4.129589e-001 4.708746e-001 4.159119e-001 3.719434e-001 1.269262e-001
<GCONST> 1.168940e+002
<TRANSP> 5
 0.000000e+000 1.000000e+000 0.000000e+000 0.000000e+000 0.000000e+000
 0.000000e+000 6.869331e-001 3.130669e-001 0.000000e+000 0.000000e+000
 0.000000e+000 0.000000e+000 8.846580e-001 1.153420e-001 0.000000e+000
 0.000000e+000 0.000000e+000 0.000000e+000 6.674965e-001 3.325035e-001
 0.000000e+000 0.000000e+000 0.000000e+000 0.000000e+000 0.000000e+000
<ENDHMM>
~h "t"
<BEGINHMM>
<NUMSTATES> 5
<STATE> 2
<MEAN> 39
 4.522692e+000 -7.423715e+000 3.686767e+000 1.221360e+001 -6.521253e+000 4.322925e+000 -3.504108e-001 -4.627522e+000 -1.948549e+000 -3.355335e+000 -5.579164e-001 5.646186e-001 5.616957e+001 -1.143253e+000 -1.939973e-001 -1.455004e+000 -5.407006e-001 -7.106623e-001 -1.219705e+000 -6.924140e-002 1.163641e-001 -1.279856e-001 -1.313396e-001 2.282271e-001 4.231837e-001 -1.227674e+000 2.929475e-001 -7.400567e-001 3.616728e-001 -1.183342e-001 -7.459389e-002 1.288599e-001 -2.345461e-001 -9.505644e-002 -8.430279e-003 1.288479e-001 -1.111109e-001 -1.026376e-001 8.081645e-001
<VARIANCE> 39
 1.415722e+001 3.029623e+001 3.042083e+001 2.597273e+001 2.226641e+001 2.315333e+001 1.809793e+001 2.076083e+001 1.831213e+001 1.418082e+001 1.668280e+001 1.890162e+001 1.160039e+001 1.117673e+000 2.303222e+000 2.336532e+000 1.913727e+000 1.763532e+000 2.135199e+000 2.090394e+000 2.092408e+000 1.390297e+000 1.415506e+000 1.327462e+000 1.258648e+000 1.844258e+000 1.268287e-001 6.862557e-001 5.721921e-001 4.712403e-001 4.180191e-001 5.717312e-001 4.775320e-001 4.944520e-001 3.307084e-001 3.195474e-001 2.913050e-001 2.424927e-001 3.868124e-001
<GCONST> 1.049219e+002
<STATE> 3
<MEAN> 39
 2.152650e+000 -1.348201e+001 1.996025e+000 1.204582e+001 -8.326394e+000 1.176376e+000 -1.948976e+000 -3.673633e+000 -1.344904e+000 -3.608918e+000 -6.791262e-001 1.344748e+000 5.719691e+001 1.363695e-001 -4.690547e+000 1.795055e+000 -5.773013e-001 -3.307367e-001 6.924874e-001 -1.013928e+000 1.185995e+000 3.146347e-001 1.728796e-001 1.387367e-001 1.589099e-001 3.162012e+000 5.538087e-001 -4.883070e-001 1.306525e+000 -7.756864e-002 3.009259e-001 7.933942e-001 -1.645745e-001 4.948534e-002 -1.027751e-001 2.023226e-001 2.554895e-002 -1.597309e-001 1.237822e+000
<VARIANCE> 39
 1.120042e+001 7.348805e+001 2.524980e+001 2.427881e+001 1.673167e+001 1.922013e+001 1.811374e+001 2.165745e+001 1.817789e+001 1.396442e+001 1.283725e+001 1.373923e+001 2.568713e+001 2.510540e+000 5.087819e+000 5.084603e+000 3.692471e+000 1.890726e+000 3.787225e+000 3.131673e+000 2.832378e+000 2.087722e+000 2.448326e+000 1.632344e+000 1.985280e+000 2.694411e+000 4.407459e-001 1.173790e+000 4.409875e-001 5.097000e-001 4.181483e-001 3.930922e-001 5.293556e-001 6.999022e-001 3.893839e-001 4.232465e-001 2.931767e-001 2.729225e-001 4.593190e-001
<GCONST> 1.138821e+002
<STATE> 4
<MEAN> 39
 5.916758e+000 -2.517771e+001 1.301555e+001 8.031759e+000 -8.473968e+000 8.543514e+000 -4.181325e+000 -4.159130e-001 -1.713145e+000 -1.799168e+000 7.479733e-001 7.926009e-001 7.002881e+001 2.199831e+000 -5.970966e-001 2.449264e+000 -9.224635e-002 2.052557e-001 1.409034e+000 -2.455953e-001 -1.113289e+000 -8.648060e-001 2.034261e-001 -4.252214e-001 -2.898225e-001 3.277556e+000 2.613953e-001 1.740338e+000 -9.483066e-001 4.472624e-001 5.471963e-002 -6.121142e-001 2.696539e-001 -9.433646e-001 -1.381285e-001 -2.732394e-002 -3.298076e-001 -7.897251e-002 -8.568166e-001
<VARIANCE> 39
 2.872235e+001 4.200393e+001 3.533314e+001 4.069012e+001 2.064302e+001 3.409042e+001 4.571782e+001 3.273709e+001 2.254612e+001 2.676686e+001 1.667801e+001 1.493744e+001 1.446660e+001 5.883024e+000 1.192893e+001 6.094975e+000 4.350477e+000 3.590402e+000 3.342428e+000 5.194711e+000 8.839942e+000 3.017591e+000 3.355783e+000 3.176386e+000 2.461265e+000 3.719987e+000 4.471552e-001 9.733770e-001 1.033515e+000 8.916542e-001 5.760322e-001 8.794860e-001 8.673262e-001 8.746141e-001 6.329082e-001 5.862609e-001 5.292409e-001 4.607814e-001 4.990530e-001
<GCONST> 1.290619e+002
<TRANSP> 5
 0.000000e+000 1.000000e+000 0.000000e+000 0.000000e+000 0.000000e+000
 0.000000e+000 7.689131e-001 2.310869e-001 0.000000e+000 0.000000e+000
 0.000000e+000 0.000000e+000 5.497028e-001 4.502972e-001 0.000000e+000
 0.000000e+000 0.000000e+000 0.000000e+000 5.439658e-001 4.560341e-001
 0.000000e+000 0.000000e+000 0.000000e+000 0.000000e+000 0.000000e+000
<ENDHMM>
~h "u"
<BEGINHMM>
<NUMSTATES> 5
<STATE> 2
<MEAN> 39
 1.480248e+001 -7.466172e+000 1.006283e+001 1.221327e+001 -9.184875e+000 2.692241e+000 -2.475466e-001 -3.265265e+000 -2.795245e+000 -7.135734e+000 -6.774280e+000 -4.138993e+000 6.872065e+001 5.868509e-001 1.176844e+000 -2.634429e-002 -1.271574e-001 -2.248089e-001 -2.724469e-001 2.003532e-001 -4.277684e-001 3.706567e-002 -2.315935e-001 -1.124010e+000 -5.626096e-001 5.800385e-002 -4.918416e-001 -2.177917e-001 -1.231149e-001 6.624537e-002 4.822770e-001 2.177153e-001 -1.656645e-001 1.556826e-001 1.905527e-001 3.137501e-001 5.073048e-001 2.380001e-001 -3.633187e-001
<VARIANCE> 39
 4.213084e+001 8.273179e+001 3.734357e+001 3.125381e+001 3.893491e+001 4.983928e+001 3.434779e+001 4.245310e+001 3.687014e+001 4.097147e+001 5.351115e+001 3.145037e+001 1.604584e+001 2.315746e+000 7.007983e+000 3.200834e+000 2.638989e+000 4.265754e+000 4.162702e+000 3.521583e+000 4.601054e+000 2.985969e+000 2.701231e+000 4.102951e+000 2.647704e+000 1.521124e+000 3.306704e-001 1.125027e+000 6.139819e-001 4.655004e-001 6.103342e-001 7.255643e-001 5.746573e-001 6.248569e-001 6.028291e-001 5.994985e-001 7.722331e-001 5.420341e-001 3.879213e-001
<GCONST> 1.278349e+002
<STATE> 3
<MEAN> 39
 1.387945e+001 -8.573668e+000 8.697652e+000 1.151423e+001 -7.160304e+000 4.490662e+000 -1.080345e+000 -3.937108e+000 -2.722047e+000 -6.425133e+000 -5.592357e+000 -2.965106e+000 6.848283e+001 -6.568462e-001 1.766392e-001 1.336564e-002 1.635968e-001 1.043601e+000 6.485392e-001 -1.201089e-001 1.810893e-001 2.846018e-001 3.652203e-001 6.776802e-001 3.478290e-001 -6.396672e-001 -5.714282e-001 -3.435232e-001 6.354894e-002 1.572376e-001 3.465824e-001 1.601401e-001 -7.608525e-002 2.921119e-001 1.770317e-001 3.236285e-001 5.628087e-001 2.098379e-001 -3.309561e-001
<VARIANCE> 39
 6.115459e+001 9.482577e+001 5.368142e+001 4.645389e+001 5.877069e+001 5.002135e+001 4.255641e+001 5.211621e+001 3.746590e+001 3.690061e+001 5.897613e+001 3.397226e+001 1.983200e+001 1.808039e+000 6.076035e+000 3.711915e+000 2.573389e+000 4.427032e+000 3.754860e+000 3.878159e+000 4.960370e+000 3.655772e+000 2.842558e+000 3.194239e+000 2.500028e+000 2.643365e+000 3.992922e-001 9.718247e-001 7.478005e-001 4.415102e-001 7.160158e-001 7.255610e-001 6.776271e-001 7.888105e-001 6.065390e-001 5.006865e-001 8.394506e-001 5.638546e-001 2.826900e-001
<GCONST> 1.309487e+002
<STATE> 4
<MEAN> 39
 1.112594e+001 -7.064571e+000 8.552727e+000 1.192407e+001 -6.297436e+000 4.899269e+000 -1.087165e+000 -2.205482e+000 -2.275539e-001 -4.362537e+000 -2.784869e+000 -1.741273e+000 6.428095e+001 -1.043211e+000 -3.867078e-001 -5.450800e-002 3.152558e-001 9.870121e-001 7.470630e-001 7.145660e-002 4.336193e-001 4.405766e-001 5.453660e-001 7.458641e-001 3.604011e-001 -7.631284e-001 -1.651642e-001 -3.069215e-001 -1.932806e-002 3.038083e-002 1.194714e-002 3.435458e-003 -5.997096e-002 -2.467538e-002 -5.100732e-002 7.071727e-002 7.421263e-002 2.788955e-002 1.392785e-002
<VARIANCE> 39
 5.108068e+001 9.233151e+001 4.842782e+001 3.912751e+001 5.732414e+001 5.251317e+001 3.784098e+001 4.458131e+001 3.865284e+001 3.077762e+001 3.459201e+001 2.583369e+001 3.873921e+001 2.244371e+000 5.312880e+000 3.481781e+000 2.079529e+000 3.266411e+000 2.956439e+000 2.659495e+000 3.210629e+000 2.616905e+000 2.112823e+000 3.371986e+000 2.324858e+000 2.619702e+000 2.789609e-001 4.737010e-001 3.980089e-001 3.946439e-001 6.124973e-001 5.569685e-001 5.253221e-001 5.451987e-001 4.141320e-001 4.108165e-001 5.187730e-001 3.704546e-001 1.559395e-001
<GCONST> 1.227802e+002
<TRANSP> 5
 0.000000e+000 1.000000e+000 0.000000e+000 0.000000e+000 0.000000e+000
 0.000000e+000 4.149156e-001 5.850844e-001 0.000000e+000 0.000000e+000
 0.000000e+000 0.000000e+000 1.058787e-001 8.941213e-001 0.000000e+000
 0.000000e+000 0.000000e+000 0.000000e+000 4.352876e-001 5.647124e-001
 0.000000e+000 0.000000e+000 0.000000e+000 0.000000e+000 0.000000e+000
<ENDHMM>
~h "v"
<BEGINHMM>
<NUMSTATES> 5
<STATE> 2
<MEAN> 39
 1.309492e+001 -1.037521e+001 8.954622e+000 1.037170e+001 -4.499830e+000 1.006124e+001 -3.949580e+000 -5.739671e+000 -3.098242e+000 -5.916573e+000 -1.286735e+000 -1.331466e+000 6.762513e+001 -1.119051e+000 -1.385723e+000 1.300442e+000 -2.128017e-002 5.844296e-001 9.276223e-001 -5.634461e-001 2.058325e+000 4.560755e-001 -5.954771e-001 9.215181e-001 -5.063287e-002 -2.977563e-001 -9.011257e-002 -4.176481e-001 1.045818e-001 1.256284e-003 8.523858e-002 -1.199226e-002 -1.858243e-001 -1.574374e-001 -1.395546e-001 3.725500e-001 2.685501e-001 -3.912602e-002 2.181806e-001
<VARIANCE> 39
 3.765119e+001 2.182030e+001 4.570324e+001 5.034252e+001 2.575883e+001 2.330691e+001 1.402493e+001 2.896292e+001 1.794856e+001 1.880184e+001 1.886523e+001 2.176477e+001 2.624730e+001 6.790482e-001 2.380908e+000 1.708125e+000 1.924186e+000 2.360909e+000 2.273960e+000 2.209902e+000 3.013942e+000 1.931433e+000 2.028307e+000 1.641931e+000 1.095770e+000 6.430734e-001 8.930125e-002 2.654367e-001 1.720110e-001 2.198086e-001 2.187683e-001 2.133425e-001 2.645200e-001 4.159732e-001 2.749664e-001 3.111939e-001 2.715440e-001 1.930282e-001 6.532034e-002
<GCONST> 9.997450e+001
<STATE> 3
<MEAN> 39
 8.882840e+000 -1.857222e+001 1.554992e+001 1.041780e+001 -6.613107e-001 1.411199e+001 -7.362374e+000 1.256121e+000 -2.823339e+000 -5.319311e+000 3.921770e+000 -1.809933e+000 6.898782e+001 -6.141090e-001 -1.173972e+000 5.953420e-001 -1.011732e-001 6.458978e-001 4.670804e-001 -5.597584e-001 5.793900e-001 -9.010287e-002 2.389719e-001 6.756185e-001 9.436502e-002 2.364479e-001 4.433935e-001 5.226461e-001 -4.454059e-001 1.876221e-001 -1.988816e-001 -4.197681e-001 1.300582e-001 -7.238995e-001 -5.413863e-002 1.421992e-001 -3.655156e-001 1.355555e-002 9.684508e-002
<VARIANCE> 39
 2.370332e+001 2.531215e+001 3.557256e+001 4.405470e+001 1.964079e+001 2.076991e+001 1.797698e+001 2.871941e+001 1.681833e+001 1.820896e+001 1.997133e+001 1.845468e+001 1.121011e+001 7.707264e-001 1.741046e+000 1.010672e+000 8.544027e-001 1.096839e+000 1.064950e+000 8.987664e-001 2.073653e+000 9.668860e-001 1.201911e+000 1.120744e+000 7.718122e-001 3.161255e-001 1.041794e-001 2.537066e-001 1.905977e-001 2.397018e-001 1.949792e-001 2.281109e-001 2.119080e-001 4.068475e-001 2.075792e-001 3.006616e-001 1.948069e-001 1.820316e-001 7.013673e-002
<GCONST> 9.046506e+001
<STATE> 4
<MEAN> 39
 9.923586e+000 -1.830579e+001 1.493622e+001 1.260538e+001 4.653657e-001 1.267153e+001 -8.892262e+000 -2.282688e+000 -3.489737e+000 -4.592221e+000 3.108292e+000 -1.985597e+000 7.016322e+001 1.383248e+000 1.524711e+000 -1.023631e+000 1.316108e+000 -4.312660e-001 -1.641080e+000 -1.156040e-001 -2.661317e+000 2.386408e-001 8.711864e-001 -1.245973e+000 -4.770162e-001 3.470742e-001 2.403077e-001 3.963423e-001 -2.376038e-001 2.084090e-001 -3.025730e-001 -4.952341e-001 7.982236e-002 -5.547170e-001 1.750290e-001 4.211068e-001 -3.644819e-001 -1.278137e-001 -9.346577e-003
<VARIANCE> 39
 3.619900e+001 3.112404e+001 3.575748e+001 7.493803e+001 3.758562e+001 2.594626e+001 2.098040e+001 4.215288e+001 1.841645e+001 1.609219e+001 1.626036e+001 2.057746e+001 1.339604e+001 1.028050e+000 2.934476e+000 1.716369e+000 2.511764e+000 2.534198e+000 2.695081e+000 1.463786e+000 3.378538e+000 1.509741e+000 2.227679e+000 1.799517e+000 1.243353e+000 5.550896e-001 1.631432e-001 4.081323e-001 2.586654e-001 3.665633e-001 3.445832e-001 3.856735e-001 2.725591e-001 4.966272e-001 2.676130e-001 2.699651e-001 2.728455e-001 2.083532e-001 9.372404e-002
<GCONST> 1.049339e+002
<TRANSP> 5
 0.000000e+000 1.000000e+000 0.000000e+000 0.000000e+000 0.000000e+000
 0.000000e+000 6.401656e-001 3.598344e-001 0.000000e+000 0.000000e+000
 0.000000e+000 0.000000e+000 7.222321e-001 2.777679e-001 0.000000e+000
 0.000000e+000 0.000000e+000 0.000000e+000 6.129022e-001 3.870978e-001
 0.000000e+000 0.000000e+000 0.000000e+000 0.000000e+000 0.000000e+000
<ENDHMM>
~h "w"
<BEGINHMM>
<NUMSTATES> 5
<STATE> 2
<MEAN> 39
 1.866768e+001 -1.598565e+000 6.490896e+000 4.878377e+000 -1.852335e+001 -4.098354e+000 -8.892280e-001 -7.901830e+000 -7.766000e-001 3.004591e+000 -1.493335e+000 -3.474864e+000 6.989725e+001 -1.110204e-001 7.114387e-001 3.531210e-001 4.839192e-001 1.369128e-001 -6.883882e-001 -4.007772e-001 2.454875e-001 6.862435e-002 8.840603e-002 2.612672e-001 -3.125484e-001 -5.369595e-001 -8.803732e-002 -1.996436e-001 -2.615090e-002 1.179760e-001 3.049511e-001 3.486294e-001 5.075666e-003 -4.356086e-002 -1.006005e-001 -1.415120e-001 1.204147e-002 1.109942e-001 -7.387832e-002
<VARIANCE> 39
