~o
<STREAMINFO> 1 39
<VECSIZE> 39<NULLD><MFCC_D_A_0><DIAGC>
~s "silst"
<MEAN> 39
 -7.109254e+000 -4.539942e+000 5.396316e-001 -1.041347e+001 -6.193218e+000 -3.877079e+000 -4.134191e+000 -7.818758e-001 -4.021467e+000 5.492324e-002 -4.538003e+000 -2.166595e+000 6.041600e+001 -4.094758e-002 6.588663e-002 -1.551496e-002 8.250014e-002 4.459012e-002 1.266901e-002 1.928508e-002 3.579119e-002 2.821385e-002 -3.073767e-002 7.383683e-002 1.739205e-002 -4.350004e-002 -5.616953e-002 -3.360696e-002 -3.026479e-002 -2.181394e-002 3.435567e-002 4.100529e-002 8.615057e-003 9.359070e-004 7.470278e-003 1.106123e-002 2.774891e-002 7.955777e-003 5.717599e-002
<VARIANCE> 39
 4.512276e+001 6.614703e+001 7.289032e+001 8.407771e+001 6.952489e+001 6.839772e+001 6.793575e+001 6.447842e+001 4.734072e+001 4.943122e+001 5.173755e+001 3.498877e+001 8.086787e+001 2.391792e+000 3.538664e+000 3.475081e+000 4.964611e+000 4.131077e+000 4.095339e+000 3.897899e+000 3.796009e+000 3.359763e+000 3.365149e+000 3.034611e+000 2.438244e+000 3.383026e+000 3.507107e-001 4.750635e-001 4.927926e-001 6.866928e-001 6.432987e-001 6.984680e-001 6.500190e-001 6.572455e-001 5.808529e-001 5.904227e-001 5.168050e-001 4.357168e-001 4.536347e-001
<GCONST> 1.331775e+002
~h "@"
<BEGINHMM>
<NUMSTATES> 5
<STATE> 2
<MEAN> 39
 -4.433288e+000 -5.454257e+000 -3.970539e+000 -1.647579e+001 -3.994936e+000 -3.879152e+000 -7.998267e+000 -3.247129e-001 -3.315073e-001 4.724618e+000 -3.101646e+000 -1.007598e+000 6.414876e+001 2.951535e-001 -1.446884e-001 1.432316e-002 -4.872969e-001 7.160634e-003 7.266862e-002 -2.429080e-001 -7.308838e-002 1.197984e-001 3.455076e-001 2.866933e-002 -1.551192e-001 8.543987e-002 -1.790915e-001 1.786135e-001 1.145004e-001 3.899152e-001 2.404468e-002 7.164408e-002 2.829442e-001 4.092311e-002 -8.824240e-002 -1.748658e-001 2.257452e-002 2.737617e-002 -2.681739e-001
<VARIANCE> 39
 3.323972e+001 3.908632e+001 4.132890e+001 1.239661e+002 4.430576e+001 8.743648e+001 6.479180e+001 5.941141e+001 5.263694e+001 5.483492e+001 4.708496e+001 3.320404e+001 5.735452e+001 3.796808e+000 4.101428e+000 2.496545e+000 9.816451e+000 3.576792e+000 5.690421e+000 5.113718e+000 3.793524e+000 3.811893e+000 4.111783e+000 3.448821e+000 2.867353e+000 3.855876e+000 6.052298e-001 6.650435e-001 4.351993e-001 1.303343e+000 6.052046e-001 9.931673e-001 9.242839e-001 7.117314e-001 7.048398e-001 7.898249e-001 6.667426e-001 5.458338e-001 6.528293e-001
<GCONST> 1.371657e+002
<STATE> 3
<MEAN> 39
 -4.250268e+000 -5.154784e+000 -3.663146e+000 -1.611538e+001 -4.011774e+000 -3.753036e+000 -7.670623e+000 -4.313581e-001 -5.121812e-001 4.741316e+000 -2.899691e+000 -1.082571e+000 6.352492e+001 -1.512677e-001 1.858782e-001 2.334359e-001 3.833803e-001 -3.637981e-003 6.087046e-002 2.658770e-001 7.790221e-002 -2.197862e-002 -7.825317e-002 7.180706e-002 -2.347960e-002 -3.169261e-001 -2.382526e-001 1.335929e-001 9.107809e-002 3.227892e-001 -4.123143e-003 2.617893e-002 2.390171e-001 6.255350e-002 -8.322203e-002 -2.020028e-001 2.445893e-002 5.054399e-002 -1.281486e-001
<VARIANCE> 39
 3.806199e+001 4.402662e+001 4.342011e+001 1.226489e+002 4.408790e+001 8.773141e+001 6.499944e+001 6.129569e+001 5.145054e+001 5.418394e+001 4.980347e+001 3.394926e+001 6.186871e+001 3.479659e+000 3.712997e+000 2.379957e+000 8.201968e+000 3.330680e+000 5.427464e+000 4.575872e+000 3.462731e+000 3.675832e+000 3.858274e+000 3.253980e+000 2.701807e+000 3.200058e+000 5.397753e-001 6.792361e-001 4.139306e-001 1.181523e+000 5.739825e-001 9.429077e-001 8.595666e-001 6.694211e-001 7.040065e-001 7.579272e-001 6.421331e-001 5.237661e-001 5.771794e-001
<GCONST> 1.357470e+002
<STATE> 4
<MEAN> 39
 -4.697678e+000 -4.258220e+000 -3.385386e+000 -1.473460e+001 -3.882274e+000 -3.563891e+000 -6.709781e+000 -4.776177e-001 -5.599282e-001 4.164576e+000 -2.399936e+000 -6.728697e-001 6.185178e+001 -5.400071e-001 3.248238e-001 3.709348e-001 8.573000e-001 -7.028617e-002 3.677402e-002 5.471998e-001 2.213927e-001 -1.327364e-001 -3.867587e-001 9.122578e-002 4.359377e-002 -3.957910e-001 -2.081595e-001 4.662056e-002 2.097039e-002 1.055218e-001 -2.122959e-003 4.685801e-002 1.219179e-001 3.460551e-002 -5.880987e-002 -9.281641e-002 2.873428e-002 1.291378e-002 3.739389e-002
<VARIANCE> 39
 4.408120e+001 4.834962e+001 4.599450e+001 1.264794e+002 4.455760e+001 8.546695e+001 6.435899e+001 6.168882e+001 5.029498e+001 5.147746e+001 5.346827e+001 3.478019e+001 7.309924e+001 3.233675e+000 3.450674e+000 2.491917e+000 6.578749e+000 3.218516e+000 4.791313e+000 4.329702e+000 3.308369e+000 3.622181e+000 3.647720e+000 3.174824e+000 2.556731e+000 2.961756e+000 5.340135e-001 6.229657e-001 4.133448e-001 1.038953e+000 5.492641e-001 9.081417e-001 7.699102e-001 6.117380e-001 6.708444e-001 6.916974e-001 6.233459e-001 4.937389e-001 5.342005e-001
<GCONST> 1.346210e+002
<TRANSP> 5
 0.000000e+000 1.000000e+000 0.000000e+000 0.000000e+000 0.000000e+000
 0.000000e+000 4.146391e-001 5.853609e-001 0.000000e+000 0.000000e+000
 0.000000e+000 0.000000e+000 3.768153e-001 6.231847e-001 0.000000e+000
 0.000000e+000 0.000000e+000 0.000000e+000 4.596165e-001 5.403835e-001
 0.000000e+000 0.000000e+000 0.000000e+000 0.000000e+000 0.000000e+000
<ENDHMM>
~h "B"
<BEGINHMM>
<NUMSTATES> 5
<STATE> 2
<MEAN> 39
 -1.498057e+000 -1.050151e+000 7.045942e-001 -9.384357e+000 -5.270678e+000 -2.126596e+000 -6.499034e+000 -3.116185e+000 -5.503671e+000 7.065330e-002 -4.440069e+000 -3.448975e+000 5.868539e+001 6.380759e-003 3.910374e-002 -2.484865e-001 -7.408612e-001 -3.294123e-001 9.228493e-002 -7.678335e-002 2.919241e-001 1.013852e-001 7.431313e-005 3.594522e-001 4.099237e-001 3.445923e-001 -9.556637e-002 -3.910543e-001 -8.564623e-002 -5.526776e-001 -1.468478e-001 1.045980e-002 1.992136e-002 2.220756e-001 3.365274e-002 1.249594e-001 -2.339189e-003 1.113769e-001 4.219709e-001
<VARIANCE> 39
 1.633772e+001 4.519617e+001 4.036687e+001 1.206023e+002 4.050185e+001 5.246295e+001 4.090787e+001 5.348369e+001 3.056288e+001 4.315189e+001 3.417263e+001 3.067535e+001 4.838816e+001 1.377962e+000 4.933905e+000 3.064979e+000 1.275229e+001 4.517185e+000 3.522354e+000 3.270069e+000 4.505820e+000 3.074424e+000 3.574640e+000 2.803312e+000 2.853776e+000 5.416527e+000 2.408719e-001 7.150707e-001 4.811959e-001 1.858283e+000 8.095183e-001 5.923094e-001 6.401066e-001 7.789963e-001 5.468380e-001 6.957408e-001 5.325457e-001 5.237600e-001 7.511538e-001
<GCONST> 1.315176e+002
<STATE> 3
<MEAN> 39
 -1.684205e+000 -2.368901e+000 -3.816300e-001 -1.370952e+001 -6.779149e+000 -1.839018e+000 -6.899257e+000 -1.645069e+000 -5.217189e+000 6.312166e-001 -3.566045e+000 -1.975514e+000 6.101376e+001 -1.265307e-001 -7.180200e-001 -3.303311e-001 -1.606713e+000 -5.238775e-001 7.954200e-002 -2.229165e-002 6.159898e-001 1.662320e-001 3.924332e-001 2.750765e-001 4.836336e-001 9.823772e-001 -9.142406e-002 -1.707719e-001 4.548568e-002 -2.332478e-002 1.065298e-002 -2.182895e-002 6.700169e-002 4.148430e-002 -1.570666e-002 9.858795e-002 -6.902937e-002 -5.601843e-002 1.039425e-001
<VARIANCE> 39
 1.813766e+001 4.482625e+001 4.883007e+001 1.538757e+002 5.061071e+001 6.746591e+001 4.410217e+001 6.082543e+001 3.142620e+001 4.131003e+001 3.511811e+001 3.256739e+001 5.303220e+001 1.410835e+000 4.318278e+000 3.131944e+000 1.147480e+001 5.009582e+000 4.075542e+000 3.630177e+000 4.706470e+000 3.263154e+000 3.906297e+000 2.906068e+000 2.918211e+000 4.637531e+000 2.298425e-001 7.138596e-001 4.477305e-001 1.924404e+000 8.184124e-001 6.600125e-001 6.441262e-001 7.919349e-001 5.836833e-001 6.649757e-001 5.372716e-001 5.272118e-001 7.475936e-001
<GCONST> 1.332310e+002
<STATE> 4
<MEAN> 39
 -1.912561e+000 -3.634523e+000 -1.417798e+000 -1.755979e+001 -7.767604e+000 -1.136051e+000 -6.954074e+000 -2.953175e-001 -5.086011e+000 1.607608e+000 -3.076241e+000 -8.642985e-001 6.268386e+001 -2.870028e-001 -6.961485e-001 -1.260531e-001 -7.276353e-001 -2.176705e-001 -8.255345e-002 8.685070e-002 4.398160e-001 1.167316e-001 4.573224e-001 1.560447e-001 1.665931e-001 6.781206e-001 -7.984316e-002 6.232909e-002 1.077356e-001 3.927132e-001 1.034481e-001 -8.713091e-002 4.944739e-002 -8.193839e-002 -5.830486e-003 -2.070138e-002 -7.030258e-002 -1.301487e-001 -1.438144e-001
<VARIANCE> 39
 2.041115e+001 4.903601e+001 6.003383e+001 1.516654e+002 6.009516e+001 8.370854e+001 5.262064e+001 6.765747e+001 3.529359e+001 4.412013e+001 3.813995e+001 3.300352e+001 5.697924e+001 1.242792e+000 3.604682e+000 2.725123e+000 9.557406e+000 4.627669e+000 4.017033e+000 3.780993e+000 4.275351e+000 3.309888e+000 3.694535e+000 2.923803e+000 2.750133e+000 3.825355e+000 2.122074e-001 5.923209e-001 4.018121e-001 1.385570e+000 7.261013e-001 7.011722e-001 6.079059e-001 7.524583e-001 6.102184e-001 6.413836e-001 5.224557e-001 4.967538e-001 5.569201e-001
<GCONST> 1.323402e+002
<TRANSP> 5
 0.000000e+000 1.000000e+000 0.000000e+000 0.000000e+000 0.000000e+000
 0.000000e+000 5.708196e-001 4.291804e-001 0.000000e+000 0.000000e+000
 0.000000e+000 0.000000e+000 4.791988e-001 5.208011e-001 0.000000e+000
 0.000000e+000 0.000000e+000 0.000000e+000 5.212581e-001 4.787419e-001
 0.000000e+000 0.000000e+000 0.000000e+000 0.000000e+000 0.000000e+000
<ENDHMM>
~h "G"
<BEGINHMM>
<NUMSTATES> 5
<STATE> 2
<MEAN> 39
 -2.663695e+000 -7.952324e+000 -5.340886e+000 -2.234751e+001 -3.986486e+000 8.700402e-001 -7.506042e+000 -1.428553e+000 -5.368318e+000 2.667320e-002 -5.962547e+000 -4.011587e+000 6.577451e+001 1.155953e-001 -1.170304e-001 -3.784770e-001 -4.143339e-001 1.130223e-001 3.318804e-001 -2.460564e-001 -7.675540e-002 -3.530583e-002 5.655345e-002 -8.416601e-002 -1.146752e-001 2.788469e-001 -9.199712e-002 -2.146566e-003 1.172688e-001 3.482907e-001 -3.369578e-002 -1.392397e-001 3.966047e-002 6.000876e-002 4.258749e-002 5.239266e-002 -3.148729e-002 8.660872e-003 -8.047388e-002
<VARIANCE> 39
 1.510334e+001 6.274703e+001 6.776768e+001 1.056560e+002 7.264352e+001 9.097400e+001 5.491657e+001 7.279926e+001 4.387783e+001 6.103430e+001 5.195184e+001 3.871645e+001 4.808081e+001 7.669949e-001 3.417830e+000 2.320209e+000 5.155025e+000 3.751379e+000 3.767451e+000 3.083165e+000 3.094973e+000 3.216247e+000 3.469975e+000 3.031901e+000 2.779539e+000 2.668997e+000 1.191892e-001 4.145216e-001 3.479833e-001 7.273935e-001 5.746114e-001 5.520450e-001 5.486877e-001 5.593663e-001 5.694864e-001 6.096833e-001 5.665228e-001 5.150750e-001 3.173159e-001
<GCONST> 1.275963e+002
<STATE> 3
<MEAN> 39
 -2.871961e+000 -7.789849e+000 -5.295124e+000 -2.042301e+001 -4.600678e+000 2.048214e-001 -7.804627e+000 -1.466087e+000 -5.145720e+000 7.585176e-001 -6.158008e+000 -4.218381e+000 6.555453e+001 -3.350477e-002 6.608279e-002 -5.801097e-002 5.462720e-001 -3.477998e-002 -1.346752e-001 -1.651919e-001 3.531268e-002 1.251495e-001 1.944502e-001 -1.685731e-001 -5.901572e-002 -1.018177e-001 -7.117381e-002 6.408830e-002 1.532704e-001 3.614312e-001 -5.820870e-002 -1.439536e-001 1.035360e-001 5.383198e-002 3.100998e-002 -5.962882e-003 1.176971e-002 5.129169e-002 -1.463627e-001
<VARIANCE> 39
 1.650815e+001 6.104721e+001 7.073834e+001 9.701145e+001 6.777968e+001 9.281567e+001 6.036559e+001 6.924358e+001 4.663793e+001 6.435386e+001 5.774140e+001 4.008392e+001 5.389598e+001 8.064088e-001 3.955064e+000 2.464380e+000 5.339386e+000 3.850354e+000 4.332027e+000 3.385090e+000 3.432287e+000 3.416920e+000 3.801775e+000 3.489323e+000 3.060541e+000 2.936172e+000 1.398133e-001 4.981161e-001 3.916630e-001 8.014866e-001 6.436320e-001 6.930006e-001 6.550602e-001 6.491271e-001 6.361014e-001 7.062446e-001 6.668733e-001 5.773174e-001 4.087611e-001
<GCONST> 1.311307e+002
<STATE> 4
<MEAN> 39
 -3.201570e+000 -6.992334e+000 -4.870865e+000 -1.770178e+001 -5.099315e+000 -9.838141e-001 -7.593887e+000 -1.522801e+000 -4.643394e+000 9.954131e-001 -6.481876e+000 -3.998810e+000 6.417932e+001 -1.186151e-001 2.366034e-001 1.669915e-001 9.906276e-001 -1.176237e-001 -2.575167e-001 8.641980e-002 9.589164e-002 1.245416e-001 1.006026e-001 1.732555e-003 8.924320e-002 -3.838676e-001 -6.846030e-002 5.963102e-003 9.679693e-002 1.397530e-001 -7.946620e-003 -3.793657e-002 1.173780e-001 3.529169e-002 5.682005e-003 -3.791824e-002 4.905641e-002 5.294044e-002 -5.033778e-002
<VARIANCE> 39
 1.806636e+001 6.271994e+001 6.955995e+001 9.513054e+001 6.308478e+001 8.895525e+001 6.131246e+001 6.516957e+001 4.805840e+001 6.148066e+001 6.046997e+001 4.012122e+001 6.610184e+001 9.572009e-001 4.144559e+000 2.783167e+000 5.989824e+000 3.918843e+000 4.721248e+000 3.918186e+000 3.916678e+000 3.562602e+000 4.033573e+000 3.949238e+000 3.193086e+000 3.628725e+000 1.741625e-001 5.738704e-001 4.501480e-001 9.278352e-001 7.102935e-001 8.037900e-001 7.556606e-001 7.041813e-001 6.822920e-001 7.157504e-001 7.080954e-001 6.106651e-001 5.228418e-001
<GCONST> 1.341672e+002
<TRANSP> 5
 0.000000e+000 1.000000e+000 0.000000e+000 0.000000e+000 0.000000e+000
 0.000000e+000 5.573926e-001 4.426074e-001 0.000000e+000 0.000000e+000
 0.000000e+000 0.000000e+000 4.283923e-001 5.716078e-001 0.000000e+000
 0.000000e+000 0.000000e+000 0.000000e+000 4.333891e-001 5.666109e-001
 0.000000e+000 0.000000e+000 0.000000e+000 0.000000e+000 0.000000e+000
<ENDHMM>
~h "N"
<BEGINHMM>
<NUMSTATES> 5
<STATE> 2
<MEAN> 39
 -2.533030e+000 -5.588995e+000 -1.238286e+000 -1.369458e+001 -5.388342e+000 -1.761100e+000 -4.012131e+000 -1.798482e+000 -4.838621e+000 1.186894e+000 -8.148525e+000 -3.702966e+000 6.270932e+001 2.392814e-002 6.070258e-001 5.785927e-001 8.321952e-001 -1.520153e-001 -2.208468e-001 1.285108e-001 -5.197903e-001 -3.117843e-002 1.547573e-001 -5.189313e-001 -6.248167e-002 -7.291367e-001 -1.441683e-001 -1.047534e-002 3.887375e-002 7.571248e-002 -1.045514e-002 1.878109e-003 -4.219630e-002 6.388173e-002 2.862284e-002 -3.020797e-002 2.214068e-001 3.372829e-002 4.271243e-002
<VARIANCE> 39
 1.881613e+001 3.829397e+001 4.709101e+001 8.039725e+001 6.400729e+001 7.422845e+001 6.157050e+001 6.471767e+001 4.376362e+001 5.826617e+001 6.156247e+001 2.961053e+001 3.622937e+001 1.114286e+000 2.309620e+000 3.184995e+000 3.681846e+000 4.043606e+000 3.887431e+000 3.570970e+000 4.525779e+000 3.359219e+000 3.658342e+000 3.503156e+000 2.351306e+000 1.333695e+000 1.937998e-001 3.847575e-001 5.135206e-001 5.806866e-001 6.869835e-001 6.674973e-001 6.952008e-001 8.227078e-001 5.986148e-001 6.544509e-001 6.485509e-001 4.506762e-001 2.312923e-001
<GCONST> 1.272689e+002
<STATE> 3
<MEAN> 39
 -2.650581e+000 -4.419535e+000 -1.062086e-001 -1.208521e+001 -5.775155e+000 -2.004740e+000 -3.882113e+000 -2.720914e+000 -4.940623e+000 1.445176e+000 -8.581879e+000 -3.738914e+000 6.135997e+001 -1.884442e-001 5.590910e-001 5.045903e-001 8.216965e-001 -9.887119e-002 -1.808912e-001 6.913369e-002 -2.181379e-001 8.488511e-004 1.484526e-003 -1.408867e-002 1.662352e-002 -6.104730e-001 -1.575378e-001 -4.389268e-002 -6.563815e-002 -3.205353e-002 6.897928e-002 3.501689e-002 3.103548e-003 1.959603e-001 2.608907e-002 -6.810550e-002 2.531767e-001 5.118191e-002 8.784959e-002
<VARIANCE> 39
 1.795721e+001 4.005835e+001 4.122330e+001 7.526835e+001 5.818757e+001 6.422559e+001 5.902620e+001 6.169237e+001 4.091344e+001 5.926046e+001 6.005619e+001 2.871338e+001 3.779871e+001 1.147905e+000 2.174151e+000 2.729194e+000 3.118899e+000 3.664009e+000 3.542405e+000 3.333898e+000 4.318857e+000 3.057991e+000 3.293187e+000 3.278389e+000 2.145142e+000 1.283844e+000 2.057626e-001 3.546025e-001 4.881051e-001 5.087841e-001 6.669758e-001 6.039589e-001 6.335321e-001 7.745435e-001 5.751156e-001 6.318972e-001 5.834957e-001 4.191497e-001 2.085185e-001
<GCONST> 1.247766e+002
<STATE> 4
<MEAN> 39
 -3.376922e+000 -2.688831e+000 7.163910e-001 -9.758475e+000 -5.746461e+000 -2.070866e+000 -3.443803e+000 -2.926578e+000 -4.750062e+000 1.292972e+000 -8.033802e+000 -3.502985e+000 5.878353e+001 -4.441456e-001 3.962278e-001 1.996669e-001 6.652172e-001 1.228556e-001 -7.075293e-002 1.445240e-001 2.848676e-001 8.565883e-002 -1.332846e-001 4.710909e-001 1.313614e-001 -4.559293e-001 -1.634223e-001 -1.077252e-001 -1.316199e-001 -1.005965e-001 8.572647e-002 5.804316e-002 4.506044e-002 1.909275e-001 4.786538e-002 -2.765788e-002 1.687416e-001 6.571039e-002 1.389347e-001
<VARIANCE> 39
 2.048925e+001 4.301904e+001 3.607217e+001 7.118652e+001 5.254594e+001 5.392139e+001 5.553867e+001 5.681050e+001 3.972171e+001 5.598029e+001 5.759097e+001 2.788288e+001 4.987948e+001 1.421325e+000 2.237609e+000 2.484027e+000 2.840602e+000 3.470631e+000 3.079717e+000 3.162976e+000 4.026614e+000 2.811856e+000 3.074666e+000 3.135686e+000 2.092378e+000 1.399846e+000 2.519188e-001 3.567845e-001 4.341131e-001 4.613681e-001 6.187162e-001 5.486169e-001 5.806006e-001 7.074140e-001 5.323515e-001 5.815488e-001 5.350694e-001 4.051963e-001 2.202802e-001
<GCONST> 1.235108e+002
<TRANSP> 5
 0.000000e+000 1.000000e+000 0.000000e+000 0.000000e+000 0.000000e+000
 0.000000e+000 3.870506e-001 6.129494e-001 0.000000e+000 0.000000e+000
 0.000000e+000 0.000000e+000 3.975350e-001 6.024650e-001 0.000000e+000
 0.000000e+000 0.000000e+000 0.000000e+000 5.598075e-001 4.401924e-001
 0.000000e+000 0.000000e+000 0.000000e+000 0.000000e+000 0.000000e+000
<ENDHMM>
~h "O"
<BEGINHMM>
<NUMSTATES> 5
<STATE> 2
<MEAN> 39
 -1.511306e+000 -6.694548e+000 -6.152308e+000 -2.340613e+001 -4.884389e+000 4.962344e+000 -5.535191e+000 -3.423120e-001 -2.706706e+000 1.447946e+000 -2.939164e+000 -2.036116e+000 6.564174e+001 7.324038e-001 -2.848076e-001 -2.907391e-002 -1.686417e+000 -5.422989e-001 8.052647e-001 -3.860123e-003 -6.632894e-002 -1.484516e-001 -1.834236e-001 2.819778e-002 5.741450e-002 3.203389e-001 -2.936504e-001 1.510030e-001 7.388605e-002 5.637852e-001 1.028141e-001 -1.863206e-001 1.253032e-001 6.240148e-002 4.634435e-002 -3.787393e-002 3.552992e-002 8.155238e-002 -2.366005e-001
<VARIANCE> 39
 3.036377e+001 3.472018e+001 2.929790e+001 9.704353e+001 8.081159e+001 8.024299e+001 5.882914e+001 5.545081e+001 4.476851e+001 5.178947e+001 4.144069e+001 2.713024e+001 4.301302e+001 2.406417e+000 2.525177e+000 1.694434e+000 7.600410e+000 4.396983e+000 3.666440e+000 3.267471e+000 2.888466e+000 2.751910e+000 3.158002e+000 2.510056e+000 1.948483e+000 2.074477e+000 4.579668e-001 3.958776e-001 3.006818e-001 1.075553e+000 6.170980e-001 6.251370e-001 6.356897e-001 4.741210e-001 4.920665e-001 5.727483e-001 4.961218e-001 3.854095e-001 3.399477e-001
<GCONST> 1.268689e+002
<STATE> 3
<MEAN> 39
 -3.908421e-001 -6.756494e+000 -6.081579e+000 -2.558775e+001 -6.212903e+000 5.758775e+000 -5.814572e+000 -1.844078e-001 -3.090784e+000 7.994058e-001 -2.860504e+000 -1.704698e+000 6.587006e+001 8.561827e-002 4.768938e-002 1.399295e-001 9.693091e-002 -1.161274e-001 -5.449747e-002 -6.441402e-002 4.472068e-002 8.306233e-003 -1.040170e-002 4.316571e-002 3.557176e-002 -1.690152e-001 -2.017603e-001 1.274708e-001 7.929777e-002 5.482042e-001 1.286496e-001 -2.806561e-001 9.154086e-003 2.259129e-002 4.284872e-002 2.782967e-002 -1.966369e-002 -1.070171e-002 -1.552619e-001
<VARIANCE> 39
 2.484373e+001 3.585512e+001 2.941940e+001 8.433677e+001 8.749342e+001 7.863889e+001 5.830609e+001 5.887111e+001 4.485413e+001 5.145598e+001 3.801996e+001 2.796371e+001 3.868539e+001 1.011454e+000 1.794045e+000 1.160020e+000 4.677899e+000 2.897285e+000 3.109506e+000 2.401253e+000 2.330832e+000 2.275464e+000 2.715863e+000 1.915110e+000 1.662826e+000 1.194100e+000 2.178189e-001 3.040855e-001 2.134396e-001 6.480466e-001 4.538257e-001 4.910005e-001 4.633646e-001 4.171064e-001 4.229982e-001 4.918753e-001 3.728891e-001 3.312754e-001 1.928829e-001
<GCONST> 1.178519e+002
<STATE> 4
<MEAN> 39
 -4.408678e-001 -5.699512e+000 -5.616083e+000 -2.279785e+001 -5.963431e+000 4.724330e+000 -5.550840e+000 -2.012310e-002 -2.659510e+000 7.133354e-001 -2.924661e+000 -1.596310e+000 6.364270e+001 -3.029461e-001 1.302919e-001 3.294198e-001 1.303404e+000 2.689250e-001 -7.183158e-001 -8.280792e-002 3.415496e-002 1.147148e-001 1.944376e-001 -8.952200e-002 -9.120352e-002 -3.966223e-001 -1.366094e-001 6.900854e-002 7.634234e-002 2.789703e-001 5.278930e-002 -1.161431e-001 9.356282e-002 3.967009e-002 1.030472e-002 -3.052970e-002 -2.297849e-002 1.322702e-002 -7.818270e-002
<VARIANCE> 39
 2.605077e+001 4.434820e+001 2.864839e+001 9.931205e+001 9.699971e+001 8.108849e+001 6.156823e+001 5.757945e+001 4.511777e+001 5.133539e+001 3.816907e+001 2.943296e+001 5.249223e+001 1.096999e+000 2.131283e+000 1.300735e+000 5.077876e+000 3.175266e+000 3.596452e+000 2.790494e+000 2.712789e+000 2.634370e+000 2.945704e+000 2.130568e+000 1.996085e+000 1.389528e+000 1.845840e-001 3.199171e-001 2.117824e-001 6.309944e-001 4.561702e-001 5.847204e-001 5.346038e-001 4.835290e-001 4.642589e-001 5.388653e-001 3.993609e-001 3.761995e-001 2.165663e-001
<GCONST> 1.212535e+002
<TRANSP> 5
 0.000000e+000 1.000000e+000 0.000000e+000 0.000000e+000 0.000000e+000
 0.000000e+000 6.346287e-001 3.653713e-001 0.000000e+000 0.000000e+000
 0.000000e+000 0.000000e+000 6.221315e-001 3.778684e-001 0.000000e+000
 0.000000e+000 0.000000e+000 0.000000e+000 7.454298e-001 2.545703e-001
 0.000000e+000 0.000000e+000 0.000000e+000 0.000000e+000 0.000000e+000
<ENDHMM>
~h "a"
<BEGINHMM>
<NUMSTATES> 5
<STATE> 2
<MEAN> 39
 -4.948340e+000 -1.503354e+001 -4.631025e+000 -1.291526e+001 -1.977672e+000 -1.985855e+000 -2.704160e+000 3.208951e+000 -4.184987e+000 -1.546500e+000 -7.557865e+000 -3.768003e+000 6.861368e+001 1.065220e-001 -6.238139e-001 -1.858078e-001 7.973602e-002 5.876517e-001 2.121635e-001 -7.769328e-003 8.198364e-002 -3.411223e-002 -2.383008e-001 -2.329495e-001 -7.394157e-002 1.941479e-001 -8.574361e-002 4.799430e-001 2.047220e-001 2.161945e-001 -1.677220e-001 -6.539111e-002 -3.619816e-002 -1.503618e-001 7.658496e-002 1.674867e-001 1.880172e-001 1.066953e-001 -3.679513e-001
<VARIANCE> 39
 2.395176e+001 6.055283e+001 3.944456e+001 7.057026e+001 6.921854e+001 6.232078e+001 7.109016e+001 6.479025e+001 4.311173e+001 5.345383e+001 4.448703e+001 3.569015e+001 6.548404e+001 1.406224e+000 4.818135e+000 2.259233e+000 4.074063e+000 4.299558e+000 4.090722e+000 3.408429e+000 3.735110e+000 3.179177e+000 3.097103e+000 2.969108e+000 2.363289e+000 3.455054e+000 2.515489e-001 6.535441e-001 3.620380e-001 6.959324e-001 6.525232e-001 6.898572e-001 6.155909e-001 6.841232e-001 5.833495e-001 5.721146e-001 5.601546e-001 4.297903e-001 5.650937e-001
<GCONST> 1.300678e+002
<STATE> 3
<MEAN> 39
 -4.774224e+000 -1.484000e+001 -4.562757e+000 -1.234451e+001 -1.420437e+000 -1.821976e+000 -2.903472e+000 3.031861e+000 -3.919101e+000 -1.473943e+000 -7.581732e+000 -3.711445e+000 6.800284e+001 3.952645e-002 4.661335e-001 1.923404e-001 3.414625e-001 -6.419146e-003 -3.900466e-002 -2.615496e-003 -7.219446e-002 1.304805e-001 9.557182e-002 6.768586e-002 8.656060e-002 -5.021693e-001 -5.730719e-002 4.389814e-001 1.775631e-001 1.209883e-001 -2.139009e-001 -9.238454e-002 2.579401e-003 -1.101148e-001 3.675734e-002 1.336419e-001 1.413230e-001 7.336932e-002 -2.802371e-001
<VARIANCE> 39
 2.407191e+001 6.415497e+001 3.791964e+001 7.030944e+001 6.945012e+001 6.112398e+001 7.038156e+001 6.196521e+001 4.361893e+001 5.257475e+001 4.536504e+001 3.603254e+001 6.806422e+001 1.197680e+000 4.326695e+000 2.010285e+000 3.630970e+000 3.805255e+000 3.887422e+000 3.180976e+000 3.412923e+000 2.823400e+000 2.769245e+000 2.667037e+000 2.152156e+000 3.178354e+000 2.194192e-001 6.138545e-001 3.358586e-001 6.359269e-001 6.207075e-001 6.707638e-001 5.711818e-001 6.303662e-001 5.411676e-001 5.358739e-001 5.101778e-001 4.091302e-001 4.980448e-001
<GCONST> 1.277236e+002
<STATE> 4
<MEAN> 39
 -4.902689e+000 -1.286051e+001 -4.094981e+000 -1.119935e+001 -1.550745e+000 -1.871419e+000 -2.750496e+000 2.812515e+000 -3.178372e+000 -1.297799e+000 -7.121238e+000 -3.239725e+000 6.557971e+001 -3.577612e-002 1.125091e+000 4.757645e-001 4.146082e-001 -4.438360e-001 -2.200339e-001 6.930543e-002 -1.850118e-001 1.201687e-001 2.947854e-001 2.527717e-001 1.798914e-001 -8.711590e-001 -7.407644e-002 2.053058e-001 1.117104e-001 6.255114e-002 -8.479732e-002 -3.366183e-002 -2.797343e-003 -9.849928e-002 -1.925976e-002 7.042483e-002 8.860250e-002 3.748971e-002 -1.057144e-001
<VARIANCE> 39
 2.532741e+001 6.961543e+001 3.759303e+001 7.517988e+001 6.916385e+001 6.217740e+001 7.114612e+001 5.982158e+001 4.474602e+001 5.093629e+001 4.651709e+001 3.563001e+001 8.414140e+001 1.286992e+000 3.989154e+000 2.078237e+000 3.715403e+000 3.515451e+000 3.782212e+000 3.160598e+000 3.456943e+000 2.822432e+000 2.814811e+000 2.669063e+000 2.124734e+000 3.135885e+000 2.234495e-001 5.654258e-001 3.311865e-001 6.141772e-001 5.860742e-001 6.861200e-001 5.609275e-001 6.029472e-001 5.075906e-001 5.093482e-001 4.823442e-001 3.895568e-001 5.003217e-001
<GCONST> 1.276343e+002
<TRANSP> 5
 0.000000e+000 1.000000e+000 0.000000e+000 0.000000e+000 0.000000e+000
 0.000000e+000 4.650741e-001 5.349260e-001 0.000000e+000 0.000000e+000
 0.000000e+000 0.000000e+000 4.411587e-001 5.588413e-001 0.000000e+000
 0.000000e+000 0.000000e+000 0.000000e+000 5.498597e-001 4.501403e-001
 0.000000e+000 0.000000e+000 0.000000e+000 0.000000e+000 0.000000e+000
<ENDHMM>
~h "b"
<BEGINHMM>
<NUMSTATES> 5
<STATE> 2
<MEAN> 39
 -5.871758e+000 -2.354629e+000 -1.263694e+000 -5.133690e+000 -2.723287e+000 3.840388e-001 4.401051e-002 2.940463e+000 -1.808767e-001 1.566777e+000 -1.061373e+000 -1.112702e+000 5.300209e+001 -3.627664e-001 1.637106e-001 -3.286051e-001 4.151475e-001 3.559127e-001 3.506069e-001 2.241422e-001 5.916835e-002 4.455844e-001 6.695530e-002 3.875903e-001 2.674722e-001 -5.425481e-001 3.354742e-002 -3.505146e-001 -8.074904e-003 -4.450403e-001 -2.200239e-001 -2.051010e-001 -2.138997e-001 -7.591256e-002 -2.015078e-001 -5.087103e-003 -1.646981e-001 -7.838721e-002 6.474329e-001
<VARIANCE> 39
 2.145926e+001 4.746692e+001 3.791067e+001 6.741275e+001 3.842702e+001 4.335978e+001 5.116542e+001 4.376019e+001 3.460053e+001 2.830328e+001 3.495455e+001 3.143073e+001 7.972833e+001 1.814992e+000 5.175698e+000 2.509598e+000 7.250013e+000 3.513393e+000 3.797353e+000 4.115891e+000 3.334876e+000 3.368791e+000 2.871499e+000 3.153995e+000 2.644770e+000 9.092060e+000 3.647065e-001 7.824700e-001 4.850546e-001 1.166628e+000 6.588117e-001 7.062566e-001 7.586235e-001 6.096173e-001 5.993430e-001 5.907916e-001 6.011671e-001 5.321909e-001 1.164949e+000
<GCONST> 1.314135e+002
<STATE> 3
<MEAN> 39
 -6.648768e+000 -3.319108e+000 -1.960252e+000 -5.765461e+000 -2.843982e+000 2.475753e-001 -5.469379e-001 2.656519e+000 1.246582e-001 1.759840e+000 -6.218987e-001 -7.604591e-001 5.433348e+001 -1.945382e-002 -8.526170e-001 -2.141314e-001 -9.376287e-001 -2.952329e-001 -3.341813e-001 -4.859965e-001 -1.145480e-001 -2.229860e-001 2.960543e-003 -2.287419e-001 -1.114539e-001 1.461468e+000 1.772902e-001 -2.881534e-001 9.145020e-002 -4.493426e-001 -1.658250e-001 -1.470244e-001 -1.669387e-001 -3.502272e-002 -2.559957e-001 -2.295471e-002 -2.162282e-001 -1.581267e-001 5.698264e-001
<VARIANCE> 39
 2.241993e+001 4.544591e+001 3.511431e+001 7.072762e+001 3.560947e+001 4.258818e+001 4.844284e+001 3.835049e+001 3.476540e+001 2.951533e+001 3.649854e+001 3.159308e+001 9.124465e+001 2.439912e+000 5.886605e+000 3.391397e+000 8.876942e+000 4.106070e+000 4.365578e+000 4.548622e+000 3.609908e+000 3.679110e+000 3.305767e+000 3.810052e+000 3.119780e+000 1.115490e+001 4.373471e-001 8.459519e-001 5.656010e-001 1.341598e+000 7.635384e-001 8.185282e-001 8.137118e-001 6.579378e-001 6.432950e-001 6.282583e-001 6.836351e-001 5.629985e-001 1.423797e+000
<GCONST> 1.350368e+002
<STATE> 4
<MEAN> 39
 -6.415545e+000 -5.658448e+000 -2.161431e+000 -8.527434e+000 -3.944664e+000 -1.014414e+000 -2.048764e+000 2.284708e+000 -9.079963e-001 1.707440e+000 -1.471192e+000 -1.334423e+000 5.863569e+001 4.649937e-001 -1.214166e+000 7.664523e-002 -1.706980e+000 -5.717633e-001 -4.513236e-001 -6.745709e-001 -1.284536e-001 -7.633286e-001 -6.539212e-002 -6.102660e-001 -4.404599e-001 2.263245e+000 1.054623e-001 5.630693e-002 1.229516e-001 -9.301214e-002 -2.518089e-002 7.162304e-002 3.643826e-002 -1.343349e-002 -1.178170e-001 -6.172616e-003 -1.898550e-002 -2.503985e-002 -9.759171e-002
<VARIANCE> 39
 2.702434e+001 5.821592e+001 4.626152e+001 9.068851e+001 4.554046e+001 5.211404e+001 5.139209e+001 3.976048e+001 3.696756e+001 3.374776e+001 4.154406e+001 3.476072e+001 1.113996e+002 3.035563e+000 6.036810e+000 4.726308e+000 9.219753e+000 5.860978e+000 5.480711e+000 5.087264e+000 4.084326e+000 3.912443e+000 3.657591e+000 3.842803e+000 3.072656e+000 8.873037e+000 5.131267e-001 8.913469e-001 6.003889e-001 1.565794e+000 8.391954e-001 9.037054e-001 8.256174e-001 6.733742e-001 6.749817e-001 6.517893e-001 6.843071e-001 5.763341e-001 1.613496e+000
<GCONST> 1.394097e+002
<TRANSP> 5
 0.000000e+000 1.000000e+000 0.000000e+000 0.000000e+000 0.000000e+000
 0.000000e+000 6.337793e-001 3.662207e-001 0.000000e+000 0.000000e+000
 0.000000e+000 0.000000e+000 5.692640e-001 4.307360e-001 0.000000e+000
 0.000000e+000 0.000000e+000 0.000000e+000 6.096295e-001 3.903705e-001
 0.000000e+000 0.000000e+000 0.000000e+000 0.000000e+000 0.000000e+000
<ENDHMM>
~h "d"
<BEGINHMM>
<NUMSTATES> 5
<STATE> 2
<MEAN> 39
 -6.274681e+000 -2.002264e+000 1.402784e+000 -5.815379e+000 -4.890078e+000 -3.920330e+000 -1.431684e+000 1.976885e+000 -1.315096e+000 1.764874e+000 -3.272614e+000 -8.426612e-001 5.702521e+001 -5.910932e-001 1.916695e-001 -2.514922e-001 5.788288e-001 4.730614e-001 1.865494e-001 4.797118e-001 2.805087e-001 5.053349e-001 3.533707e-002 5.741907e-001 3.397782e-001 -4.213488e-001 -1.114221e-001 -3.564166e-001 -8.229495e-002 -4.610096e-001 -1.898372e-001 -6.845467e-002 -1.140916e-001 -5.759160e-004 -8.450598e-002 1.857035e-002 -5.584364e-002 -1.788500e-002 6.260906e-001
<VARIANCE> 39
 2.498888e+001 4.758586e+001 4.258521e+001 5.919971e+001 5.403799e+001 6.811942e+001 5.734617e+001 4.974527e+001 3.862347e+001 3.669714e+001 4.480763e+001 2.789860e+001 8.584140e+001 2.650247e+000 5.691350e+000 3.611782e+000 7.045665e+000 5.862622e+000 6.765518e+000 5.211616e+000 4.583129e+000 3.722580e+000 3.280022e+000 3.700183e+000 2.522352e+000 1.036893e+001 5.347087e-001 8.484010e-001 6.221054e-001 1.106354e+000 1.156731e+000 1.474688e+000 1.019460e+000 8.641974e-001 7.072766e-001 6.529877e-001 7.158894e-001 5.197702e-001 1.548805e+000
<GCONST> 1.393959e+002
<STATE> 3
<MEAN> 39
 -7.993745e+000 -2.517320e+000 6.195415e-001 -5.776633e+000 -4.527820e+000 -3.598224e+000 -7.210021e-001 2.493375e+000 -4.472497e-001 1.977204e+000 -2.080932e+000 -1.187394e-001 5.765857e+001 -5.841698e-001 -6.432884e-001 -2.958623e-001 -6.709146e-001 -2.783158e-001 -3.498106e-001 -7.252702e-002 2.080681e-001 1.487370e-001 1.026767e-001 1.757432e-001 1.652921e-001 1.272365e+000 1.752941e-001 -2.946345e-001 8.208790e-002 -5.033838e-001 -2.796631e-001 -1.767485e-001 -2.542233e-001 -5.026375e-002 -2.080750e-001 1.686540e-002 -2.274410e-001 -1.432518e-001 5.589849e-001
<VARIANCE> 39
 2.829265e+001 4.052229e+001 3.885167e+001 5.621111e+001 5.024492e+001 6.655045e+001 5.182813e+001 4.493475e+001 3.647416e+001 3.307734e+001 4.111782e+001 2.688083e+001 8.928359e+001 3.486151e+000 5.373614e+000 4.023152e+000 7.279921e+000 6.273447e+000 7.465133e+000 5.828148e+000 4.869614e+000 3.976754e+000 3.467341e+000 4.371056e+000 2.861849e+000 1.167556e+001 7.492605e-001 8.693331e-001 7.557228e-001 1.126820e+000 1.230760e+000 1.490637e+000 1.072938e+000 9.196575e-001 7.521948e-001 6.858276e-001 7.693566e-001 5.527340e-001 1.711539e+000
<GCONST> 1.410058e+002
<STATE> 4
<MEAN> 39
 -9.035330e+000 -4.091082e+000 9.451999e-002 -7.817676e+000 -5.762031e+000 -4.637862e+000 -1.322934e+000 2.654504e+000 -4.185952e-001 2.307398e+000 -2.055408e+000 1.633494e-002 6.111555e+001 1.796010e-001 -1.027227e+000 1.464303e-001 -1.531103e+000 -8.500415e-001 -7.164403e-001 -6.838195e-001 5.655106e-003 -4.274061e-001 9.831011e-002 -4.402369e-001 -2.737356e-001 2.079201e+000 3.251262e-001 -5.927102e-002 1.727345e-001 -1.684705e-001 -2.466855e-002 9.145434e-002 -1.106647e-001 -5.621704e-002 -1.841150e-001 -2.287259e-002 -1.518368e-001 -1.416807e-001 -9.210788e-002
<VARIANCE> 39
 3.097998e+001 4.165532e+001 4.388396e+001 6.156196e+001 5.290168e+001 6.418688e+001 5.492434e+001 4.992664e+001 3.736765e+001 3.396130e+001 4.234948e+001 2.658288e+001 9.306191e+001 4.466842e+000 5.280618e+000 5.143314e+000 6.737739e+000 6.831437e+000 7.169565e+000 6.197102e+000 5.386406e+000 4.306415e+000 3.785379e+000 4.520876e+000 3.031078e+000 9.082293e+000 7.664213e-001 7.395574e-001 7.813963e-001 1.058735e+000 1.195066e+000 1.344678e+000 1.056648e+000 9.316577e-001 7.236140e-001 6.600928e-001 7.662508e-001 5.377328e-001 1.634127e+000
<GCONST> 1.417815e+002
<TRANSP> 5
 0.000000e+000 1.000000e+000 0.000000e+000 0.000000e+000 0.000000e+000
 0.000000e+000 5.112116e-001 4.887884e-001 0.000000e+000 0.000000e+000
 0.000000e+000 0.000000e+000 4.694864e-001 5.305136e-001 0.000000e+000
 0.000000e+000 0.000000e+000 0.000000e+000 5.115693e-001 4.884307e-001
 0.000000e+000 0.000000e+000 0.000000e+000 0.000000e+000 0.000000e+000
<ENDHMM>
~h "e"
<BEGINHMM>
<NUMSTATES> 5
<STATE> 2
<MEAN> 39
 -6.662041e+000 -8.975452e+000 6.456661e+000 -1.399980e+001 -1.383991e+001 -9.206231e+000 -3.035786e+000 3.617819e+000 -6.006569e+000 2.191152e+000 -3.683438e+000 -2.129959e+000 6.709043e+001 -1.345267e-001 3.031423e-002 5.167563e-001 -2.455525e-001 -5.487581e-001 -1.210936e-001 3.957749e-001 1.073770e-001 -2.368714e-001 1.700186e-001 2.332662e-001 5.333315e-002 -1.670136e-002 -2.739248e-002 2.599718e-001 -1.612478e-001 2.447566e-001 2.762449e-001 2.173092e-001 -8.264807e-002 -2.242039e-001 8.579090e-002 -1.141547e-002 1.339632e-002 -3.287690e-003 -2.666398e-001
<VARIANCE> 39
 2.229796e+001 4.570898e+001 5.507955e+001 5.539449e+001 5.725816e+001 6.866357e+001 8.271239e+001 7.589503e+001 4.230860e+001 4.699253e+001 4.381034e+001 3.067774e+001 4.657349e+001 9.976152e-001 2.578519e+000 2.255351e+000 2.995737e+000 2.977906e+000 3.384294e+000 3.411114e+000 3.232561e+000 2.603072e+000 2.457654e+000 2.121539e+000 1.886694e+000 1.829529e+000 1.869664e-001 4.003002e-001 3.114344e-001 5.011269e-001 4.868609e-001 6.348885e-001 5.692577e-001 6.086170e-001 4.757001e-001 4.527977e-001 3.959929e-001 3.307038e-001 2.982789e-001
<GCONST> 1.222393e+002
<STATE> 3
<MEAN> 39
 -6.888810e+000 -8.341881e+000 7.087671e+000 -1.388871e+001 -1.429964e+001 -8.982176e+000 -2.573261e+000 3.271274e+000 -6.148588e+000 2.529605e+000 -3.258416e+000 -2.019587e+000 6.635692e+001 -8.657981e-002 4.352819e-001 1.677804e-001 2.454454e-001 1.641666e-002 1.534901e-001 1.203375e-001 -2.029217e-001 -2.577867e-002 7.003368e-002 1.447663e-001 7.167502e-002 -4.715450e-001 -3.056072e-003 1.921421e-001 -1.846501e-001 2.399019e-001 2.892717e-001 1.708953e-001 -9.683428e-002 -1.365592e-001 1.137237e-001 -5.364037e-002 -3.494913e-002 -4.414994e-003 -2.126499e-001
<VARIANCE> 39
 2.153278e+001 4.532099e+001 5.271801e+001 5.670896e+001 5.740862e+001 7.022958e+001 8.444966e+001 7.564620e+001 4.144439e+001 4.558539e+001 4.290667e+001 3.068534e+001 5.080088e+001 9.133846e-001 2.568480e+000 2.086063e+000 2.831244e+000 2.855683e+000 3.052439e+000 2.884356e+000 2.856582e+000 2.353394e+000 2.151478e+000 1.931936e+000 1.666007e+000 1.925084e+000 1.649298e-001 3.722172e-001 3.036242e-001 4.562156e-001 4.638233e-001 5.900192e-001 5.240331e-001 5.352466e-001 4.505860e-001 4.142216e-001 3.564667e-001 3.126400e-001 2.916597e-001
<GCONST> 1.201918e+002
<STATE> 4
<MEAN> 39
 -7.260815e+000 -6.604717e+000 7.119625e+000 -1.243356e+001 -1.365855e+001 -7.958603e+000 -2.430248e+000 2.227686e+000 -5.624516e+000 2.506820e+000 -2.724313e+000 -1.611675e+000 6.367343e+001 -4.674295e-002 6.284027e-001 -2.596993e-001 6.815731e-001 5.895793e-001 3.797438e-001 -2.038800e-002 -2.794108e-001 1.749218e-001 -1.270994e-001 2.444256e-002 7.619642e-002 -7.833657e-001 -4.280010e-002 8.055836e-002 -1.799257e-001 1.541912e-001 2.308800e-001 1.473155e-001 -8.522506e-003 -3.574413e-002 1.076117e-001 -5.073173e-002 -1.727628e-002 -2.029021e-002 -9.249237e-002
<VARIANCE> 39
 2.203875e+001 4.976913e+001 5.340252e+001 6.363170e+001 6.103906e+001 7.106933e+001 8.264071e+001 7.308338e+001 4.176240e+001 4.369831e+001 4.377370e+001 3.149097e+001 7.066313e+001 1.030236e+000 2.770360e+000 2.081209e+000 2.953701e+000 2.942978e+000 3.062907e+000 2.854552e+000 2.783048e+000 2.368315e+000 2.189600e+000 1.956639e+000 1.636226e+000 2.162275e+000 1.893369e-001 3.604227e-001 3.249868e-001 4.678645e-001 4.716036e-001 5.815904e-001 4.951398e-001 4.958548e-001 4.542301e-001 4.002275e-001 3.482403e-001 3.064835e-001 3.268409e-001
<GCONST> 1.212755e+002
<TRANSP> 5
 0.000000e+000 1.000000e+000 0.000000e+000 0.000000e+000 0.000000e+000
 0.000000e+000 4.558024e-001 5.441976e-001 0.000000e+000 0.000000e+000
 0.000000e+000 0.000000e+000 4.549900e-001 5.450100e-001 0.000000e+000
 0.000000e+000 0.000000e+000 0.000000e+000 6.132935e-001 3.867065e-001
 0.000000e+000 0.000000e+000 0.000000e+000 0.000000e+000 0.000000e+000
<ENDHMM>
~h "g"
<BEGINHMM>
<NUMSTATES> 5
<STATE> 2
<MEAN> 39
 -6.770718e+000 -3.399763e+000 -1.812266e+000 -6.720188e+000 -3.542630e+000 -2.542117e+000 -1.707010e+000 1.038247e+000 -2.962653e+000 3.376697e+000 -2.513900e+000 -1.093080e+000 5.711335e+001 -3.045919e-001 -6.230378e-001 -9.712335e-001 -1.566214e-001 4.714547e-001 7.063708e-002 -7.778347e-002 2.474524e-001 1.464749e-001 2.699131e-001 1.742460e-001 1.754024e-001 6.096016e-001 7.857664e-002 -3.277726e-001 -5.751464e-002 -5.342178e-001 -1.324152e-001 -7.683649e-002 -1.670995e-001 -3.915348e-002 -1.223101e-001 -2.252406e-002 -1.399785e-001 -1.124011e-001 5.827666e-001
<VARIANCE> 39
 2.922461e+001 4.841246e+001 6.718739e+001 8.477806e+001 5.864624e+001 6.217730e+001 5.561921e+001 5.461859e+001 5.271820e+001 4.021974e+001 5.231400e+001 3.652367e+001 8.386196e+001 2.897907e+000 5.710698e+000 6.206884e+000 1.045272e+001 6.277019e+000 6.318065e+000 6.249882e+000 5.350812e+000 5.946216e+000 4.439764e+000 5.129033e+000 3.828114e+000 1.042770e+001 5.313468e-001 8.732442e-001 1.130122e+000 1.510054e+000 1.156869e+000 1.230478e+000 1.158345e+000 9.862629e-001 1.093832e+000 8.890442e-001 9.428513e-001 7.421177e-001 1.430667e+000
<GCONST> 1.464337e+002
<STATE> 3
<MEAN> 39
 -7.235117e+000 -5.852188e+000 -4.152415e+000 -8.841032e+000 -3.042223e+000 -2.804024e+000 -2.428216e+000 1.402729e+000 -3.101349e+000 3.825267e+000 -2.668743e+000 -1.090821e+000 6.046986e+001 1.416925e-001 -1.038596e+000 -5.437445e-001 -1.521505e+000 -6.818043e-002 -1.353811e-001 -4.121326e-001 4.550592e-002 -3.121397e-001 7.535187e-002 -2.558973e-001 -2.497277e-001 1.671203e+000 2.144341e-001 -2.658259e-002 2.617723e-001 -3.424175e-001 -1.679205e-001 3.925208e-002 -6.106801e-002 -8.464288e-002 -1.209915e-001 -1.440658e-001 -1.030606e-001 -1.564018e-001 1.407279e-001
<VARIANCE> 39
 3.057250e+001 5.006319e+001 7.151881e+001 1.048121e+002 6.043031e+001 6.659693e+001 6.027500e+001 5.766086e+001 5.130555e+001 4.382170e+001 5.280080e+001 3.795486e+001 8.883213e+001 3.626206e+000 4.718262e+000 6.302794e+000 1.045494e+001 6.499418e+000 6.452521e+000 6.368818e+000 5.423047e+000 5.796368e+000 4.752182e+000 5.250877e+000 4.089003e+000 8.253847e+000 6.219310e-001 8.042992e-001 1.134081e+000 1.734182e+000 1.278531e+000 1.247172e+000 1.222965e+000 9.991629e-001 1.066346e+000 9.103006e-001 9.699451e-001 7.849251e-001 1.430385e+000
<GCONST> 1.476993e+002
<STATE> 4
<MEAN> 39
 -6.483208e+000 -7.559958e+000 -4.389461e+000 -1.256101e+001 -3.678208e+000 -2.990659e+000 -3.273284e+000 1.116333e+000 -4.057007e+000 3.461277e+000 -3.471843e+000 -1.935077e+000 6.361813e+001 5.600474e-001 -8.015959e-001 1.601055e-001 -1.754355e+000 -3.175836e-001 8.106337e-002 -3.938304e-001 -1.406680e-001 -4.563767e-001 -3.080275e-001 -3.358091e-001 -4.926170e-001 1.422043e+000 9.422388e-002 1.478356e-001 2.075384e-001 1.711973e-001 -1.826026e-002 1.297867e-001 6.227709e-002 -4.841950e-002 3.739920e-002 -1.359828e-001 2.315515e-002 -1.618739e-002 -2.852136e-001
<VARIANCE> 39
 3.619069e+001 5.405141e+001 7.111366e+001 1.159128e+002 6.257150e+001 7.133086e+001 6.349566e+001 6.603680e+001 5.094391e+001 4.815476e+001 5.601838e+001 3.781202e+001 8.215083e+001 3.520710e+000 4.301334e+000 5.114080e+000 8.851604e+000 6.570996e+000 5.821040e+000 5.858372e+000 5.009954e+000 5.073065e+000 4.589871e+000 4.664788e+000 3.674553e+000 5.921349e+000 6.190066e-001 6.660662e-001 9.761996e-001 1.573103e+000 1.161510e+000 1.100592e+000 1.053094e+000 9.437125e-001 9.564694e-001 8.568527e-001 8.978525e-001 7.280586e-001 9.930230e-001
<GCONST> 1.453626e+002
<TRANSP> 5
 0.000000e+000 1.000000e+000 0.000000e+000 0.000000e+000 0.000000e+000
 0.000000e+000 5.944650e-001 4.055350e-001 0.000000e+000 0.000000e+000
 0.000000e+000 0.000000e+000 4.853269e-001 5.146731e-001 0.000000e+000
 0.000000e+000 0.000000e+000 0.000000e+000 4.587118e-001 5.412882e-001
 0.000000e+000 0.000000e+000 0.000000e+000 0.000000e+000 0.000000e+000
<ENDHMM>
~h "h"
<BEGINHMM>
<NUMSTATES> 5
<STATE> 2
<MEAN> 39
 -6.868643e+000 -8.333609e+000 3.779453e-001 -1.255310e+001 -5.351260e+000 1.598706e-001 -3.288699e+000 -8.206116e-002 -5.826280e+000 -1.834469e+000 -4.545147e+000 -2.266448e+000 6.498630e+001 1.687860e-001 2.109432e-002 6.729540e-002 -3.566948e-001 -1.400550e-001 1.084034e-001 -9.528090e-002 -1.081452e-001 -2.343030e-001 -1.140949e-001 -7.723985e-002 -1.200685e-001 2.480185e-001 7.098462e-002 3.707772e-002 -2.157865e-002 -2.939686e-002 -6.782041e-002 -1.376092e-001 -5.080090e-002 -1.002204e-003 5.412652e-002 7.891012e-002 -8.376957e-003 -2.112106e-002 -9.640605e-003
<VARIANCE> 39
 3.339137e+001 6.451807e+001 8.119630e+001 8.315541e+001 8.979364e+001 7.035359e+001 9.856931e+001 6.904722e+001 4.227154e+001 5.469780e+001 4.033761e+001 3.234137e+001 4.720957e+001 1.170752e+000 1.935149e+000 1.961416e+000 2.774282e+000 2.940540e+000 2.923228e+000 2.819820e+000 2.506282e+000 2.364075e+000 2.426059e+000 2.044890e+000 1.865283e+000 1.121988e+000 1.867454e-001 2.803554e-001 2.918456e-001 4.373598e-001 4.450491e-001 4.647281e-001 4.770619e-001 4.338490e-001 4.294413e-001 4.258885e-001 3.472665e-001 3.362569e-001 1.338972e-001
<GCONST> 1.203236e+002
<STATE> 3
<MEAN> 39
 -6.064877e+000 -8.054613e+000 3.957562e-001 -1.389433e+001 -5.849545e+000 -6.721589e-002 -4.027028e+000 -2.676952e-001 -6.190395e+000 -1.807809e+000 -4.885674e+000 -2.788039e+000 6.549788e+001 2.291076e-001 1.235229e-002 -1.733292e-002 -3.366324e-001 -1.908501e-001 -7.731222e-002 -1.354338e-001 -3.211965e-002 -1.022943e-001 4.273001e-002 -4.824520e-002 -1.055896e-001 1.841401e-001 6.479112e-003 -1.158064e-002 -2.947931e-002 4.472847e-002 -1.381618e-002 -7.977442e-002 -1.589731e-002 2.792291e-002 7.180320e-002 7.216775e-002 1.907581e-002 1.533842e-002 -3.750781e-002
<VARIANCE> 39
 3.157247e+001 6.449231e+001 8.416851e+001 8.311835e+001 9.331666e+001 7.153539e+001 9.350133e+001 7.162302e+001 4.087220e+001 5.613368e+001 3.945381e+001 3.147042e+001 4.484395e+001 1.038365e+000 1.897124e+000 1.825237e+000 2.756922e+000 2.872321e+000 2.589503e+000 2.612344e+000 2.230237e+000 2.167702e+000 2.250560e+000 1.865858e+000 1.723523e+000 1.044573e+000 1.626868e-001 2.718686e-001 2.709764e-001 4.130386e-001 4.169971e-001 4.298098e-001 4.447424e-001 3.905906e-001 3.939327e-001 3.889007e-001 3.100616e-001 3.047977e-001 1.379572e-001
<GCONST> 1.182959e+002
<STATE> 4
<MEAN> 39
 -5.331237e+000 -8.438917e+000 -6.936054e-001 -1.504439e+001 -5.527697e+000 2.443906e-001 -5.121518e+000 6.775254e-002 -5.985390e+000 -1.692317e+000 -4.965381e+000 -3.237005e+000 6.525883e+001 8.688127e-002 -2.556775e-002 -2.589953e-002 -3.910151e-002 -1.150776e-001 -1.578613e-001 -5.090221e-002 5.080469e-002 3.223934e-002 1.341984e-001 1.249226e-002 1.197913e-002 1.191042e-002 -1.992399e-002 1.297756e-002 1.224012e-002 9.343053e-002 8.090808e-003 -5.803927e-002 1.021095e-003 1.024637e-002 4.836332e-002 3.190372e-002 4.260479e-003 2.373214e-002 -5.198812e-002
<VARIANCE> 39
 3.015310e+001 7.091354e+001 8.181817e+001 8.342727e+001 9.928635e+001 7.398816e+001 8.391471e+001 7.235720e+001 4.120291e+001 5.772630e+001 4.033549e+001 3.079804e+001 5.229005e+001 7.872658e-001 1.807153e+000 1.627138e+000 2.544960e+000 2.588263e+000 2.276760e+000 2.417537e+000 2.009450e+000 2.026981e+000 2.121191e+000 1.689933e+000 1.574717e+000 9.147293e-001 1.295221e-001 2.407052e-001 2.351672e-001 3.733078e-001 3.766169e-001 3.678314e-001 3.835235e-001 3.477004e-001 3.512207e-001 3.433273e-001 2.915332e-001 2.727641e-001 1.266963e-001
<GCONST> 1.155130e+002
<TRANSP> 5
 0.000000e+000 1.000000e+000 0.000000e+000 0.000000e+000 0.000000e+000
 0.000000e+000 4.757666e-001 5.242334e-001 0.000000e+000 0.000000e+000
 0.000000e+000 0.000000e+000 4.860071e-001 5.139929e-001 0.000000e+000
 0.000000e+000 0.000000e+000 0.000000e+000 7.200731e-001 2.799269e-001
 0.000000e+000 0.000000e+000 0.000000e+000 0.000000e+000 0.000000e+000
<ENDHMM>
~h "i"
<BEGINHMM>
<NUMSTATES> 5
<STATE> 2
<MEAN> 39
 -9.496654e+000 -2.170233e+000 8.786057e+000 -1.166361e+001 -1.194674e+001 -7.521838e+000 -5.211596e+000 -1.297192e+000 -6.056942e+000 1.140503e+000 -2.896838e+000 -1.977709e+000 6.407439e+001 5.524148e-001 -1.459388e-002 7.342126e-001 -3.026049e-001 -5.599447e-001 -2.850958e-001 -2.734987e-001 -1.064712e-001 -3.780564e-001 1.052928e-001 -3.260778e-002 -1.456617e-001 -3.804370e-002 -9.355315e-002 1.039470e-002 -4.373542e-001 2.126240e-001 4.572340e-001 3.190096e-001 1.759227e-001 1.409030e-001 2.025997e-001 1.556423e-002 3.124995e-003 -4.995758e-003 -2.286401e-001
<VARIANCE> 39
 3.793799e+001 5.995499e+001 7.347572e+001 6.220638e+001 6.306706e+001 5.586047e+001 7.406176e+001 8.120840e+001 4.817212e+001 3.810751e+001 4.581768e+001 2.958043e+001 4.798798e+001 3.679683e+000 4.364667e+000 6.188384e+000 5.535423e+000 6.166120e+000 4.824440e+000 5.252841e+000 4.512695e+000 4.213554e+000 3.167231e+000 3.247368e+000 2.433189e+000 3.587701e+000 6.182469e-001 5.656705e-001 8.726994e-001 8.861219e-001 1.127500e+000 8.938763e-001 9.117161e-001 8.409747e-001 7.449980e-001 6.043172e-001 5.697724e-001 4.483376e-001 4.993406e-001
<GCONST> 1.376827e+002
<STATE> 3
<MEAN> 39
 -8.716179e+000 -2.232803e+000 9.147645e+000 -1.178188e+001 -1.211195e+001 -7.509148e+000 -5.356983e+000 -1.110338e+000 -6.352041e+000 1.325079e+000 -2.991274e+000 -2.270389e+000 6.364900e+001 4.194982e-001 -4.871707e-002 -3.308558e-001 2.066034e-001 3.310882e-001 2.101369e-001 1.004081e-001 1.702206e-001 7.260299e-002 6.310412e-002 -7.153886e-002 -1.436793e-001 -4.308572e-001 -1.310718e-001 8.096497e-004 -4.572579e-001 1.954692e-001 4.302698e-001 2.720336e-001 1.456094e-001 8.153182e-002 2.020689e-001 -2.120138e-002 -6.394505e-003 1.618607e-002 -1.478521e-001
<VARIANCE> 39
 3.221019e+001 6.068667e+001 7.567255e+001 6.658031e+001 6.368532e+001 5.608038e+001 7.541864e+001 8.235968e+001 4.909464e+001 3.871955e+001 4.784169e+001 3.076311e+001 5.143067e+001 2.606540e+000 3.990112e+000 5.580273e+000 5.265412e+000 5.762474e+000 4.528243e+000 4.817394e+000 4.230011e+000 3.799956e+000 3.010309e+000 2.933960e+000 2.339153e+000 3.333193e+000 4.596764e-001 5.527446e-001 7.667713e-001 8.473226e-001 1.019781e+000 8.429617e-001 8.313870e-001 8.107629e-001 6.955104e-001 5.705758e-001 5.520844e-001 4.400709e-001 4.698864e-001
<GCONST> 1.356036e+002
<STATE> 4
<MEAN> 39
 -8.327726e+000 -1.824158e+000 8.235544e+000 -1.112087e+001 -1.098043e+001 -6.711553e+000 -5.280578e+000 -9.780955e-001 -5.952017e+000 1.320291e+000 -3.165127e+000 -2.476339e+000 6.225462e+001 2.667895e-001 -1.368268e-001 -1.055941e+000 5.206043e-001 8.635882e-001 4.995500e-001 3.488145e-001 2.575279e-001 3.449121e-001 -2.179765e-003 -1.052232e-001 -7.787702e-002 -5.555633e-001 -1.208521e-001 -3.605087e-002 -2.101034e-001 3.968133e-002 1.903573e-001 1.450758e-001 4.520881e-002 -5.264197e-003 8.125569e-002 -1.309954e-002 7.192822e-003 3.986327e-002 1.376406e-002
<VARIANCE> 39
 3.141850e+001 6.390353e+001 7.898357e+001 7.177576e+001 6.487560e+001 5.620041e+001 7.728681e+001 7.912630e+001 4.891321e+001 3.883468e+001 4.791661e+001 3.138270e+001 6.020933e+001 2.135122e+000 3.400300e+000 4.476575e+000 4.707434e+000 5.125265e+000 4.179855e+000 4.326003e+000 4.012443e+000 3.496713e+000 2.904837e+000 2.882761e+000 2.326106e+000 3.038937e+000 3.586628e-001 5.106500e-001 6.597198e-001 7.726468e-001 8.852963e-001 7.549477e-001 7.578601e-001 7.525475e-001 6.223516e-001 5.360838e-001 5.129094e-001 4.225235e-001 4.693356e-001
<GCONST> 1.333701e+002
<TRANSP> 5
 0.000000e+000 1.000000e+000 0.000000e+000 0.000000e+000 0.000000e+000
 0.000000e+000 3.884764e-001 6.115236e-001 0.000000e+000 0.000000e+000
 0.000000e+000 0.000000e+000 3.637182e-001 6.362818e-001 0.000000e+000
 0.000000e+000 0.000000e+000 0.000000e+000 4.630395e-001 5.369605e-001
 0.000000e+000 0.000000e+000 0.000000e+000 0.000000e+000 0.000000e+000
<ENDHMM>
~h "k"
<BEGINHMM>
<NUMSTATES> 5
<STATE> 2
<MEAN> 39
 -9.028512e+000 -4.778617e+000 -3.091796e+000 -6.193478e+000 -1.718505e+000 -1.858067e+000 -4.538247e-001 1.535878e+000 -1.074943e+000 2.339054e+000 -2.307639e+000 -5.543804e-003 5.862627e+001 -5.567294e-001 -4.960856e-001 -5.986813e-001 -1.112276e-001 3.710264e-001 2.233377e-001 2.729179e-002 1.388710e-001 1.550175e-001 -7.153746e-002 1.952887e-001 1.467580e-001 6.532004e-001 1.449210e-001 -1.652213e-001 9.929761e-002 -4.232208e-001 -2.401371e-001 -1.320173e-001 -1.877629e-001 -1.114390e-001 -2.294424e-001 -5.759402e-002 -1.427933e-001 -1.311308e-001 4.308712e-001
<VARIANCE> 39
 3.991381e+001 5.354762e+001 5.672310e+001 6.588450e+001 5.068535e+001 5.998372e+001 4.943025e+001 4.912799e+001 4.509324e+001 4.237292e+001 4.690730e+001 3.233891e+001 7.314295e+001 3.989308e+000 4.598160e+000 5.141695e+000 6.529046e+000 5.114833e+000 5.806303e+000 4.858060e+000 4.935851e+000 5.061334e+000 4.454538e+000 4.534479e+000 3.283369e+000 6.923409e+000 6.860466e-001 8.307871e-001 8.732696e-001 1.036742e+000 9.179015e-001 1.074365e+000 9.092976e-001 8.763818e-001 9.220003e-001 8.297359e-001 7.907288e-001 6.115750e-001 1.131079e+000
<GCONST> 1.415258e+002
<STATE> 3
<MEAN> 39
 -9.302107e+000 -6.184569e+000 -3.945598e+000 -8.076480e+000 -1.733132e+000 -1.879181e+000 -1.145043e+000 1.129397e+000 -1.638557e+000 1.846178e+000 -2.634634e+000 -5.161489e-001 6.143613e+001 2.085671e-002 -3.377793e-001 -3.822681e-002 -7.631596e-001 -1.435023e-001 2.572376e-002 -2.828219e-001 -1.688753e-001 -3.137746e-001 -2.899472e-001 -1.230815e-001 -2.164436e-001 9.154268e-001 1.969366e-001 3.485321e-002 2.279239e-001 -2.009730e-001 -1.859503e-001 -6.883519e-002 -1.020490e-001 -6.184175e-002 -1.457269e-001 -4.994866e-002 -1.052777e-001 -1.113387e-001 5.137399e-002
<VARIANCE> 39
 4.478270e+001 5.281345e+001 6.223904e+001 7.120452e+001 5.325600e+001 6.213924e+001 5.165195e+001 5.353255e+001 4.744741e+001 4.882524e+001 4.806165e+001 3.318921e+001 6.631257e+001 4.573264e+000 3.974984e+000 4.641298e+000 6.161192e+000 4.711123e+000 5.140282e+000 4.723548e+000 4.549071e+000 4.736097e+000 4.463321e+000 4.249555e+000 3.145392e+000 5.162449e+000 7.000737e-001 7.209677e-001 8.619969e-001 1.049993e+000 8.575535e-001 9.997857e-001 8.817849e-001 8.479384e-001 9.084335e-001 8.537326e-001 7.537140e-001 5.817720e-001 9.366445e-001
<GCONST> 1.406098e+002
<STATE> 4
<MEAN> 39
 -8.678061e+000 -6.507626e+000 -3.452691e+000 -9.660226e+000 -2.237020e+000 -1.888570e+000 -1.694308e+000 5.977024e-001 -2.383591e+000 1.101484e+000 -3.089298e+000 -1.173720e+000 6.272198e+001 3.255535e-001 -1.551622e-001 3.515274e-001 -8.473769e-001 -3.588300e-001 -2.354836e-002 -3.347934e-001 -1.946628e-001 -4.364185e-001 -3.335370e-001 -2.346200e-001 -3.289396e-001 6.590320e-001 9.241480e-002 2.751708e-002 1.333275e-001 -2.788594e-002 -9.242049e-002 -4.460205e-002 -3.273374e-002 1.527203e-003 -2.991084e-002 3.360295e-002 -4.911894e-002 -2.493221e-002 -7.355446e-002
<VARIANCE> 39
 4.976574e+001 5.701438e+001 6.337708e+001 7.663421e+001 5.658883e+001 6.289085e+001 5.458199e+001 5.708064e+001 4.808474e+001 5.118997e+001 4.980296e+001 3.279683e+001 6.358443e+001 4.317886e+000 3.692912e+000 3.972416e+000 5.673111e+000 4.463418e+000 4.730397e+000 4.576972e+000 4.133093e+000 4.352120e+000 4.128569e+000 3.824617e+000 2.851588e+000 3.873506e+000 6.657597e-001 6.425496e-001 7.309070e-001 9.986258e-001 7.595680e-001 8.949969e-001 8.033759e-001 7.861370e-001 8.146493e-001 8.172535e-001 6.875899e-001 5.263374e-001 7.369221e-001
<GCONST> 1.384651e+002
<TRANSP> 5
 0.000000e+000 1.000000e+000 0.000000e+000 0.000000e+000 0.000000e+000
 0.000000e+000 4.854393e-001 5.145608e-001 0.000000e+000 0.000000e+000
 0.000000e+000 0.000000e+000 3.559813e-001 6.440188e-001 0.000000e+000
 0.000000e+000 0.000000e+000 0.000000e+000 3.466033e-001 6.533967e-001
 0.000000e+000 0.000000e+000 0.000000e+000 0.000000e+000 0.000000e+000
<ENDHMM>
~h "l"
<BEGINHMM>
<NUMSTATES> 5
<STATE> 2
<MEAN> 39
 -3.886837e+000 -9.064802e+000 2.039088e+000 -1.035814e+001 -1.163520e+001 -5.133279e+000 -8.310144e+000 4.810927e-001 -3.743659e+000 1.037641e+000 -5.926041e+000 -3.416749e+000 6.594791e+001 -9.092620e-003 -3.953078e-001 -1.749117e-002 -3.815796e-002 -2.394184e-001 2.258965e-002 -2.446472e-001 2.843497e-001 7.107799e-002 -9.410746e-004 -7.433236e-002 -7.690184e-002 2.797069e-001 -6.479225e-002 4.452312e-002 -9.760263e-002 -1.495823e-001 2.577329e-001 1.349926e-001 1.655680e-001 8.060181e-003 -8.097191e-002 -5.500190e-002 1.942504e-002 2.693263e-002 4.013071e-003
<VARIANCE> 39
 2.263392e+001 6.369598e+001 7.043869e+001 7.829385e+001 8.077592e+001 7.664224e+001 6.729663e+001 8.518591e+001 6.013840e+001 6.062201e+001 6.242450e+001 3.433858e+001 4.832151e+001 1.244705e+000 4.404241e+000 3.757904e+000 7.174422e+000 5.445945e+000 5.805634e+000 4.547473e+000 6.044386e+000 4.078944e+000 4.429012e+000 3.515729e+000 2.594030e+000 3.375355e+000 2.027102e-001 6.407860e-001 4.526629e-001 1.056588e+000 8.770937e-001 9.106549e-001 8.100362e-001 1.090015e+000 7.608597e-001 8.313738e-001 6.367115e-001 4.778693e-001 5.359891e-001
<GCONST> 1.373851e+002
<STATE> 3
<MEAN> 39
 -4.008770e+000 -9.602349e+000 1.754881e+000 -1.072948e+001 -1.121500e+001 -4.929224e+000 -8.179279e+000 9.761713e-001 -3.728125e+000 9.557821e-001 -6.147363e+000 -3.549916e+000 6.625906e+001 -9.979127e-002 -1.783153e-001 -2.288998e-001 -3.064782e-001 3.891592e-001 2.800331e-001 1.645271e-001 2.081604e-001 -1.225272e-001 -1.055282e-001 -2.155024e-002 -1.653858e-002 1.848502e-001 -4.765030e-002 1.106735e-001 -7.141412e-002 -9.470403e-002 2.528323e-001 1.123076e-001 1.838964e-001 -6.148693e-002 -9.441018e-002 -4.064752e-002 6.454946e-002 4.546223e-002 -6.283863e-002
<VARIANCE> 39
 2.276777e+001 6.431758e+001 7.209727e+001 7.813519e+001 8.573035e+001 7.362079e+001 6.816724e+001 8.944395e+001 6.067893e+001 6.009268e+001 6.347349e+001 3.376576e+001 4.980369e+001 1.188720e+000 4.312537e+000 3.711329e+000 6.902598e+000 5.471732e+000 5.702580e+000 4.561648e+000 6.177409e+000 4.184120e+000 4.375811e+000 3.628536e+000 2.587913e+000 3.172284e+000 2.039440e-001 6.655259e-001 4.651207e-001 1.071858e+000 9.014129e-001 8.763217e-001 8.355513e-001 1.131288e+000 7.764268e-001 8.375245e-001 6.724113e-001 4.909062e-001 5.635715e-001
<GCONST> 1.377090e+002
<STATE> 4
<MEAN> 39
 -4.250246e+000 -9.532382e+000 1.063721e+000 -1.127047e+001 -9.812899e+000 -4.236723e+000 -7.394391e+000 1.132271e+000 -3.965259e+000 7.046111e-001 -6.155624e+000 -3.547956e+000 6.618478e+001 -1.663896e-001 -8.276585e-003 -3.210129e-001 -4.224254e-001 7.128814e-001 4.454503e-001 4.292969e-001 7.324114e-002 -2.745364e-001 -1.441649e-001 1.684069e-001 6.071371e-002 7.564230e-002 -1.908328e-002 8.927096e-002 8.784689e-003 -6.665931e-003 5.676442e-002 3.602596e-002 7.846608e-002 -7.578888e-002 -4.546132e-002 6.498905e-003 7.231615e-002 5.252894e-002 -8.185527e-002
<VARIANCE> 39
 2.371897e+001 7.129894e+001 7.660230e+001 8.211520e+001 8.966670e+001 7.546571e+001 6.880524e+001 8.673386e+001 5.917580e+001 5.764497e+001 6.116130e+001 3.341533e+001 5.569413e+001 1.201409e+000 4.056933e+000 3.378313e+000 5.982049e+000 5.182250e+000 4.927118e+000 4.553248e+000 5.542835e+000 4.032985e+000 4.089966e+000 3.519985e+000 2.490411e+000 3.107352e+000 2.080974e-001 6.434896e-001 4.627380e-001 1.021479e+000 8.893288e-001 8.369244e-001 8.153789e-001 1.010304e+000 7.442827e-001 7.746146e-001 6.604777e-001 4.815643e-001 5.529040e-001
<GCONST> 1.367765e+002
<TRANSP> 5
 0.000000e+000 1.000000e+000 0.000000e+000 0.000000e+000 0.000000e+000
 0.000000e+000 4.187278e-001 5.812723e-001 0.000000e+000 0.000000e+000
 0.000000e+000 0.000000e+000 3.801839e-001 6.198161e-001 0.000000e+000
 0.000000e+000 0.000000e+000 0.000000e+000 4.119402e-001 5.880598e-001
 0.000000e+000 0.000000e+000 0.000000e+000 0.000000e+000 0.000000e+000
<ENDHMM>
~h "m"
<BEGINHMM>
<NUMSTATES> 5
<STATE> 2
<MEAN> 39
 -1.618518e+000 -5.830184e+000 1.577106e+000 -8.873572e+000 -3.173332e+000 -4.418454e+000 -7.593100e+000 -5.458369e+000 -7.652297e+000 4.348155e+000 -7.275115e+000 -6.354756e+000 6.131078e+001 3.316614e-003 5.023557e-001 3.776509e-001 4.931595e-001 8.924086e-002 -6.644307e-002 -1.846925e-001 -5.827685e-001 -2.689299e-001 4.489102e-001 -1.139619e-001 -1.375997e-001 -4.146296e-001 -1.092466e-001 -2.368215e-001 -1.886753e-001 -2.691272e-001 -2.842033e-002 1.085933e-001 1.318906e-001 3.327144e-001 2.016143e-001 -2.818627e-001 1.639255e-002 1.513067e-001 2.588512e-001
<VARIANCE> 39
 1.329395e+001 4.045925e+001 4.941442e+001 5.735240e+001 4.333244e+001 5.427296e+001 5.603178e+001 5.710882e+001 5.191647e+001 7.089454e+001 3.662812e+001 2.898856e+001 3.374537e+001 8.934020e-001 3.435240e+000 5.130268e+000 4.795720e+000 3.140066e+000 3.383890e+000 3.104071e+000 5.624532e+000 4.078582e+000 5.124380e+000 2.292277e+000 2.401613e+000 2.389437e+000 1.677662e-001 4.354094e-001 8.503131e-001 7.946581e-001 5.499521e-001 5.901405e-001 5.668388e-001 8.067679e-001 6.833435e-001 8.763485e-001 4.448132e-001 4.491503e-001 2.985760e-001
<GCONST> 1.273610e+002
<STATE> 3
<MEAN> 39
 -1.825252e+000 -5.452293e+000 1.511152e+000 -8.795038e+000 -3.266320e+000 -4.052651e+000 -7.445672e+000 -5.296872e+000 -7.354405e+000 3.882426e+000 -7.258529e+000 -6.108925e+000 6.111673e+001 -1.209752e-001 -1.070945e-001 -3.568363e-001 -2.331226e-001 8.887184e-002 3.213441e-001 1.455636e-001 3.592464e-001 3.649441e-001 -4.262176e-001 -1.272161e-002 2.276872e-001 1.594828e-001 -1.072526e-001 -2.255464e-001 -2.040787e-001 -2.181550e-001 3.692109e-002 1.173537e-001 1.148590e-001 3.396474e-001 2.089076e-001 -2.617145e-001 3.831044e-002 1.477414e-001 2.043239e-001
<VARIANCE> 39
 1.369507e+001 4.432925e+001 5.071019e+001 6.051594e+001 4.627391e+001 5.409970e+001 5.597005e+001 5.328645e+001 5.097524e+001 6.758456e+001 3.644611e+001 2.851920e+001 3.687872e+001 9.069854e-001 3.509989e+000 4.849599e+000 4.607922e+000 3.232660e+000 3.386754e+000 3.026937e+000 5.060431e+000 3.987851e+000 4.950665e+000 2.349125e+000 2.338674e+000 2.369496e+000 1.742717e-001 4.667597e-001 8.391789e-001 8.105772e-001 5.840628e-001 6.262203e-001 5.546861e-001 7.972465e-001 6.704994e-001 8.659253e-001 4.562936e-001 4.462211e-001 3.141771e-001
<GCONST> 1.275663e+002
<STATE> 4
<MEAN> 39
 -2.294198e+000 -5.608438e+000 1.015591e-001 -9.378159e+000 -3.053011e+000 -3.122293e+000 -6.898458e+000 -3.871195e+000 -5.832975e+000 2.014136e+000 -7.124600e+000 -5.401492e+000 6.110721e+001 -3.446531e-001 -4.264168e-001 -5.949436e-001 -4.376019e-001 2.236120e-001 4.844756e-001 3.296581e-001 8.359965e-001 6.128919e-001 -7.149273e-001 8.776914e-002 4.679972e-001 3.787916e-001 -1.306033e-001 -6.690221e-002 1.917187e-002 -1.095849e-002 3.290152e-002 -8.752995e-003 6.284066e-002 1.194382e-001 2.931952e-002 -3.504217e-003 3.708778e-002 6.910773e-002 5.610020e-002
<VARIANCE> 39
 1.699961e+001 5.898646e+001 5.906645e+001 6.751008e+001 5.272158e+001 5.620005e+001 5.480254e+001 5.088380e+001 4.739294e+001 6.113297e+001 3.524670e+001 2.804331e+001 5.000964e+001 1.184838e+000 3.524337e+000 4.288093e+000 4.304364e+000 3.699299e+000 3.613706e+000 3.090021e+000 4.329707e+000 3.509897e+000 4.418017e+000 2.618995e+000 2.368294e+000 2.399110e+000 2.041586e-001 5.186730e-001 8.002475e-001 7.753301e-001 6.204076e-001 6.808992e-001 5.473078e-001 7.243862e-001 6.237788e-001 7.813801e-001 4.501135e-001 4.253490e-001 3.327278e-001
<GCONST> 1.285767e+002
<TRANSP> 5
 0.000000e+000 1.000000e+000 0.000000e+000 0.000000e+000 0.000000e+000
 0.000000e+000 5.037535e-001 4.962465e-001 0.000000e+000 0.000000e+000
 0.000000e+000 0.000000e+000 4.413753e-001 5.586247e-001 0.000000e+000
 0.000000e+000 0.000000e+000 0.000000e+000 5.094432e-001 4.905568e-001
 0.000000e+000 0.000000e+000 0.000000e+000 0.000000e+000 0.000000e+000
<ENDHMM>
~h "n"
<BEGINHMM>
<NUMSTATES> 5
<STATE> 2
<MEAN> 39
 -4.004980e+000 -4.950691e+000 3.866229e+000 -9.293170e+000 -9.128673e+000 -6.652791e+000 -4.932022e+000 -2.833086e-002 -6.169143e+000 1.092573e+000 -8.241180e+000 -3.361002e+000 6.246449e+001 9.611416e-002 6.642566e-001 4.190754e-001 5.256554e-001 -1.487624e-001 -2.603397e-001 3.074391e-001 -4.372362e-001 -1.710627e-001 1.748703e-001 -2.269567e-001 2.064005e-002 -6.453440e-001 -1.012079e-001 -1.035054e-001 -1.025197e-001 -1.703211e-001 6.333897e-002 1.962592e-001 -2.344282e-002 6.789654e-002 2.621583e-002 -5.174140e-002 1.515964e-001 1.416099e-002 1.379851e-001
<VARIANCE> 39
 1.797857e+001 5.700649e+001 4.211074e+001 4.980202e+001 5.042420e+001 5.849508e+001 6.284911e+001 9.395131e+001 4.344943e+001 5.781642e+001 5.740262e+001 3.493878e+001 4.433949e+001 1.152208e+000 3.391955e+000 3.457450e+000 2.917739e+000 3.461169e+000 4.693621e+000 3.644045e+000 7.642201e+000 2.956727e+000 3.548866e+000 2.806375e+000 2.119436e+000 2.347814e+000 1.905928e-001 5.008538e-001 5.144567e-001 4.740426e-001 5.689416e-001 8.461136e-001 6.295170e-001 1.454589e+000 5.305352e-001 6.474561e-001 5.114120e-001 3.988887e-001 3.523664e-001
<GCONST> 1.286509e+002
<STATE> 3
<MEAN> 39
 -4.082681e+000 -4.119568e+000 4.329185e+000 -8.782502e+000 -9.298922e+000 -6.656181e+000 -4.536538e+000 -5.137061e-001 -6.450579e+000 1.094808e+000 -8.132236e+000 -3.331590e+000 6.169035e+001 -1.063709e-001 3.545874e-001 1.134705e-001 2.011072e-001 1.538497e-003 1.122230e-001 2.033412e-001 -5.483301e-002 -9.833966e-002 -1.803622e-002 1.129202e-001 4.066166e-002 -3.091174e-001 -1.307261e-001 -1.484837e-001 -1.446692e-001 -1.466607e-001 1.115012e-001 1.747133e-001 -2.703382e-002 1.624401e-001 6.064844e-002 -6.840452e-002 1.650550e-001 1.955343e-002 1.642930e-001
<VARIANCE> 39
 1.809204e+001 5.550335e+001 4.032452e+001 4.925420e+001 4.769340e+001 5.643357e+001 5.850005e+001 8.994083e+001 4.268363e+001 5.791327e+001 5.617965e+001 3.388442e+001 4.544258e+001 1.110960e+000 3.399935e+000 2.909086e+000 2.798492e+000 3.286242e+000 4.325037e+000 3.177011e+000 7.066737e+000 2.782155e+000 3.349931e+000 2.660269e+000 1.931880e+000 2.248879e+000 2.048161e-001 4.891830e-001 4.935292e-001 4.600777e-001 5.691580e-001 8.381586e-001 5.846033e-001 1.320264e+000 5.207481e-001 6.465266e-001 4.963538e-001 3.655339e-001 3.379671e-001
<GCONST> 1.270381e+002
<STATE> 4
<MEAN> 39
 -4.587627e+000 -3.377415e+000 4.322135e+000 -8.607088e+000 -9.053988e+000 -5.874284e+000 -4.286620e+000 -4.468443e-001 -6.535890e+000 7.646796e-001 -7.418690e+000 -3.320295e+000 6.064465e+001 -3.248757e-001 9.737222e-002 -1.578094e-001 5.938962e-002 2.606151e-001 3.524885e-001 1.776657e-001 2.329891e-001 6.619294e-002 -1.097141e-001 3.846528e-001 9.178807e-002 -1.031640e-001 -1.336804e-001 -1.301964e-001 -1.115989e-001 -7.857346e-002 1.095260e-001 9.669689e-002 4.132598e-003 1.010887e-001 9.089094e-002 -1.070106e-002 1.107997e-001 3.010300e-002 1.315674e-001
<VARIANCE> 39
 1.958776e+001 5.916038e+001 4.186344e+001 5.242192e+001 4.918069e+001 5.691422e+001 5.571969e+001 8.235917e+001 4.314361e+001 5.395707e+001 5.225451e+001 3.220307e+001 5.437018e+001 1.204960e+000 3.182683e+000 2.553578e+000 2.723445e+000 3.291207e+000 3.919849e+000 2.819208e+000 5.600834e+000 2.690327e+000 3.091468e+000 2.587404e+000 1.821023e+000 2.048589e+000 2.309631e-001 4.566526e-001 4.327316e-001 4.533362e-001 5.537912e-001 7.429408e-001 5.253403e-001 1.038676e+000 4.957646e-001 5.716259e-001 4.615624e-001 3.316745e-001 3.210220e-001
<GCONST> 1.253112e+002
<TRANSP> 5
 0.000000e+000 1.000000e+000 0.000000e+000 0.000000e+000 0.000000e+000
 0.000000e+000 4.150138e-001 5.849863e-001 0.000000e+000 0.000000e+000
 0.000000e+000 0.000000e+000 3.967814e-001 6.032186e-001 0.000000e+000
 0.000000e+000 0.000000e+000 0.000000e+000 5.054030e-001 4.945970e-001
 0.000000e+000 0.000000e+000 0.000000e+000 0.000000e+000 0.000000e+000
<ENDHMM>
~h "o"
<BEGINHMM>
<NUMSTATES> 5
<STATE> 2
<MEAN> 39
 -2.771835e+000 -7.832346e+000 -5.405318e+000 -1.753606e+001 -3.764180e+000 2.507467e-002 -6.691438e+000 -3.236378e-001 -3.092685e+000 2.935942e+000 -4.004415e+000 -3.333486e+000 6.521869e+001 5.794715e-001 2.853193e-001 -4.248948e-001 -1.020596e+000 3.157873e-001 1.334006e+000 3.753490e-001 -4.627359e-001 -3.017229e-001 -5.244908e-001 -5.374708e-002 -1.491107e-002 -2.744784e-001 -1.931624e-001 2.219005e-001 3.032572e-001 4.144084e-001 -1.736866e-001 -1.452871e-001 1.996362e-001 -3.611763e-003 -8.026087e-002 -1.056051e-001 -5.478022e-002 1.521605e-001 -2.449726e-001
<VARIANCE> 39
 2.960385e+001 3.845378e+001 4.761890e+001 1.056321e+002 5.505709e+001 8.741236e+001 5.768216e+001 6.278780e+001 4.573566e+001 5.671531e+001 5.545914e+001 3.119533e+001 4.944952e+001 1.968628e+000 2.996081e+000 3.963459e+000 7.447759e+000 5.488964e+000 5.471244e+000 4.633675e+000 4.676999e+000 3.823304e+000 4.760898e+000 4.471607e+000 3.417139e+000 2.926672e+000 3.498038e-001 5.318402e-001 6.483443e-001 1.156455e+000 8.470913e-001 1.021293e+000 8.419292e-001 8.505890e-001 7.356618e-001 9.701299e-001 8.960463e-001 6.599491e-001 4.449573e-001
<GCONST> 1.373482e+002
<STATE> 3
<MEAN> 39
 -2.092136e+000 -6.989964e+000 -5.569643e+000 -1.871585e+001 -3.705927e+000 1.994152e+000 -5.638828e+000 -9.969196e-001 -3.962609e+000 1.655430e+000 -4.208806e+000 -2.910986e+000 6.442703e+001 1.884049e-001 5.616933e-001 1.505322e-001 -1.217582e-002 3.522214e-003 6.388764e-001 5.794214e-001 -3.212501e-001 -3.250211e-001 -4.897642e-001 -3.321483e-001 1.809193e-001 -6.066594e-001 -2.012929e-001 7.489225e-002 2.848976e-001 4.748757e-001 -1.447071e-001 -3.746561e-001 2.574093e-002 5.892403e-002 3.081475e-002 7.599074e-002 -1.217189e-001 1.616812e-002 -9.860694e-002
<VARIANCE> 39
 2.849796e+001 3.689499e+001 4.398547e+001 1.038668e+002 5.534926e+001 7.934468e+001 6.099757e+001 5.717212e+001 4.359977e+001 5.303736e+001 5.802970e+001 2.938448e+001 4.727505e+001 1.606525e+000 2.615841e+000 3.278505e+000 6.468215e+000 4.205959e+000 5.173145e+000 3.973514e+000 4.233923e+000 3.552186e+000 4.410074e+000 4.558029e+000 2.912064e+000 2.225482e+000 2.604465e-001 4.241731e-001 5.536867e-001 9.095291e-001 7.447762e-001 8.238423e-001 7.341932e-001 7.227808e-001 6.595474e-001 8.667406e-001 8.433170e-001 5.774233e-001 3.459899e-001
<GCONST> 1.328286e+002
<STATE> 4
<MEAN> 39
 -1.972856e+000 -5.807656e+000 -4.856196e+000 -1.796267e+001 -3.986254e+000 2.405638e+000 -4.542685e+000 -1.523354e+000 -4.458113e+000 8.848977e-001 -5.245630e+000 -2.617626e+000 6.302535e+001 -1.289222e-001 5.338250e-001 5.930738e-001 8.184485e-001 -1.579506e-001 -1.550682e-001 4.002821e-001 -2.148533e-001 -1.367202e-001 -1.612849e-001 -5.518906e-001 3.150222e-002 -6.491469e-001 -1.440827e-001 -4.910892e-002 1.653160e-001 2.732209e-001 -6.144001e-002 -2.900738e-001 -1.069092e-001 4.783097e-002 8.376095e-002 1.211000e-001 -1.306335e-002 -6.396636e-002 3.757409e-002
<VARIANCE> 39
 2.741061e+001 3.685393e+001 4.334472e+001 1.024388e+002 5.612522e+001 7.053053e+001 6.146469e+001 5.605923e+001 4.247273e+001 5.078918e+001 6.050955e+001 2.814899e+001 4.692820e+001 1.381765e+000 2.291692e+000 3.095138e+000 5.196979e+000 3.498095e+000 4.516433e+000 3.526801e+000 3.825180e+000 3.390121e+000 4.022173e+000 4.225778e+000 2.590175e+000 1.795033e+000 2.180505e-001 3.574509e-001 5.049222e-001 7.465064e-001 6.287747e-001 7.171610e-001 6.694878e-001 6.654750e-001 6.194038e-001 7.339184e-001 7.666465e-001 4.974195e-001 2.823064e-001
<GCONST> 1.291211e+002
<TRANSP> 5
 0.000000e+000 1.000000e+000 0.000000e+000 0.000000e+000 0.000000e+000
 0.000000e+000 3.836701e-001 6.163300e-001 0.000000e+000 0.000000e+000
 0.000000e+000 0.000000e+000 3.607269e-001 6.392730e-001 0.000000e+000
 0.000000e+000 0.000000e+000 0.000000e+000 4.413081e-001 5.586919e-001
 0.000000e+000 0.000000e+000 0.000000e+000 0.000000e+000 0.000000e+000
<ENDHMM>
~h "p"
<BEGINHMM>
<NUMSTATES> 5
<STATE> 2
<MEAN> 39
 -7.329347e+000 -2.085304e+000 -1.050044e+000 -3.755386e+000 -2.266673e+000 -5.458857e-001 5.686207e-001 2.468462e+000 -7.171422e-001 1.049117e+000 -2.088651e+000 -1.523501e+000 5.491848e+001 -6.237890e-001 1.905825e-001 -4.390587e-001 4.881561e-001 4.112114e-001 5.526435e-001 2.230425e-001 2.158594e-001 5.913756e-001 7.185395e-003 5.318103e-001 4.593805e-001 -4.543914e-001 -6.009630e-002 -4.142061e-001 -1.896685e-002 -5.012912e-001 -2.039347e-001 -1.471889e-001 -2.274759e-001 -8.919499e-002 -2.341008e-001 -9.664759e-003 -7.749682e-002 -3.921070e-002 6.746447e-001
<VARIANCE> 39
 2.659996e+001 5.383118e+001 4.645411e+001 3.992704e+001 4.021132e+001 4.222430e+001 5.292519e+001 4.162388e+001 3.864471e+001 2.978758e+001 3.234277e+001 3.097081e+001 7.810054e+001 2.686751e+000 5.581918e+000 4.449368e+000 5.107593e+000 3.909644e+000 4.110080e+000 4.754324e+000 3.764991e+000 4.355406e+000 3.397071e+000 3.442930e+000 2.864458e+000 7.990010e+000 5.106391e-001 8.262074e-001 6.468228e-001 8.604727e-001 7.394266e-001 7.346751e-001 8.083753e-001 7.105837e-001 8.111557e-001 6.263906e-001 6.308271e-001 5.064719e-001 1.017147e+000
<GCONST> 1.340597e+002
<STATE> 3
<MEAN> 39
 -8.747155e+000 -3.197726e+000 -2.011861e+000 -4.145819e+000 -2.163385e+000 -3.145157e-002 4.620472e-001 2.561883e+000 -2.603628e-001 1.002582e+000 -1.239219e+000 -7.922826e-001 5.604551e+001 -3.492444e-001 -5.226691e-001 -4.025862e-001 -5.718645e-001 -3.486062e-002 1.862409e-001 -4.646439e-001 -1.478779e-001 -1.965570e-001 -1.167904e-001 1.465341e-001 1.223703e-001 9.123359e-001 1.494580e-001 -2.310632e-001 2.192298e-002 -4.370491e-001 -1.546202e-001 -1.415997e-001 -2.364806e-001 -1.157872e-001 -3.157071e-001 -2.363661e-002 -1.645650e-001 -1.590264e-001 4.815126e-001
<VARIANCE> 39
 2.767508e+001 5.317682e+001 4.906072e+001 4.246268e+001 4.417736e+001 4.163309e+001 5.081467e+001 4.070364e+001 3.823509e+001 3.324870e+001 3.163152e+001 3.132831e+001 9.530286e+001 3.303166e+000 4.605009e+000 4.499371e+000 4.923112e+000 3.841018e+000 3.958479e+000 4.791997e+000 3.746248e+000 4.618193e+000 3.446818e+000 3.422592e+000 2.844782e+000 6.695288e+000 5.477287e-001 8.210748e-001 7.130460e-001 8.510880e-001 7.909571e-001 8.207740e-001 8.539060e-001 7.358024e-001 8.338593e-001 6.660384e-001 6.748470e-001 5.225748e-001 1.121320e+000
<GCONST> 1.350309e+002
<STATE> 4
<MEAN> 39
 -9.256994e+000 -3.905073e+000 -2.828811e+000 -4.992633e+000 -2.152455e+000 3.740689e-001 -4.775946e-001 1.923625e+000 -1.223587e+000 6.988373e-001 -1.038232e+000 -5.741649e-001 5.650786e+001 1.359461e-001 -6.689203e-001 -3.288223e-001 -1.152944e+000 -1.999276e-001 -2.200713e-002 -7.619151e-001 -2.523387e-001 -6.608638e-001 -1.658532e-001 -2.249532e-001 -2.327430e-001 1.358372e+000 1.227298e-001 -7.445880e-002 7.209273e-002 -2.093746e-001 -6.289054e-002 -8.389569e-002 -6.270308e-002 -3.950967e-003 -1.322611e-001 -1.046563e-002 -1.012503e-001 -9.783492e-002 1.383187e-001
<VARIANCE> 39
 2.869948e+001 5.366179e+001 5.834503e+001 5.686507e+001 4.827645e+001 4.479301e+001 5.264867e+001 4.028505e+001 4.222139e+001 3.677309e+001 3.067572e+001 3.241119e+001 1.165877e+002 3.242251e+000 4.034722e+000 4.135209e+000 5.356641e+000 4.152067e+000 4.036398e+000 4.556633e+000 3.611160e+000 4.267065e+000 3.623194e+000 3.371377e+000 2.469417e+000 4.877780e+000 4.714621e-001 6.996428e-001 6.455243e-001 8.175790e-001 7.299299e-001 7.371482e-001 8.072194e-001 6.601745e-001 7.754375e-001 6.335321e-001 6.329413e-001 4.568506e-001 8.718686e-001
<GCONST> 1.341156e+002
<TRANSP> 5
 0.000000e+000 1.000000e+000 0.000000e+000 0.000000e+000 0.000000e+000
 0.000000e+000 5.472870e-001 4.527130e-001 0.000000e+000 0.000000e+000
 0.000000e+000 0.000000e+000 4.822200e-001 5.177800e-001 0.000000e+000
 0.000000e+000 0.000000e+000 0.000000e+000 5.834655e-001 4.165345e-001
 0.000000e+000 0.000000e+000 0.000000e+000 0.000000e+000 0.000000e+000
<ENDHMM>
~h "s"
<BEGINHMM>
<NUMSTATES> 5
<STATE> 2
<MEAN> 39
 -2.312361e+001 4.266987e+000 3.324720e-001 -4.937723e+000 -2.452427e+000 -3.169606e+000 1.592179e+000 1.025916e+000 -1.907398e-001 1.606171e+000 -9.651329e-002 5.405041e-001 6.369814e+001 -1.692293e+000 4.020531e-001 -3.426970e-001 2.970870e-001 5.590295e-001 7.202736e-001 4.655676e-001 1.177627e-001 4.752533e-001 1.620987e-001 4.303824e-001 1.713276e-001 8.078505e-003 5.131610e-001 -3.275739e-001 1.346431e-001 -2.788274e-001 -2.382093e-001 -1.891105e-001 -2.385242e-001 -4.678962e-002 -1.599203e-001 3.490294e-003 -1.664390e-001 -6.794803e-002 5.983208e-002
<VARIANCE> 39
 7.551576e+001 2.427765e+001 4.442516e+001 3.976879e+001 4.115987e+001 4.628719e+001 3.957832e+001 3.505549e+001 3.188265e+001 2.539089e+001 2.441289e+001 1.745275e+001 1.670975e+001 7.750826e+000 3.390856e+000 3.123936e+000 3.371226e+000 3.988621e+000 4.603300e+000 3.950225e+000 3.083459e+000 3.237020e+000 2.780828e+000 2.842725e+000 1.926438e+000 7.286922e-001 9.696553e-001 5.352748e-001 4.922036e-001 5.245410e-001 7.022060e-001 8.654076e-001 6.320818e-001 5.892941e-001 5.705265e-001 5.557374e-001 4.886004e-001 3.834518e-001 1.213076e-001
<GCONST> 1.232088e+002
<STATE> 3
<MEAN> 39
 -2.353175e+001 3.366488e+000 1.243621e+000 -6.108178e+000 -3.446233e+000 -3.104923e+000 3.961940e-001 6.436576e-001 -5.025387e-001 1.628535e+000 -1.835399e-001 5.432124e-001 6.354683e+001 1.877127e+000 -4.169794e-001 9.514239e-001 -6.607155e-001 -1.113107e+000 -1.051583e+000 -1.042373e+000 -4.991338e-001 -7.092146e-001 -2.643898e-001 -5.013570e-001 -2.953090e-001 9.582775e-002 7.254069e-001 -2.065273e-001 1.994214e-001 -2.369204e-001 -3.107060e-001 -2.997723e-001 -2.592872e-001 -7.390457e-002 -2.427149e-001 -6.128674e-002 -1.768626e-001 -1.297898e-001 7.159316e-002
<VARIANCE> 39
 5.622958e+001 2.515942e+001 4.991469e+001 3.783651e+001 3.988778e+001 4.462371e+001 4.088823e+001 3.877848e+001 3.125217e+001 2.440374e+001 2.310636e+001 1.753226e+001 1.736238e+001 8.320191e+000 2.419672e+000 3.532995e+000 3.433836e+000 4.383615e+000 4.756816e+000 4.443638e+000 3.245288e+000 3.409378e+000 2.634459e+000 2.905654e+000 2.039227e+000 8.822091e-001 8.978453e-001 4.722710e-001 5.224557e-001 5.138121e-001 7.447049e-001 8.172729e-001 7.086253e-001 6.271273e-001 5.675241e-001 5.351883e-001 5.256118e-001 3.836045e-001 1.461900e-001
<GCONST> 1.236807e+002
<STATE> 4
<MEAN> 39
 -1.534729e+001 2.232361e+000 5.646984e+000 -9.048705e+000 -7.962243e+000 -7.583427e+000 -3.835649e+000 -1.730695e+000 -3.759212e+000 4.553396e-001 -2.241510e+000 -7.535317e-001 6.366904e+001 2.833225e+000 -9.460306e-001 1.083914e+000 -1.134278e+000 -1.419207e+000 -1.204334e+000 -1.177988e+000 -3.838659e-001 -9.905176e-001 -1.853190e-001 -6.869996e-001 -4.785075e-001 2.374331e-001 -2.075585e-001 -1.866638e-001 -2.254692e-001 9.194691e-003 2.584595e-001 3.158880e-001 2.442514e-001 2.075805e-001 1.121875e-001 1.146242e-001 6.220919e-002 1.233200e-003 -2.419717e-002
<VARIANCE> 39
 7.265038e+001 3.676677e+001 7.504806e+001 4.562919e+001 4.700255e+001 5.311073e+001 5.361000e+001 5.588726e+001 3.703793e+001 2.725341e+001 2.921384e+001 2.179510e+001 2.304096e+001 5.744264e+000 3.580535e+000 4.414053e+000 4.634826e+000 4.923633e+000 4.777223e+000 4.604953e+000 3.957520e+000 3.560747e+000 3.130296e+000 3.526302e+000 2.233716e+000 1.527717e+000 1.085975e+000 4.851327e-001 6.035225e-001 6.171456e-001 8.892891e-001 8.994176e-001 7.920702e-001 6.433418e-001 5.817348e-001 5.050437e-001 5.127784e-001 3.872067e-001 2.065042e-001
<GCONST> 1.301011e+002
<TRANSP> 5
 0.000000e+000 1.000000e+000 0.000000e+000 0.000000e+000 0.000000e+000
 0.000000e+000 8.480030e-001 1.519970e-001 0.000000e+000 0.000000e+000
 0.000000e+000 0.000000e+000 6.415005e-001 3.584995e-001 0.000000e+000
 0.000000e+000 0.000000e+000 0.000000e+000 5.759629e-001 4.240372e-001
 0.000000e+000 0.000000e+000 0.000000e+000 0.000000e+000 0.000000e+000
<ENDHMM>
~h "t"
<BEGINHMM>
<NUMSTATES> 5
<STATE> 2
<MEAN> 39
 -8.933736e+000 -7.440001e-001 3.628609e+000 -5.549261e+000 -6.368760e+000 -4.406249e+000 -2.408021e+000 -4.921586e-002 -2.966280e+000 1.839475e+000 -1.335617e+000 -7.537408e-001 5.773872e+001 -2.054272e-001 -2.680284e-001 -7.510330e-001 4.645689e-001 7.607115e-001 5.469894e-001 5.272533e-001 3.562369e-001 4.665990e-001 8.511225e-002 3.581027e-001 2.080894e-001 -3.938313e-001 -8.679499e-002 -2.687703e-001 -6.750408e-002 -3.923272e-001 -1.750241e-001 -3.734136e-002 -1.133966e-001 8.012586e-003 -7.282768e-002 7.015272e-003 -7.934405e-002 -1.972807e-002 4.977085e-001
<VARIANCE> 39
 3.377684e+001 4.175941e+001 5.940794e+001 6.119726e+001 6.880183e+001 6.550722e+001 6.276449e+001 5.355301e+001 4.938724e+001 3.587205e+001 3.963445e+001 3.059064e+001 8.091844e+001 3.345725e+000 3.673983e+000 4.555124e+000 5.441393e+000 6.170345e+000 5.500122e+000 5.087506e+000 4.275731e+000 4.489952e+000 3.439734e+000 3.298490e+000 2.774993e+000 7.096595e+000 5.764012e-001 6.346994e-001 7.227622e-001 9.142686e-001 1.099375e+000 1.029541e+000 9.368462e-001 7.609437e-001 8.093804e-001 7.038519e-001 6.193750e-001 5.288945e-001 1.067612e+000
<GCONST> 1.386212e+002
<STATE> 3
<MEAN> 39
 -9.438480e+000 -1.933826e+000 2.641425e+000 -5.824936e+000 -5.896976e+000 -4.056935e+000 -2.032778e+000 2.878486e-001 -2.753591e+000 1.852668e+000 -1.051453e+000 -5.570269e-001 5.874433e+001 -6.280724e-002 -6.782096e-001 -6.729422e-001 -2.377976e-001 2.726853e-001 3.013807e-001 1.424128e-001 2.795404e-001 1.489628e-001 5.720891e-003 3.183518e-002 5.067882e-002 4.749300e-001 3.878763e-002 -1.807318e-001 1.341205e-002 -3.624038e-001 -1.934714e-001 -7.438285e-002 -1.591860e-001 -2.352658e-002 -1.172200e-001 -3.371174e-002 -1.553544e-001 -7.671120e-002 3.872093e-001
<VARIANCE> 39
 3.543682e+001 4.369169e+001 6.115141e+001 6.202621e+001 6.696496e+001 6.582715e+001 6.456101e+001 5.201820e+001 4.892662e+001 3.663117e+001 3.907804e+001 3.106359e+001 8.427835e+001 3.415985e+000 3.578848e+000 4.424610e+000 5.322913e+000 5.696425e+000 5.279396e+000 4.987435e+000 4.166364e+000 4.343871e+000 3.638593e+000 3.360771e+000 2.830409e+000 6.826404e+000 6.288620e-001 6.024055e-001 7.062359e-001 9.043480e-001 1.042925e+000 9.838969e-001 9.346071e-001 7.819339e-001 8.091373e-001 7.224830e-001 6.321315e-001 5.441672e-001 1.083011e+000
<GCONST> 1.386034e+002
<STATE> 4
<MEAN> 39
 -9.402249e+000 -3.237420e+000 1.794221e+000 -6.615799e+000 -5.814058e+000 -3.788149e+000 -2.103631e+000 5.660164e-001 -2.808704e+000 1.549574e+000 -1.375094e+000 -6.363049e-001 6.002284e+001 1.614624e-001 -8.337203e-001 -6.147562e-001 -6.982895e-001 6.819081e-002 1.948601e-001 -1.129569e-001 2.155390e-001 -3.327083e-002 -7.893403e-002 -2.632396e-001 -1.283993e-001 7.987330e-001 5.190147e-002 -7.146599e-002 4.393986e-002 -2.524896e-001 -1.116567e-001 -5.175571e-002 -1.107029e-001 -5.533431e-002 -8.237827e-002 -1.760327e-002 -1.047608e-001 -7.580157e-002 1.939691e-001
<VARIANCE> 39
 3.694114e+001 4.820247e+001 6.579479e+001 6.595267e+001 7.008592e+001 6.665588e+001 6.690475e+001 5.439169e+001 4.848942e+001 3.840827e+001 3.885946e+001 3.122629e+001 8.680407e+001 3.404401e+000 3.453355e+000 4.224453e+000 5.363379e+000 5.182588e+000 4.928541e+000 5.073172e+000 4.111383e+000 4.092337e+000 3.818041e+000 3.341495e+000 2.715991e+000 5.435052e+000 5.809260e-001 5.642909e-001 6.667016e-001 8.816930e-001 9.381382e-001 8.950128e-001 8.602806e-001 7.748170e-001 7.639710e-001 7.058966e-001 6.206983e-001 5.296119e-001 9.860371e-001
<GCONST> 1.378198e+002
<TRANSP> 5
 0.000000e+000 1.000000e+000 0.000000e+000 0.000000e+000 0.000000e+000
 0.000000e+000 3.602541e-001 6.397460e-001 0.000000e+000 0.000000e+000
 0.000000e+000 0.000000e+000 3.009172e-001 6.990828e-001 0.000000e+000
 0.000000e+000 0.000000e+000 0.000000e+000 3.209550e-001 6.790450e-001
 0.000000e+000 0.000000e+000 0.000000e+000 0.000000e+000 0.000000e+000
<ENDHMM>
~h "u"
<BEGINHMM>
<NUMSTATES> 5
<STATE> 2
<MEAN> 39
 -1.816272e+000 -5.120676e+000 -4.084865e+000 -1.659433e+001 -6.265771e+000 -1.109858e+000 -7.870889e+000 -1.178217e+000 -4.864210e+000 1.739206e+000 -3.226371e+000 -2.935954e+000 6.338728e+001 2.665352e-001 -5.337393e-002 5.432950e-002 1.946155e-002 -1.168816e-001 -2.247629e-002 -2.590925e-001 -7.609485e-002 3.932048e-002 8.344468e-002 3.594832e-002 -1.156945e-001 -1.805025e-002 -2.391730e-001 -5.316051e-002 1.303439e-001 3.016737e-001 6.484985e-002 -9.513786e-002 2.375716e-001 1.513221e-001 9.175453e-002 -5.053672e-002 -4.553800e-002 3.180417e-002 -6.918502e-002
<VARIANCE> 39
 2.993287e+001 5.207034e+001 4.584842e+001 8.732137e+001 6.823372e+001 8.763109e+001 7.101779e+001 6.439371e+001 5.314614e+001 5.276522e+001 6.146717e+001 3.703706e+001 4.875727e+001 2.008824e+000 3.987107e+000 2.833528e+000 6.740283e+000 4.468625e+000 5.487740e+000 5.071892e+000 4.464156e+000 4.367469e+000 4.282061e+000 4.089425e+000 3.188900e+000 2.913286e+000 3.384931e-001 5.213721e-001 4.491577e-001 9.504653e-001 7.469782e-001 9.036213e-001 9.258664e-001 8.393112e-001 8.159100e-001 7.977315e-001 7.663672e-001 5.774856e-001 3.842981e-001
<GCONST> 1.364876e+002
<STATE> 3
<MEAN> 39
 -1.891321e+000 -5.478633e+000 -3.800558e+000 -1.584417e+001 -6.113397e+000 -1.506916e+000 -7.958080e+000 -1.098823e+000 -4.458255e+000 1.905301e+000 -3.302255e+000 -3.121225e+000 6.332648e+001 -1.275139e-001 -2.195069e-001 3.368087e-001 5.612677e-001 -1.678186e-002 -3.158928e-001 1.455431e-001 1.965615e-001 2.271031e-001 -3.673035e-002 -1.658773e-001 -9.221543e-002 -5.644698e-002 -2.149697e-001 -6.328864e-003 1.443661e-001 2.130752e-001 7.705485e-003 -8.594348e-002 2.530811e-001 1.296138e-001 3.080749e-002 -8.634442e-002 -5.380744e-002 5.501178e-002 -4.958753e-002
<VARIANCE> 39
 2.976453e+001 5.404568e+001 4.656783e+001 8.803419e+001 6.616849e+001 8.815913e+001 7.204253e+001 6.435233e+001 5.448708e+001 5.487031e+001 6.327358e+001 3.790973e+001 5.211745e+001 1.786087e+000 3.947712e+000 2.855888e+000 6.279519e+000 4.480594e+000 5.842091e+000 5.193812e+000 4.669347e+000 4.402761e+000 4.304889e+000 4.141005e+000 3.165802e+000 2.942927e+000 2.966464e-001 5.518672e-001 4.548610e-001 9.386654e-001 7.509064e-001 9.610592e-001 9.476226e-001 8.664989e-001 8.521340e-001 8.363951e-001 7.968586e-001 6.033434e-001 3.954988e-001
<GCONST> 1.369364e+002
<STATE> 4
<MEAN> 39
 -2.400273e+000 -5.790756e+000 -3.062446e+000 -1.442823e+001 -6.053095e+000 -2.299066e+000 -7.252511e+000 -6.172818e-001 -3.813891e+000 1.643526e+000 -3.708573e+000 -3.136649e+000 6.295124e+001 -4.194290e-001 -2.563318e-001 5.733955e-001 7.682434e-001 -4.942754e-002 -4.102488e-001 5.293178e-001 3.602486e-001 1.863980e-001 -1.784071e-001 -2.456968e-001 6.224483e-003 -7.728340e-002 -1.432038e-001 6.364401e-002 7.793883e-002 3.805547e-002 -2.178767e-002 2.059679e-002 1.628636e-001 2.359488e-002 -6.043994e-002 -3.574479e-002 2.067864e-002 6.679566e-002 -2.880940e-002
<VARIANCE> 39
 3.156979e+001 5.986252e+001 4.969509e+001 9.294139e+001 6.619431e+001 9.023447e+001 7.210381e+001 6.597434e+001 5.291917e+001 5.342973e+001 6.069615e+001 3.759510e+001 6.003300e+001 1.768399e+000 3.668930e+000 3.093635e+000 5.449092e+000 4.638514e+000 5.620187e+000 5.081168e+000 4.644482e+000 4.214578e+000 4.124940e+000 3.981185e+000 3.067206e+000 2.867302e+000 2.757920e-001 5.699616e-001 4.456279e-001 8.893775e-001 7.189485e-001 9.786570e-001 9.167194e-001 8.691742e-001 8.073813e-001 7.830719e-001 7.427115e-001 5.811306e-001 4.258675e-001
<GCONST> 1.366177e+002
<TRANSP> 5
 0.000000e+000 1.000000e+000 0.000000e+000 0.000000e+000 0.000000e+000
 0.000000e+000 3.667477e-001 6.332523e-001 0.000000e+000 0.000000e+000
 0.000000e+000 0.000000e+000 3.437081e-001 6.562920e-001 0.000000e+000
 0.000000e+000 0.000000e+000 0.000000e+000 3.931587e-001 6.068413e-001
 0.000000e+000 0.000000e+000 0.000000e+000 0.000000e+000 0.000000e+000
<ENDHMM>
~h "z"
<BEGINHMM>
<NUMSTATES> 5
<STATE> 2
<MEAN> 39
 -8.568564e+000 -1.336272e+000 9.257333e+000 -1.160831e+001 -1.159768e+001 -8.007887e+000 -6.048875e+000 -3.237836e+000 -4.828224e+000 8.110375e-001 -4.692469e+000 -4.218966e+000 6.302274e+001 -6.008243e-001 7.582204e-001 9.970863e-001 1.660850e-001 -3.327929e-001 -3.601848e-001 -3.517647e-001 -3.100595e-001 -3.218171e-002 4.093726e-002 2.234311e-001 -9.492229e-002 6.652826e-002 -3.329504e-002 -4.380691e-002 -2.176965e-001 -4.656206e-002 1.578114e-001 1.911979e-001 8.742452e-002 1.062480e-001 5.248540e-002 -4.405106e-002 1.139018e-002 1.108715e-001 1.313237e-002
<VARIANCE> 39
 2.200512e+001 7.251231e+001 7.464191e+001 6.864708e+001 5.793975e+001 4.709266e+001 7.634969e+001 8.802074e+001 3.750876e+001 3.882095e+001 7.458472e+001 2.845119e+001 4.702137e+001 1.713601e+000 3.780683e+000 3.626896e+000 5.780126e+000 3.895097e+000 3.768385e+000 3.884900e+000 4.330221e+000 2.944880e+000 3.292652e+000 2.792560e+000 1.952334e+000 3.101277e+000 2.919587e-001 4.687039e-001 5.113070e-001 8.870349e-001 7.241215e-001 6.505527e-001 6.261136e-001 6.596149e-001 5.041154e-001 5.845411e-001 4.872461e-001 3.283129e-001 4.374425e-001
<GCONST> 1.303344e+002
<STATE> 3
<MEAN> 39
 -9.662372e+000 8.013894e-002 1.056772e+001 -1.138297e+001 -1.169424e+001 -7.778816e+000 -6.356009e+000 -3.522782e+000 -4.844833e+000 7.726648e-001 -4.082921e+000 -3.962419e+000 6.287288e+001 -4.750586e-001 5.321954e-001 3.749415e-001 1.961306e-001 1.216947e-001 7.556029e-002 -1.029688e-001 2.385521e-002 1.235850e-001 5.039671e-002 1.991135e-001 1.299663e-001 -8.028225e-002 5.612132e-002 -1.015356e-001 -3.101785e-001 2.672667e-002 1.584780e-001 1.624197e-001 1.129136e-001 1.240199e-001 5.103562e-002 -1.432356e-002 -3.846021e-002 6.558013e-002 -3.803092e-002
<VARIANCE> 39
 2.136133e+001 7.911536e+001 7.130350e+001 7.700584e+001 5.165797e+001 4.217467e+001 6.884531e+001 9.125836e+001 3.805834e+001 3.872139e+001 6.944156e+001 2.772419e+001 4.837798e+001 1.690557e+000 3.562743e+000 4.069743e+000 5.210988e+000 4.038916e+000 3.513821e+000 3.573556e+000 3.632407e+000 2.775994e+000 2.682630e+000 2.370946e+000 1.818948e+000 2.837221e+000 2.975629e-001 5.181259e-001 6.094965e-001 9.811766e-001 6.709762e-001 5.967427e-001 6.387908e-001 5.986190e-001 5.442964e-001 5.223208e-001 4.666278e-001 3.306055e-001 4.124856e-001
<GCONST> 1.291954e+002
<STATE> 4
<MEAN> 39
 -1.091348e+001 1.683527e+000 1.009891e+001 -1.040731e+001 -9.741602e+000 -6.115114e+000 -5.157928e+000 -3.845679e+000 -3.884096e+000 7.690542e-001 -3.860371e+000 -3.188911e+000 6.022279e+001 -2.458608e-001 1.315330e-001 -1.824439e-001 2.657526e-001 2.408410e-001 1.560309e-001 7.930223e-002 1.693285e-001 5.357022e-002 7.097538e-002 5.177688e-002 1.375992e-001 -1.268081e-001 7.224254e-002 -1.167037e-001 -1.884288e-001 4.001293e-002 1.572829e-003 3.645769e-002 4.648973e-002 6.619161e-002 -2.262679e-002 1.999556e-002 -1.026764e-002 -1.731718e-002 6.375573e-003
<VARIANCE> 39
 2.311173e+001 7.077520e+001 8.232580e+001 8.539295e+001 4.840592e+001 3.758700e+001 5.852369e+001 7.759056e+001 3.392289e+001 3.458978e+001 5.887706e+001 2.435767e+001 7.048789e+001 1.928115e+000 2.712020e+000 4.441236e+000 5.000288e+000 3.577260e+000 3.237567e+000 3.346036e+000 2.889434e+000 2.532558e+000 2.031071e+000 2.328896e+000 1.674033e+000 2.460323e+000 3.224294e-001 4.300821e-001 7.847867e-001 9.658425e-001 6.626372e-001 5.192667e-001 6.309039e-001 5.991057e-001 4.883046e-001 3.805718e-001 4.399240e-001 3.251280e-001 4.113316e-001
<GCONST> 1.270167e+002
<TRANSP> 5
 0.000000e+000 1.000000e+000 0.000000e+000 0.000000e+000 0.000000e+000
 0.000000e+000 4.562379e-001 5.437621e-001 0.000000e+000 0.000000e+000
 0.000000e+000 0.000000e+000 4.573085e-001 5.426915e-001 0.000000e+000
 0.000000e+000 0.000000e+000 0.000000e+000 6.453235e-001 3.546765e-001
 0.000000e+000 0.000000e+000 0.000000e+000 0.000000e+000 0.000000e+000
<ENDHMM>
~h "E~"
<BEGINHMM>
<NUMSTATES> 5
<STATE> 2
<MEAN> 39
 -8.345719e+000 -8.611082e+000 6.462522e+000 -1.450573e+001 -1.360180e+001 -1.994832e+000 1.309933e+000 1.028187e-001 -7.366016e+000 -1.893080e+000 -4.730043e+000 -5.009259e+000 6.601763e+001 6.551242e-002 -2.732237e-002 9.159355e-002 -1.465850e-001 -1.678816e-001 9.323671e-003 -1.104319e-001 3.277894e-002 4.061532e-002 1.266889e-001 6.313703e-002 -3.364849e-002 -4.343989e-002 -2.515691e-002 1.604817e-002 -5.004787e-002 1.098288e-001 9.495769e-002 1.045367e-002 -2.220929e-002 1.000289e-002 1.499723e-002 -3.863304e-002 3.288508e-003 5.280576e-002 -7.969607e-002
<VARIANCE> 39
 1.906638e+001 3.466310e+001 3.025507e+001 4.587134e+001 3.883980e+001 5.306720e+001 6.871624e+001 1.033367e+002 3.223002e+001 3.284324e+001 2.862076e+001 2.796275e+001 5.099585e+001 3.747407e-001 8.453887e-001 7.731131e-001 1.207153e+000 1.170250e+000 1.147932e+000 1.178625e+000 1.155120e+000 1.177881e+000 1.052114e+000 9.352140e-001 8.755698e-001 5.446768e-001 7.492343e-002 1.395718e-001 1.145349e-001 1.883358e-001 1.810329e-001 1.933631e-001 1.982169e-001 2.045395e-001 2.049747e-001 1.709171e-001 1.690351e-001 1.590234e-001 7.364888e-002
<GCONST> 9.374821e+001
<STATE> 3
<MEAN> 39
 -7.282900e+000 -8.682313e+000 4.896387e+000 -1.308437e+001 -1.197318e+001 -1.599365e+000 -7.987788e-001 1.618671e+000 -6.477355e+000 -1.657457e+000 -4.403951e+000 -3.984078e+000 6.435863e+001 8.258482e-002 1.419615e-002 -3.445020e-001 3.932777e-001 4.974291e-001 5.934231e-002 -2.737947e-001 6.886338e-002 9.779081e-002 -1.329198e-001 -5.299148e-002 2.281823e-001 -3.418359e-001 5.591931e-003 5.359070e-002 -5.551536e-002 8.718830e-002 1.144800e-001 4.054644e-003 -4.309117e-002 -3.172856e-002 3.928928e-002 -1.311320e-002 -2.782586e-002 2.736962e-002 -5.925062e-002
<VARIANCE> 39
 1.859571e+001 4.766364e+001 5.168622e+001 4.201234e+001 5.668940e+001 6.023435e+001 8.028494e+001 9.947782e+001 3.722956e+001 3.859993e+001 2.780583e+001 2.629380e+001 5.238673e+001 3.307140e-001 1.198062e+000 1.081960e+000 1.346549e+000 1.486312e+000 1.336003e+000 1.434536e+000 1.491099e+000 1.358200e+000 1.191850e+000 1.097008e+000 9.480333e-001 6.070154e-001 5.933547e-002 1.462552e-001 1.333237e-001 1.965323e-001 2.094878e-001 1.993231e-001 2.316874e-001 2.214346e-001 2.251492e-001 1.966432e-001 1.801679e-001 1.632320e-001 7.524491e-002
<GCONST> 9.824536e+001
<STATE> 4
<MEAN> 39
 -8.759595e+000 -6.590859e+000 3.794131e-001 -6.698554e+000 -4.967741e+000 -1.063268e+000 -1.544976e+000 1.384439e+000 -3.585065e+000 -2.879814e+000 -3.112119e+000 -1.488814e+000 5.557691e+001 3.221525e-003 1.300887e-001 -1.838161e-001 2.564166e-001 3.387825e-001 8.944342e-002 -1.686680e-001 -1.601339e-002 1.675456e-001 3.196100e-002 -3.346687e-003 1.217372e-001 -2.977262e-001 -3.410472e-003 3.029287e-002 1.012760e-002 1.185675e-003 -7.224102e-003 -1.558262e-002 -2.618085e-004 -2.081139e-002 1.791014e-002 1.966016e-002 -8.186969e-004 -2.074787e-002 -4.670000e-003
<VARIANCE> 39
 2.258554e+001 5.747849e+001 4.537983e+001 5.375683e+001 6.086745e+001 4.305826e+001 6.118343e+001 5.454434e+001 3.927621e+001 4.049591e+001 3.353499e+001 2.880438e+001 9.718178e+001 5.392218e-001 1.362971e+000 1.309600e+000 1.670975e+000 1.931147e+000 1.627054e+000 2.041954e+000 1.858453e+000 1.753833e+000 1.779424e+000 1.455553e+000 1.446399e+000 1.036919e+000 9.370554e-002 2.168778e-001 1.923010e-001 2.666442e-001 2.916230e-001 2.811128e-001 3.495001e-001 3.098423e-001 3.172041e-001 3.156694e-001 2.637212e-001 2.583478e-001 1.280400e-001
<GCONST> 1.076899e+002
<TRANSP> 5
 0.000000e+000 1.000000e+000 0.000000e+000 0.000000e+000 0.000000e+000
 0.000000e+000 9.002235e-001 9.977648e-002 0.000000e+000 0.000000e+000
 0.000000e+000 0.000000e+000 7.574044e-001 2.425955e-001 0.000000e+000
 0.000000e+000 0.000000e+000 0.000000e+000 8.871032e-001 1.128968e-001
 0.000000e+000 0.000000e+000 0.000000e+000 0.000000e+000 0.000000e+000
<ENDHMM>
~h "a~"
<BEGINHMM>
<NUMSTATES> 5
<STATE> 2
<MEAN> 39
 -5.148498e+000 -1.327460e+001 -3.157769e+000 -1.238691e+001 -2.279048e+000 -1.886830e+000 -3.319701e+000 2.384625e+000 -5.103974e+000 -3.304671e+000 -6.990321e+000 -3.043862e+000 6.826574e+001 5.034677e-001 -1.035441e+000 -1.923360e-001 1.036067e-001 7.094677e-001 -2.545887e-001 -4.629031e-001 9.886906e-002 5.920982e-002 -1.013012e-001 -5.536213e-001 -2.291876e-001 2.724855e-001 -2.990260e-001 4.371677e-001 1.683390e-001 2.153957e-001 -1.714970e-001 3.301227e-002 6.539202e-002 -6.345278e-002 9.963052e-002 1.986406e-001 2.414864e-001 1.046011e-001 -2.690368e-001
<VARIANCE> 39
 2.485348e+001 5.629618e+001 4.699216e+001 7.385727e+001 7.166465e+001 8.027811e+001 8.374104e+001 5.800445e+001 4.181471e+001 5.172990e+001 3.974514e+001 2.827581e+001 4.192154e+001 2.252409e+000 4.950686e+000 2.432507e+000 4.465428e+000 3.960574e+000 3.990305e+000 3.636676e+000 3.242537e+000 3.018770e+000 3.324045e+000 3.168695e+000 2.231955e+000 2.021235e+000 4.315838e-001 5.597050e-001 3.174460e-001 6.642679e-001 6.052088e-001 6.678464e-001 6.620412e-001 5.823506e-001 5.167459e-001 6.228191e-001 5.927638e-001 4.089581e-001 2.545160e-001
<GCONST> 1.288934e+002
<STATE> 3
<MEAN> 39
 -4.959912e+000 -1.440585e+001 -3.048120e+000 -1.177453e+001 -1.244177e+000 -2.179224e+000 -3.979259e+000 2.474895e+000 -4.726369e+000 -3.144236e+000 -7.444755e+000 -3.193126e+000 6.823007e+001 1.066656e-001 5.073185e-003 1.510629e-001 4.173097e-001 1.912435e-001 -2.480751e-001 -2.330874e-001 1.079431e-002 1.970032e-001 2.094497e-001 -1.300801e-001 -3.703322e-002 -3.198480e-001 -1.677222e-001 4.960335e-001 1.568649e-001 1.125448e-001 -2.325175e-001 7.796579e-004 1.235079e-001 -8.025703e-002 3.074050e-002 1.231564e-001 2.011563e-001 8.415668e-002 -2.703004e-001
<VARIANCE> 39
 2.239614e+001 5.637188e+001 4.277496e+001 7.525430e+001 6.986237e+001 7.692352e+001 7.845359e+001 5.555215e+001 4.183071e+001 5.123983e+001 4.002925e+001 2.971431e+001 4.475443e+001 1.178214e+000 4.464372e+000 2.074058e+000 3.381768e+000 3.776431e+000 3.585942e+000 3.464797e+000 3.037875e+000 2.641984e+000 2.825586e+000 2.690280e+000 2.038407e+000 1.822220e+000 2.820841e-001 5.118709e-001 2.947734e-001 6.002408e-001 5.580532e-001 6.071198e-001 5.632769e-001 5.532504e-001 4.740584e-001 5.380026e-001 5.155352e-001 3.765706e-001 2.570402e-001
<GCONST> 1.250169e+002
<STATE> 4
<MEAN> 39
 -5.151175e+000 -1.381689e+001 -2.685211e+000 -1.052694e+001 -6.376609e-001 -2.561819e+000 -4.366604e+000 2.697209e+000 -3.966942e+000 -3.177642e+000 -7.503101e+000 -3.035238e+000 6.676057e+001 -3.274585e-002 8.923312e-001 3.595793e-001 4.044126e-001 -3.399752e-001 -2.382644e-001 1.356757e-001 -6.219544e-002 1.467922e-001 3.258697e-001 1.659237e-001 8.160222e-002 -7.454440e-001 -9.265786e-002 2.941456e-001 8.768837e-002 2.364721e-002 -1.164186e-001 3.104597e-002 1.053577e-001 -7.203152e-002 -2.306588e-002 6.663581e-002 1.300287e-001 3.992829e-002 -1.540326e-001
<VARIANCE> 39
 2.211054e+001 6.244366e+001 3.971626e+001 7.547187e+001 6.551821e+001 7.394688e+001 7.168739e+001 5.049275e+001 4.251945e+001 5.216982e+001 4.234497e+001 3.284274e+001 5.612643e+001 1.134881e+000 3.922119e+000 1.774717e+000 3.073160e+000 3.469426e+000 3.187985e+000 3.398343e+000 2.841063e+000 2.568089e+000 2.733967e+000 2.469130e+000 1.904928e+000 1.903364e+000 2.077500e-001 4.791048e-001 2.686855e-001 5.082664e-001 5.087942e-001 5.850001e-001 5.199759e-001 4.860801e-001 4.318929e-001 4.851616e-001 4.496997e-001 3.423515e-001 2.754132e-001
<GCONST> 1.229549e+002
<TRANSP> 5
 0.000000e+000 1.000000e+000 0.000000e+000 0.000000e+000 0.000000e+000
 0.000000e+000 3.671982e-001 6.328018e-001 0.000000e+000 0.000000e+000
 0.000000e+000 0.000000e+000 3.941752e-001 6.058248e-001 0.000000e+000
 0.000000e+000 0.000000e+000 0.000000e+000 5.686404e-001 4.313596e-001
 0.000000e+000 0.000000e+000 0.000000e+000 0.000000e+000 0.000000e+000
<ENDHMM>
~h "dz"
<BEGINHMM>
<NUMSTATES> 5
<STATE> 2
<MEAN> 39
 -1.514639e+001 2.434324e+000 -1.394147e-001 -3.220383e+000 -3.013521e+000 -2.225322e+000 -1.733490e-001 1.786863e+000 -9.997424e-002 1.769431e+000 -1.046926e+000 3.317121e-001 5.809047e+001 -1.334009e+000 1.577642e-001 -1.382063e-001 -5.934268e-002 -4.585164e-002 -1.408112e-001 4.993358e-002 1.019775e-001 2.320420e-001 6.079080e-002 4.190394e-001 2.190879e-001 6.946418e-001 3.839756e-001 -3.467479e-001 1.259189e-001 -4.407077e-001 -3.146150e-001 -2.930178e-001 -2.867787e-001 -1.040966e-001 -1.970262e-001 3.527844e-003 -1.755317e-001 -9.701639e-002 3.650710e-001
<VARIANCE> 39
 8.857062e+001 3.645366e+001 4.170230e+001 4.001936e+001 4.610895e+001 5.274549e+001 4.448693e+001 3.870682e+001 3.297348e+001 2.828277e+001 3.431627e+001 2.263413e+001 4.934883e+001 1.145896e+001 5.075366e+000 4.980157e+000 5.874279e+000 6.434802e+000 7.328207e+000 6.205185e+000 4.167845e+000 3.917187e+000 3.218953e+000 3.944419e+000 2.579527e+000 6.171072e+000 2.206133e+000 8.428184e-001 9.043370e-001 8.727815e-001 1.103821e+000 1.348006e+000 1.018300e+000 7.624067e-001 6.804072e-001 6.443990e-001 7.137472e-001 4.962807e-001 9.322476e-001
<GCONST> 1.396317e+002
<STATE> 3
<MEAN> 39
 -1.612166e+001 1.481451e+000 8.650593e-003 -5.446482e+000 -5.385232e+000 -4.828992e+000 -2.049912e+000 1.136910e+000 -8.722766e-001 1.604106e+000 -1.186398e+000 2.035948e-001 6.132262e+001 9.140241e-001 -8.174906e-001 4.608777e-001 -1.114500e+000 -9.623075e-001 -1.055897e+000 -8.644491e-001 -2.507209e-001 -4.246161e-001 2.181363e-002 -3.328000e-001 -1.831533e-001 1.085851e+000 5.415980e-001 -3.123389e-001 7.901092e-002 -2.260179e-001 -6.752118e-002 9.638078e-003 -6.701834e-002 -7.039750e-003 -1.284891e-001 5.154160e-003 -1.604978e-001 -1.175657e-001 -3.287075e-002
<VARIANCE> 39
 8.172913e+001 4.200544e+001 4.948443e+001 4.675095e+001 5.323568e+001 6.045879e+001 5.458878e+001 4.354717e+001 3.341353e+001 2.818824e+001 3.298743e+001 2.191182e+001 4.931556e+001 1.431506e+001 5.759531e+000 5.448027e+000 6.266158e+000 6.535692e+000 7.161734e+000 6.931971e+000 4.562791e+000 4.014834e+000 3.473227e+000 4.414435e+000 2.658941e+000 4.052536e+000 2.111233e+000 9.292335e-001 9.615995e-001 1.023930e+000 1.275287e+000 1.465042e+000 1.198313e+000 8.497791e-001 7.181282e-001 6.638311e-001 7.681048e-001 4.885251e-001 7.295248e-001
<GCONST> 1.417496e+002
<STATE> 4
<MEAN> 39
 -1.327987e+001 -5.207389e-001 8.968956e-001 -7.892789e+000 -7.354638e+000 -6.703871e+000 -3.799370e+000 5.125674e-001 -1.866137e+000 1.591217e+000 -2.225460e+000 -3.798730e-001 6.269378e+001 1.595527e+000 -1.244174e+000 5.291976e-001 -1.297049e+000 -8.125180e-001 -6.554683e-001 -6.616347e-001 -1.811400e-001 -5.768732e-001 2.016897e-002 -5.042182e-001 -3.779308e-001 8.101587e-001 -1.372709e-002 -4.394289e-002 -9.788000e-002 1.044170e-001 2.330974e-001 3.382221e-001 2.376327e-001 7.921199e-002 1.547943e-002 -1.049524e-002 3.315517e-002 -4.363149e-002 -2.217870e-001
<VARIANCE> 39
 7.998269e+001 5.452908e+001 5.790293e+001 5.505003e+001 5.704595e+001 6.224778e+001 6.653980e+001 5.254750e+001 3.631485e+001 3.239874e+001 3.716711e+001 2.439505e+001 5.766186e+001 8.816110e+000 5.726010e+000 5.060399e+000 6.031765e+000 6.341085e+000 6.555650e+000 6.262759e+000 4.742599e+000 3.934825e+000 3.503776e+000 3.965082e+000 2.514710e+000 3.667028e+000 1.765792e+000 8.946395e-001 8.718466e-001 1.017786e+000 1.181992e+000 1.268419e+000 1.116916e+000 8.602828e-001 7.023676e-001 6.404030e-001 7.226316e-001 4.745195e-001 5.367507e-001
<GCONST> 1.412868e+002
<TRANSP> 5
 0.000000e+000 1.000000e+000 0.000000e+000 0.000000e+000 0.000000e+000
 0.000000e+000 7.581007e-001 2.418993e-001 0.000000e+000 0.000000e+000
 0.000000e+000 0.000000e+000 5.646816e-001 4.353184e-001 0.000000e+000
 0.000000e+000 0.000000e+000 0.000000e+000 5.076385e-001 4.923615e-001
 0.000000e+000 0.000000e+000 0.000000e+000 0.000000e+000 0.000000e+000
<ENDHMM>
~h "i~"
<BEGINHMM>
<NUMSTATES> 5
<STATE> 2
<MEAN> 39
