~o
<STREAMINFO> 1 25
<VECSIZE> 25<NULLD><MFCC_D_N_Z_0><DIAGC>
~s "silst"
<MEAN> 25
 2.852296e+000 1.523527e+000 3.347938e+000 6.437473e+000 5.645341e+000 4.868277e+000 6.685697e+000 5.079491e+000 6.563213e+000 4.019016e+000 6.759703e+000 3.452669e+000 -3.066430e-003 -8.427188e-003 9.450833e-003 7.061192e-002 1.861385e-002 2.919683e-002 4.812470e-002 5.944935e-002 3.697092e-002 -3.416405e-002 6.340025e-002 9.544545e-003 -1.741895e-001
<VARIANCE> 25
 3.334431e+001 1.179878e+001 1.098375e+001 1.883373e+001 9.540304e+000 1.295481e+001 1.026416e+001 1.222917e+001 1.154235e+001 1.184994e+001 1.012495e+001 7.816679e+000 2.446152e+000 1.105496e+000 7.205759e-001 1.760644e+000 8.718359e-001 1.164048e+000 7.962173e-001 1.129431e+000 1.219274e+000 1.046599e+000 8.172113e-001 7.274864e-001 3.637233e+001
<GCONST> 8.065192e+001
~h "E"
<BEGINHMM>
<NUMSTATES> 5
<STATE> 2
<MEAN> 25
 1.949303e+000 -2.895094e+000 6.927857e-001 -3.744117e-001 -3.997996e+000 -1.114649e+000 -2.202084e+000 -2.450938e+000 -1.365193e+000 1.546339e+000 -1.084684e+000 -3.670315e-001 9.958351e-001 -1.260199e+000 6.133591e-001 -1.082330e-001 -5.612431e-001 -1.519198e-001 -5.840512e-001 -1.214036e+000 -8.188343e-001 6.846048e-001 -4.468592e-001 -6.487511e-001 2.312943e+000
<VARIANCE> 25
 3.319529e+001 2.774774e+001 3.411209e+001 2.905348e+001 4.360739e+001 2.787036e+001 6.696709e+001 9.251865e+001 3.170591e+001 3.236919e+001 2.446960e+001 1.847238e+001 3.972433e+000 2.366270e+000 3.088510e+000 3.842940e+000 3.178579e+000 3.269274e+000 5.748262e+000 6.002649e+000 3.527298e+000 3.685777e+000 2.397851e+000 2.227892e+000 3.582164e+000
<GCONST> 1.046664e+002
<STATE> 3
<MEAN> 25
 3.720786e+000 -6.379575e+000 2.091433e+000 -1.048092e+000 -6.196040e+000 -2.247854e+000 -1.731666e+000 -5.331663e+000 -4.849317e+000 3.104585e+000 -1.655717e+000 -1.911668e+000 1.105057e-002 -2.419279e-001 -1.827888e-001 -1.387331e-001 -3.695836e-001 6.998945e-002 3.998414e-001 -3.569092e-001 -3.552344e-001 9.553313e-002 1.033860e-001 8.997557e-002 2.081194e-001
<VARIANCE> 25
 2.043411e+001 2.568550e+001 1.578003e+001 4.170459e+001 4.928553e+001 2.128586e+001 6.761084e+001 1.102972e+002 2.685950e+001 3.661828e+001 2.467022e+001 1.510595e+001 3.154812e-001 7.382476e-001 9.374418e-001 1.222517e+000 1.146698e+000 1.473780e+000 1.400980e+000 1.141382e+000 1.065792e+000 9.985057e-001 1.019411e+000 9.825653e-001 3.886857e-001
<GCONST> 8.617607e+001
<STATE> 4
<MEAN> 25
 4.855289e+000 -5.654390e+000 -1.989193e+000 -2.083542e+000 -6.956933e+000 -8.192275e-002 1.222000e+000 -4.898961e+000 -6.184870e+000 1.366044e+000 -3.003314e+000 9.386340e-001 2.471105e-001 9.168671e-001 -4.624244e-001 6.783497e-002 4.610130e-001 2.484758e-001 1.112460e-001 3.631835e-001 3.945257e-001 -5.754677e-001 -3.769944e-001 2.738850e-001 -7.284989e-001
<VARIANCE> 25
 2.115217e+001 4.200406e+001 2.225379e+001 2.606116e+001 4.428525e+001 3.595986e+001 4.469904e+001 9.138031e+001 3.083062e+001 4.714562e+001 4.065246e+001 1.836870e+001 6.649172e-001 2.008912e+000 1.981191e+000 3.236410e+000 3.371133e+000 2.891460e+000 4.930802e+000 3.450345e+000 2.396771e+000 2.635364e+000 1.858151e+000 1.862189e+000 9.500499e-001
<GCONST> 9.897678e+001
<TRANSP> 5
 0.000000e+000 1.000000e+000 0.000000e+000 0.000000e+000 0.000000e+000
 0.000000e+000 6.312963e-001 3.687036e-001 0.000000e+000 0.000000e+000
 0.000000e+000 0.000000e+000 7.967629e-001 2.032370e-001 0.000000e+000
 0.000000e+000 0.000000e+000 0.000000e+000 7.436103e-001 2.563897e-001
 0.000000e+000 0.000000e+000 0.000000e+000 0.000000e+000 0.000000e+000
<ENDHMM>
~h "J"
<BEGINHMM>
<NUMSTATES> 5
<STATE> 2
<MEAN> 25
 2.186325e+000 1.274016e+000 6.891745e+000 8.472240e-001 -2.899558e+000 -2.588378e+000 -6.419446e+000 7.549355e-001 -3.180566e-002 -3.071109e+000 -6.937530e+000 -2.960264e+000 -2.521118e-001 6.433676e-001 6.949254e-001 -3.764656e-001 -2.323692e-001 4.319759e-001 -1.531566e-001 -8.360989e-002 5.186269e-001 3.572843e-001 -7.911004e-001 -7.275781e-001 -2.513148e-001
<VARIANCE> 25
 2.204220e+001 2.471622e+001 1.872585e+001 1.162388e+002 7.737685e+001 4.016327e+001 1.821819e+001 7.199184e+001 8.508922e+001 2.812533e+001 3.634069e+001 1.943704e+001 4.732994e-001 1.098361e+000 1.761229e+000 2.624081e+000 1.800472e+000 3.086812e+000 2.074970e+000 3.806885e+000 2.418861e+000 2.459113e+000 2.481389e+000 2.578490e+000 2.489841e-001
<GCONST> 9.640124e+001
<STATE> 3
<MEAN> 25
 2.411018e+000 2.133857e+000 9.007006e+000 -1.457238e-001 -4.939500e+000 -3.899951e+000 -7.125448e+000 -1.895717e-001 1.500805e-001 -9.281260e-001 -7.738168e+000 -6.062421e+000 -1.219295e-001 -4.024678e-001 2.865315e-001 -6.461845e-002 -4.019171e-001 -4.493623e-003 1.787599e-002 -3.738872e-001 8.848903e-002 5.029733e-001 5.662269e-001 1.276139e-001 2.319722e-001
<VARIANCE> 25
 2.462482e+001 2.273162e+001 2.128489e+001 1.381292e+002 6.252570e+001 5.574646e+001 2.003369e+001 3.949284e+001 6.109879e+001 1.685064e+001 2.438482e+001 1.230036e+001 4.130109e-001 9.472469e-001 1.079225e+000 8.670797e-001 6.927451e-001 1.354385e+000 1.693119e+000 2.355865e+000 1.116936e+000 1.463842e+000 1.737357e+000 1.118288e+000 3.680071e-001
<GCONST> 8.820206e+001
<STATE> 4
<MEAN> 25
 2.241180e+000 -1.999099e-001 8.079450e+000 -3.413481e+000 -7.050054e+000 -1.802418e+000 -4.321163e+000 -3.912563e+000 -4.079642e+000 -5.966989e-001 -4.278870e+000 -3.511885e+000 3.014725e-001 -8.406969e-001 -1.295835e+000 5.147370e-001 2.382608e-001 -4.437829e-002 7.349786e-001 -7.451514e-002 -1.035601e+000 -3.750274e-001 1.957388e+000 8.683369e-001 4.451161e-001
<VARIANCE> 25
 1.776614e+001 1.968865e+001 1.596742e+001 9.364249e+001 5.765616e+001 4.104182e+001 3.359169e+001 2.862808e+001 6.328685e+001 3.342377e+001 4.573628e+001 1.618958e+001 8.704630e-001 1.679762e+000 1.835404e+000 5.305746e+000 1.860201e+000 5.005921e+000 2.765436e+000 4.429059e+000 2.867612e+000 2.975015e+000 2.486954e+000 2.074677e+000 7.030939e-001
<GCONST> 9.884126e+001
<TRANSP> 5
 0.000000e+000 1.000000e+000 0.000000e+000 0.000000e+000 0.000000e+000
 0.000000e+000 6.664827e-001 3.335173e-001 0.000000e+000 0.000000e+000
 0.000000e+000 0.000000e+000 7.120743e-001 2.879257e-001 0.000000e+000
 0.000000e+000 0.000000e+000 0.000000e+000 6.388934e-001 3.611065e-001
 0.000000e+000 0.000000e+000 0.000000e+000 0.000000e+000 0.000000e+000
<ENDHMM>
~h "L"
<BEGINHMM>
<NUMSTATES> 5
<STATE> 2
<MEAN> 25
 4.611982e+000 5.668668e-001 2.405642e+000 2.620448e+000 3.205942e+000 2.472098e-003 -6.439367e+000 -1.493638e+000 -2.241903e+000 -3.720822e+000 -6.309403e-001 1.205968e+000 -7.246377e-001 1.221084e+000 1.544687e+000 8.193500e-001 2.712198e+000 9.482672e-001 -1.661712e+000 8.588399e-001 9.556254e-001 -1.265918e+000 -1.181409e+000 8.360400e-001 -1.507237e+000
<VARIANCE> 25
 1.332494e+001 3.096217e+001 3.782067e+001 5.791278e+001 1.274560e+002 5.015961e+001 3.718265e+001 4.518229e+001 4.812258e+001 2.005690e+001 4.007020e+001 2.802730e+001 6.040664e-001 1.457383e+000 3.869050e+000 3.277035e+000 4.079067e+000 4.419539e+000 4.210909e+000 5.506920e+000 5.621675e+000 4.754817e+000 4.927625e+000 2.212139e+000 4.802404e-001
<GCONST> 1.031360e+002
<STATE> 3
<MEAN> 25
 3.868254e+000 1.668907e+000 2.424231e+000 7.333447e+000 1.107718e+001 1.762478e+000 -8.928639e+000 2.450542e-001 1.695405e+000 -5.218029e+000 -1.909311e+000 7.591041e-001 4.391198e-001 -1.817138e-001 -4.851116e-001 -3.416492e-001 -5.946999e-001 -8.373762e-001 -5.876626e-001 -1.039490e+000 -8.716600e-001 3.998167e-001 3.082717e-001 -1.616059e-001 3.838102e-001
<VARIANCE> 25
 1.067364e+001 1.828890e+001 3.937152e+001 4.836276e+001 5.687002e+001 4.765992e+001 2.744039e+001 4.494270e+001 4.500829e+001 1.827261e+001 2.553570e+001 2.264747e+001 5.499278e-001 2.188548e+000 2.134651e+000 2.467116e+000 2.526143e+000 3.965735e+000 3.531164e+000 4.370537e+000 4.257943e+000 2.469078e+000 2.678791e+000 1.845722e+000 1.073436e+000
<GCONST> 9.777666e+001
<STATE> 4
<MEAN> 25
 5.369305e+000 8.812635e-001 6.108608e+000 8.687958e-001 -1.137380e+000 -1.602075e+000 -6.131629e+000 -3.489802e+000 -4.982145e+000 -1.095938e+000 -1.332686e+000 -4.274624e-001 -4.593590e-002 -3.676748e-001 -5.118458e-001 -4.450111e-001 -9.684930e-001 5.721862e-001 1.415509e+000 1.461772e-001 1.999757e-003 5.831161e-001 2.482277e-001 -3.424816e-001 2.732212e-002
<VARIANCE> 25
 1.326941e+001 2.100426e+001 6.502625e+001 4.494144e+001 4.519163e+001 4.003802e+001 6.768417e+001 6.096003e+001 2.986417e+001 3.627588e+001 4.021082e+001 3.032209e+001 2.764763e-001 1.506373e+000 1.272467e+000 3.603085e+000 4.233891e+000 2.548566e+000 3.513433e+000 3.823618e+000 1.758603e+000 4.136631e+000 2.280926e+000 2.349208e+000 1.412981e+000
<GCONST> 9.910893e+001
<TRANSP> 5
 0.000000e+000 1.000000e+000 0.000000e+000 0.000000e+000 0.000000e+000
 0.000000e+000 6.463346e-001 3.536654e-001 0.000000e+000 0.000000e+000
 0.000000e+000 0.000000e+000 7.358167e-001 2.641833e-001 0.000000e+000
 0.000000e+000 0.000000e+000 0.000000e+000 7.691641e-001 2.308359e-001
 0.000000e+000 0.000000e+000 0.000000e+000 0.000000e+000 0.000000e+000
<ENDHMM>
~h "O"
<BEGINHMM>
<NUMSTATES> 5
<STATE> 2
<MEAN> 25
 1.038134e+001 8.832952e+000 -3.840092e+000 -8.467331e+000 -1.101677e+001 -5.442936e+000 2.137002e+000 -2.352958e+000 2.365956e+000 4.745933e+000 -2.216972e+000 -2.416569e+000 1.820614e-001 -5.513353e-001 -5.639402e-001 -5.053236e-001 -5.032715e-001 3.366291e-001 4.975513e-001 -4.698428e-001 -3.004370e-001 3.048687e-001 -6.192693e-002 1.415422e-001 3.464627e-001
<VARIANCE> 25
 7.537271e+000 4.983376e+001 2.791987e+001 1.282927e+001 4.568330e+001 4.692772e+001 3.562203e+001 1.995443e+001 2.690917e+001 2.632330e+001 2.464707e+001 1.387719e+001 5.364156e-001 2.061673e+000 1.074201e+000 1.110607e+000 2.184232e+000 3.118652e+000 1.673661e+000 1.623259e+000 1.649290e+000 1.703044e+000 1.478089e+000 1.231397e+000 3.680300e-001
<GCONST> 8.821848e+001
<STATE> 3
<MEAN> 25
 8.532561e+000 -4.443840e+000 -1.258316e+001 -7.721871e+000 4.243159e-002 7.666894e+000 -3.275596e+000 -5.557029e+000 -1.264958e+000 -1.733035e-001 -2.827838e+000 -4.130524e+000 -2.219436e-001 -5.845187e-001 -2.048213e-002 4.721293e-001 6.187890e-001 3.679056e-001 -8.655230e-002 -4.019428e-001 -1.889095e-001 -2.373249e-001 -4.139333e-003 1.780004e-003 2.745334e-002
<VARIANCE> 25
 1.292807e+001 4.560011e+001 2.597096e+001 1.597739e+001 7.003868e+001 5.264307e+001 6.772383e+001 2.362920e+001 2.965179e+001 2.748413e+001 2.014985e+001 3.003087e+001 3.396025e-001 1.231065e+000 9.522674e-001 1.420405e+000 1.441022e+000 2.405006e+000 1.370722e+000 2.069156e+000 1.837011e+000 1.460322e+000 1.908797e+000 1.422267e+000 2.508688e-001
<GCONST> 8.937146e+001
<STATE> 4
<MEAN> 25
 5.914396e+000 -5.690182e+000 -9.024298e+000 -2.789770e+000 -1.174789e+000 1.991381e-002 -2.059067e+000 -1.953526e+000 -2.570029e+000 -2.064297e+000 -6.209146e+000 -1.694639e+000 -7.449890e-001 8.283685e-001 1.197053e+000 9.605531e-001 -1.104893e-001 -1.334151e+000 3.072422e-001 4.829854e-001 -2.052206e-001 -6.340793e-001 2.857511e-002 6.769069e-001 -5.070803e-001
<VARIANCE> 25
 1.690144e+001 6.153205e+001 2.746706e+001 2.464694e+001 5.909791e+001 4.723407e+001 5.335508e+001 5.976716e+001 5.289190e+001 2.855984e+001 3.854977e+001 2.883278e+001 9.695118e-001 3.836126e+000 1.554980e+000 2.825230e+000 6.488254e+000 4.685861e+000 4.108073e+000 4.194373e+000 2.470352e+000 2.259688e+000 2.791520e+000 2.595870e+000 1.010514e+000
<GCONST> 1.025123e+002
<TRANSP> 5
 0.000000e+000 1.000000e+000 0.000000e+000 0.000000e+000 0.000000e+000
 0.000000e+000 7.940305e-001 2.059695e-001 0.000000e+000 0.000000e+000
 0.000000e+000 0.000000e+000 7.753111e-001 2.246889e-001 0.000000e+000
 0.000000e+000 0.000000e+000 0.000000e+000 7.140775e-001 2.859226e-001
 0.000000e+000 0.000000e+000 0.000000e+000 0.000000e+000 0.000000e+000
<ENDHMM>
~h "S"
<BEGINHMM>
<NUMSTATES> 5
<STATE> 2
<MEAN> 25
 -9.783606e+000 -1.495607e+000 5.770604e+000 3.061527e+000 7.354094e+000 -1.874539e-001 -2.322444e-001 2.410783e+000 1.040262e+000 -1.577775e-001 2.551100e+000 4.126602e-001 -3.298546e+000 -2.121758e+000 4.590678e-001 -1.280369e-001 1.544509e+000 9.065056e-001 6.516560e-001 2.237367e+000 1.082224e+000 1.068229e+000 1.368259e+000 7.747296e-001 9.501426e-001
<VARIANCE> 25
 7.906944e+001 1.954644e+002 3.985483e+001 3.199343e+001 3.451593e+001 3.305457e+001 6.935435e+001 5.183028e+001 3.114907e+001 2.597965e+001 2.298530e+001 2.207997e+001 2.658420e+000 8.725988e+000 6.061210e+000 2.977288e+000 4.902400e+000 3.083898e+000 3.916696e+000 3.716793e+000 3.050889e+000 2.805902e+000 2.815026e+000 2.050150e+000 1.046423e+000
<GCONST> 1.062722e+002
<STATE> 3
<MEAN> 25
 -1.481596e+001 -1.339060e+001 4.249685e+000 9.425368e-001 7.603357e+000 -3.224859e-001 -2.206793e+000 7.255229e+000 4.134803e+000 2.045891e+000 3.731475e+000 3.236694e+000 6.480631e-003 -1.164910e-001 -1.721130e-001 -2.024908e-001 -5.095233e-002 5.515302e-002 6.619257e-002 6.907831e-002 -8.750118e-002 9.207821e-003 2.067631e-001 1.672994e-001 -1.717659e-001
<VARIANCE> 25
 2.390566e+001 2.580617e+002 3.291236e+001 1.761734e+001 1.411004e+001 1.622725e+001 9.730318e+001 2.458280e+001 1.593329e+001 2.544421e+001 2.584448e+001 1.117124e+001 1.154204e+000 1.544704e+000 1.589106e+000 1.396005e+000 1.311474e+000 1.383722e+000 1.489351e+000 1.614420e+000 1.700103e+000 1.289436e+000 1.517279e+000 1.219527e+000 5.453185e-001
<GCONST> 8.956293e+001
<STATE> 4
<MEAN> 25
 -1.072180e+001 -3.529692e+000 1.718037e+000 2.067552e+000 6.499788e+000 8.310620e-001 3.014899e+000 6.527436e+000 3.932670e+000 1.530633e+000 5.937356e+000 4.076708e+000 1.922240e+000 1.752892e+000 -7.874506e-001 2.732953e-001 -1.015926e+000 -3.548587e-001 2.326774e-001 -6.399243e-001 -4.504182e-002 -5.229800e-001 -4.471239e-001 -1.354484e-001 -2.291017e+000
<VARIANCE> 25
 4.046839e+001 1.441322e+002 6.266367e+001 3.458332e+001 3.200137e+001 3.607463e+001 6.598810e+001 2.735543e+001 2.583565e+001 2.979538e+001 3.113266e+001 1.515736e+001 4.145362e+000 8.198987e+000 4.229102e+000 3.901246e+000 2.997075e+000 3.794644e+000 4.071177e+000 2.998748e+000 3.298063e+000 2.575055e+000 2.407845e+000 1.774967e+000 2.560745e+000
<GCONST> 1.054466e+002
<TRANSP> 5
 0.000000e+000 1.000000e+000 0.000000e+000 0.000000e+000 0.000000e+000
 0.000000e+000 6.570950e-001 3.429051e-001 0.000000e+000 0.000000e+000
 0.000000e+000 0.000000e+000 8.042769e-001 1.957230e-001 0.000000e+000
 0.000000e+000 0.000000e+000 0.000000e+000 7.163494e-001 2.836507e-001
 0.000000e+000 0.000000e+000 0.000000e+000 0.000000e+000 0.000000e+000
<ENDHMM>
~h "Z"
<BEGINHMM>
<NUMSTATES> 5
<STATE> 2
<MEAN> 25
 -2.929203e+000 -7.443479e-001 3.349932e+000 4.749662e+000 7.104654e+000 -2.063945e+000 -3.196051e+000 1.016418e+000 7.307112e-001 -3.735651e+000 -9.820676e-001 5.135653e-002 -2.596047e+000 -2.143815e+000 2.333952e+000 -1.937654e-001 7.866570e-001 3.698690e-001 -9.082035e-001 1.638568e+000 3.237562e-001 1.899545e-001 8.802519e-001 2.286014e-001 1.719181e+000
<VARIANCE> 25
 5.026268e+001 1.122793e+002 4.404541e+001 4.690448e+001 3.359303e+001 4.685152e+001 4.532133e+001 6.235848e+001 3.749349e+001 1.741704e+001 1.523293e+001 1.759917e+001 2.035503e+000 1.597132e+001 5.452391e+000 2.327426e+000 3.210299e+000 2.109268e+000 4.017859e+000 3.910541e+000 3.065964e+000 2.403184e+000 2.158582e+000 2.276722e+000 2.584533e+000
<GCONST> 1.048278e+002
<STATE> 3
<MEAN> 25
 -8.664983e+000 -7.026819e+000 9.978695e+000 4.606047e+000 9.310494e+000 7.349870e-002 -4.564997e+000 4.729251e+000 7.296727e-001 -1.246978e+000 9.079940e-001 6.556962e-001 -5.878600e-001 -3.285842e-001 6.338815e-001 -2.200765e-001 6.783911e-002 1.713662e-001 -1.681618e-001 1.345587e-001 -2.809248e-001 2.962360e-001 3.188370e-001 5.986796e-002 4.538373e-001
<VARIANCE> 25
 3.171656e+001 2.366263e+002 5.377877e+001 3.795758e+001 2.843663e+001 4.931490e+001 3.925904e+001 5.329486e+001 3.282847e+001 1.839145e+001 1.578052e+001 1.975786e+001 1.897849e+000 2.930264e+000 2.522764e+000 1.706167e+000 2.175670e+000 1.554075e+000 1.970586e+000 2.604091e+000 2.030207e+000 1.415391e+000 1.252617e+000 1.168256e+000 8.279850e-001
<GCONST> 9.680561e+001
<STATE> 4
<MEAN> 25
 -5.557609e+000 -5.696871e-001 8.088879e+000 3.291748e+000 6.300096e+000 -1.907836e+000 -4.358076e+000 1.168908e+000 -1.378076e+000 -3.209723e+000 5.003523e-001 -5.100267e-001 2.326188e+000 1.415587e+000 -1.238947e+000 -3.103454e-001 -1.389476e+000 -4.496339e-001 -9.678815e-002 -1.384045e+000 -2.970679e-001 -4.227223e-001 -4.946392e-001 -3.185963e-001 -7.106725e-001
<VARIANCE> 25
 4.555550e+001 1.758694e+002 5.912902e+001 5.579388e+001 4.180313e+001 6.871847e+001 4.697566e+001 3.559654e+001 2.764768e+001 1.928032e+001 1.944473e+001 1.904073e+001 2.354923e+000 8.696744e+000 4.747475e+000 3.383055e+000 3.093756e+000 2.646071e+000 3.209537e+000 4.191128e+000 2.736608e+000 2.222804e+000 2.095780e+000 2.179569e+000 1.605587e+000
<GCONST> 1.049101e+002
<TRANSP> 5
 0.000000e+000 1.000000e+000 0.000000e+000 0.000000e+000 0.000000e+000
 0.000000e+000 5.214797e-001 4.785203e-001 0.000000e+000 0.000000e+000
 0.000000e+000 0.000000e+000 6.444792e-001 3.555208e-001 0.000000e+000
 0.000000e+000 0.000000e+000 0.000000e+000 5.853211e-001 4.146789e-001
 0.000000e+000 0.000000e+000 0.000000e+000 0.000000e+000 0.000000e+000
<ENDHMM>
~h "a"
<BEGINHMM>
<NUMSTATES> 5
<STATE> 2
<MEAN> 25
 6.469721e+000 -5.080211e+000 -7.619621e+000 -3.267863e+000 -2.425615e+000 1.065920e+000 -3.818256e-001 -1.187065e+000 -2.448173e+000 -8.753260e-001 -4.123747e+000 5.212221e-001 5.738586e-001 -1.563368e+000 -1.222450e+000 -1.224263e-001 -2.700966e-001 3.695161e-001 3.928230e-001 -6.960508e-001 -1.071264e+000 2.413282e-001 -2.372499e-001 4.482061e-001 1.305431e+000
<VARIANCE> 25
 2.515370e+001 6.230036e+001 3.865000e+001 3.498871e+001 4.906530e+001 3.540833e+001 5.994094e+001 5.941813e+001 3.443560e+001 3.134770e+001 3.984176e+001 2.232213e+001 2.658579e+000 4.013115e+000 2.816903e+000 3.585693e+000 4.157156e+000 3.301689e+000 4.375575e+000 5.073229e+000 3.159686e+000 3.696892e+000 3.590431e+000 2.638995e+000 1.768158e+000
<GCONST> 1.056021e+002
<STATE> 3
<MEAN> 25
 7.164505e+000 -6.398733e+000 -7.346339e+000 -2.344954e+000 -3.499034e+000 2.616421e+000 2.053320e+000 -5.185050e+000 -4.198174e+000 2.481378e+000 -1.114509e+000 1.381552e+000 -1.274342e-001 -2.915102e-002 1.618931e-001 1.157680e-001 -6.790678e-002 2.160341e-002 4.892576e-002 -2.973610e-001 -1.156568e-001 1.250524e-001 6.883030e-002 1.040025e-001 -9.728155e-002
<VARIANCE> 25
 1.604222e+001 6.089143e+001 2.533086e+001 4.683107e+001 5.816362e+001 2.590189e+001 6.155038e+001 5.305876e+001 2.910746e+001 5.185627e+001 3.479118e+001 1.778040e+001 2.806655e-001 8.260546e-001 8.745132e-001 1.029607e+000 1.383847e+000 1.301876e+000 1.964241e+000 1.414541e+000 1.215533e+000 1.205275e+000 1.237051e+000 9.390777e-001 2.076335e-001
<GCONST> 8.806934e+001
<STATE> 4
<MEAN> 25
 5.410671e+000 -6.231737e+000 -7.022951e+000 -1.561173e+000 -3.089274e+000 3.370838e-001 -7.332016e-001 -2.411189e+000 -4.113837e+000 -7.614362e-001 -5.139368e+000 1.841108e-001 -1.046409e-001 1.811415e+000 1.082149e+000 1.195671e-001 -5.020863e-002 -5.271194e-001 -3.283955e-001 9.245242e-003 6.592134e-001 -6.150226e-002 -3.323750e-002 -5.932223e-001 -1.368231e+000
<VARIANCE> 25
 1.985502e+001 5.814830e+001 3.671035e+001 3.617556e+001 4.978161e+001 4.189106e+001 5.547861e+001 5.332048e+001 3.172183e+001 3.600936e+001 4.182818e+001 2.284152e+001 1.248992e+000 2.370593e+000 2.073986e+000 3.072526e+000 4.651717e+000 2.983487e+000 3.548199e+000 3.662950e+000 2.359736e+000 2.836165e+000 2.584005e+000 1.956254e+000 1.527454e+000
<GCONST> 1.018053e+002
<TRANSP> 5
 0.000000e+000 1.000000e+000 0.000000e+000 0.000000e+000 0.000000e+000
 0.000000e+000 5.911515e-001 4.088485e-001 0.000000e+000 0.000000e+000
 0.000000e+000 0.000000e+000 8.003027e-001 1.996973e-001 0.000000e+000
 0.000000e+000 0.000000e+000 0.000000e+000 6.357692e-001 3.642308e-001
 0.000000e+000 0.000000e+000 0.000000e+000 0.000000e+000 0.000000e+000
<ENDHMM>
~h "b"
<BEGINHMM>
<NUMSTATES> 5
<STATE> 2
<MEAN> 25
 8.493056e+000 4.803781e+000 -1.874160e+000 1.022956e+000 1.517027e+000 3.382338e-002 -6.980881e-001 -4.139738e+000 -3.304410e+000 -1.311604e+000 -2.849421e+000 -4.915032e+000 -5.479634e-001 2.638476e+000 1.656818e+000 2.236821e+000 2.345848e+000 3.877846e-001 6.399147e-001 3.804701e-001 6.612157e-004 -1.010885e+000 -4.625871e-001 -1.103760e+000 -3.154593e+000
<VARIANCE> 25
 1.391337e+001 7.643935e+001 3.043433e+001 4.255870e+001 4.069598e+001 3.514386e+001 6.190089e+001 5.821459e+001 4.104222e+001 2.308588e+001 2.217179e+001 2.568613e+001 2.113326e+000 2.040878e+000 2.186624e+000 2.222376e+000 2.936259e+000 3.429828e+000 2.948656e+000 7.876854e+000 4.208601e+000 2.460236e+000 2.459809e+000 2.708709e+000 1.160610e+000
<GCONST> 1.016170e+002
<STATE> 3
<MEAN> 25
 4.647456e+000 1.114055e+001 3.032212e+000 6.486554e+000 6.194479e+000 1.754119e+000 2.511066e+000 -6.698680e-001 -1.983904e+000 -3.650053e+000 -3.614382e+000 -5.444921e+000 -2.572363e-001 1.700035e-001 3.228551e-001 2.835976e-001 1.670353e-001 -3.195674e-002 -1.428775e-003 -5.413170e-002 4.860366e-002 -1.939866e-001 -8.524422e-002 4.743771e-002 -2.774007e-001
<VARIANCE> 25
 1.754299e+001 3.172402e+001 1.435207e+001 1.190007e+001 1.349692e+001 2.337467e+001 5.633554e+001 6.542767e+001 3.864878e+001 1.723226e+001 1.974926e+001 3.449973e+001 4.046803e-001 1.019208e+000 7.246512e-001 9.689056e-001 1.075018e+000 1.046581e+000 1.452480e+000 1.204714e+000 1.394380e+000 1.153825e+000 1.156590e+000 1.426714e+000 8.101962e-001
<GCONST> 8.460484e+001
<STATE> 4
<MEAN> 25
 6.536662e+000 5.741230e+000 1.255271e+000 3.860406e+000 3.545013e+000 -1.069957e+000 -1.229930e+000 -3.258766e+000 -1.967436e+000 -2.731038e+000 -3.298374e+000 -5.097281e+000 4.746575e-001 -2.760635e+000 -1.303663e+000 -1.883301e+000 -2.276019e+000 -7.566178e-001 -6.594069e-001 1.859232e-001 6.634208e-001 1.444497e+000 6.614844e-001 1.469662e+000 3.709408e+000
<VARIANCE> 25
 1.844442e+001 4.685054e+001 3.256298e+001 3.402993e+001 3.783004e+001 4.641123e+001 4.705672e+001 5.333511e+001 3.309163e+001 2.105561e+001 2.141792e+001 3.340231e+001 3.115008e+000 3.883632e+000 5.553132e+000 5.590921e+000 6.105178e+000 4.950892e+000 8.900331e+000 1.143873e+001 4.456308e+000 3.363349e+000 3.772716e+000 4.371672e+000 1.709424e+000
<GCONST> 1.081436e+002
<TRANSP> 5
 0.000000e+000 1.000000e+000 0.000000e+000 0.000000e+000 0.000000e+000
 0.000000e+000 6.453847e-001 3.546153e-001 0.000000e+000 0.000000e+000
 0.000000e+000 0.000000e+000 7.516435e-001 2.483565e-001 0.000000e+000
 0.000000e+000 0.000000e+000 0.000000e+000 6.461444e-001 3.538556e-001
 0.000000e+000 0.000000e+000 0.000000e+000 0.000000e+000 0.000000e+000
<ENDHMM>
~h "d"
<BEGINHMM>
<NUMSTATES> 5
<STATE> 2
<MEAN> 25
 4.740569e+000 4.451930e+000 1.796586e+000 3.328979e+000 2.118193e-001 -3.924159e+000 -3.340785e+000 -4.753319e+000 -2.564388e+000 -3.635920e+000 -6.294885e+000 -1.919816e+000 1.012755e-001 2.001951e+000 1.182352e+000 1.478435e+000 1.853212e+000 6.743500e-001 9.364308e-001 1.931164e-001 -9.963553e-002 -1.106960e+000 8.136676e-003 -9.436492e-001 -2.748116e+000
<VARIANCE> 25
 2.008821e+001 3.476824e+001 3.504250e+001 3.423634e+001 5.136340e+001 4.860363e+001 5.004084e+001 4.045292e+001 3.525517e+001 2.646732e+001 3.752683e+001 2.974520e+001 2.447998e+000 2.546518e+000 3.467354e+000 2.457458e+000 3.890890e+000 2.446815e+000 3.199913e+000 6.049640e+000 3.897470e+000 2.763237e+000 3.280943e+000 3.566155e+000 2.880246e+000
<GCONST> 1.039608e+002
<STATE> 3
<MEAN> 25
 3.133985e+000 1.030596e+001 3.296399e+000 6.742976e+000 5.653690e+000 7.756069e-001 2.364813e+000 -1.035661e+000 -1.716744e+000 -4.551240e+000 -4.119403e+000 -2.698989e+000 -1.076021e+000 1.722808e-001 -1.335100e-001 5.036397e-001 6.949142e-001 4.386282e-002 7.477251e-001 9.891427e-001 4.716362e-001 -2.667650e-002 7.261059e-001 2.738270e-001 -4.363084e-001
<VARIANCE> 25
 1.316022e+001 2.309240e+001 2.053921e+001 1.813503e+001 2.480108e+001 3.226702e+001 3.979981e+001 3.230371e+001 2.370446e+001 1.934330e+001 2.104171e+001 2.597429e+001 1.543263e+000 3.861990e+000 1.774275e+000 1.860253e+000 3.225540e+000 2.116377e+000 2.650865e+000 3.363491e+000 2.306530e+000 1.701764e+000 2.512173e+000 2.099239e+000 4.000464e+000
<GCONST> 9.536382e+001
<STATE> 4
<MEAN> 25
 6.286767e-001 5.259291e+000 2.174758e+000 5.625828e+000 3.714000e+000 -1.694936e+000 1.368157e+000 -9.048129e-001 -5.356562e-001 -4.018415e+000 -2.832658e+000 -1.640023e+000 -8.666754e-001 -2.822954e+000 -8.079304e-001 -1.465295e+000 -1.200361e+000 -5.154300e-001 -4.801744e-001 5.002973e-001 4.743999e-001 7.366858e-001 3.095026e-001 1.137819e+000 3.385072e+000
<VARIANCE> 25
 1.900463e+001 4.653783e+001 2.648128e+001 3.052050e+001 3.500388e+001 5.094895e+001 3.863728e+001 4.018340e+001 2.827162e+001 2.052084e+001 2.131881e+001 2.663418e+001 4.929937e+000 6.550539e+000 5.059513e+000 3.672371e+000 4.383218e+000 3.117014e+000 4.659470e+000 7.689406e+000 4.950350e+000 3.784699e+000 3.558249e+000 3.401209e+000 2.585339e+000
<GCONST> 1.059298e+002
<TRANSP> 5
 0.000000e+000 1.000000e+000 0.000000e+000 0.000000e+000 0.000000e+000
 0.000000e+000 5.215314e-001 4.784686e-001 0.000000e+000 0.000000e+000
 0.000000e+000 0.000000e+000 5.620297e-001 4.379704e-001 0.000000e+000
 0.000000e+000 0.000000e+000 0.000000e+000 4.739002e-001 5.260997e-001
 0.000000e+000 0.000000e+000 0.000000e+000 0.000000e+000 0.000000e+000
<ENDHMM>
~h "e"
<BEGINHMM>
<NUMSTATES> 5
<STATE> 2
<MEAN> 25
 2.972291e+000 -1.196497e+000 4.812480e+000 1.205049e+000 -3.289395e+000 -2.807438e+000 -3.622661e+000 -4.349306e+000 -2.450116e+000 2.380153e+000 -1.219391e+000 -1.190971e+000 1.027743e+000 -8.185877e-001 4.455471e-001 -8.059229e-001 -1.237125e+000 -9.521882e-001 -1.102319e+000 -1.626823e+000 -8.912333e-001 1.215660e+000 -9.395568e-001 -6.968349e-001 1.814078e+000
<VARIANCE> 25
 2.169099e+001 2.229240e+001 3.072978e+001 5.554415e+001 9.767436e+001 4.794947e+001 4.123402e+001 6.642901e+001 3.008260e+001 2.501583e+001 2.209575e+001 2.401329e+001 3.160365e+000 3.906897e+000 3.238958e+000 7.645508e+000 4.221835e+000 3.531858e+000 4.385547e+000 6.160504e+000 2.810823e+000 3.125504e+000 3.553968e+000 2.416889e+000 2.219054e+000
<GCONST> 1.056772e+002
<STATE> 3
<MEAN> 25
 2.593392e+000 -2.181808e+000 5.735907e+000 -5.378476e-001 -5.943542e+000 -4.529869e+000 -4.939365e+000 -6.921791e+000 -2.794603e+000 5.090647e+000 -3.049957e+000 -2.973606e+000 -1.534735e-002 -2.459681e-002 -1.654724e-001 -9.284239e-002 -2.620133e-001 -8.428933e-002 7.887249e-002 -3.687457e-001 -2.013347e-001 2.389083e-002 -2.186151e-001 -5.612554e-002 3.017107e-002
<VARIANCE> 25
 1.917956e+001 1.777931e+001 2.212803e+001 9.982052e+001 1.029755e+002 2.392355e+001 4.115270e+001 6.027508e+001 2.089520e+001 2.269845e+001 2.070377e+001 2.104040e+001 3.852358e-001 1.085094e+000 1.413139e+000 1.748833e+000 1.057840e+000 1.778517e+000 1.699205e+000 2.036936e+000 1.301190e+000 1.636428e+000 1.503237e+000 1.116758e+000 3.140703e-001
<GCONST> 8.936502e+001
<STATE> 4
<MEAN> 25
 4.359742e+000 -1.214351e+000 2.331005e+000 6.421856e-001 -4.171042e+000 -3.963842e+000 -4.180294e+000 -7.208084e+000 -4.554621e+000 1.921694e+000 -3.168560e+000 -1.411623e+000 -4.452974e-002 1.178576e+000 -5.630692e-001 4.255961e-001 1.048983e+000 7.195778e-001 2.658820e-001 6.329840e-001 4.927383e-001 -1.251369e+000 -2.241843e-001 2.460934e-001 -1.187859e+000
<VARIANCE> 25
 1.823500e+001 2.653784e+001 2.995921e+001 5.389079e+001 8.985129e+001 4.165580e+001 3.922405e+001 7.157359e+001 2.662605e+001 2.683651e+001 2.486672e+001 2.369709e+001 1.433426e+000 2.496248e+000 2.926570e+000 5.088134e+000 3.968003e+000 3.329677e+000 5.040718e+000 4.714662e+000 2.578169e+000 2.831497e+000 3.074293e+000 2.440222e+000 1.331559e+000
<GCONST> 1.026481e+002
<TRANSP> 5
 0.000000e+000 1.000000e+000 0.000000e+000 0.000000e+000 0.000000e+000
 0.000000e+000 4.898205e-001 5.101796e-001 0.000000e+000 0.000000e+000
 0.000000e+000 0.000000e+000 7.463491e-001 2.536509e-001 0.000000e+000
 0.000000e+000 0.000000e+000 0.000000e+000 5.374299e-001 4.625701e-001
 0.000000e+000 0.000000e+000 0.000000e+000 0.000000e+000 0.000000e+000
<ENDHMM>
~h "f"
<BEGINHMM>
<NUMSTATES> 5
<STATE> 2
<MEAN> 25
 -6.268192e+000 9.148975e-001 2.854689e-001 4.906513e+000 1.993377e+000 2.291554e+000 2.195506e+000 2.667073e+000 3.138357e+000 -3.918234e-002 3.643904e+000 7.752630e-001 -2.102188e+000 -1.481146e+000 2.856637e-001 1.445133e-001 5.262769e-001 7.926123e-001 3.592328e-001 1.490267e+000 8.865948e-001 8.033809e-001 1.380060e+000 8.570966e-001 -2.292895e-001
<VARIANCE> 25
 5.391187e+001 3.424352e+001 2.254117e+001 3.388541e+001 1.997574e+001 2.264382e+001 2.230389e+001 2.869678e+001 2.727594e+001 2.668785e+001 2.443846e+001 2.485469e+001 2.745242e+000 6.150084e+000 2.686923e+000 3.022906e+000 2.420086e+000 2.620620e+000 3.015839e+000 4.144344e+000 3.125304e+000 3.122269e+000 2.482933e+000 2.165532e+000 1.105006e+000
<GCONST> 9.903531e+001
<STATE> 3
<MEAN> 25
 -7.868832e+000 -1.457109e+001 3.421178e+000 -6.843076e+000 2.475688e+000 7.020193e+000 -4.688433e+000 8.986073e+000 -1.585968e-003 -1.306522e+000 6.134902e+000 2.941157e-001 -1.817924e-001 -3.705903e-001 -1.365453e-001 -2.799926e-001 -8.078617e-002 -9.378170e-002 -1.659054e-001 8.646948e-002 -1.938716e-002 -1.262148e-002 8.795223e-002 -4.224180e-002 -6.482452e-004
<VARIANCE> 25
 9.264516e+000 3.314177e+001 1.398929e+001 3.803869e+001 1.133174e+001 1.520369e+001 2.931390e+001 1.790872e+001 1.895090e+001 1.581780e+001 1.376030e+001 1.278912e+001 1.511382e+000 1.820224e+000 7.751381e-001 1.933012e+000 1.023499e+000 9.428533e-001 1.941822e+000 1.468883e+000 1.267665e+000 1.176691e+000 1.241954e+000 9.634888e-001 4.525698e-001
<GCONST> 8.245210e+001
<STATE> 4
<MEAN> 25
 -4.742894e+000 -3.996475e+000 5.810868e-001 1.386875e+000 1.866060e+000 3.181466e+000 1.203497e+000 4.368927e+000 2.367803e+000 1.051813e-002 3.911888e+000 8.965757e-001 3.945970e+000 3.018350e+000 -3.409844e-001 2.443330e-001 -1.122138e+000 -1.176122e+000 -2.309210e-001 -2.724221e+000 -1.108095e+000 -4.231701e-001 -1.917413e+000 -1.163603e+000 7.249549e-001
<VARIANCE> 25
 4.998180e+001 8.286746e+001 2.355734e+001 6.228249e+001 3.425373e+001 2.705260e+001 3.776534e+001 4.023861e+001 2.497328e+001 2.140069e+001 1.993272e+001 1.714082e+001 2.776694e+000 9.293852e+000 4.236856e+000 1.396204e+001 4.452254e+000 4.936430e+000 5.582224e+000 4.535499e+000 3.862841e+000 3.196110e+000 2.287383e+000 2.087429e+000 1.422908e+000
<GCONST> 1.059215e+002
<TRANSP> 5
 0.000000e+000 1.000000e+000 0.000000e+000 0.000000e+000 0.000000e+000
 0.000000e+000 7.619407e-001 2.380593e-001 0.000000e+000 0.000000e+000
 0.000000e+000 0.000000e+000 8.127177e-001 1.872823e-001 0.000000e+000
 0.000000e+000 0.000000e+000 0.000000e+000 6.189891e-001 3.810109e-001
 0.000000e+000 0.000000e+000 0.000000e+000 0.000000e+000 0.000000e+000
<ENDHMM>
~h "g"
<BEGINHMM>
<NUMSTATES> 5
<STATE> 2
<MEAN> 25
 5.985256e+000 5.719671e+000 1.315084e+000 7.552481e-001 2.036283e-001 -1.187196e+000 -8.788732e-001 -5.381233e+000 -4.947299e+000 1.864858e-001 -3.444636e+000 -3.768374e+000 -2.923585e-001 1.570805e+000 8.668020e-001 1.475490e+000 1.387782e+000 8.366465e-002 4.793671e-001 5.774086e-001 9.132322e-001 -1.072618e+000 -4.300900e-001 -9.220722e-001 -2.387827e+000
<VARIANCE> 25
 1.403660e+001 3.313363e+001 3.213988e+001 4.828747e+001 5.278371e+001 5.500804e+001 6.767775e+001 5.975573e+001 5.003464e+001 2.928526e+001 4.324566e+001 3.136762e+001 2.061357e+000 1.934735e+000 2.455071e+000 2.378589e+000 3.635379e+000 2.912581e+000 3.493475e+000 8.127778e+000 4.869761e+000 3.009375e+000 3.518880e+000 3.245256e+000 1.946158e+000
<GCONST> 1.048575e+002
<STATE> 3
<MEAN> 25
 3.229210e+000 1.145051e+001 3.330714e+000 4.901921e+000 3.828879e+000 1.540863e-001 1.981198e+000 -4.963087e-001 -4.799271e-001 -2.549570e+000 -3.123321e+000 -3.103842e+000 -2.954102e-001 -1.626794e-001 -1.614821e-001 1.103197e-001 7.990479e-003 -2.961174e-002 2.056379e-001 2.920320e-001 -1.645346e-001 -9.871253e-003 3.953643e-001 3.125214e-001 8.403990e-002
<VARIANCE> 25
 1.650497e+001 2.265477e+001 1.747407e+001 2.398424e+001 3.323882e+001 2.564683e+001 2.527470e+001 3.978655e+001 2.237773e+001 1.820213e+001 2.158666e+001 1.852850e+001 1.124963e+000 1.107527e+000 1.870937e+000 3.391546e+000 4.136207e+000 3.113789e+000 2.473652e+000 2.580311e+000 2.003264e+000 1.562066e+000 1.853741e+000 1.653275e+000 1.711185e+000
<GCONST> 9.284631e+001
<STATE> 4
<MEAN> 25
 3.615170e+000 5.606731e+000 5.819874e-001 1.318136e+000 -1.006351e+000 -4.484885e+000 1.055611e+000 -3.729311e-001 -2.404173e+000 3.829314e-001 -3.172347e+000 -2.160127e+000 4.770000e-001 -1.680321e+000 -1.282320e+000 -2.106220e+000 -1.613214e+000 -2.861776e-001 8.637866e-002 7.341580e-001 -3.550481e-001 7.169272e-001 1.754443e-001 7.400859e-001 2.635597e+000
<VARIANCE> 25
 2.245956e+001 4.827599e+001 2.822745e+001 5.604055e+001 6.817522e+001 7.505033e+001 5.062634e+001 4.539582e+001 3.202037e+001 2.857276e+001 4.351316e+001 2.699677e+001 2.584304e+000 3.443100e+000 2.978858e+000 4.090693e+000 5.810506e+000 4.986191e+000 5.198863e+000 4.545916e+000 2.854382e+000 4.173408e+000 4.267818e+000 3.963515e+000 1.959626e+000
<GCONST> 1.076634e+002
<TRANSP> 5
 0.000000e+000 1.000000e+000 0.000000e+000 0.000000e+000 0.000000e+000
 0.000000e+000 6.377059e-001 3.622940e-001 0.000000e+000 0.000000e+000
 0.000000e+000 0.000000e+000 6.496575e-001 3.503425e-001 0.000000e+000
 0.000000e+000 0.000000e+000 0.000000e+000 6.339772e-001 3.660229e-001
 0.000000e+000 0.000000e+000 0.000000e+000 0.000000e+000 0.000000e+000
<ENDHMM>
~h "h"
<BEGINHMM>
<NUMSTATES> 5
<STATE> 2
<MEAN> 25
 5.978851e-001 -4.022181e+000 2.292237e+000 2.983972e+000 3.482383e+000 5.040514e+000 4.264491e+000 3.362859e+000 3.659235e+000 -1.072431e+000 -1.325121e-002 -4.805816e-001 -1.109452e+000 -1.096988e+000 1.059357e-002 6.832654e-001 1.064353e+000 3.976806e-001 1.344220e+000 2.006873e+000 9.208729e-001 1.374254e-001 1.552867e+000 8.152189e-001 -6.471913e-001
<VARIANCE> 25
 2.733307e+001 2.960403e+001 3.843801e+001 6.266412e+001 6.107332e+001 3.092902e+001 4.781169e+001 6.619456e+001 3.810182e+001 4.256295e+001 3.212628e+001 3.056496e+001 1.728981e+000 3.921518e+000 3.656323e+000 3.779999e+000 3.163679e+000 3.182845e+000 3.025712e+000 4.984206e+000 3.845468e+000 4.137384e+000 3.155535e+000 2.598786e+000 2.067236e+000
<GCONST> 1.054747e+002
<STATE> 3
<MEAN> 25
 -2.008926e+000 -9.360328e+000 -1.049514e+000 7.089646e-001 3.215094e+000 5.936214e+000 6.613882e+000 8.300552e+000 4.832886e+000 7.114801e-001 5.520233e+000 4.662013e+000 -2.744131e-001 5.853187e-001 -2.815903e-001 -1.291342e-001 -2.461531e-001 -1.455364e-001 -9.801434e-002 -2.661922e-001 -7.492337e-002 3.107059e-001 3.685484e-001 4.302781e-001 -1.317982e+000
<VARIANCE> 25
 1.262737e+001 5.513195e+001 3.791145e+001 3.349054e+001 4.633020e+001 2.359070e+001 3.642722e+001 2.709577e+001 3.627158e+001 2.765938e+001 1.889338e+001 2.101167e+001 1.346270e+000 4.700701e+000 2.405765e+000 2.167583e+000 1.719409e+000 2.169631e+000 2.431403e+000 2.467016e+000 1.983183e+000 2.315984e+000 1.454906e+000 1.385325e+000 2.005255e+000
<GCONST> 9.595100e+001
<STATE> 4
<MEAN> 25
 -3.780869e+000 -1.847112e+000 -5.641282e+000 1.415927e-001 2.249558e-001 1.318583e+000 6.095539e+000 4.440176e+000 3.078213e+000 8.381042e-001 3.793445e+000 4.612710e+000 -3.578252e-001 1.085903e+000 -1.532988e-001 1.098229e-002 -2.923633e-001 -9.247890e-001 -4.928932e-001 -7.428665e-001 -3.584945e-001 1.104090e-002 -4.337661e-001 -3.707895e-001 -7.882987e-001
<VARIANCE> 25
 1.592054e+001 4.182313e+001 5.275340e+001 2.009747e+001 2.608765e+001 2.464851e+001 2.573245e+001 2.380657e+001 2.555666e+001 2.948450e+001 1.891596e+001 1.640563e+001 1.503805e+000 2.736211e+000 2.853516e+000 1.313547e+000 1.890247e+000 2.426317e+000 2.160620e+000 2.504364e+000 1.625938e+000 1.684888e+000 1.385232e+000 1.936833e+000 1.812060e+000
<GCONST> 9.319703e+001
<TRANSP> 5
 0.000000e+000 1.000000e+000 0.000000e+000 0.000000e+000 0.000000e+000
 0.000000e+000 7.415575e-001 2.584425e-001 0.000000e+000 0.000000e+000
 0.000000e+000 0.000000e+000 7.537252e-001 2.462748e-001 0.000000e+000
 0.000000e+000 0.000000e+000 0.000000e+000 6.908511e-001 3.091489e-001
 0.000000e+000 0.000000e+000 0.000000e+000 0.000000e+000 0.000000e+000
<ENDHMM>
~h "i"
<BEGINHMM>
<NUMSTATES> 5
<STATE> 2
<MEAN> 25
 -1.606720e+000 1.645558e+000 7.297466e+000 2.996241e+000 1.754472e-001 -3.704326e+000 -2.827623e+000 -3.414322e+000 -2.828881e+000 -1.169525e+000 -7.756663e-001 -2.311508e+000 1.693465e+000 2.925432e-001 4.303209e-001 -3.333489e-001 -1.243532e+000 -6.564009e-001 -1.054621e+000 -1.635657e+000 -7.397804e-001 2.229042e-001 -1.462714e+000 -7.046492e-001 2.654982e-001
<VARIANCE> 25
 3.849378e+001 6.372034e+001 4.836188e+001 7.916554e+001 8.542054e+001 4.473208e+001 4.179769e+001 4.404900e+001 3.140784e+001 2.465594e+001 2.309961e+001 2.154559e+001 5.403173e+000 8.121641e+000 5.147350e+000 6.853330e+000 5.429506e+000 3.767579e+000 4.528603e+000 4.851198e+000 3.726029e+000 4.056236e+000 3.786859e+000 2.920817e+000 2.282388e+000
<GCONST> 1.100275e+002
<STATE> 3
<MEAN> 25
 2.818813e-001 1.476668e+000 9.256720e+000 3.282307e+000 -3.281796e-001 -3.764135e+000 -6.459398e+000 -5.916296e+000 -3.104462e+000 6.506528e-001 -5.687816e+000 -4.847638e+000 2.812388e-001 7.306619e-002 -2.402803e-001 -3.552640e-001 -4.265629e-001 1.536194e-001 -1.276346e-001 -5.331659e-001 -2.175057e-001 2.099788e-001 -3.323382e-001 5.052632e-002 -6.984513e-003
<VARIANCE> 25
 2.470434e+001 3.076167e+001 4.205601e+001 1.580753e+002 9.929786e+001 2.918230e+001 2.908227e+001 3.604370e+001 3.820714e+001 2.113607e+001 2.452341e+001 2.480886e+001 1.424427e+000 2.753523e+000 2.182857e+000 2.396786e+000 1.903905e+000 1.862592e+000 2.212631e+000 2.656324e+000 1.786908e+000 1.480534e+000 1.975665e+000 1.425467e+000 9.230210e-001
<GCONST> 9.740024e+001
<STATE> 4
<MEAN> 25
 7.028301e-001 1.839017e+000 5.649295e+000 1.222968e+000 -2.884110e+000 -2.706956e+000 -2.583763e+000 -5.435970e+000 -3.943756e+000 -8.251828e-002 -3.225407e+000 -2.054989e+000 -6.603310e-003 4.284615e-001 -1.145698e+000 2.706672e-001 4.448737e-001 4.605615e-001 1.062987e+000 9.023943e-001 3.978437e-001 -5.928901e-001 5.018644e-001 5.137212e-001 -9.681295e-001
<VARIANCE> 25
 2.807692e+001 3.757009e+001 4.860769e+001 6.590221e+001 8.993282e+001 4.819274e+001 3.940064e+001 4.894696e+001 3.381104e+001 2.999483e+001 2.907612e+001 2.061221e+001 2.100541e+000 3.513321e+000 2.825974e+000 5.634658e+000 4.633334e+000 3.285082e+000 3.853116e+000 3.434719e+000 2.880850e+000 2.785294e+000 2.544433e+000 2.534739e+000 2.327417e+000
<GCONST> 1.050997e+002
<TRANSP> 5
 0.000000e+000 1.000000e+000 0.000000e+000 0.000000e+000 0.000000e+000
 0.000000e+000 3.070738e-001 6.929262e-001 0.000000e+000 0.000000e+000
 0.000000e+000 0.000000e+000 6.473746e-001 3.526254e-001 0.000000e+000
 0.000000e+000 0.000000e+000 0.000000e+000 5.421278e-001 4.578723e-001
 0.000000e+000 0.000000e+000 0.000000e+000 0.000000e+000 0.000000e+000
<ENDHMM>
~h "j"
<BEGINHMM>
<NUMSTATES> 5
<STATE> 2
<MEAN> 25
 3.104409e+000 -2.202199e+000 3.709874e+000 -2.685995e-001 -6.583879e+000 -4.426124e+000 -2.955942e+000 -6.077505e+000 -5.203853e+000 1.843227e+000 -2.407111e+000 -1.883507e+000 -3.798252e-003 7.289550e-001 5.082731e-001 1.725999e-001 1.141955e-001 -1.766937e-001 -6.589350e-001 -9.904666e-001 5.530393e-002 3.591919e-001 -2.751688e-001 -3.695987e-001 -3.977416e-001
<VARIANCE> 25
 2.367831e+001 2.857021e+001 3.246888e+001 6.045374e+001 8.563123e+001 2.699440e+001 3.489158e+001 5.560451e+001 2.723070e+001 2.590925e+001 3.112260e+001 1.774144e+001 1.217012e+000 3.615342e+000 3.460547e+000 3.327096e+000 3.863069e+000 2.035811e+000 3.631215e+000 3.616613e+000 2.589990e+000 3.024901e+000 2.601470e+000 1.723436e+000 6.086560e-001
<GCONST> 9.985999e+001
<STATE> 3
<MEAN> 25
 3.803178e+000 -1.689106e-003 5.513798e+000 5.630233e+000 8.849756e-002 -3.144004e+000 -6.652630e+000 -8.824097e+000 -3.228329e+000 1.751439e+000 -4.283607e+000 -4.059485e+000 -1.606675e-001 5.425594e-001 5.976300e-002 5.176509e-001 8.244525e-001 3.990296e-001 5.976854e-003 1.374524e-001 2.699771e-001 -4.529180e-001 -2.955112e-001 -1.722993e-001 -6.015114e-001
<VARIANCE> 25
 1.926015e+001 2.848866e+001 4.529613e+001 9.770866e+001 1.133044e+002 2.749626e+001 3.153385e+001 4.492537e+001 3.904730e+001 1.839911e+001 3.604639e+001 2.375423e+001 6.546260e-001 2.151161e+000 1.740198e+000 2.669259e+000 2.281547e+000 1.769794e+000 2.068016e+000 2.566562e+000 1.899777e+000 1.962254e+000 1.982693e+000 1.663606e+000 5.503653e-001
<GCONST> 9.613461e+001
<STATE> 4
<MEAN> 25
 2.918118e+000 2.301017e+000 4.671637e+000 4.751056e+000 -2.996314e-002 -1.708206e+000 -3.097760e+000 -6.734080e+000 -3.471764e+000 -6.919825e-001 -3.450304e+000 -3.146221e+000 -5.674711e-001 1.006517e+000 -7.989691e-001 1.999432e-001 1.259500e+000 6.677954e-001 1.216785e+000 1.191276e+000 4.761095e-001 -9.138749e-001 7.617636e-001 4.721927e-001 -1.320473e+000
<VARIANCE> 25
 2.334413e+001 4.087457e+001 5.146444e+001 6.326622e+001 9.435819e+001 3.962950e+001 4.084837e+001 4.739787e+001 3.749733e+001 2.857383e+001 2.527258e+001 2.315177e+001 2.520422e+000 4.228422e+000 3.133351e+000 5.845258e+000 5.488163e+000 2.875268e+000 4.592690e+000 3.681089e+000 2.833086e+000 2.530137e+000 3.507955e+000 2.229027e+000 2.617493e+000
<GCONST> 1.058885e+002
<TRANSP> 5
 0.000000e+000 1.000000e+000 0.000000e+000 0.000000e+000 0.000000e+000
 0.000000e+000 3.771183e-001 6.228816e-001 0.000000e+000 0.000000e+000
 0.000000e+000 0.000000e+000 5.638740e-001 4.361261e-001 0.000000e+000
 0.000000e+000 0.000000e+000 0.000000e+000 4.221736e-001 5.778264e-001
 0.000000e+000 0.000000e+000 0.000000e+000 0.000000e+000 0.000000e+000
<ENDHMM>
~h "k"
<BEGINHMM>
<NUMSTATES> 5
<STATE> 2
<MEAN> 25
 -2.843602e+000 1.857031e+000 -2.583955e+000 1.405984e+000 1.930942e+000 -7.964799e-001 2.764655e+000 1.374576e+000 4.932353e-001 -2.843475e-002 1.516852e+000 9.632987e-001 -8.102728e-001 -4.790919e-001 -8.446208e-001 -4.394204e-001 -2.822710e-001 -1.066736e-001 2.322418e-001 8.248936e-001 6.249741e-001 3.927346e-001 8.723245e-001 6.630219e-001 -1.281639e-001
<VARIANCE> 25
 2.590522e+001 3.024959e+001 3.304311e+001 2.099055e+001 2.732501e+001 2.828119e+001 2.508794e+001 2.881824e+001 3.135320e+001 2.979080e+001 2.938711e+001 2.696076e+001 2.786338e+000 3.059850e+000 2.746307e+000 3.969357e+000 4.574989e+000 4.350383e+000 3.447710e+000 4.054924e+000 3.492727e+000 3.462995e+000 3.556799e+000 2.836603e+000 7.487602e+000
<GCONST> 1.028786e+002
<STATE> 3
<MEAN> 25
 -1.992519e+000 -2.030521e+000 -5.299242e+000 -2.733431e+000 -1.454090e+000 -1.712693e+000 1.565260e+000 4.954198e+000 8.398939e-001 1.065864e+000 4.664189e+000 1.481290e+000 1.875494e+000 -1.196568e+000 5.492880e-001 -1.675998e+000 -1.294119e+000 2.455093e-001 -8.989719e-001 4.338720e-001 -8.890043e-001 2.122758e-001 3.830323e-001 -9.162545e-001 3.590780e+000
<VARIANCE> 25
 3.328406e+001 6.857813e+001 3.857849e+001 6.709288e+001 9.086689e+001 6.369257e+001 4.279422e+001 3.192625e+001 3.598397e+001 3.144643e+001 2.436074e+001 2.610563e+001 3.170561e+000 7.913133e+000 5.978128e+000 5.171694e+000 7.445073e+000 7.034418e+000 4.202726e+000 4.908988e+000 3.757698e+000 2.960923e+000 5.736629e+000 2.999613e+000 3.163039e+000
<GCONST> 1.109536e+002
<STATE> 4
<MEAN> 25
 2.969766e+000 -4.035852e-001 -1.942918e+000 -4.351423e+000 -2.879211e+000 -3.479326e-001 -8.145989e-002 2.767683e+000 -1.348022e+000 1.575550e+000 3.816936e+000 -5.330452e-001 1.741066e+000 1.491511e+000 9.562221e-001 5.178173e-002 -2.762143e-001 5.610549e-003 -6.663997e-001 -2.364648e+000 -9.152686e-001 1.905152e-001 -1.677454e+000 -3.201012e-001 1.201354e+000
<VARIANCE> 25
 2.593873e+001 6.212184e+001 4.905680e+001 5.245716e+001 1.047247e+002 7.566446e+001 4.156825e+001 5.856309e+001 4.392585e+001 2.984797e+001 4.542043e+001 2.403192e+001 1.381557e+000 4.578758e+000 3.873446e+000 1.019351e+001 7.948751e+000 3.445228e+000 4.573859e+000 4.916609e+000 4.097898e+000 3.763215e+000 5.211155e+000 2.903915e+000 2.215985e+000
<GCONST> 1.103256e+002
<TRANSP> 5
 0.000000e+000 1.000000e+000 0.000000e+000 0.000000e+000 0.000000e+000
 0.000000e+000 7.216229e-001 2.783771e-001 0.000000e+000 0.000000e+000
 0.000000e+000 0.000000e+000 5.201777e-001 4.798223e-001 0.000000e+000
 0.000000e+000 0.000000e+000 0.000000e+000 5.045829e-001 4.954171e-001
 0.000000e+000 0.000000e+000 0.000000e+000 0.000000e+000 0.000000e+000
<ENDHMM>
~h "l"
<BEGINHMM>
<NUMSTATES> 5
<STATE> 2
<MEAN> 25
 4.432602e+000 1.363785e+000 -1.179429e+000 -2.516964e+000 -1.267193e-001 -1.360793e+000 -6.434837e+000 -3.199358e+000 2.645383e-002 -1.679915e+000 -5.836926e+000 -1.449171e+000 3.512814e-001 1.350528e+000 2.100859e-001 2.037373e-001 9.820281e-001 2.277748e-001 -1.086084e+000 -7.081696e-001 3.679427e-001 -1.124259e-001 -7.434594e-001 -3.723649e-001 -9.163130e-001
<VARIANCE> 25
 2.043600e+001 4.315342e+001 8.770660e+001 4.816601e+001 7.475368e+001 4.871562e+001 6.735930e+001 4.178933e+001 2.998383e+001 2.812441e+001 3.941533e+001 3.601178e+001 1.105325e+000 2.015261e+000 3.148595e+000 3.475450e+000 3.898447e+000 3.036805e+000 4.440345e+000 4.406845e+000 3.540651e+000 3.119440e+000 5.649715e+000 3.254947e+000 1.241482e+000
<GCONST> 1.053847e+002
<STATE> 3
<MEAN> 25
 5.837391e+000 6.257450e+000 -6.643625e-002 -8.518994e-001 4.956641e-001 -3.363078e-001 -3.382798e+000 -4.173758e+000 7.475814e-001 -1.946893e+000 -6.299072e+000 -3.849755e+000 -1.300375e-001 3.535046e-002 5.939479e-002 1.986904e-001 1.044055e-001 -1.253403e-001 2.573812e-001 3.308153e-001 2.936701e-001 -1.468863e-001 -1.403078e-001 -8.356638e-002 -6.254666e-002
<VARIANCE> 25
 1.536268e+001 2.652865e+001 7.319958e+001 6.094684e+001 8.726887e+001 3.680748e+001 8.576958e+001 4.017391e+001 3.061209e+001 3.421290e+001 5.520061e+001 2.920176e+001 3.852882e-001 1.027615e+000 1.101827e+000 1.873498e+000 1.308600e+000 1.861109e+000 1.653552e+000 1.781539e+000 1.603649e+000 1.449571e+000 2.122506e+000 1.254489e+000 5.773695e-001
<GCONST> 9.396145e+001
<STATE> 4
<MEAN> 25
 4.666945e+000 3.076298e+000 9.099452e-001 -6.246470e-001 1.186789e-001 -1.691453e+000 -4.582554e+000 -2.584304e+000 9.941867e-002 -2.355896e+000 -5.830781e+000 -2.266036e+000 1.025888e-001 -1.194955e+000 -4.949726e-001 -2.901646e-001 -9.449205e-001 -5.917072e-001 3.973957e-001 3.059517e-001 -3.585799e-001 4.508210e-001 8.495253e-001 -6.810004e-002 1.018108e+000
<VARIANCE> 25
 1.631543e+001 3.057346e+001 8.223903e+001 7.475128e+001 9.983234e+001 3.648819e+001 7.248587e+001 4.534188e+001 3.397856e+001 3.550540e+001 4.190438e+001 2.507091e+001 5.161716e-001 8.653208e-001 1.220041e+000 2.005743e+000 1.909840e+000 3.886821e+000 5.096327e+000 3.101290e+000 2.240273e+000 3.125358e+000 4.600560e+000 2.988646e+000 5.025480e-001
<GCONST> 9.996654e+001
<TRANSP> 5
 0.000000e+000 1.000000e+000 0.000000e+000 0.000000e+000 0.000000e+000
 0.000000e+000 5.418965e-001 4.581035e-001 0.000000e+000 0.000000e+000
 0.000000e+000 0.000000e+000 6.147515e-001 3.852485e-001 0.000000e+000
 0.000000e+000 0.000000e+000 0.000000e+000 5.512380e-001 4.487620e-001
 0.000000e+000 0.000000e+000 0.000000e+000 0.000000e+000 0.000000e+000
<ENDHMM>
~h "m"
<BEGINHMM>
<NUMSTATES> 5
<STATE> 2
<MEAN> 25
 7.023440e+000 4.323003e+000 -2.926503e-001 -6.125385e-001 2.236760e-001 7.182078e-001 -5.276132e+000 -3.858582e+000 -3.145016e+000 -3.656096e+000 -3.497688e+000 -6.481993e+000 4.740234e-002 1.347281e+000 5.614805e-001 8.215466e-001 1.252753e+000 4.735190e-001 -4.659152e-001 -2.819341e-002 -3.446024e-001 -5.606443e-001 -6.751913e-001 -1.837208e+000 -9.713889e-001
<VARIANCE> 25
 1.241573e+001 3.669430e+001 2.222554e+001 2.383837e+001 2.939778e+001 3.912483e+001 5.742056e+001 3.827022e+001 5.214613e+001 3.136411e+001 2.782733e+001 3.353894e+001 1.363928e+000 2.451312e+000 3.549578e+000 2.583211e+000 3.708964e+000 3.588055e+000 4.172925e+000 3.422535e+000 4.415758e+000 2.925695e+000 3.296374e+000 3.174958e+000 1.406161e+000
<GCONST> 1.012402e+002
<STATE> 3
<MEAN> 25
 6.598290e+000 7.271127e+000 1.792971e+000 1.717642e+000 3.831363e+000 2.193765e+000 -3.704082e+000 -4.021616e-001 3.849341e-001 -4.170963e+000 -4.650541e+000 -8.282757e+000 -5.204816e-002 -6.965188e-002 1.198268e-002 9.082756e-002 1.388288e-001 1.939845e-002 7.899743e-003 2.121549e-001 1.388892e-001 -2.101708e-002 7.015306e-002 -7.561510e-002 -6.684017e-002
<VARIANCE> 25
 5.907675e+000 1.414848e+001 1.340426e+001 1.902464e+001 2.464230e+001 3.140042e+001 4.007293e+001 4.114769e+001 6.288157e+001 2.941116e+001 2.079841e+001 2.377922e+001 3.341966e-001 6.676937e-001 7.242770e-001 1.229136e+000 1.315884e+000 1.575457e+000 1.440894e+000 1.387999e+000 1.454759e+000 1.148621e+000 1.398093e+000 1.465614e+000 4.504864e-001
<GCONST> 8.393888e+001
<STATE> 4
<MEAN> 25
 7.095491e+000 4.199564e+000 -3.594907e-001 -3.210913e-001 1.058573e+000 -8.097453e-002 -5.680081e+000 -2.577353e+000 -1.863878e+000 -3.932387e+000 -3.141922e+000 -7.041569e+000 -6.396244e-002 -1.601648e+000 -6.365070e-001 -6.530493e-001 -1.268346e+000 -7.657557e-001 5.025221e-001 1.699541e-001 5.170019e-001 6.179240e-001 8.198561e-001 1.904577e+000 1.201520e+000
<VARIANCE> 25
 1.055755e+001 2.830344e+001 2.774714e+001 2.797993e+001 3.700702e+001 4.639772e+001 5.579786e+001 4.030706e+001 4.897556e+001 3.007274e+001 2.384311e+001 3.359318e+001 1.400795e+000 2.487781e+000 4.501751e+000 3.872295e+000 4.766118e+000 3.111242e+000 5.137751e+000 3.581516e+000 5.155861e+000 3.119827e+000 3.160605e+000 2.889786e+000 1.642765e+000
<GCONST> 1.026507e+002
<TRANSP> 5
 0.000000e+000 1.000000e+000 0.000000e+000 0.000000e+000 0.000000e+000
 0.000000e+000 5.259681e-001 4.740319e-001 0.000000e+000 0.000000e+000
 0.000000e+000 0.000000e+000 7.157184e-001 2.842816e-001 0.000000e+000
 0.000000e+000 0.000000e+000 0.000000e+000 5.227510e-001 4.772489e-001
 0.000000e+000 0.000000e+000 0.000000e+000 0.000000e+000 0.000000e+000
<ENDHMM>
~h "n"
<BEGINHMM>
<NUMSTATES> 5
<STATE> 2
<MEAN> 25
 5.251478e+000 3.490386e+000 1.406375e+000 -6.724180e-001 -2.412906e+000 -2.563629e+000 -4.551800e+000 -2.067795e+000 -2.139710e+000 -2.805473e+000 -6.704316e+000 -2.652361e+000 5.394487e-001 1.421479e+000 7.097180e-001 8.465781e-001 4.974255e-001 -1.120837e-001 -4.036640e-002 -4.629513e-001 3.315217e-001 1.320783e-002 -1.647774e+000 -1.093594e+000 -1.220510e+000
<VARIANCE> 25
 1.650241e+001 3.043859e+001 3.387909e+001 3.163786e+001 5.444348e+001 4.565294e+001 5.490443e+001 3.679596e+001 4.335625e+001 2.867732e+001 4.737668e+001 2.669718e+001 1.495332e+000 1.653898e+000 4.659902e+000 3.164209e+000 5.420570e+000 3.205662e+000 3.614478e+000 3.687009e+000 3.212124e+000 3.760226e+000 4.510260e+000 3.038661e+000 1.715434e+000
<GCONST> 1.035309e+002
<STATE> 3
<MEAN> 25
 6.652063e+000 7.820322e+000 2.970636e+000 2.120448e+000 1.638781e+000 -2.929702e-001 -3.218579e+000 -2.492326e+000 6.072858e-001 -2.841185e+000 -8.945702e+000 -6.430714e+000 -2.900376e-001 1.947849e-001 8.157016e-002 5.406921e-001 6.800896e-001 5.208766e-002 1.713366e-001 2.724814e-001 2.333516e-001 -1.927554e-001 1.963509e-001 -3.922223e-001 -4.596205e-001
<VARIANCE> 25
 7.240036e+000 1.274530e+001 1.949553e+001 2.399943e+001 4.941231e+001 3.794806e+001 3.423022e+001 2.625879e+001 3.848840e+001 2.368887e+001 3.602839e+001 1.763604e+001 7.690656e-001 1.250887e+000 1.441559e+000 2.327710e+000 2.342328e+000 1.825830e+000 2.613754e+000 1.703290e+000 1.662575e+000 1.661940e+000 2.756689e+000 1.717752e+000 1.159990e+000
<GCONST> 9.106530e+001
<STATE> 4
<MEAN> 25
 5.259850e+000 5.394784e+000 1.739267e+000 1.903306e+000 1.933924e+000 -1.762127e+000 -3.540776e+000 -1.375736e+000 -1.380627e-001 -3.348761e+000 -6.865731e+000 -5.597764e+000 -8.184658e-001 -1.392205e+000 -1.419418e+000 -2.076484e-001 5.561724e-001 1.239152e-001 4.712946e-001 1.342865e+000 8.255310e-002 -2.331920e-001 2.120224e+000 1.201015e+000 5.916727e-001
<VARIANCE> 25
 1.346431e+001 2.834715e+001 3.134851e+001 3.080262e+001 4.244070e+001 4.075276e+001 5.162263e+001 3.246350e+001 3.253412e+001 2.428961e+001 4.026813e+001 1.926405e+001 2.299011e+000 2.744487e+000 4.119519e+000 4.416637e+000 4.874813e+000 3.699493e+000 4.995022e+000 2.905882e+000 3.304431e+000 3.824324e+000 3.544608e+000 2.604953e+000 3.152288e+000
<GCONST> 1.031884e+002
<TRANSP> 5
 0.000000e+000 1.000000e+000 0.000000e+000 0.000000e+000 0.000000e+000
 0.000000e+000 5.510331e-001 4.489669e-001 0.000000e+000 0.000000e+000
 0.000000e+000 0.000000e+000 5.888616e-001 4.111384e-001 0.000000e+000
 0.000000e+000 0.000000e+000 0.000000e+000 3.967216e-001 6.032783e-001
 0.000000e+000 0.000000e+000 0.000000e+000 0.000000e+000 0.000000e+000
<ENDHMM>
~h "o"
<BEGINHMM>
<NUMSTATES> 5
<STATE> 2
<MEAN> 25
 7.970560e+000 4.270369e+000 -4.605420e+000 -5.388321e+000 -3.548800e+000 -1.007426e+000 -3.278306e+000 -1.318208e+000 9.315669e-001 -5.503377e-001 -3.504154e+000 -1.466064e+000 1.829329e+000 6.252497e-001 -1.187390e+000 -1.980687e+000 -1.095361e+000 -5.357336e-001 -1.897308e+000 -1.172667e+000 2.036542e-001 7.449919e-001 -1.469821e+000 -7.878780e-001 9.672577e-001
<VARIANCE> 25
 1.760468e+001 4.831202e+001 5.153938e+001 4.344769e+001 3.774318e+001 7.461663e+001 5.369719e+001 2.742505e+001 4.499546e+001 3.759573e+001 3.788543e+001 2.032025e+001 2.775715e+000 7.240963e+000 3.220753e+000 5.514884e+000 4.838822e+000 7.103567e+000 4.948146e+000 4.462157e+000 3.916448e+000 3.414615e+000 5.114845e+000 3.082879e+000 1.915493e+000
<GCONST> 1.082352e+002
<STATE> 3
<MEAN> 25
 9.341410e+000 5.743958e+000 -4.862884e+000 -7.756243e+000 -5.091159e+000 -1.605023e+000 -5.537598e+000 -2.904116e+000 2.587228e-001 1.316114e+000 -2.526135e+000 -3.027333e+000 -5.141115e-002 -2.578161e-001 -6.519143e-002 2.658834e-002 -6.524114e-002 -1.693383e-001 -7.692713e-002 -1.253197e-001 -1.075990e-002 6.289840e-002 -2.196762e-001 -2.034848e-001 1.331023e-001
<VARIANCE> 25
 9.576612e+000 7.177779e+001 7.260408e+001 4.735692e+001 5.573582e+001 1.170383e+002 4.983788e+001 2.794049e+001 3.797170e+001 2.877348e+001 3.204352e+001 2.130404e+001 4.651322e-001 1.430484e+000 9.857410e-001 1.940359e+000 1.754632e+000 4.095309e+000 1.916144e+000 2.316462e+000 2.453898e+000 2.016212e+000 2.810892e+000 1.614675e+000 4.688003e-001
<GCONST> 9.622433e+001
<STATE> 4
<MEAN> 25
 7.658913e+000 2.712094e+000 -3.483323e+000 -4.133390e+000 -5.008744e+000 -3.993590e+000 -2.738331e+000 -1.520233e+000 2.426210e-001 -7.984343e-001 -5.548058e+000 -2.287349e+000 -6.069869e-001 -3.936023e-001 8.634765e-001 1.001717e+000 5.825335e-001 1.835473e-001 7.926623e-001 -7.529395e-002 -7.611191e-001 -6.717671e-001 5.029397e-001 6.848996e-001 -2.177200e-001
<VARIANCE> 25
 1.496853e+001 5.544292e+001 3.894753e+001 2.551992e+001 5.355049e+001 6.341714e+001 6.770213e+001 4.057516e+001 4.223990e+001 3.271724e+001 3.235973e+001 2.154664e+001 8.547928e-001 2.797496e+000 3.491101e+000 2.438209e+000 6.172944e+000 6.759676e+000 4.824677e+000 4.363106e+000 3.384151e+000 2.702209e+000 3.411628e+000 2.794976e+000 1.009067e+000
<GCONST> 1.036655e+002
<TRANSP> 5
 0.000000e+000 1.000000e+000 0.000000e+000 0.000000e+000 0.000000e+000
 0.000000e+000 4.531457e-001 5.468543e-001 0.000000e+000 0.000000e+000
 0.000000e+000 0.000000e+000 7.466350e-001 2.533650e-001 0.000000e+000
 0.000000e+000 0.000000e+000 0.000000e+000 5.820603e-001 4.179397e-001
 0.000000e+000 0.000000e+000 0.000000e+000 0.000000e+000 0.000000e+000
<ENDHMM>
~h "p"
<BEGINHMM>
<NUMSTATES> 5
<STATE> 2
<MEAN> 25
 -2.602337e+000 4.523878e+000 -3.309612e+000 8.716981e-001 1.733529e+000 -7.409267e-001 3.246571e+000 1.891489e+000 1.197451e+000 -1.806135e-001 1.254116e+000 5.181916e-001 -6.329721e-001 -3.928000e-001 -2.164410e-001 -2.495755e-002 -6.395012e-002 5.396768e-002 3.648843e-001 5.934753e-001 6.033366e-001 4.846731e-001 8.367077e-001 8.975002e-001 -8.082496e-002
<VARIANCE> 25
 2.332347e+001 2.781376e+001 2.894367e+001 2.025082e+001 2.886429e+001 2.137184e+001 1.707847e+001 1.847055e+001 1.908259e+001 1.778761e+001 2.005375e+001 2.078617e+001 2.549534e+000 1.739866e+000 2.382169e+000 2.604406e+000 2.326485e+000 2.634308e+000 2.136302e+000 2.531991e+000 2.740266e+000 2.480144e+000 2.421943e+000 2.357149e+000 4.567843e+000
<GCONST> 9.482755e+001
<STATE> 3
<MEAN> 25
 -5.368411e-001 2.431451e+000 1.730434e+000 4.720228e+000 4.965823e+000 3.253041e+000 6.268922e+000 5.675362e+000 6.724027e+000 2.955102e+000 5.901879e+000 4.451032e+000 2.879481e+000 2.053077e-001 1.008089e+000 3.292657e-001 -6.943336e-001 8.530889e-001 -2.702451e-002 -5.431243e-001 1.863164e-001 6.012998e-001 -4.357688e-001 -1.031188e-001 4.641722e+000
<VARIANCE> 25
 1.774310e+001 1.938194e+001 2.420269e+001 2.863674e+001 2.563462e+001 2.888227e+001 2.330370e+001 2.104127e+001 2.438577e+001 2.437953e+001 2.342752e+001 1.454582e+001 3.795900e+000 4.631640e+000 6.072333e+000 5.468196e+000 7.180468e+000 6.695087e+000 3.909456e+000 4.917534e+000 3.737376e+000 2.812381e+000 3.109936e+000 2.940593e+000 3.305545e+000
<GCONST> 1.023093e+002
<STATE> 4
<MEAN> 25
 7.440774e+000 2.619326e+000 -6.110606e-001 -2.462071e-001 -5.009929e-001 3.483674e+000 2.912293e+000 1.116050e+000 3.060062e+000 3.579671e+000 2.049749e+000 1.593199e+000 2.174536e+000 -1.036163e+000 -1.249209e+000 -2.009861e+000 -2.341756e+000 -3.746671e-001 -2.355587e+000 -2.170649e+000 -1.909239e+000 -3.951275e-001 -2.061465e+000 -1.355964e+000 2.606516e+000
<VARIANCE> 25
 2.673044e+001 5.649922e+001 6.018302e+001 5.519314e+001 5.985580e+001 7.575479e+001 3.633393e+001 3.851217e+001 2.629477e+001 2.819653e+001 2.287633e+001 2.059150e+001 3.747360e+000 6.706670e+000 7.324332e+000 7.580094e+000 8.041617e+000 8.509132e+000 5.614384e+000 4.808802e+000 3.994304e+000 4.554984e+000 3.615504e+000 2.117919e+000 4.621742e+000
<GCONST> 1.110319e+002
<TRANSP> 5
 0.000000e+000 1.000000e+000 0.000000e+000 0.000000e+000 0.000000e+000
 0.000000e+000 8.043209e-001 1.956791e-001 0.000000e+000 0.000000e+000
 0.000000e+000 0.000000e+000 4.662979e-001 5.337021e-001 0.000000e+000
 0.000000e+000 0.000000e+000 0.000000e+000 3.259853e-001 6.740146e-001
 0.000000e+000 0.000000e+000 0.000000e+000 0.000000e+000 0.000000e+000
<ENDHMM>
~h "s"
<BEGINHMM>
<NUMSTATES> 5
<STATE> 2
<MEAN> 25
 -6.062747e+000 2.992874e+000 3.293363e+000 5.224805e+000 -1.450308e+000 3.304324e+000 3.772472e+000 1.247904e-001 -3.336289e-001 -4.894829e-001 5.436390e-001 -1.013796e+000 -3.683872e+000 -1.331529e+000 1.210794e+000 5.820110e-001 7.814365e-001 1.752618e+000 1.072127e+000 2.218901e+000 7.554414e-001 6.943291e-001 2.065652e+000 9.556172e-001 3.930507e-003
<VARIANCE> 25
 6.152716e+001 1.038465e+002 1.476192e+002 1.064462e+002 3.422980e+001 5.625465e+001 3.308481e+001 6.540031e+001 3.117626e+001 3.885580e+001 3.440585e+001 2.035332e+001 2.642143e+000 8.524539e+000 9.284466e+000 1.007806e+001 3.479140e+000 3.533738e+000 4.306547e+000 5.059685e+000 3.753654e+000 3.282037e+000 3.378410e+000 2.286131e+000 1.315351e+000
<GCONST> 1.113386e+002
<STATE> 3
<MEAN> 25
 -1.657682e+001 -1.004047e+001 9.940472e+000 -4.141346e+000 -2.242695e+000 6.060337e+000 1.570593e+000 5.432475e+000 -3.474411e-001 3.285917e+000 4.336426e+000 1.603104e+000 -2.131002e-001 -2.204023e-001 -3.337481e-001 -2.540473e-001 2.890132e-002 -2.203967e-001 -8.505017e-002 -6.058335e-002 1.496498e-001 1.838755e-001 2.108770e-001 1.201959e-001 -7.587856e-002
<VARIANCE> 25
 8.765148e+000 1.761900e+002 1.803056e+002 1.758305e+002 1.825280e+001 2.462794e+001 4.298062e+001 2.842146e+001 4.024795e+001 2.931185e+001 2.528915e+001 1.361274e+001 2.017524e+000 1.365690e+000 1.306448e+000 2.191999e+000 1.303293e+000 1.295568e+000 1.838118e+000 1.531611e+000 1.368106e+000 1.585047e+000 1.362138e+000 1.122025e+000 2.982094e-001
<GCONST> 9.339681e+001
<STATE> 4
<MEAN> 25
 -8.838894e+000 -5.460717e-001 3.062636e+000 2.727125e+000 5.284679e-002 1.998716e+000 4.087955e+000 2.193638e+000 1.356806e+000 1.890554e+000 4.455690e+000 1.456601e+000 4.658438e+000 1.537195e+000 -2.216994e-001 -3.454185e-001 -4.544991e-001 -1.670416e+000 -1.277048e+000 -1.938571e+000 -7.611815e-001 -1.056554e+000 -2.043719e+000 -9.848592e-001 3.711087e-001
<VARIANCE> 25
 6.505738e+001 1.383545e+002 1.038476e+002 7.997298e+001 3.406595e+001 5.259102e+001 5.264275e+001 4.775010e+001 3.841882e+001 3.809907e+001 3.432484e+001 2.307482e+001 3.232908e+000 1.122368e+001 8.334361e+000 1.489559e+001 4.141750e+000 4.238286e+000 5.558263e+000 4.612188e+000 3.126873e+000 2.607105e+000 3.815346e+000 1.969360e+000 1.553539e+000
<GCONST> 1.124380e+002
<TRANSP> 5
 0.000000e+000 1.000000e+000 0.000000e+000 0.000000e+000 0.000000e+000
 0.000000e+000 7.346810e-001 2.653190e-001 0.000000e+000 0.000000e+000
 0.000000e+000 0.000000e+000 8.599125e-001 1.400875e-001 0.000000e+000
 0.000000e+000 0.000000e+000 0.000000e+000 6.656843e-001 3.343157e-001
 0.000000e+000 0.000000e+000 0.000000e+000 0.000000e+000 0.000000e+000
<ENDHMM>
~h "t"
<BEGINHMM>
<NUMSTATES> 5
<STATE> 2
<MEAN> 25
 -1.833323e+000 5.108624e+000 -1.991496e+000 1.896226e+000 1.515305e+000 -9.099811e-001 2.742444e+000 8.544067e-001 3.316887e-001 -1.416675e+000 1.005136e-001 2.393092e-001 -1.247419e+000 -5.356451e-001 -9.533072e-001 -3.342598e-001 -1.613290e-001 -4.459649e-001 3.955809e-001 5.682889e-001 4.348438e-001 2.733968e-001 9.300621e-001 6.730986e-001 -9.734243e-001
<VARIANCE> 25
 2.531064e+001 3.030124e+001 3.449825e+001 2.379921e+001 2.835769e+001 2.449586e+001 1.974132e+001 2.368645e+001 2.251386e+001 2.093475e+001 2.363768e+001 2.156636e+001 1.725203e+000 2.797982e+000 2.642724e+000 2.519900e+000 3.260199e+000 2.812867e+000 2.722507e+000 2.779607e+000 2.552685e+000 2.561589e+000 2.840652e+000 2.253185e+000 4.572039e+000
<GCONST> 9.734467e+001
<STATE> 3
<MEAN> 25
 -5.937228e+000 -4.589258e-001 -3.353297e+000 2.609535e+000 9.490677e-001 -1.683129e+000 4.062778e+000 2.781501e+000 3.353387e+000 7.429457e-001 4.022528e+000 3.101024e+000 -4.033672e-001 -2.440593e+000 1.030045e+000 1.102493e-002 -5.447857e-001 2.045903e-001 -1.718831e-001 1.051536e+000 5.966318e-001 1.354012e-001 2.915708e-001 5.400084e-001 3.922916e+000
<VARIANCE> 25
 2.013784e+001 5.189170e+001 2.563501e+001 2.705331e+001 3.064163e+001 2.680427e+001 2.591364e+001 2.111932e+001 3.001856e+001 2.683170e+001 3.052266e+001 1.438851e+001 4.991583e+000 9.984044e+000 6.036369e+000 4.007091e+000 3.274945e+000 4.442684e+000 4.391600e+000 3.131054e+000 2.843849e+000 3.398373e+000 4.003178e+000 2.860816e+000 3.365262e+000
<GCONST> 1.035460e+002
<STATE> 4
<MEAN> 25
 -3.521445e+000 -5.785271e+000 2.629080e+000 5.372168e-002 -9.677418e-001 5.814948e-001 2.030105e+000 5.257924e+000 2.209450e+000 -1.539590e-001 2.253438e+000 2.880833e+000 1.728373e+000 -4.255700e-001 9.355482e-001 -7.312686e-001 -3.064992e-001 2.278726e-001 -1.027440e+000 -7.372857e-001 -9.421562e-001 -2.818131e-001 -1.626235e+000 -4.655093e-001 2.901607e+000
<VARIANCE> 25
 3.829325e+001 7.859679e+001 4.313691e+001 4.591073e+001 3.254576e+001 4.273037e+001 5.895005e+001 3.317424e+001 3.339086e+001 2.863638e+001 3.269012e+001 1.908947e+001 7.609190e+000 9.126639e+000 7.532828e+000 4.967652e+000 4.952702e+000 4.890918e+000 6.805829e+000 6.539798e+000 3.224292e+000 4.029113e+000 6.383424e+000 2.400925e+000 5.444012e+000
<GCONST> 1.114969e+002
<TRANSP> 5
 0.000000e+000 1.000000e+000 0.000000e+000 0.000000e+000 0.000000e+000
 0.000000e+000 7.368320e-001 2.631680e-001 0.000000e+000 0.000000e+000
 0.000000e+000 0.000000e+000 5.011909e-001 4.988092e-001 0.000000e+000
 0.000000e+000 0.000000e+000 0.000000e+000 4.505914e-001 5.494086e-001
 0.000000e+000 0.000000e+000 0.000000e+000 0.000000e+000 0.000000e+000
<ENDHMM>
~h "u"
<BEGINHMM>
<NUMSTATES> 5
<STATE> 2
<MEAN> 25
 4.289682e+000 3.171561e+000 -1.916647e+000 -2.156020e+000 -2.863800e-001 -7.354894e-001 -2.599921e+000 -4.188130e-001 -5.701659e-001 -2.418904e+000 -2.818061e+000 -4.321324e-001 1.231752e+000 8.086439e-001 -1.453325e-001 -6.014552e-001 -3.294413e-001 -3.449715e-001 -8.852288e-001 -5.548910e-001 -1.327257e-001 -2.855828e-001 -1.254474e+000 -6.458606e-001 5.235701e-001
<VARIANCE> 25
 3.967918e+001 5.227617e+001 4.208999e+001 5.629590e+001 3.698401e+001 5.811357e+001 7.686959e+001 4.797259e+001 4.197764e+001 3.886976e+001 4.473665e+001 2.577627e+001 3.815406e+000 5.752327e+000 4.364964e+000 4.715963e+000 4.722634e+000 5.819812e+000 5.575191e+000 4.421774e+000 4.496679e+000 3.680295e+000 4.832535e+000 2.746802e+000 3.226313e+000
<GCONST> 1.108831e+002
<STATE> 3
<MEAN> 25
 5.879643e+000 6.210746e+000 1.603781e-001 -8.720431e-001 -9.020988e-001 -3.261633e+000 -2.463309e+000 -1.003876e+000 -6.321199e-001 -3.562179e+000 -5.554062e+000 -2.948212e+000 -2.624246e-001 2.876667e-001 3.224076e-001 3.855132e-001 3.304940e-001 1.541758e-001 4.104897e-001 6.768946e-003 -1.397981e-001 -1.676826e-001 5.456951e-002 -1.195190e-001 -6.179274e-001
<VARIANCE> 25
 2.718585e+001 5.403667e+001 4.353961e+001 4.663424e+001 4.904435e+001 5.547857e+001 6.250097e+001 4.130402e+001 3.515637e+001 3.578150e+001 3.672349e+001 2.511269e+001 1.960294e+000 3.010060e+000 3.005460e+000 3.105362e+000 4.197928e+000 4.744652e+000 3.780040e+000 3.148444e+000 3.148979e+000 2.889768e+000 3.522407e+000 2.289450e+000 2.603073e+000
<GCONST> 1.053135e+002
<STATE> 4
<MEAN> 25
 1.231309e+000 4.487795e+000 -8.766187e-001 1.160986e+000 2.037220e+000 -1.756034e-001 9.093035e-001 1.616375e+000 1.291758e+000 -2.526380e+000 -1.628844e+000 -3.806565e-001 -1.005639e+000 -3.049434e-001 -8.380154e-002 1.152578e-001 5.140278e-002 8.880944e-002 3.769532e-001 1.474583e-001 4.812293e-002 3.030918e-001 7.767301e-001 3.928130e-001 -6.936716e-001
<VARIANCE> 25
 3.547201e+001 4.371395e+001 4.087234e+001 3.571479e+001 4.662260e+001 5.383145e+001 5.043586e+001 4.578314e+001 4.388369e+001 3.345991e+001 3.795644e+001 2.315716e+001 1.732024e+000 3.326499e+000 3.243711e+000 3.499547e+000 3.441532e+000 3.576965e+000 3.625670e+000 2.910727e+000 3.420955e+000 2.649296e+000 3.006054e+000 2.495931e+000 1.773400e+000
<GCONST> 1.040624e+002
<TRANSP> 5
 0.000000e+000 1.000000e+000 0.000000e+000 0.000000e+000 0.000000e+000
 0.000000e+000 4.675530e-001 5.324470e-001 0.000000e+000 0.000000e+000
 0.000000e+000 0.000000e+000 4.788060e-001 5.211939e-001 0.000000e+000
 0.000000e+000 0.000000e+000 0.000000e+000 5.024130e-001 4.975870e-001
 0.000000e+000 0.000000e+000 0.000000e+000 0.000000e+000 0.000000e+000
<ENDHMM>
~h "v"
<BEGINHMM>
<NUMSTATES> 5
<STATE> 2
<MEAN> 25
 3.204443e+000 4.094115e+000 1.471702e+000 2.850695e+000 1.671891e+000 1.747132e+000 -9.184020e-001 -2.846802e+000 -2.742359e+000 -5.066282e+000 -1.278788e+000 -2.419800e+000 -1.482137e+000 -1.064637e-001 1.316781e+000 8.776029e-001 8.205481e-001 7.274837e-001 3.799214e-003 1.292061e+000 1.470383e-001 -8.031517e-001 7.534329e-001 -1.464046e-001 -4.761647e-001
<VARIANCE> 25
 2.241416e+001 1.848459e+001 2.292741e+001 2.323612e+001 2.194647e+001 3.125118e+001 1.963633e+001 3.665738e+001 1.714466e+001 1.528517e+001 1.668274e+001 1.764685e+001 1.044145e+000 3.656034e+000 1.477877e+000 2.386960e+000 2.161778e+000 2.400023e+000 2.896501e+000 3.884473e+000 2.028806e+000 1.940919e+000 1.784459e+000 1.223916e+000 6.496751e-001
<GCONST> 9.100237e+001
<STATE> 3
<MEAN> 25
 -1.266042e+000 -1.908833e+000 6.497784e+000 2.390152e+000 4.926893e+000 5.728772e+000 -2.822832e+000 4.132113e+000 -1.447519e+000 -4.205202e+000 3.432895e+000 -1.656443e+000 -5.020078e-001 -7.119360e-001 3.789327e-001 2.731557e-002 3.370473e-001 2.186472e-001 -1.862752e-001 3.541240e-001 -6.407503e-003 2.058232e-001 3.784736e-001 9.788226e-002 2.814154e-001
<VARIANCE> 25
 1.690209e+001 5.240799e+001 3.552069e+001 3.472565e+001 2.418990e+001 3.851720e+001 2.401543e+001 5.392569e+001 1.595808e+001 1.441846e+001 2.238150e+001 1.552003e+001 7.481508e-001 1.537306e+000 9.617643e-001 9.851327e-001 1.120864e+000 1.149706e+000 1.159019e+000 1.653895e+000 9.040625e-001 9.729273e-001 1.301469e+000 7.844416e-001 2.740361e-001
<GCONST> 8.473134e+001
<STATE> 4
<MEAN> 25
 3.916573e-001 5.023372e-001 4.580928e+000 4.135275e+000 4.391780e+000 3.143791e+000 -3.198657e+000 -1.058505e+000 -2.422790e+000 -3.840751e+000 1.267518e+000 -2.349792e+000 1.383091e+000 5.871055e-001 -8.906419e-001 -6.223188e-002 -8.653466e-001 -1.369473e+000 -3.548720e-001 -1.862882e+000 2.157315e-001 1.038715e+000 -9.576221e-001 -2.746333e-001 7.046834e-001
<VARIANCE> 25
 2.769532e+001 4.347734e+001 3.351983e+001 3.436008e+001 3.529832e+001 3.809711e+001 2.316496e+001 5.423674e+001 1.772839e+001 1.331680e+001 1.677768e+001 1.444846e+001 1.404887e+000 3.623591e+000 2.212585e+000 5.007599e+000 2.388420e+000 3.138537e+000 1.791751e+000 5.111515e+000 1.742242e+000 2.018349e+000 1.821553e+000 1.464278e+000 6.626459e-001
<GCONST> 9.547288e+001
<TRANSP> 5
 0.000000e+000 1.000000e+000 0.000000e+000 0.000000e+000 0.000000e+000
 0.000000e+000 6.656335e-001 3.343666e-001 0.000000e+000 0.000000e+000
 0.000000e+000 0.000000e+000 6.502065e-001 3.497935e-001 0.000000e+000
 0.000000e+000 0.000000e+000 0.000000e+000 5.668315e-001 4.331685e-001
 0.000000e+000 0.000000e+000 0.000000e+000 0.000000e+000 0.000000e+000
<ENDHMM>
~h "w"
<BEGINHMM>
<NUMSTATES> 5
<STATE> 2
<MEAN> 25
 9.348896e+000 7.463385e+000 -2.604043e+000 -6.167528e+000 -8.629807e+000 -4.861999e+000 -1.601902e+000 -3.392910e+000 -5.677627e-002 2.809945e+000 -5.977253e-001 -2.080414e+000 4.717558e-002 7.656569e-001 1.309611e-001 7.526278e-003 -8.292433e-002 -3.573756e-001 -1.856113e-001 1.185508e-001 -2.596314e-001 -3.026481e-002 4.575380e-001 -9.294419e-002 -5.272009e-001
<VARIANCE> 25
 8.325390e+000 6.702901e+001 5.619405e+001 3.549015e+001 4.922770e+001 1.206287e+002 5.342723e+001 1.539807e+001 3.020716e+001 3.222329e+001 2.324701e+001 1.749377e+001 4.102508e-001 1.189109e+000 8.677390e-001 1.484275e+000 1.676398e+000 2.631895e+000 1.880910e+000 1.721682e+000 2.004737e+000 1.358453e+000 1.609229e+000 1.456262e+000 5.260295e-001
<GCONST> 9.156573e+001
<STATE> 3
<MEAN> 25
 9.525221e+000 3.699565e+000 -7.612828e+000 -9.700440e+000 -3.649239e+000 3.338685e+000 -6.260089e+000 -2.708818e+000 -3.936099e+000 -1.028017e+000 -8.838887e-001 -2.289526e+000 -3.084539e-001 4.882747e-001 5.890536e-001 7.999712e-001 5.032713e-001 -5.373000e-001 7.436531e-001 2.379987e-001 -8.339383e-003 -6.953158e-001 -4.869786e-001 -3.435975e-001 -8.245659e-001
<VARIANCE> 25
 9.405209e+000 4.765616e+001 4.260523e+001 5.001144e+001 3.944635e+001 9.483236e+001 5.753447e+001 3.337031e+001 3.303836e+001 4.965566e+001 3.584436e+001 3.010855e+001 6.986561e-001 2.390319e+000 1.765806e+000 2.618981e+000 2.728152e+000 4.118828e+000 3.279297e+000 2.568858e+000 3.703688e+000 3.178932e+000 3.872299e+000 2.272234e+000 1.562331e+000
<GCONST> 1.015715e+002
<STATE> 4
<MEAN> 25
 5.173122e+000 7.916016e+000 -1.067414e+000 -6.033381e-001 -4.804053e-001 -1.845469e+000 1.799034e-001 -1.068814e+000 -4.584152e-001 -1.333905e+000 -1.887010e+000 -3.036697e+000 -1.413331e+000 -6.012033e-001 4.730631e-001 1.263693e+000 1.365168e+000 5.984203e-001 6.787097e-001 3.796385e-001 5.345181e-001 -3.312904e-001 7.098063e-002 2.529638e-001 -1.231726e+000
<VARIANCE> 25
 2.341348e+001 4.392525e+001 3.974487e+001 3.264758e+001 5.004921e+001 5.495482e+001 4.403125e+001 3.096869e+001 3.571508e+001 2.924636e+001 3.192964e+001 2.111213e+001 1.170780e+000 2.419675e+000 3.443862e+000 3.423512e+000 3.661365e+000 5.124393e+000 3.364534e+000 2.923659e+000 3.006654e+000 3.583825e+000 3.661821e+000 2.719811e+000 2.107506e+000
<GCONST> 1.028009e+002
<TRANSP> 5
 0.000000e+000 1.000000e+000 0.000000e+000 0.000000e+000 0.000000e+000
 0.000000e+000 7.414691e-001 2.585308e-001 0.000000e+000 0.000000e+000
 0.000000e+000 0.000000e+000 5.807264e-001 4.192735e-001 0.000000e+000
 0.000000e+000 0.000000e+000 0.000000e+000 6.125022e-001 3.874978e-001
 0.000000e+000 0.000000e+000 0.000000e+000 0.000000e+000 0.000000e+000
<ENDHMM>
~h "z"
<BEGINHMM>
<NUMSTATES> 5
<STATE> 2
<MEAN> 25
 -7.392402e-001 9.012756e+000 8.004619e-001 6.584759e+000 -3.324345e+000 3.995537e-001 -2.269217e+000 -6.266841e+000 -3.300737e+000 -3.563943e+000 -3.245350e+000 -1.670627e+000 -2.198470e+000 7.120878e-001 1.653001e+000 7.333980e-001 6.657921e-001 1.253822e+000 4.162398e-001 1.247088e+000 -4.896123e-001 -1.112028e+000 6.774174e-001 -3.378510e-001 -2.180700e-001
<VARIANCE> 25
 3.000038e+001 5.179245e+001 1.043932e+002 7.339429e+001 2.923580e+001 7.093547e+001 2.918369e+001 4.452275e+001 2.364076e+001 2.401315e+001 1.995056e+001 1.434616e+001 1.133648e+000 5.300762e+000 7.060746e+000 6.553150e+000 2.016938e+000 2.206230e+000 2.194086e+000 5.723408e+000 1.936795e+000 1.801734e+000 2.304890e+000 1.867344e+000 6.712857e-001
<GCONST> 1.010062e+002
<STATE> 3
<MEAN> 25
 -7.672538e+000 3.974666e-001 1.608345e+001 4.523351e-001 -1.510057e-001 7.176057e+000 6.157933e-001 1.722214e+000 -5.290005e+000 -2.905323e+000 -1.290418e+000 -5.371174e-001 -8.749045e-001 -1.105857e+000 7.271112e-001 -6.923239e-001 1.333467e-001 -1.181703e-001 1.493708e-001 9.661453e-001 5.448089e-001 4.732227e-001 3.179600e-001 2.802330e-001 2.654805e-001
<VARIANCE> 25
 1.857917e+001 1.225506e+002 2.139230e+002 1.177761e+002 2.008798e+001 6.896192e+001 2.781813e+001 7.191586e+001 2.309791e+001 3.480332e+001 1.622901e+001 1.416533e+001 2.656625e+000 1.274498e+000 2.606220e+000 1.697740e+000 9.342481e-001 1.097229e+000 1.145279e+000 2.200305e+000 1.565707e+000 1.332382e+000 1.242181e+000 9.982620e-001 2.054837e-001
<GCONST> 9.379768e+001
<STATE> 4
<MEAN> 25
 -3.503047e+000 -1.000590e+000 1.277129e+001 -1.670202e+000 -1.061413e+000 5.320051e+000 -2.785315e-001 1.084335e-001 -3.536366e+000 -1.638120e+000 -1.560014e+000 -7.079422e-001 2.922527e+000 9.205635e-001 -2.826347e+000 -8.729146e-002 -7.051624e-001 -1.320381e+000 -2.996095e-001 -1.910348e+000 5.595298e-001 4.534839e-001 -6.475400e-001 -1.411955e-001 7.873582e-002
<VARIANCE> 25
 5.044045e+001 9.373827e+001 1.540598e+002 6.950085e+001 2.539919e+001 6.853375e+001 2.837121e+001 7.935826e+001 2.450965e+001 3.975219e+001 1.833257e+001 1.307145e+001 2.055916e+000 6.305835e+000 5.654466e+000 6.546063e+000 1.773169e+000 1.630213e+000 1.627831e+000 5.503303e+000 2.346058e+000 2.051749e+000 1.843694e+000 1.738586e+000 6.243806e-001
<GCONST> 1.029220e+002
<TRANSP> 5
 0.000000e+000 1.000000e+000 0.000000e+000 0.000000e+000 0.000000e+000
 0.000000e+000 7.107349e-001 2.892650e-001 0.000000e+000 0.000000e+000
 0.000000e+000 0.000000e+000 7.342945e-001 2.657054e-001 0.000000e+000
 0.000000e+000 0.000000e+000 0.000000e+000 6.528410e-001 3.471590e-001
 0.000000e+000 0.000000e+000 0.000000e+000 0.000000e+000 0.000000e+000
<ENDHMM>
~h "a~"
<BEGINHMM>
<NUMSTATES> 5
<STATE> 2
<MEAN> 25
 7.210644e+000 7.635707e-001 -5.013258e+000 -4.826634e+000 -1.533148e+000 -1.956347e-001 -4.225619e+000 -9.977335e-001 4.041816e-002 -2.620558e+000 -3.764512e+000 -7.295552e-001 1.503151e+000 -8.642262e-001 -1.465431e+000 -1.902177e+000 1.707962e-001 2.404478e-002 -1.194477e+000 -3.986552e-001 -1.597930e-002 -7.469417e-001 -6.268274e-001 3.753307e-001 1.012141e+000
<VARIANCE> 25
 1.485942e+001 3.779739e+001 3.448637e+001 2.438161e+001 4.663231e+001 3.796993e+001 5.808115e+001 4.306190e+001 3.542794e+001 3.724253e+001 3.559790e+001 2.060703e+001 3.812804e+000 7.131388e+000 2.994311e+000 5.457876e+000 5.258743e+000 3.075939e+000 7.558217e+000 4.883632e+000 4.226877e+000 4.290895e+000 5.507639e+000 2.907671e+000 1.074310e+000
<GCONST> 1.063304e+002
<STATE> 3
<MEAN> 25
 6.126064e+000 -2.025741e+000 -5.963646e+000 -5.796591e+000 6.693282e-001 -7.867594e-001 -6.646404e+000 5.920925e-002 -6.826821e-001 -5.752508e+000 -3.629773e+000 -1.752851e-001 1.521322e-002 -1.389179e-001 -3.077443e-001 -2.851237e-001 3.646206e-001 1.097138e-001 -2.771920e-001 -2.905424e-001 -1.003792e-001 -3.135159e-001 4.383832e-001 -3.774226e-002 7.693664e-002
<VARIANCE> 25
 1.956006e+001 4.105074e+001 3.108615e+001 2.046310e+001 6.629246e+001 3.606292e+001 8.634188e+001 4.081672e+001 2.342817e+001 4.572106e+001 2.981742e+001 2.521734e+001 7.081977e-001 2.019803e+000 2.311681e+000 1.690166e+000 5.278099e+000 3.174763e+000 5.094175e+000 3.545723e+000 3.057332e+000 2.883274e+000 1.887214e+000 2.714677e+000 3.602491e-001
<GCONST> 9.885918e+001
<STATE> 4
<MEAN> 25
 8.149349e+000 3.046569e+000 -2.463678e+000 -4.527671e+000 -2.932952e+000 -6.809949e-001 -2.220768e+000 -1.050891e+000 1.116816e+000 -1.854930e+000 -6.872593e-001 -4.448758e-001 -1.744756e-001 3.265390e-001 3.447135e-001 4.512426e-001 3.453532e-001 -1.206093e-001 -5.350337e-001 -1.761856e-001 3.435808e-001 2.731532e-001 1.123043e-001 -2.917997e-001 -4.236084e-001
<VARIANCE> 25
 1.245185e+001 3.106256e+001 2.602180e+001 2.174397e+001 5.373959e+001 3.661702e+001 6.810299e+001 3.598102e+001 3.076727e+001 4.491061e+001 1.920378e+001 2.750628e+001 3.219247e-001 8.958997e-001 9.867999e-001 1.219626e+000 2.308360e+000 1.698408e+000 2.917837e+000 1.770328e+000 1.819986e+000 1.827087e+000 1.831489e+000 1.440995e+000 2.294919e-001
<GCONST> 8.978265e+001
<TRANSP> 5
 0.000000e+000 1.000000e+000 0.000000e+000 0.000000e+000 0.000000e+000
 0.000000e+000 3.248071e-001 6.751929e-001 0.000000e+000 0.000000e+000
 0.000000e+000 0.000000e+000 4.897366e-001 5.102634e-001 0.000000e+000
 0.000000e+000 0.000000e+000 0.000000e+000 7.651365e-001 2.348635e-001
 0.000000e+000 0.000000e+000 0.000000e+000 0.000000e+000 0.000000e+000
<ENDHMM>
~h "e~"
<BEGINHMM>
<NUMSTATES> 5
<STATE> 2
<MEAN> 25
 2.801920e+000 -2.492895e+000 4.976893e+000 8.105532e-001 -4.591471e+000 -4.405674e+000 -4.794419e+000 -3.185968e+000 -1.388090e+000 2.569474e+000 -9.355471e-001 -1.883480e+000 1.255316e-001 -5.091662e-001 1.317508e+000 -6.716373e-001 -1.328634e+000 -6.946061e-001 -4.654188e-001 -6.059936e-001 -8.953690e-002 1.261298e+000 -1.053527e+000 -7.372191e-001 1.011190e+000
<VARIANCE> 25
 2.105976e+001 2.229242e+001 3.167579e+001 5.425854e+001 7.379717e+001 3.429639e+001 5.214725e+001 5.671068e+001 3.555412e+001 3.366896e+001 1.809195e+001 1.951441e+001 3.158777e+000 3.426434e+000 3.213873e+000 7.915390e+000 3.390732e+000 5.827706e+000 4.753279e+000 4.671274e+000 4.696994e+000 2.577222e+000 2.771688e+000 2.918013e+000 1.701838e+000
<GCONST> 1.051481e+002
<STATE> 3
<MEAN> 25
 1.943575e+000 -2.801711e+000 8.215056e+000 -5.803339e-001 -6.106248e+000 -4.821329e+000 -5.720007e+000 -2.840658e+000 -2.261159e-001 4.573055e+000 -3.423749e+000 -4.244618e+000 -3.449219e-001 4.227857e-001 6.948136e-001 -4.924337e-001 -5.654294e-001 2.197022e-001 -6.423657e-002 1.219443e-001 2.788476e-001 -2.234811e-001 -9.192420e-001 -3.797226e-001 -2.015760e-001
<VARIANCE> 25
 2.147798e+001 1.515960e+001 1.683535e+001 1.073024e+002 6.673794e+001 2.808835e+001 4.085367e+001 3.066619e+001 5.343580e+001 1.696628e+001 1.763069e+001 1.636225e+001 4.157363e-001 1.287478e+000 1.496773e+000 1.870456e+000 1.071221e+000 3.233206e+000 2.153580e+000 3.625048e+000 2.035578e+000 1.747119e+000 1.895220e+000 1.357377e+000 3.276006e-001
<GCONST> 9.117476e+001
<STATE> 4
<MEAN> 25
 2.516392e+000 3.915062e-001 8.697797e+000 -1.215603e+000 -5.987624e+000 -1.455281e+000 -5.351997e+000 -1.277276e+000 3.676372e-001 1.199251e+000 -5.514278e+000 -4.109874e+000 2.671194e-001 8.340110e-001 -3.635992e-001 -3.182835e-001 1.796611e-001 7.479157e-001 4.553006e-001 3.338822e-001 -1.816732e-001 -9.947627e-001 -4.193281e-001 2.852228e-001 -6.111805e-001
<VARIANCE> 25
 1.866280e+001 2.224589e+001 2.272818e+001 1.046397e+002 7.055602e+001 6.248070e+001 3.043945e+001 5.580955e+001 7.056764e+001 2.235132e+001 3.399342e+001 2.777719e+001 3.358595e-001 1.178499e+000 1.658186e+000 2.395376e+000 1.412120e+000 2.349774e+000 2.641124e+000 2.322902e+000 1.750744e+000 1.715965e+000 2.474699e+000 1.450676e+000 3.636900e-001
<GCONST> 9.462512e+001
<TRANSP> 5
 0.000000e+000 1.000000e+000 0.000000e+000 0.000000e+000 0.000000e+000
 0.000000e+000 5.250489e-001 4.749511e-001 0.000000e+000 0.000000e+000
 0.000000e+000 0.000000e+000 6.478467e-001 3.521533e-001 0.000000e+000
 0.000000e+000 0.000000e+000 0.000000e+000 6.578787e-001 3.421213e-001
 0.000000e+000 0.000000e+000 0.000000e+000 0.000000e+000 0.000000e+000
<ENDHMM>
~h "hh"
<BEGINHMM>
<NUMSTATES> 5
<STATE> 2
<MEAN> 25
 5.295997e+000 -3.961649e+000 -2.687545e+000 -1.724928e+000 5.083903e-001 5.420172e+000 8.527026e-001 -1.245418e-002 9.378095e-001 2.796066e+000 1.305320e+000 1.099318e+000 -2.984894e-001 1.721462e-001 3.207921e-001 6.630023e-001 6.370010e-001 -5.705756e-002 -9.520356e-002 4.520163e-001 8.914764e-002 -5.713985e-001 1.238134e-001 9.821317e-002 -3.470321e-001
<VARIANCE> 25
 1.057657e+001 2.573203e+001 4.348517e+001 4.579430e+001 3.923705e+001 3.183608e+001 7.386453e+001 5.074332e+001 4.229664e+001 7.568073e+001 5.948650e+001 2.431497e+001 3.580621e-001 1.427126e+000 1.502261e+000 1.683546e+000 2.100425e+000 1.863378e+000 2.848335e+000 3.406852e+000 2.214227e+000 2.058469e+000 2.294420e+000 1.630410e+000 2.697714e-001
<GCONST> 9.527673e+001
<STATE> 3
<MEAN> 25
 3.171635e+000 -2.175178e+000 2.384230e-001 1.503666e+000 1.382900e+000 1.893260e+000 -2.075832e+000 -4.773509e-001 -4.708759e-001 -2.058044e+000 -3.550267e+000 -2.283168e+000 -5.377375e-001 6.680496e-001 1.386497e+000 9.239004e-001 3.695337e-001 -6.004500e-001 8.190281e-002 2.239457e-001 1.251044e-001 -7.128935e-001 -5.706459e-001 -6.625286e-001 -4.708692e-001
<VARIANCE> 25
 1.285882e+001 2.445015e+001 4.515736e+001 5.503040e+001 5.255120e+001 3.707623e+001 6.460487e+001 4.094886e+001 4.798595e+001 7.161331e+001 7.242127e+001 2.745784e+001 8.002367e-001 1.367019e+000 2.742389e+000 2.385857e+000 3.290169e+000 3.190607e+000 4.432157e+000 2.890297e+000 2.717942e+000 3.371001e+000 2.786068e+000 2.070264e+000 5.367298e-001
<GCONST> 1.009230e+002
<STATE> 4
<MEAN> 25
 1.273418e+000 1.055190e+000 6.274873e+000 8.605176e-001 -1.414566e+000 1.102670e+000 -1.070907e+000 -1.193938e+000 -2.175908e+000 -2.092819e+000 -4.857434e+000 -3.381726e+000 1.645178e-001 8.567200e-001 2.435961e-001 1.255867e-001 -2.083181e-001 -2.324923e-001 7.757985e-002 -8.679066e-002 5.000906e-002 1.958930e-001 8.559321e-002 -1.219615e-001 -6.232931e-001
<VARIANCE> 25
 1.803337e+001 4.060077e+001 7.510268e+001 5.096644e+001 6.633323e+001 3.502483e+001 5.772838e+001 3.399095e+001 4.615847e+001 5.761235e+001 4.526512e+001 1.978752e+001 1.094338e+000 1.864443e+000 2.907154e+000 3.352596e+000 3.070247e+000 2.312444e+000 3.651538e+000 2.572675e+000 2.426017e+000 3.199742e+000 3.039973e+000 2.203907e+000 8.587981e-001
<GCONST> 1.017983e+002
<TRANSP> 5
 0.000000e+000 1.000000e+000 0.000000e+000 0.000000e+000 0.000000e+000
 0.000000e+000 6.386415e-001 3.613586e-001 0.000000e+000 0.000000e+000
 0.000000e+000 0.000000e+000 3.928858e-001 6.071143e-001 0.000000e+000
 0.000000e+000 0.000000e+000 0.000000e+000 5.305756e-001 4.694243e-001
 0.000000e+000 0.000000e+000 0.000000e+000 0.000000e+000 0.000000e+000
<ENDHMM>
~h "i~"
<BEGINHMM>
<NUMSTATES> 5
<STATE> 2
<MEAN> 25
 3.906233e-001 1.858878e+000 7.901277e+000 6.086466e-001 -2.886764e+000 -5.206431e+000 -4.003831e+000 -2.147554e+000 -1.721657e+000 -8.884438e-001 -2.917126e+000 -3.921654e+000 1.037243e+000 4.259976e-001 1.757800e+000 -1.033518e+000 -1.901216e+000 -5.568540e-001 -1.219237e+000 -4.584669e-001 -2.198183e-001 3.461816e-001 -2.196815e+000 -1.199747e+000 3.160853e-001
<VARIANCE> 25
 3.522367e+001 5.501768e+001 3.694783e+001 9.582912e+001 7.273491e+001 2.669468e+001 3.512775e+001 4.530140e+001 3.812481e+001 2.474330e+001 2.470421e+001 2.011691e+001 5.620233e+000 6.331548e+000 4.607251e+000 9.584042e+000 5.047331e+000 6.378306e+000 4.319631e+000 3.805290e+000 4.612618e+000 3.202533e+000 3.218195e+000 2.772766e+000 1.521021e+000
<GCONST> 1.086217e+002
<STATE> 3
<MEAN> 25
 1.120816e+000 2.164268e+000 1.108365e+001 -1.960280e+000 -4.824264e+000 -4.705215e+000 -7.669305e+000 -1.316405e+000 -1.315391e-001 8.001915e-001 -7.939589e+000 -6.492701e+000 1.155226e-001 6.675970e-001 3.260705e-001 -7.515556e-001 -4.663791e-001 3.150767e-001 -5.705994e-001 1.237621e-001 3.339951e-001 -4.125240e-002 -1.295197e+000 -4.267618e-001 -2.355111e-001
<VARIANCE> 25
 2.355007e+001 2.233680e+001 1.912122e+001 1.684189e+002 6.509872e+001 3.952383e+001 2.450592e+001 4.364163e+001 6.104840e+001 2.221415e+001 2.063705e+001 1.526151e+001 1.288493e+000 2.342602e+000 2.108325e+000 2.717359e+000 2.076895e+000 3.576920e+000 2.342824e+000 2.434479e+000 1.879569e+000 1.773394e+000 2.455841e+000 1.599183e+000 5.092505e-001
<GCONST> 9.657594e+001
<STATE> 4
<MEAN> 25
 3.384684e+000 4.946707e+000 7.682902e+000 -3.346840e+000 -4.992651e+000 -2.485111e+000 -5.779119e+000 -2.229319e+000 -2.552451e+000 -1.762539e+000 -9.188677e+000 -4.932212e+000 6.135271e-001 3.740465e-001 -1.154155e+000 3.880179e-001 5.323263e-001 2.767600e-001 5.166482e-001 -1.763514e-001 -4.475230e-001 -5.473231e-001 3.802072e-001 3.441812e-001 -6.270742e-001
<VARIANCE> 25
 1.995037e+001 2.462530e+001 3.085511e+001 1.076725e+002 6.867818e+001 4.205994e+001 2.916676e+001 4.614619e+001 6.183918e+001 2.556967e+001 3.442516e+001 1.784548e+001 1.118204e+000 1.555899e+000 2.471231e+000 4.232637e+000 2.373384e+000 4.842725e+000 2.442117e+000 3.246271e+000 2.473708e+000 2.525280e+000 2.930386e+000 1.635326e+000 5.325901e-001
<GCONST> 9.939473e+001
<TRANSP> 5
 0.000000e+000 1.000000e+000 0.000000e+000 0.000000e+000 0.000000e+000
 0.000000e+000 4.312218e-001 5.687782e-001 0.000000e+000 0.000000e+000
 0.000000e+000 0.000000e+000 5.788683e-001 4.211317e-001 0.000000e+000
 0.000000e+000 0.000000e+000 0.000000e+000 7.425520e-001 2.574480e-001
 0.000000e+000 0.000000e+000 0.000000e+000 0.000000e+000 0.000000e+000
<ENDHMM>
~h "j~"
<BEGINHMM>
<NUMSTATES> 5
<STATE> 2
<MEAN> 25
 9.174380e-001 1.813687e+000 8.668987e+000 -2.879767e+000 -7.643548e+000 -2.654769e+000 -7.556588e+000 -1.524616e+000 5.850174e-002 -1.847283e+000 -8.069230e+000 -4.716422e+000 -7.286786e-002 7.520483e-001 8.270020e-001 -2.432675e-001 -6.131861e-001 -2.056536e-002 6.730469e-001 -2.098828e-001 -1.367433e-001 -1.957092e-001 -7.404556e-001 5.076187e-001 -6.585823e-001
<VARIANCE> 25
 1.979046e+001 2.915738e+001 4.344114e+001 1.163936e+002 5.778190e+001 6.958376e+001 3.202566e+001 3.766108e+001 4.986586e+001 2.299508e+001 2.964302e+001 2.281062e+001 1.259130e+000 1.287351e+000 5.280177e+000 3.843203e+000 3.493106e+000 5.999465e+000 4.351347e+000 2.843135e+000 3.654986e+000 2.877147e+000 2.488640e+000 2.049314e+000 4.964599e-001
<GCONST> 1.021217e+002
<STATE> 3
<MEAN> 25
 2.058142e+000 4.048390e+000 9.644886e+000 -3.896549e+000 -8.365781e+000 -5.549903e-001 -5.397815e+000 -3.923508e+000 -1.113672e+000 -1.181282e+000 -1.036963e+001 -3.366524e+000 9.793555e-001 1.124032e+000 -1.445235e+000 5.916359e-001 7.379741e-001 1.595212e-001 8.264614e-001 -5.600669e-001 -8.433481e-001 -2.404892e-001 2.475761e-001 1.389162e-001 -1.259787e+000
<VARIANCE> 25
 1.651981e+001 2.104657e+001 1.977898e+001 1.076244e+002 7.359774e+001 6.191745e+001 2.144123e+001 4.327426e+001 4.936121e+001 2.451599e+001 4.039458e+001 2.990657e+001 1.155257e+000 1.395803e+000 2.101047e+000 3.773659e+000 1.618842e+000 4.823016e+000 1.884902e+000 2.682739e+000 2.361814e+000 2.410720e+000 1.905117e+000 1.348218e+000 5.967416e-001
<GCONST> 9.730456e+001
<STATE> 4
<MEAN> 25
 4.044962e+000 5.694902e+000 5.364081e+000 -1.429771e+000 -5.461014e+000 -2.350150e+000 -3.567600e+000 -3.847168e+000 -3.190135e+000 -1.577964e+000 -7.793668e+000 -3.589962e+000 5.409312e-001 1.162051e+000 -1.570764e+000 6.038175e-001 1.693334e+000 3.794401e-001 7.840508e-001 5.428826e-003 -5.668768e-001 -4.592789e-001 9.752469e-001 -1.015398e-001 -1.297645e+000
<VARIANCE> 25
 1.057261e+001 1.760897e+001 2.170878e+001 6.023415e+001 7.030267e+001 3.954035e+001 2.426704e+001 3.837906e+001 5.686618e+001 2.351156e+001 3.312869e+001 2.706524e+001 1.558405e+000 2.121441e+000 2.081263e+000 4.849740e+000 2.903771e+000 5.942662e+000 3.092627e+000 3.209870e+000 2.741962e+000 2.260601e+000 2.151623e+000 2.118637e+000 1.382087e+000
<GCONST> 9.942914e+001
<TRANSP> 5
 0.000000e+000 1.000000e+000 0.000000e+000 0.000000e+000 0.000000e+000
 0.000000e+000 3.660863e-001 6.339137e-001 0.000000e+000 0.000000e+000
 0.000000e+000 0.000000e+000 3.363645e-001 6.636356e-001 0.000000e+000
 0.000000e+000 0.000000e+000 0.000000e+000 2.628827e-001 7.371174e-001
 0.000000e+000 0.000000e+000 0.000000e+000 0.000000e+000 0.000000e+000
<ENDHMM>
~h "n4"
<BEGINHMM>
<NUMSTATES> 5
<STATE> 2
<MEAN> 25
 5.906629e+000 -2.824299e+000 -5.008707e-001 1.150925e+000 -5.087580e+000 -2.355144e+000 -2.009578e+000 -1.437247e+000 -1.952467e-001 -1.501902e+000 -3.805909e+000 2.596962e+000 6.459318e-001 9.798014e-002 2.130080e-001 1.157993e+000 8.274960e-001 7.745563e-001 -1.640508e+000 3.104999e-001 5.467769e-001 -1.216785e+000 2.791072e-002 -8.975776e-002 -1.065304e+000
<VARIANCE> 25
 1.824247e+001 3.961802e+001 4.126076e+001 4.509348e+001 7.148890e+001 4.130607e+001 3.863997e+001 5.286866e+001 3.708722e+001 2.775666e+001 3.560421e+001 1.848660e+001 1.180679e+000 3.301275e+000 5.384593e+000 3.585187e+000 8.681064e+000 3.857537e+000 4.764521e+000 4.697365e+000 3.295718e+000 3.263998e+000 3.811335e+000 2.373660e+000 2.164644e+000
<GCONST> 1.053879e+002
<STATE> 3
<MEAN> 25
 6.607572e+000 -2.299482e+000 -1.726302e+000 3.222984e+000 -7.323833e-001 1.271787e+000 -6.221312e+000 -1.025456e-001 6.131318e-001 -4.577082e+000 -3.353906e+000 1.130026e+000 -5.534067e-002 -4.874056e-001 -7.612315e-001 3.930418e-001 8.646579e-001 2.338587e-001 -8.191265e-001 1.025223e+000 -5.485622e-001 -5.713751e-001 2.037174e-001 -8.796337e-001 -2.667124e-001
<VARIANCE> 25
 1.321170e+001 7.123505e+001 5.544307e+001 3.814680e+001 1.336360e+002 2.810953e+001 3.774214e+001 5.814870e+001 2.813082e+001 2.335909e+001 2.829714e+001 1.691760e+001 9.709531e-001 3.307086e+000 4.136159e+000 3.331843e+000 6.191216e+000 4.391318e+000 4.072816e+000 4.501566e+000 3.854612e+000 2.768553e+000 3.142125e+000 1.946567e+000 1.968300e+000
<GCONST> 1.038919e+002
<STATE> 4
<MEAN> 25
 6.338647e+000 -2.555196e+000 -2.501316e+000 2.991735e+000 5.138565e-001 -2.422041e-001 -5.419541e+000 1.457007e-001 -3.238442e+000 -4.036126e+000 -1.996534e+000 -1.152774e+000 -8.448774e-002 -3.078269e-001 -1.754129e-001 -2.097601e-001 6.475386e-003 -5.571756e-001 1.985352e-001 -2.303746e-001 -1.376512e+000 8.206600e-001 4.850733e-001 -8.651038e-001 3.828143e-001
<VARIANCE> 25
 1.877762e+001 7.269195e+001 7.386190e+001 4.318583e+001 1.151344e+002 3.565448e+001 5.016083e+001 5.954553e+001 3.790162e+001 2.552762e+001 3.186296e+001 1.936404e+001 1.114500e+000 2.763703e+000 3.019639e+000 3.609097e+000 4.863602e+000 3.102057e+000 3.648749e+000 3.768910e+000 3.409688e+000 2.524822e+000 3.489075e+000 1.744557e+000 1.214929e+000
<GCONST> 1.038573e+002
<TRANSP> 5
 0.000000e+000 1.000000e+000 0.000000e+000 0.000000e+000 0.000000e+000
 0.000000e+000 4.201448e-001 5.798552e-001 0.000000e+000 0.000000e+000
 0.000000e+000 0.000000e+000 3.616654e-001 6.383345e-001 0.000000e+000
 0.000000e+000 0.000000e+000 0.000000e+000 3.427974e-001 6.572026e-001
 0.000000e+000 0.000000e+000 0.000000e+000 0.000000e+000 0.000000e+000
<ENDHMM>
~h "n6"
<BEGINHMM>
<NUMSTATES> 5
<STATE> 2
<MEAN> 25
 3.965400e+000 -2.052182e+000 -3.530265e+000 -2.000032e+000 -1.941573e+000 1.444000e+000 -5.834239e-001 -1.726076e+000 -1.427580e+000 -9.612368e-001 -1.957917e+000 1.637642e+000 9.808677e-001 -7.178585e-001 -8.789278e-001 -3.323942e-001 -1.688440e-001 3.213520e-001 -6.610388e-002 -6.601781e-001 -6.561133e-001 -1.194049e-001 -5.036843e-001 3.053065e-001 1.329488e+000
<VARIANCE> 25
 3.417783e+001 4.301131e+001 3.974673e+001 4.508808e+001 4.895834e+001 3.694767e+001 5.805653e+001 7.694531e+001 5.204623e+001 3.428532e+001 4.012562e+001 2.426048e+001 2.988071e+000 3.725199e+000 2.785256e+000 3.335294e+000 2.907309e+000 2.962647e+000 4.268375e+000 5.441854e+000 3.423568e+000 3.422500e+000 3.594392e+000 3.256947e+000 4.227778e+000
<GCONST> 1.073040e+002
<STATE> 3
<MEAN> 25
 4.762302e+000 -4.333085e+000 -4.742240e+000 -2.759995e-001 8.186692e-002 1.274674e+000 -2.477446e+000 -1.323855e+000 -2.307195e+000 -3.800258e+000 -4.062694e+000 7.846427e-001 -1.181032e-001 4.671313e-001 1.007586e-001 6.619824e-002 1.869631e-001 -7.375701e-002 4.978299e-001 2.126797e-002 4.368860e-002 9.067926e-002 2.467272e-001 4.442268e-002 -7.491388e-001
<VARIANCE> 25
 1.872504e+001 5.637339e+001 4.769894e+001 4.378572e+001 5.319735e+001 3.448988e+001 5.721309e+001 6.592666e+001 4.065746e+001 4.000543e+001 3.864986e+001 2.350078e+001 1.166939e+000 2.655174e+000 2.283005e+000 2.705664e+000 2.966882e+000 2.272753e+000 2.932191e+000 3.412430e+000 2.562573e+000 2.665660e+000 2.635778e+000 2.078706e+000 2.944453e+000
<GCONST> 1.023745e+002
<STATE> 4
<MEAN> 25
 1.437642e+000 2.737159e+000 -5.182388e+000 -2.274598e+000 -1.551590e+000 1.323263e+000 3.028254e+000 -8.292516e-001 -6.384447e-001 -6.248535e-001 2.169149e-001 2.634541e+000 -7.150494e-001 6.192729e-001 2.233407e-001 4.466056e-001 3.325020e-001 -4.052366e-001 1.626199e-001 3.157528e-001 4.165362e-001 1.009835e-001 1.088572e-001 -2.835878e-001 -1.030867e+000
<VARIANCE> 25
 4.584086e+001 3.641261e+001 2.505551e+001 2.456339e+001 4.145446e+001 5.056261e+001 4.490434e+001 4.835641e+001 3.923092e+001 2.878613e+001 3.301785e+001 2.325055e+001 2.633077e+000 2.924870e+000 2.366467e+000 2.936657e+000 2.949741e+000 2.972497e+000 3.056041e+000 3.789050e+000 2.253178e+000 2.694337e+000 2.455020e+000 2.108731e+000 2.906699e+000
<GCONST> 1.019082e+002
<TRANSP> 5
 0.000000e+000 1.000000e+000 0.000000e+000 0.000000e+000 0.000000e+000
 0.000000e+000 4.799374e-001 5.200626e-001 0.000000e+000 0.000000e+000
 0.000000e+000 0.000000e+000 5.871387e-001 4.128613e-001 0.000000e+000
 0.000000e+000 0.000000e+000 0.000000e+000 6.671582e-001 3.328418e-001
 0.000000e+000 0.000000e+000 0.000000e+000 0.000000e+000 0.000000e+000
<ENDHMM>
~h "o~"
<BEGINHMM>
<NUMSTATES> 5
<STATE> 2
<MEAN> 25
 9.526466e+000 6.895730e+000 -5.283080e+000 -7.265789e+000 -3.627704e+000 -8.961080e-001 -4.301873e+000 -1.698117e+000 -8.504579e-001 1.308522e+000 1.023775e+000 -1.225485e+000 1.596722e+000 5.875794e-001 -8.913243e-001 -1.834496e+000 -6.352669e-001 5.359530e-001 -1.052406e+000 -1.457834e+000 -9.826449e-002 -2.290096e-001 -6.144774e-001 -3.964115e-001 1.047349e+000
<VARIANCE> 25
 1.212559e+001 4.919108e+001 4.717737e+001 3.648745e+001 4.180683e+001 9.551474e+001 2.472840e+001 2.682724e+001 4.866826e+001 2.976494e+001 2.890705e+001 1.962375e+001 1.423130e+000 3.195746e+000 2.137712e+000 4.391237e+000 5.838142e+000 4.480711e+000 3.015445e+000 4.013804e+000 3.136723e+000 5.492974e+000 3.967495e+000 2.465178e+000 1.286194e+000
<GCONST> 1.030882e+002
<STATE> 3
<MEAN> 25
 9.918510e+000 7.708577e+000 -3.474502e+000 -7.259857e+000 -5.725573e+000 -2.079884e+000 -2.984402e+000 -1.093491e+000 2.521212e+000 2.164654e+000 1.440020e+000 -1.218137e+000 -4.244149e-002 -7.418959e-001 -2.958224e-001 -3.727614e-002 4.908488e-001 1.053835e+000 3.415996e-001 -2.230532e-002 -1.782654e-001 -8.863072e-001 -3.240843e-001 -1.642501e-002 2.817828e-001
<VARIANCE> 25
 5.716305e+000 2.660807e+001 4.164888e+001 2.723089e+001 2.840993e+001 8.239420e+001 3.960310e+001 2.346732e+001 3.918288e+001 3.855484e+001 2.223492e+001 1.550755e+001 2.521399e-001 7.386345e-001 5.972903e-001 1.180285e+000 2.091889e+000 1.900385e+000 2.902157e+000 1.910744e+000 1.862633e+000 2.166211e+000 2.362106e+000 1.442491e+000 3.304791e-001
<GCONST> 8.833761e+001
<STATE> 4
<MEAN> 25
 8.683413e+000 9.991616e-001 -9.266572e+000 -9.033783e+000 2.085311e-001 7.350393e+000 -7.665592e+000 -4.965763e+000 -3.634179e+000 -7.054051e+000 3.067838e-002 -3.389823e+000 -4.429259e-001 6.441972e-002 1.029670e+000 1.380387e+000 2.966467e-001 -9.264696e-001 -2.972536e-001 -1.707761e-001 1.600111e-001 1.057914e-001 -5.869241e-001 -4.771456e-001 -2.916500e-001
<VARIANCE> 25
 6.987035e+000 2.932750e+001 2.943724e+001 3.332214e+001 3.398050e+001 4.146660e+001 4.827583e+001 2.574427e+001 3.509295e+001 2.718910e+001 3.041690e+001 2.432891e+001 3.791214e-001 1.412140e+000 1.577922e+000 1.628857e+000 3.431248e+000 3.570920e+000 3.075073e+000 2.295264e+000 2.497645e+000 2.521135e+000 2.646022e+000 2.025492e+000 5.235284e-001
<GCONST> 9.365217e+001
<TRANSP> 5
 0.000000e+000 1.000000e+000 0.000000e+000 0.000000e+000 0.000000e+000
 0.000000e+000 5.357825e-001 4.642175e-001 0.000000e+000 0.000000e+000
 0.000000e+000 0.000000e+000 7.549403e-001 2.450598e-001 0.000000e+000
 0.000000e+000 0.000000e+000 0.000000e+000 7.804049e-001 2.195951e-001
 0.000000e+000 0.000000e+000 0.000000e+000 0.000000e+000 0.000000e+000
<ENDHMM>
~h "sp"
<BEGINHMM>
<NUMSTATES> 3
<STATE> 2
~s "silst"
<TRANSP> 3
 0.000000e+000 1.529584e-002 9.847042e-001
 0.000000e+000 8.175521e-001 1.824479e-001
 0.000000e+000 0.000000e+000 0.000000e+000
<ENDHMM>
~h "u~"
<BEGINHMM>
<NUMSTATES> 5
<STATE> 2
<MEAN> 25
 3.819120e+000 2.395150e+000 -2.958003e+000 -2.224021e+000 4.549574e-003 1.790699e-001 -3.580354e+000 -1.370436e+000 8.080286e-002 -2.895410e+000 -1.185241e+000 -1.540529e+000 1.681871e+000 8.997592e-001 -5.395910e-001 -1.195586e+000 3.959801e-002 8.144032e-001 -9.151878e-001 -8.927866e-001 -4.305320e-001 -3.343453e-001 -3.133794e-001 -6.522508e-001 6.896343e-001
<VARIANCE> 25
 5.173775e+001 5.515620e+001 4.139820e+001 2.903356e+001 2.844586e+001 4.737543e+001 5.021161e+001 3.969712e+001 3.133405e+001 2.866799e+001 2.676122e+001 2.629393e+001 2.825336e+000 4.704840e+000 4.653786e+000 4.395395e+000 4.713833e+000 3.622847e+000 4.674043e+000 4.039558e+000 4.627993e+000 3.821662e+000 4.180660e+000 2.164251e+000 3.074675e+000
<GCONST> 1.067353e+002
<STATE> 3
<MEAN> 25
 8.869673e+000 5.413790e+000 -3.878981e+000 -6.473022e+000 -2.086637e+000 2.176492e+000 -4.282452e+000 -2.540115e+000 -2.012676e+000 -3.532092e+000 -2.655499e+000 -4.012645e+000 1.582706e-001 2.352990e-001 3.646282e-002 -7.263749e-001 -5.860414e-001 4.273621e-001 1.242258e-001 -8.044045e-002 -4.891024e-001 -3.061780e-001 -4.388716e-001 -2.125549e-001 2.079538e-001
<VARIANCE> 25
 5.487372e+000 2.188758e+001 3.430128e+001 3.800650e+001 2.979673e+001 3.638166e+001 3.459793e+001 2.983940e+001 4.339125e+001 2.705463e+001 2.260650e+001 1.714894e+001 4.911100e-001 2.495776e+000 1.954031e+000 1.912060e+000 2.959618e+000 3.534915e+000 3.379568e+000 3.285581e+000 4.063235e+000 2.498247e+000 2.439614e+000 2.083361e+000 1.124581e+000
<GCONST> 9.520204e+001
<STATE> 4
<MEAN> 25
 7.416247e+000 4.776728e+000 -2.819979e+000 -6.281220e+000 -1.583053e+000 2.537433e+000 -6.942970e+000 -3.407669e+000 -3.630036e+000 -5.359617e+000 -2.797518e+000 -4.340034e+000 -5.232439e-001 -2.368642e-001 7.295722e-001 1.081931e+000 4.621353e-001 -7.593207e-001 -9.004422e-001 -2.026433e-001 3.569476e-001 1.384077e-001 -6.690636e-002 -3.210604e-001 -6.180048e-002
<VARIANCE> 25
 7.955397e+000 1.890802e+001 3.863176e+001 4.317965e+001 3.627505e+001 3.981109e+001 3.319600e+001 3.196126e+001 4.044208e+001 3.463765e+001 2.558114e+001 2.610929e+001 5.191146e-001 1.363649e+000 2.095384e+000 2.380945e+000 2.226406e+000 4.496850e+000 2.940544e+000 2.737291e+000 3.381911e+000 2.700702e+000 2.570606e+000 1.982045e+000 3.747605e-001
<GCONST> 9.488084e+001
<TRANSP> 5
 0.000000e+000 1.000000e+000 0.000000e+000 0.000000e+000 0.000000e+000
 0.000000e+000 4.865882e-001 5.134118e-001 0.000000e+000 0.000000e+000
 0.000000e+000 0.000000e+000 4.347268e-001 5.652732e-001 0.000000e+000
 0.000000e+000 0.000000e+000 0.000000e+000 6.996421e-001 3.003579e-001
 0.000000e+000 0.000000e+000 0.000000e+000 0.000000e+000 0.000000e+000
<ENDHMM>
~h "w~"
<BEGINHMM>
<NUMSTATES> 5
<STATE> 2
<MEAN> 25
 5.624179e+000 -2.706779e+000 -8.705503e+000 -5.718014e+000 6.637349e+000 1.902793e+000 -1.375359e+001 -4.289871e+000 2.158504e+000 -5.316489e+000 -6.285849e-001 -3.347641e+000 3.570496e-001 7.010527e-001 -4.008087e-001 -6.958721e-001 3.702401e-001 1.605233e+000 1.107183e-001 -1.251347e+000 -1.039110e+000 -1.598566e-001 1.437793e+000 -7.154366e-001 -7.730627e-001
<VARIANCE> 25
 1.447621e+001 4.547471e+001 3.162369e+001 2.007526e+001 5.402390e+001 2.917370e+001 6.151442e+001 3.289095e+001 2.581664e+001 3.075058e+001 2.261619e+001 1.733079e+001 5.077437e-001 7.493738e-001 6.570157e-001 1.743494e+000 2.449447e+000 1.822138e+000 3.306535e+000 3.325012e+000 3.414242e+000 1.702341e+000 3.115320e+000 1.492162e+000 2.299369e-001
<GCONST> 9.140259e+001
<STATE> 3
<MEAN> 25
