~o
<STREAMINFO> 1 39
<VECSIZE> 39<NULLD><MFCC_D_A_0><DIAGC>
~s "silst"
<MEAN> 39
 0.000000e+000 0.000000e+000 0.000000e+000 0.000000e+000 0.000000e+000 0.000000e+000 0.000000e+000 0.000000e+000 0.000000e+000 0.000000e+000 0.000000e+000 0.000000e+000 0.000000e+000 0.000000e+000 0.000000e+000 0.000000e+000 0.000000e+000 0.000000e+000 0.000000e+000 0.000000e+000 0.000000e+000 0.000000e+000 0.000000e+000 0.000000e+000 0.000000e+000 0.000000e+000 0.000000e+000 0.000000e+000 0.000000e+000 0.000000e+000 0.000000e+000 0.000000e+000 0.000000e+000 0.000000e+000 0.000000e+000 0.000000e+000 0.000000e+000 0.000000e+000 0.000000e+000
<VARIANCE> 39
 9.359503e+001 3.679459e+001 4.499012e+001 6.351903e+001 6.475761e+001 6.529059e+001 3.928167e+001 6.018552e+001 4.288419e+001 3.339623e+001 3.708072e+001 1.868259e+001 5.973125e+001 2.821502e+000 1.631565e+000 1.523291e+000 1.894124e+000 2.418094e+000 2.534702e+000 2.151116e+000 2.636228e+000 2.226562e+000 1.935865e+000 1.857413e+000 1.305851e+000 1.719570e+000 3.393596e-001 2.469798e-001 2.173008e-001 2.656330e-001 3.564706e-001 3.952440e-001 3.678456e-001 4.340220e-001 3.816188e-001 3.429941e-001 3.167496e-001 2.403777e-001 2.375354e-001
<GCONST> 1.156467e+002
~h "@"
<BEGINHMM>
<NUMSTATES> 5
<STATE> 2
<MEAN> 39
 0.000000e+000 0.000000e+000 0.000000e+000 0.000000e+000 0.000000e+000 0.000000e+000 0.000000e+000 0.000000e+000 0.000000e+000 0.000000e+000 0.000000e+000 0.000000e+000 0.000000e+000 0.000000e+000 0.000000e+000 0.000000e+000 0.000000e+000 0.000000e+000 0.000000e+000 0.000000e+000 0.000000e+000 0.000000e+000 0.000000e+000 0.000000e+000 0.000000e+000 0.000000e+000 0.000000e+000 0.000000e+000 0.000000e+000 0.000000e+000 0.000000e+000 0.000000e+000 0.000000e+000 0.000000e+000 0.000000e+000 0.000000e+000 0.000000e+000 0.000000e+000 0.000000e+000
<VARIANCE> 39
 9.359503e+001 3.679459e+001 4.499012e+001 6.351903e+001 6.475761e+001 6.529059e+001 3.928167e+001 6.018552e+001 4.288419e+001 3.339623e+001 3.708072e+001 1.868259e+001 5.973125e+001 2.821502e+000 1.631565e+000 1.523291e+000 1.894124e+000 2.418094e+000 2.534702e+000 2.151116e+000 2.636228e+000 2.226562e+000 1.935865e+000 1.857413e+000 1.305851e+000 1.719570e+000 3.393596e-001 2.469798e-001 2.173008e-001 2.656330e-001 3.564706e-001 3.952440e-001 3.678456e-001 4.340220e-001 3.816188e-001 3.429941e-001 3.167496e-001 2.403777e-001 2.375354e-001
<GCONST> 1.156467e+002
<STATE> 3
<MEAN> 39
 0.000000e+000 0.000000e+000 0.000000e+000 0.000000e+000 0.000000e+000 0.000000e+000 0.000000e+000 0.000000e+000 0.000000e+000 0.000000e+000 0.000000e+000 0.000000e+000 0.000000e+000 0.000000e+000 0.000000e+000 0.000000e+000 0.000000e+000 0.000000e+000 0.000000e+000 0.000000e+000 0.000000e+000 0.000000e+000 0.000000e+000 0.000000e+000 0.000000e+000 0.000000e+000 0.000000e+000 0.000000e+000 0.000000e+000 0.000000e+000 0.000000e+000 0.000000e+000 0.000000e+000 0.000000e+000 0.000000e+000 0.000000e+000 0.000000e+000 0.000000e+000 0.000000e+000
<VARIANCE> 39
 9.359503e+001 3.679459e+001 4.499012e+001 6.351903e+001 6.475761e+001 6.529059e+001 3.928167e+001 6.018552e+001 4.288419e+001 3.339623e+001 3.708072e+001 1.868259e+001 5.973125e+001 2.821502e+000 1.631565e+000 1.523291e+000 1.894124e+000 2.418094e+000 2.534702e+000 2.151116e+000 2.636228e+000 2.226562e+000 1.935865e+000 1.857413e+000 1.305851e+000 1.719570e+000 3.393596e-001 2.469798e-001 2.173008e-001 2.656330e-001 3.564706e-001 3.952440e-001 3.678456e-001 4.340220e-001 3.816188e-001 3.429941e-001 3.167496e-001 2.403777e-001 2.375354e-001
<GCONST> 1.156467e+002
<STATE> 4
<MEAN> 39
 0.000000e+000 0.000000e+000 0.000000e+000 0.000000e+000 0.000000e+000 0.000000e+000 0.000000e+000 0.000000e+000 0.000000e+000 0.000000e+000 0.000000e+000 0.000000e+000 0.000000e+000 0.000000e+000 0.000000e+000 0.000000e+000 0.000000e+000 0.000000e+000 0.000000e+000 0.000000e+000 0.000000e+000 0.000000e+000 0.000000e+000 0.000000e+000 0.000000e+000 0.000000e+000 0.000000e+000 0.000000e+000 0.000000e+000 0.000000e+000 0.000000e+000 0.000000e+000 0.000000e+000 0.000000e+000 0.000000e+000 0.000000e+000 0.000000e+000 0.000000e+000 0.000000e+000
<VARIANCE> 39
 9.359503e+001 3.679459e+001 4.499012e+001 6.351903e+001 6.475761e+001 6.529059e+001 3.928167e+001 6.018552e+001 4.288419e+001 3.339623e+001 3.708072e+001 1.868259e+001 5.973125e+001 2.821502e+000 1.631565e+000 1.523291e+000 1.894124e+000 2.418094e+000 2.534702e+000 2.151116e+000 2.636228e+000 2.226562e+000 1.935865e+000 1.857413e+000 1.305851e+000 1.719570e+000 3.393596e-001 2.469798e-001 2.173008e-001 2.656330e-001 3.564706e-001 3.952440e-001 3.678456e-001 4.340220e-001 3.816188e-001 3.429941e-001 3.167496e-001 2.403777e-001 2.375354e-001
<GCONST> 1.156467e+002
<TRANSP> 5
 0.000000e+000 1.000000e+000 0.000000e+000 0.000000e+000 0.000000e+000
 0.000000e+000 6.000000e-001 4.000000e-001 0.000000e+000 0.000000e+000
 0.000000e+000 0.000000e+000 6.000000e-001 4.000000e-001 0.000000e+000
 0.000000e+000 0.000000e+000 0.000000e+000 7.000000e-001 3.000000e-001
 0.000000e+000 0.000000e+000 0.000000e+000 0.000000e+000 0.000000e+000
<ENDHMM>
~h "D"
<BEGINHMM>
<NUMSTATES> 5
<STATE> 2
<MEAN> 39
 0.000000e+000 0.000000e+000 0.000000e+000 0.000000e+000 0.000000e+000 0.000000e+000 0.000000e+000 0.000000e+000 0.000000e+000 0.000000e+000 0.000000e+000 0.000000e+000 0.000000e+000 0.000000e+000 0.000000e+000 0.000000e+000 0.000000e+000 0.000000e+000 0.000000e+000 0.000000e+000 0.000000e+000 0.000000e+000 0.000000e+000 0.000000e+000 0.000000e+000 0.000000e+000 0.000000e+000 0.000000e+000 0.000000e+000 0.000000e+000 0.000000e+000 0.000000e+000 0.000000e+000 0.000000e+000 0.000000e+000 0.000000e+000 0.000000e+000 0.000000e+000 0.000000e+000
<VARIANCE> 39
 9.359503e+001 3.679459e+001 4.499012e+001 6.351903e+001 6.475761e+001 6.529059e+001 3.928167e+001 6.018552e+001 4.288419e+001 3.339623e+001 3.708072e+001 1.868259e+001 5.973125e+001 2.821502e+000 1.631565e+000 1.523291e+000 1.894124e+000 2.418094e+000 2.534702e+000 2.151116e+000 2.636228e+000 2.226562e+000 1.935865e+000 1.857413e+000 1.305851e+000 1.719570e+000 3.393596e-001 2.469798e-001 2.173008e-001 2.656330e-001 3.564706e-001 3.952440e-001 3.678456e-001 4.340220e-001 3.816188e-001 3.429941e-001 3.167496e-001 2.403777e-001 2.375354e-001
<GCONST> 1.156467e+002
<STATE> 3
<MEAN> 39
 0.000000e+000 0.000000e+000 0.000000e+000 0.000000e+000 0.000000e+000 0.000000e+000 0.000000e+000 0.000000e+000 0.000000e+000 0.000000e+000 0.000000e+000 0.000000e+000 0.000000e+000 0.000000e+000 0.000000e+000 0.000000e+000 0.000000e+000 0.000000e+000 0.000000e+000 0.000000e+000 0.000000e+000 0.000000e+000 0.000000e+000 0.000000e+000 0.000000e+000 0.000000e+000 0.000000e+000 0.000000e+000 0.000000e+000 0.000000e+000 0.000000e+000 0.000000e+000 0.000000e+000 0.000000e+000 0.000000e+000 0.000000e+000 0.000000e+000 0.000000e+000 0.000000e+000
<VARIANCE> 39
 9.359503e+001 3.679459e+001 4.499012e+001 6.351903e+001 6.475761e+001 6.529059e+001 3.928167e+001 6.018552e+001 4.288419e+001 3.339623e+001 3.708072e+001 1.868259e+001 5.973125e+001 2.821502e+000 1.631565e+000 1.523291e+000 1.894124e+000 2.418094e+000 2.534702e+000 2.151116e+000 2.636228e+000 2.226562e+000 1.935865e+000 1.857413e+000 1.305851e+000 1.719570e+000 3.393596e-001 2.469798e-001 2.173008e-001 2.656330e-001 3.564706e-001 3.952440e-001 3.678456e-001 4.340220e-001 3.816188e-001 3.429941e-001 3.167496e-001 2.403777e-001 2.375354e-001
<GCONST> 1.156467e+002
<STATE> 4
<MEAN> 39
 0.000000e+000 0.000000e+000 0.000000e+000 0.000000e+000 0.000000e+000 0.000000e+000 0.000000e+000 0.000000e+000 0.000000e+000 0.000000e+000 0.000000e+000 0.000000e+000 0.000000e+000 0.000000e+000 0.000000e+000 0.000000e+000 0.000000e+000 0.000000e+000 0.000000e+000 0.000000e+000 0.000000e+000 0.000000e+000 0.000000e+000 0.000000e+000 0.000000e+000 0.000000e+000 0.000000e+000 0.000000e+000 0.000000e+000 0.000000e+000 0.000000e+000 0.000000e+000 0.000000e+000 0.000000e+000 0.000000e+000 0.000000e+000 0.000000e+000 0.000000e+000 0.000000e+000
<VARIANCE> 39
 9.359503e+001 3.679459e+001 4.499012e+001 6.351903e+001 6.475761e+001 6.529059e+001 3.928167e+001 6.018552e+001 4.288419e+001 3.339623e+001 3.708072e+001 1.868259e+001 5.973125e+001 2.821502e+000 1.631565e+000 1.523291e+000 1.894124e+000 2.418094e+000 2.534702e+000 2.151116e+000 2.636228e+000 2.226562e+000 1.935865e+000 1.857413e+000 1.305851e+000 1.719570e+000 3.393596e-001 2.469798e-001 2.173008e-001 2.656330e-001 3.564706e-001 3.952440e-001 3.678456e-001 4.340220e-001 3.816188e-001 3.429941e-001 3.167496e-001 2.403777e-001 2.375354e-001
<GCONST> 1.156467e+002
<TRANSP> 5
 0.000000e+000 1.000000e+000 0.000000e+000 0.000000e+000 0.000000e+000
 0.000000e+000 6.000000e-001 4.000000e-001 0.000000e+000 0.000000e+000
 0.000000e+000 0.000000e+000 6.000000e-001 4.000000e-001 0.000000e+000
 0.000000e+000 0.000000e+000 0.000000e+000 7.000000e-001 3.000000e-001
 0.000000e+000 0.000000e+000 0.000000e+000 0.000000e+000 0.000000e+000
<ENDHMM>
~h "I"
<BEGINHMM>
<NUMSTATES> 5
<STATE> 2
<MEAN> 39
 0.000000e+000 0.000000e+000 0.000000e+000 0.000000e+000 0.000000e+000 0.000000e+000 0.000000e+000 0.000000e+000 0.000000e+000 0.000000e+000 0.000000e+000 0.000000e+000 0.000000e+000 0.000000e+000 0.000000e+000 0.000000e+000 0.000000e+000 0.000000e+000 0.000000e+000 0.000000e+000 0.000000e+000 0.000000e+000 0.000000e+000 0.000000e+000 0.000000e+000 0.000000e+000 0.000000e+000 0.000000e+000 0.000000e+000 0.000000e+000 0.000000e+000 0.000000e+000 0.000000e+000 0.000000e+000 0.000000e+000 0.000000e+000 0.000000e+000 0.000000e+000 0.000000e+000
<VARIANCE> 39
 9.359503e+001 3.679459e+001 4.499012e+001 6.351903e+001 6.475761e+001 6.529059e+001 3.928167e+001 6.018552e+001 4.288419e+001 3.339623e+001 3.708072e+001 1.868259e+001 5.973125e+001 2.821502e+000 1.631565e+000 1.523291e+000 1.894124e+000 2.418094e+000 2.534702e+000 2.151116e+000 2.636228e+000 2.226562e+000 1.935865e+000 1.857413e+000 1.305851e+000 1.719570e+000 3.393596e-001 2.469798e-001 2.173008e-001 2.656330e-001 3.564706e-001 3.952440e-001 3.678456e-001 4.340220e-001 3.816188e-001 3.429941e-001 3.167496e-001 2.403777e-001 2.375354e-001
<GCONST> 1.156467e+002
<STATE> 3
<MEAN> 39
 0.000000e+000 0.000000e+000 0.000000e+000 0.000000e+000 0.000000e+000 0.000000e+000 0.000000e+000 0.000000e+000 0.000000e+000 0.000000e+000 0.000000e+000 0.000000e+000 0.000000e+000 0.000000e+000 0.000000e+000 0.000000e+000 0.000000e+000 0.000000e+000 0.000000e+000 0.000000e+000 0.000000e+000 0.000000e+000 0.000000e+000 0.000000e+000 0.000000e+000 0.000000e+000 0.000000e+000 0.000000e+000 0.000000e+000 0.000000e+000 0.000000e+000 0.000000e+000 0.000000e+000 0.000000e+000 0.000000e+000 0.000000e+000 0.000000e+000 0.000000e+000 0.000000e+000
<VARIANCE> 39
 9.359503e+001 3.679459e+001 4.499012e+001 6.351903e+001 6.475761e+001 6.529059e+001 3.928167e+001 6.018552e+001 4.288419e+001 3.339623e+001 3.708072e+001 1.868259e+001 5.973125e+001 2.821502e+000 1.631565e+000 1.523291e+000 1.894124e+000 2.418094e+000 2.534702e+000 2.151116e+000 2.636228e+000 2.226562e+000 1.935865e+000 1.857413e+000 1.305851e+000 1.719570e+000 3.393596e-001 2.469798e-001 2.173008e-001 2.656330e-001 3.564706e-001 3.952440e-001 3.678456e-001 4.340220e-001 3.816188e-001 3.429941e-001 3.167496e-001 2.403777e-001 2.375354e-001
<GCONST> 1.156467e+002
<STATE> 4
<MEAN> 39
 0.000000e+000 0.000000e+000 0.000000e+000 0.000000e+000 0.000000e+000 0.000000e+000 0.000000e+000 0.000000e+000 0.000000e+000 0.000000e+000 0.000000e+000 0.000000e+000 0.000000e+000 0.000000e+000 0.000000e+000 0.000000e+000 0.000000e+000 0.000000e+000 0.000000e+000 0.000000e+000 0.000000e+000 0.000000e+000 0.000000e+000 0.000000e+000 0.000000e+000 0.000000e+000 0.000000e+000 0.000000e+000 0.000000e+000 0.000000e+000 0.000000e+000 0.000000e+000 0.000000e+000 0.000000e+000 0.000000e+000 0.000000e+000 0.000000e+000 0.000000e+000 0.000000e+000
<VARIANCE> 39
 9.359503e+001 3.679459e+001 4.499012e+001 6.351903e+001 6.475761e+001 6.529059e+001 3.928167e+001 6.018552e+001 4.288419e+001 3.339623e+001 3.708072e+001 1.868259e+001 5.973125e+001 2.821502e+000 1.631565e+000 1.523291e+000 1.894124e+000 2.418094e+000 2.534702e+000 2.151116e+000 2.636228e+000 2.226562e+000 1.935865e+000 1.857413e+000 1.305851e+000 1.719570e+000 3.393596e-001 2.469798e-001 2.173008e-001 2.656330e-001 3.564706e-001 3.952440e-001 3.678456e-001 4.340220e-001 3.816188e-001 3.429941e-001 3.167496e-001 2.403777e-001 2.375354e-001
<GCONST> 1.156467e+002
<TRANSP> 5
 0.000000e+000 1.000000e+000 0.000000e+000 0.000000e+000 0.000000e+000
 0.000000e+000 6.000000e-001 4.000000e-001 0.000000e+000 0.000000e+000
 0.000000e+000 0.000000e+000 6.000000e-001 4.000000e-001 0.000000e+000
 0.000000e+000 0.000000e+000 0.000000e+000 7.000000e-001 3.000000e-001
 0.000000e+000 0.000000e+000 0.000000e+000 0.000000e+000 0.000000e+000
<ENDHMM>
~h "N"
<BEGINHMM>
<NUMSTATES> 5
<STATE> 2
<MEAN> 39
 0.000000e+000 0.000000e+000 0.000000e+000 0.000000e+000 0.000000e+000 0.000000e+000 0.000000e+000 0.000000e+000 0.000000e+000 0.000000e+000 0.000000e+000 0.000000e+000 0.000000e+000 0.000000e+000 0.000000e+000 0.000000e+000 0.000000e+000 0.000000e+000 0.000000e+000 0.000000e+000 0.000000e+000 0.000000e+000 0.000000e+000 0.000000e+000 0.000000e+000 0.000000e+000 0.000000e+000 0.000000e+000 0.000000e+000 0.000000e+000 0.000000e+000 0.000000e+000 0.000000e+000 0.000000e+000 0.000000e+000 0.000000e+000 0.000000e+000 0.000000e+000 0.000000e+000
<VARIANCE> 39
 9.359503e+001 3.679459e+001 4.499012e+001 6.351903e+001 6.475761e+001 6.529059e+001 3.928167e+001 6.018552e+001 4.288419e+001 3.339623e+001 3.708072e+001 1.868259e+001 5.973125e+001 2.821502e+000 1.631565e+000 1.523291e+000 1.894124e+000 2.418094e+000 2.534702e+000 2.151116e+000 2.636228e+000 2.226562e+000 1.935865e+000 1.857413e+000 1.305851e+000 1.719570e+000 3.393596e-001 2.469798e-001 2.173008e-001 2.656330e-001 3.564706e-001 3.952440e-001 3.678456e-001 4.340220e-001 3.816188e-001 3.429941e-001 3.167496e-001 2.403777e-001 2.375354e-001
<GCONST> 1.156467e+002
<STATE> 3
<MEAN> 39
 0.000000e+000 0.000000e+000 0.000000e+000 0.000000e+000 0.000000e+000 0.000000e+000 0.000000e+000 0.000000e+000 0.000000e+000 0.000000e+000 0.000000e+000 0.000000e+000 0.000000e+000 0.000000e+000 0.000000e+000 0.000000e+000 0.000000e+000 0.000000e+000 0.000000e+000 0.000000e+000 0.000000e+000 0.000000e+000 0.000000e+000 0.000000e+000 0.000000e+000 0.000000e+000 0.000000e+000 0.000000e+000 0.000000e+000 0.000000e+000 0.000000e+000 0.000000e+000 0.000000e+000 0.000000e+000 0.000000e+000 0.000000e+000 0.000000e+000 0.000000e+000 0.000000e+000
<VARIANCE> 39
 9.359503e+001 3.679459e+001 4.499012e+001 6.351903e+001 6.475761e+001 6.529059e+001 3.928167e+001 6.018552e+001 4.288419e+001 3.339623e+001 3.708072e+001 1.868259e+001 5.973125e+001 2.821502e+000 1.631565e+000 1.523291e+000 1.894124e+000 2.418094e+000 2.534702e+000 2.151116e+000 2.636228e+000 2.226562e+000 1.935865e+000 1.857413e+000 1.305851e+000 1.719570e+000 3.393596e-001 2.469798e-001 2.173008e-001 2.656330e-001 3.564706e-001 3.952440e-001 3.678456e-001 4.340220e-001 3.816188e-001 3.429941e-001 3.167496e-001 2.403777e-001 2.375354e-001
<GCONST> 1.156467e+002
<STATE> 4
<MEAN> 39
 0.000000e+000 0.000000e+000 0.000000e+000 0.000000e+000 0.000000e+000 0.000000e+000 0.000000e+000 0.000000e+000 0.000000e+000 0.000000e+000 0.000000e+000 0.000000e+000 0.000000e+000 0.000000e+000 0.000000e+000 0.000000e+000 0.000000e+000 0.000000e+000 0.000000e+000 0.000000e+000 0.000000e+000 0.000000e+000 0.000000e+000 0.000000e+000 0.000000e+000 0.000000e+000 0.000000e+000 0.000000e+000 0.000000e+000 0.000000e+000 0.000000e+000 0.000000e+000 0.000000e+000 0.000000e+000 0.000000e+000 0.000000e+000 0.000000e+000 0.000000e+000 0.000000e+000
<VARIANCE> 39
 9.359503e+001 3.679459e+001 4.499012e+001 6.351903e+001 6.475761e+001 6.529059e+001 3.928167e+001 6.018552e+001 4.288419e+001 3.339623e+001 3.708072e+001 1.868259e+001 5.973125e+001 2.821502e+000 1.631565e+000 1.523291e+000 1.894124e+000 2.418094e+000 2.534702e+000 2.151116e+000 2.636228e+000 2.226562e+000 1.935865e+000 1.857413e+000 1.305851e+000 1.719570e+000 3.393596e-001 2.469798e-001 2.173008e-001 2.656330e-001 3.564706e-001 3.952440e-001 3.678456e-001 4.340220e-001 3.816188e-001 3.429941e-001 3.167496e-001 2.403777e-001 2.375354e-001
<GCONST> 1.156467e+002
<TRANSP> 5
 0.000000e+000 1.000000e+000 0.000000e+000 0.000000e+000 0.000000e+000
 0.000000e+000 6.000000e-001 4.000000e-001 0.000000e+000 0.000000e+000
 0.000000e+000 0.000000e+000 6.000000e-001 4.000000e-001 0.000000e+000
 0.000000e+000 0.000000e+000 0.000000e+000 7.000000e-001 3.000000e-001
 0.000000e+000 0.000000e+000 0.000000e+000 0.000000e+000 0.000000e+000
<ENDHMM>
~h "Q"
<BEGINHMM>
<NUMSTATES> 5
<STATE> 2
<MEAN> 39
 0.000000e+000 0.000000e+000 0.000000e+000 0.000000e+000 0.000000e+000 0.000000e+000 0.000000e+000 0.000000e+000 0.000000e+000 0.000000e+000 0.000000e+000 0.000000e+000 0.000000e+000 0.000000e+000 0.000000e+000 0.000000e+000 0.000000e+000 0.000000e+000 0.000000e+000 0.000000e+000 0.000000e+000 0.000000e+000 0.000000e+000 0.000000e+000 0.000000e+000 0.000000e+000 0.000000e+000 0.000000e+000 0.000000e+000 0.000000e+000 0.000000e+000 0.000000e+000 0.000000e+000 0.000000e+000 0.000000e+000 0.000000e+000 0.000000e+000 0.000000e+000 0.000000e+000
<VARIANCE> 39
 9.359503e+001 3.679459e+001 4.499012e+001 6.351903e+001 6.475761e+001 6.529059e+001 3.928167e+001 6.018552e+001 4.288419e+001 3.339623e+001 3.708072e+001 1.868259e+001 5.973125e+001 2.821502e+000 1.631565e+000 1.523291e+000 1.894124e+000 2.418094e+000 2.534702e+000 2.151116e+000 2.636228e+000 2.226562e+000 1.935865e+000 1.857413e+000 1.305851e+000 1.719570e+000 3.393596e-001 2.469798e-001 2.173008e-001 2.656330e-001 3.564706e-001 3.952440e-001 3.678456e-001 4.340220e-001 3.816188e-001 3.429941e-001 3.167496e-001 2.403777e-001 2.375354e-001
<GCONST> 1.156467e+002
<STATE> 3
<MEAN> 39
 0.000000e+000 0.000000e+000 0.000000e+000 0.000000e+000 0.000000e+000 0.000000e+000 0.000000e+000 0.000000e+000 0.000000e+000 0.000000e+000 0.000000e+000 0.000000e+000 0.000000e+000 0.000000e+000 0.000000e+000 0.000000e+000 0.000000e+000 0.000000e+000 0.000000e+000 0.000000e+000 0.000000e+000 0.000000e+000 0.000000e+000 0.000000e+000 0.000000e+000 0.000000e+000 0.000000e+000 0.000000e+000 0.000000e+000 0.000000e+000 0.000000e+000 0.000000e+000 0.000000e+000 0.000000e+000 0.000000e+000 0.000000e+000 0.000000e+000 0.000000e+000 0.000000e+000
<VARIANCE> 39
 9.359503e+001 3.679459e+001 4.499012e+001 6.351903e+001 6.475761e+001 6.529059e+001 3.928167e+001 6.018552e+001 4.288419e+001 3.339623e+001 3.708072e+001 1.868259e+001 5.973125e+001 2.821502e+000 1.631565e+000 1.523291e+000 1.894124e+000 2.418094e+000 2.534702e+000 2.151116e+000 2.636228e+000 2.226562e+000 1.935865e+000 1.857413e+000 1.305851e+000 1.719570e+000 3.393596e-001 2.469798e-001 2.173008e-001 2.656330e-001 3.564706e-001 3.952440e-001 3.678456e-001 4.340220e-001 3.816188e-001 3.429941e-001 3.167496e-001 2.403777e-001 2.375354e-001
<GCONST> 1.156467e+002
<STATE> 4
<MEAN> 39
 0.000000e+000 0.000000e+000 0.000000e+000 0.000000e+000 0.000000e+000 0.000000e+000 0.000000e+000 0.000000e+000 0.000000e+000 0.000000e+000 0.000000e+000 0.000000e+000 0.000000e+000 0.000000e+000 0.000000e+000 0.000000e+000 0.000000e+000 0.000000e+000 0.000000e+000 0.000000e+000 0.000000e+000 0.000000e+000 0.000000e+000 0.000000e+000 0.000000e+000 0.000000e+000 0.000000e+000 0.000000e+000 0.000000e+000 0.000000e+000 0.000000e+000 0.000000e+000 0.000000e+000 0.000000e+000 0.000000e+000 0.000000e+000 0.000000e+000 0.000000e+000 0.000000e+000
<VARIANCE> 39
 9.359503e+001 3.679459e+001 4.499012e+001 6.351903e+001 6.475761e+001 6.529059e+001 3.928167e+001 6.018552e+001 4.288419e+001 3.339623e+001 3.708072e+001 1.868259e+001 5.973125e+001 2.821502e+000 1.631565e+000 1.523291e+000 1.894124e+000 2.418094e+000 2.534702e+000 2.151116e+000 2.636228e+000 2.226562e+000 1.935865e+000 1.857413e+000 1.305851e+000 1.719570e+000 3.393596e-001 2.469798e-001 2.173008e-001 2.656330e-001 3.564706e-001 3.952440e-001 3.678456e-001 4.340220e-001 3.816188e-001 3.429941e-001 3.167496e-001 2.403777e-001 2.375354e-001
<GCONST> 1.156467e+002
<TRANSP> 5
 0.000000e+000 1.000000e+000 0.000000e+000 0.000000e+000 0.000000e+000
 0.000000e+000 6.000000e-001 4.000000e-001 0.000000e+000 0.000000e+000
 0.000000e+000 0.000000e+000 6.000000e-001 4.000000e-001 0.000000e+000
 0.000000e+000 0.000000e+000 0.000000e+000 7.000000e-001 3.000000e-001
 0.000000e+000 0.000000e+000 0.000000e+000 0.000000e+000 0.000000e+000
<ENDHMM>
~h "S"
<BEGINHMM>
<NUMSTATES> 5
<STATE> 2
<MEAN> 39
 0.000000e+000 0.000000e+000 0.000000e+000 0.000000e+000 0.000000e+000 0.000000e+000 0.000000e+000 0.000000e+000 0.000000e+000 0.000000e+000 0.000000e+000 0.000000e+000 0.000000e+000 0.000000e+000 0.000000e+000 0.000000e+000 0.000000e+000 0.000000e+000 0.000000e+000 0.000000e+000 0.000000e+000 0.000000e+000 0.000000e+000 0.000000e+000 0.000000e+000 0.000000e+000 0.000000e+000 0.000000e+000 0.000000e+000 0.000000e+000 0.000000e+000 0.000000e+000 0.000000e+000 0.000000e+000 0.000000e+000 0.000000e+000 0.000000e+000 0.000000e+000 0.000000e+000
<VARIANCE> 39
 9.359503e+001 3.679459e+001 4.499012e+001 6.351903e+001 6.475761e+001 6.529059e+001 3.928167e+001 6.018552e+001 4.288419e+001 3.339623e+001 3.708072e+001 1.868259e+001 5.973125e+001 2.821502e+000 1.631565e+000 1.523291e+000 1.894124e+000 2.418094e+000 2.534702e+000 2.151116e+000 2.636228e+000 2.226562e+000 1.935865e+000 1.857413e+000 1.305851e+000 1.719570e+000 3.393596e-001 2.469798e-001 2.173008e-001 2.656330e-001 3.564706e-001 3.952440e-001 3.678456e-001 4.340220e-001 3.816188e-001 3.429941e-001 3.167496e-001 2.403777e-001 2.375354e-001
<GCONST> 1.156467e+002
<STATE> 3
<MEAN> 39
 0.000000e+000 0.000000e+000 0.000000e+000 0.000000e+000 0.000000e+000 0.000000e+000 0.000000e+000 0.000000e+000 0.000000e+000 0.000000e+000 0.000000e+000 0.000000e+000 0.000000e+000 0.000000e+000 0.000000e+000 0.000000e+000 0.000000e+000 0.000000e+000 0.000000e+000 0.000000e+000 0.000000e+000 0.000000e+000 0.000000e+000 0.000000e+000 0.000000e+000 0.000000e+000 0.000000e+000 0.000000e+000 0.000000e+000 0.000000e+000 0.000000e+000 0.000000e+000 0.000000e+000 0.000000e+000 0.000000e+000 0.000000e+000 0.000000e+000 0.000000e+000 0.000000e+000
<VARIANCE> 39
 9.359503e+001 3.679459e+001 4.499012e+001 6.351903e+001 6.475761e+001 6.529059e+001 3.928167e+001 6.018552e+001 4.288419e+001 3.339623e+001 3.708072e+001 1.868259e+001 5.973125e+001 2.821502e+000 1.631565e+000 1.523291e+000 1.894124e+000 2.418094e+000 2.534702e+000 2.151116e+000 2.636228e+000 2.226562e+000 1.935865e+000 1.857413e+000 1.305851e+000 1.719570e+000 3.393596e-001 2.469798e-001 2.173008e-001 2.656330e-001 3.564706e-001 3.952440e-001 3.678456e-001 4.340220e-001 3.816188e-001 3.429941e-001 3.167496e-001 2.403777e-001 2.375354e-001
<GCONST> 1.156467e+002
<STATE> 4
<MEAN> 39
 0.000000e+000 0.000000e+000 0.000000e+000 0.000000e+000 0.000000e+000 0.000000e+000 0.000000e+000 0.000000e+000 0.000000e+000 0.000000e+000 0.000000e+000 0.000000e+000 0.000000e+000 0.000000e+000 0.000000e+000 0.000000e+000 0.000000e+000 0.000000e+000 0.000000e+000 0.000000e+000 0.000000e+000 0.000000e+000 0.000000e+000 0.000000e+000 0.000000e+000 0.000000e+000 0.000000e+000 0.000000e+000 0.000000e+000 0.000000e+000 0.000000e+000 0.000000e+000 0.000000e+000 0.000000e+000 0.000000e+000 0.000000e+000 0.000000e+000 0.000000e+000 0.000000e+000
<VARIANCE> 39
 9.359503e+001 3.679459e+001 4.499012e+001 6.351903e+001 6.475761e+001 6.529059e+001 3.928167e+001 6.018552e+001 4.288419e+001 3.339623e+001 3.708072e+001 1.868259e+001 5.973125e+001 2.821502e+000 1.631565e+000 1.523291e+000 1.894124e+000 2.418094e+000 2.534702e+000 2.151116e+000 2.636228e+000 2.226562e+000 1.935865e+000 1.857413e+000 1.305851e+000 1.719570e+000 3.393596e-001 2.469798e-001 2.173008e-001 2.656330e-001 3.564706e-001 3.952440e-001 3.678456e-001 4.340220e-001 3.816188e-001 3.429941e-001 3.167496e-001 2.403777e-001 2.375354e-001
<GCONST> 1.156467e+002
<TRANSP> 5
 0.000000e+000 1.000000e+000 0.000000e+000 0.000000e+000 0.000000e+000
 0.000000e+000 6.000000e-001 4.000000e-001 0.000000e+000 0.000000e+000
 0.000000e+000 0.000000e+000 6.000000e-001 4.000000e-001 0.000000e+000
 0.000000e+000 0.000000e+000 0.000000e+000 7.000000e-001 3.000000e-001
 0.000000e+000 0.000000e+000 0.000000e+000 0.000000e+000 0.000000e+000
<ENDHMM>
~h "T"
<BEGINHMM>
<NUMSTATES> 5
<STATE> 2
<MEAN> 39
 0.000000e+000 0.000000e+000 0.000000e+000 0.000000e+000 0.000000e+000 0.000000e+000 0.000000e+000 0.000000e+000 0.000000e+000 0.000000e+000 0.000000e+000 0.000000e+000 0.000000e+000 0.000000e+000 0.000000e+000 0.000000e+000 0.000000e+000 0.000000e+000 0.000000e+000 0.000000e+000 0.000000e+000 0.000000e+000 0.000000e+000 0.000000e+000 0.000000e+000 0.000000e+000 0.000000e+000 0.000000e+000 0.000000e+000 0.000000e+000 0.000000e+000 0.000000e+000 0.000000e+000 0.000000e+000 0.000000e+000 0.000000e+000 0.000000e+000 0.000000e+000 0.000000e+000
<VARIANCE> 39
 9.359503e+001 3.679459e+001 4.499012e+001 6.351903e+001 6.475761e+001 6.529059e+001 3.928167e+001 6.018552e+001 4.288419e+001 3.339623e+001 3.708072e+001 1.868259e+001 5.973125e+001 2.821502e+000 1.631565e+000 1.523291e+000 1.894124e+000 2.418094e+000 2.534702e+000 2.151116e+000 2.636228e+000 2.226562e+000 1.935865e+000 1.857413e+000 1.305851e+000 1.719570e+000 3.393596e-001 2.469798e-001 2.173008e-001 2.656330e-001 3.564706e-001 3.952440e-001 3.678456e-001 4.340220e-001 3.816188e-001 3.429941e-001 3.167496e-001 2.403777e-001 2.375354e-001
<GCONST> 1.156467e+002
<STATE> 3
<MEAN> 39
 0.000000e+000 0.000000e+000 0.000000e+000 0.000000e+000 0.000000e+000 0.000000e+000 0.000000e+000 0.000000e+000 0.000000e+000 0.000000e+000 0.000000e+000 0.000000e+000 0.000000e+000 0.000000e+000 0.000000e+000 0.000000e+000 0.000000e+000 0.000000e+000 0.000000e+000 0.000000e+000 0.000000e+000 0.000000e+000 0.000000e+000 0.000000e+000 0.000000e+000 0.000000e+000 0.000000e+000 0.000000e+000 0.000000e+000 0.000000e+000 0.000000e+000 0.000000e+000 0.000000e+000 0.000000e+000 0.000000e+000 0.000000e+000 0.000000e+000 0.000000e+000 0.000000e+000
<VARIANCE> 39
 9.359503e+001 3.679459e+001 4.499012e+001 6.351903e+001 6.475761e+001 6.529059e+001 3.928167e+001 6.018552e+001 4.288419e+001 3.339623e+001 3.708072e+001 1.868259e+001 5.973125e+001 2.821502e+000 1.631565e+000 1.523291e+000 1.894124e+000 2.418094e+000 2.534702e+000 2.151116e+000 2.636228e+000 2.226562e+000 1.935865e+000 1.857413e+000 1.305851e+000 1.719570e+000 3.393596e-001 2.469798e-001 2.173008e-001 2.656330e-001 3.564706e-001 3.952440e-001 3.678456e-001 4.340220e-001 3.816188e-001 3.429941e-001 3.167496e-001 2.403777e-001 2.375354e-001
<GCONST> 1.156467e+002
<STATE> 4
<MEAN> 39
 0.000000e+000 0.000000e+000 0.000000e+000 0.000000e+000 0.000000e+000 0.000000e+000 0.000000e+000 0.000000e+000 0.000000e+000 0.000000e+000 0.000000e+000 0.000000e+000 0.000000e+000 0.000000e+000 0.000000e+000 0.000000e+000 0.000000e+000 0.000000e+000 0.000000e+000 0.000000e+000 0.000000e+000 0.000000e+000 0.000000e+000 0.000000e+000 0.000000e+000 0.000000e+000 0.000000e+000 0.000000e+000 0.000000e+000 0.000000e+000 0.000000e+000 0.000000e+000 0.000000e+000 0.000000e+000 0.000000e+000 0.000000e+000 0.000000e+000 0.000000e+000 0.000000e+000
<VARIANCE> 39
 9.359503e+001 3.679459e+001 4.499012e+001 6.351903e+001 6.475761e+001 6.529059e+001 3.928167e+001 6.018552e+001 4.288419e+001 3.339623e+001 3.708072e+001 1.868259e+001 5.973125e+001 2.821502e+000 1.631565e+000 1.523291e+000 1.894124e+000 2.418094e+000 2.534702e+000 2.151116e+000 2.636228e+000 2.226562e+000 1.935865e+000 1.857413e+000 1.305851e+000 1.719570e+000 3.393596e-001 2.469798e-001 2.173008e-001 2.656330e-001 3.564706e-001 3.952440e-001 3.678456e-001 4.340220e-001 3.816188e-001 3.429941e-001 3.167496e-001 2.403777e-001 2.375354e-001
<GCONST> 1.156467e+002
<TRANSP> 5
 0.000000e+000 1.000000e+000 0.000000e+000 0.000000e+000 0.000000e+000
 0.000000e+000 6.000000e-001 4.000000e-001 0.000000e+000 0.000000e+000
 0.000000e+000 0.000000e+000 6.000000e-001 4.000000e-001 0.000000e+000
 0.000000e+000 0.000000e+000 0.000000e+000 7.000000e-001 3.000000e-001
 0.000000e+000 0.000000e+000 0.000000e+000 0.000000e+000 0.000000e+000
<ENDHMM>
~h "U"
<BEGINHMM>
<NUMSTATES> 5
<STATE> 2
<MEAN> 39
 0.000000e+000 0.000000e+000 0.000000e+000 0.000000e+000 0.000000e+000 0.000000e+000 0.000000e+000 0.000000e+000 0.000000e+000 0.000000e+000 0.000000e+000 0.000000e+000 0.000000e+000 0.000000e+000 0.000000e+000 0.000000e+000 0.000000e+000 0.000000e+000 0.000000e+000 0.000000e+000 0.000000e+000 0.000000e+000 0.000000e+000 0.000000e+000 0.000000e+000 0.000000e+000 0.000000e+000 0.000000e+000 0.000000e+000 0.000000e+000 0.000000e+000 0.000000e+000 0.000000e+000 0.000000e+000 0.000000e+000 0.000000e+000 0.000000e+000 0.000000e+000 0.000000e+000
<VARIANCE> 39
 9.359503e+001 3.679459e+001 4.499012e+001 6.351903e+001 6.475761e+001 6.529059e+001 3.928167e+001 6.018552e+001 4.288419e+001 3.339623e+001 3.708072e+001 1.868259e+001 5.973125e+001 2.821502e+000 1.631565e+000 1.523291e+000 1.894124e+000 2.418094e+000 2.534702e+000 2.151116e+000 2.636228e+000 2.226562e+000 1.935865e+000 1.857413e+000 1.305851e+000 1.719570e+000 3.393596e-001 2.469798e-001 2.173008e-001 2.656330e-001 3.564706e-001 3.952440e-001 3.678456e-001 4.340220e-001 3.816188e-001 3.429941e-001 3.167496e-001 2.403777e-001 2.375354e-001
<GCONST> 1.156467e+002
<STATE> 3
<MEAN> 39
 0.000000e+000 0.000000e+000 0.000000e+000 0.000000e+000 0.000000e+000 0.000000e+000 0.000000e+000 0.000000e+000 0.000000e+000 0.000000e+000 0.000000e+000 0.000000e+000 0.000000e+000 0.000000e+000 0.000000e+000 0.000000e+000 0.000000e+000 0.000000e+000 0.000000e+000 0.000000e+000 0.000000e+000 0.000000e+000 0.000000e+000 0.000000e+000 0.000000e+000 0.000000e+000 0.000000e+000 0.000000e+000 0.000000e+000 0.000000e+000 0.000000e+000 0.000000e+000 0.000000e+000 0.000000e+000 0.000000e+000 0.000000e+000 0.000000e+000 0.000000e+000 0.000000e+000
<VARIANCE> 39
 9.359503e+001 3.679459e+001 4.499012e+001 6.351903e+001 6.475761e+001 6.529059e+001 3.928167e+001 6.018552e+001 4.288419e+001 3.339623e+001 3.708072e+001 1.868259e+001 5.973125e+001 2.821502e+000 1.631565e+000 1.523291e+000 1.894124e+000 2.418094e+000 2.534702e+000 2.151116e+000 2.636228e+000 2.226562e+000 1.935865e+000 1.857413e+000 1.305851e+000 1.719570e+000 3.393596e-001 2.469798e-001 2.173008e-001 2.656330e-001 3.564706e-001 3.952440e-001 3.678456e-001 4.340220e-001 3.816188e-001 3.429941e-001 3.167496e-001 2.403777e-001 2.375354e-001
<GCONST> 1.156467e+002
<STATE> 4
<MEAN> 39
 0.000000e+000 0.000000e+000 0.000000e+000 0.000000e+000 0.000000e+000 0.000000e+000 0.000000e+000 0.000000e+000 0.000000e+000 0.000000e+000 0.000000e+000 0.000000e+000 0.000000e+000 0.000000e+000 0.000000e+000 0.000000e+000 0.000000e+000 0.000000e+000 0.000000e+000 0.000000e+000 0.000000e+000 0.000000e+000 0.000000e+000 0.000000e+000 0.000000e+000 0.000000e+000 0.000000e+000 0.000000e+000 0.000000e+000 0.000000e+000 0.000000e+000 0.000000e+000 0.000000e+000 0.000000e+000 0.000000e+000 0.000000e+000 0.000000e+000 0.000000e+000 0.000000e+000
<VARIANCE> 39
 9.359503e+001 3.679459e+001 4.499012e+001 6.351903e+001 6.475761e+001 6.529059e+001 3.928167e+001 6.018552e+001 4.288419e+001 3.339623e+001 3.708072e+001 1.868259e+001 5.973125e+001 2.821502e+000 1.631565e+000 1.523291e+000 1.894124e+000 2.418094e+000 2.534702e+000 2.151116e+000 2.636228e+000 2.226562e+000 1.935865e+000 1.857413e+000 1.305851e+000 1.719570e+000 3.393596e-001 2.469798e-001 2.173008e-001 2.656330e-001 3.564706e-001 3.952440e-001 3.678456e-001 4.340220e-001 3.816188e-001 3.429941e-001 3.167496e-001 2.403777e-001 2.375354e-001
<GCONST> 1.156467e+002
<TRANSP> 5
 0.000000e+000 1.000000e+000 0.000000e+000 0.000000e+000 0.000000e+000
 0.000000e+000 6.000000e-001 4.000000e-001 0.000000e+000 0.000000e+000
 0.000000e+000 0.000000e+000 6.000000e-001 4.000000e-001 0.000000e+000
 0.000000e+000 0.000000e+000 0.000000e+000 7.000000e-001 3.000000e-001
 0.000000e+000 0.000000e+000 0.000000e+000 0.000000e+000 0.000000e+000
<ENDHMM>
~h "V"
<BEGINHMM>
<NUMSTATES> 5
<STATE> 2
<MEAN> 39
 0.000000e+000 0.000000e+000 0.000000e+000 0.000000e+000 0.000000e+000 0.000000e+000 0.000000e+000 0.000000e+000 0.000000e+000 0.000000e+000 0.000000e+000 0.000000e+000 0.000000e+000 0.000000e+000 0.000000e+000 0.000000e+000 0.000000e+000 0.000000e+000 0.000000e+000 0.000000e+000 0.000000e+000 0.000000e+000 0.000000e+000 0.000000e+000 0.000000e+000 0.000000e+000 0.000000e+000 0.000000e+000 0.000000e+000 0.000000e+000 0.000000e+000 0.000000e+000 0.000000e+000 0.000000e+000 0.000000e+000 0.000000e+000 0.000000e+000 0.000000e+000 0.000000e+000
<VARIANCE> 39
 9.359503e+001 3.679459e+001 4.499012e+001 6.351903e+001 6.475761e+001 6.529059e+001 3.928167e+001 6.018552e+001 4.288419e+001 3.339623e+001 3.708072e+001 1.868259e+001 5.973125e+001 2.821502e+000 1.631565e+000 1.523291e+000 1.894124e+000 2.418094e+000 2.534702e+000 2.151116e+000 2.636228e+000 2.226562e+000 1.935865e+000 1.857413e+000 1.305851e+000 1.719570e+000 3.393596e-001 2.469798e-001 2.173008e-001 2.656330e-001 3.564706e-001 3.952440e-001 3.678456e-001 4.340220e-001 3.816188e-001 3.429941e-001 3.167496e-001 2.403777e-001 2.375354e-001
<GCONST> 1.156467e+002
<STATE> 3
<MEAN> 39
 0.000000e+000 0.000000e+000 0.000000e+000 0.000000e+000 0.000000e+000 0.000000e+000 0.000000e+000 0.000000e+000 0.000000e+000 0.000000e+000 0.000000e+000 0.000000e+000 0.000000e+000 0.000000e+000 0.000000e+000 0.000000e+000 0.000000e+000 0.000000e+000 0.000000e+000 0.000000e+000 0.000000e+000 0.000000e+000 0.000000e+000 0.000000e+000 0.000000e+000 0.000000e+000 0.000000e+000 0.000000e+000 0.000000e+000 0.000000e+000 0.000000e+000 0.000000e+000 0.000000e+000 0.000000e+000 0.000000e+000 0.000000e+000 0.000000e+000 0.000000e+000 0.000000e+000
<VARIANCE> 39
 9.359503e+001 3.679459e+001 4.499012e+001 6.351903e+001 6.475761e+001 6.529059e+001 3.928167e+001 6.018552e+001 4.288419e+001 3.339623e+001 3.708072e+001 1.868259e+001 5.973125e+001 2.821502e+000 1.631565e+000 1.523291e+000 1.894124e+000 2.418094e+000 2.534702e+000 2.151116e+000 2.636228e+000 2.226562e+000 1.935865e+000 1.857413e+000 1.305851e+000 1.719570e+000 3.393596e-001 2.469798e-001 2.173008e-001 2.656330e-001 3.564706e-001 3.952440e-001 3.678456e-001 4.340220e-001 3.816188e-001 3.429941e-001 3.167496e-001 2.403777e-001 2.375354e-001
<GCONST> 1.156467e+002
<STATE> 4
<MEAN> 39
 0.000000e+000 0.000000e+000 0.000000e+000 0.000000e+000 0.000000e+000 0.000000e+000 0.000000e+000 0.000000e+000 0.000000e+000 0.000000e+000 0.000000e+000 0.000000e+000 0.000000e+000 0.000000e+000 0.000000e+000 0.000000e+000 0.000000e+000 0.000000e+000 0.000000e+000 0.000000e+000 0.000000e+000 0.000000e+000 0.000000e+000 0.000000e+000 0.000000e+000 0.000000e+000 0.000000e+000 0.000000e+000 0.000000e+000 0.000000e+000 0.000000e+000 0.000000e+000 0.000000e+000 0.000000e+000 0.000000e+000 0.000000e+000 0.000000e+000 0.000000e+000 0.000000e+000
<VARIANCE> 39
 9.359503e+001 3.679459e+001 4.499012e+001 6.351903e+001 6.475761e+001 6.529059e+001 3.928167e+001 6.018552e+001 4.288419e+001 3.339623e+001 3.708072e+001 1.868259e+001 5.973125e+001 2.821502e+000 1.631565e+000 1.523291e+000 1.894124e+000 2.418094e+000 2.534702e+000 2.151116e+000 2.636228e+000 2.226562e+000 1.935865e+000 1.857413e+000 1.305851e+000 1.719570e+000 3.393596e-001 2.469798e-001 2.173008e-001 2.656330e-001 3.564706e-001 3.952440e-001 3.678456e-001 4.340220e-001 3.816188e-001 3.429941e-001 3.167496e-001 2.403777e-001 2.375354e-001
<GCONST> 1.156467e+002
<TRANSP> 5
 0.000000e+000 1.000000e+000 0.000000e+000 0.000000e+000 0.000000e+000
 0.000000e+000 6.000000e-001 4.000000e-001 0.000000e+000 0.000000e+000
 0.000000e+000 0.000000e+000 6.000000e-001 4.000000e-001 0.000000e+000
 0.000000e+000 0.000000e+000 0.000000e+000 7.000000e-001 3.000000e-001
 0.000000e+000 0.000000e+000 0.000000e+000 0.000000e+000 0.000000e+000
<ENDHMM>
~h "Z"
<BEGINHMM>
<NUMSTATES> 5
<STATE> 2
<MEAN> 39
 0.000000e+000 0.000000e+000 0.000000e+000 0.000000e+000 0.000000e+000 0.000000e+000 0.000000e+000 0.000000e+000 0.000000e+000 0.000000e+000 0.000000e+000 0.000000e+000 0.000000e+000 0.000000e+000 0.000000e+000 0.000000e+000 0.000000e+000 0.000000e+000 0.000000e+000 0.000000e+000 0.000000e+000 0.000000e+000 0.000000e+000 0.000000e+000 0.000000e+000 0.000000e+000 0.000000e+000 0.000000e+000 0.000000e+000 0.000000e+000 0.000000e+000 0.000000e+000 0.000000e+000 0.000000e+000 0.000000e+000 0.000000e+000 0.000000e+000 0.000000e+000 0.000000e+000
<VARIANCE> 39
 9.359503e+001 3.679459e+001 4.499012e+001 6.351903e+001 6.475761e+001 6.529059e+001 3.928167e+001 6.018552e+001 4.288419e+001 3.339623e+001 3.708072e+001 1.868259e+001 5.973125e+001 2.821502e+000 1.631565e+000 1.523291e+000 1.894124e+000 2.418094e+000 2.534702e+000 2.151116e+000 2.636228e+000 2.226562e+000 1.935865e+000 1.857413e+000 1.305851e+000 1.719570e+000 3.393596e-001 2.469798e-001 2.173008e-001 2.656330e-001 3.564706e-001 3.952440e-001 3.678456e-001 4.340220e-001 3.816188e-001 3.429941e-001 3.167496e-001 2.403777e-001 2.375354e-001
<GCONST> 1.156467e+002
<STATE> 3
<MEAN> 39
 0.000000e+000 0.000000e+000 0.000000e+000 0.000000e+000 0.000000e+000 0.000000e+000 0.000000e+000 0.000000e+000 0.000000e+000 0.000000e+000 0.000000e+000 0.000000e+000 0.000000e+000 0.000000e+000 0.000000e+000 0.000000e+000 0.000000e+000 0.000000e+000 0.000000e+000 0.000000e+000 0.000000e+000 0.000000e+000 0.000000e+000 0.000000e+000 0.000000e+000 0.000000e+000 0.000000e+000 0.000000e+000 0.000000e+000 0.000000e+000 0.000000e+000 0.000000e+000 0.000000e+000 0.000000e+000 0.000000e+000 0.000000e+000 0.000000e+000 0.000000e+000 0.000000e+000
<VARIANCE> 39
 9.359503e+001 3.679459e+001 4.499012e+001 6.351903e+001 6.475761e+001 6.529059e+001 3.928167e+001 6.018552e+001 4.288419e+001 3.339623e+001 3.708072e+001 1.868259e+001 5.973125e+001 2.821502e+000 1.631565e+000 1.523291e+000 1.894124e+000 2.418094e+000 2.534702e+000 2.151116e+000 2.636228e+000 2.226562e+000 1.935865e+000 1.857413e+000 1.305851e+000 1.719570e+000 3.393596e-001 2.469798e-001 2.173008e-001 2.656330e-001 3.564706e-001 3.952440e-001 3.678456e-001 4.340220e-001 3.816188e-001 3.429941e-001 3.167496e-001 2.403777e-001 2.375354e-001
<GCONST> 1.156467e+002
<STATE> 4
<MEAN> 39
 0.000000e+000 0.000000e+000 0.000000e+000 0.000000e+000 0.000000e+000 0.000000e+000 0.000000e+000 0.000000e+000 0.000000e+000 0.000000e+000 0.000000e+000 0.000000e+000 0.000000e+000 0.000000e+000 0.000000e+000 0.000000e+000 0.000000e+000 0.000000e+000 0.000000e+000 0.000000e+000 0.000000e+000 0.000000e+000 0.000000e+000 0.000000e+000 0.000000e+000 0.000000e+000 0.000000e+000 0.000000e+000 0.000000e+000 0.000000e+000 0.000000e+000 0.000000e+000 0.000000e+000 0.000000e+000 0.000000e+000 0.000000e+000 0.000000e+000 0.000000e+000 0.000000e+000
<VARIANCE> 39
 9.359503e+001 3.679459e+001 4.499012e+001 6.351903e+001 6.475761e+001 6.529059e+001 3.928167e+001 6.018552e+001 4.288419e+001 3.339623e+001 3.708072e+001 1.868259e+001 5.973125e+001 2.821502e+000 1.631565e+000 1.523291e+000 1.894124e+000 2.418094e+000 2.534702e+000 2.151116e+000 2.636228e+000 2.226562e+000 1.935865e+000 1.857413e+000 1.305851e+000 1.719570e+000 3.393596e-001 2.469798e-001 2.173008e-001 2.656330e-001 3.564706e-001 3.952440e-001 3.678456e-001 4.340220e-001 3.816188e-001 3.429941e-001 3.167496e-001 2.403777e-001 2.375354e-001
<GCONST> 1.156467e+002
<TRANSP> 5
 0.000000e+000 1.000000e+000 0.000000e+000 0.000000e+000 0.000000e+000
 0.000000e+000 6.000000e-001 4.000000e-001 0.000000e+000 0.000000e+000
 0.000000e+000 0.000000e+000 6.000000e-001 4.000000e-001 0.000000e+000
 0.000000e+000 0.000000e+000 0.000000e+000 7.000000e-001 3.000000e-001
 0.000000e+000 0.000000e+000 0.000000e+000 0.000000e+000 0.000000e+000
<ENDHMM>
~h "b"
<BEGINHMM>
<NUMSTATES> 5
<STATE> 2
<MEAN> 39
 0.000000e+000 0.000000e+000 0.000000e+000 0.000000e+000 0.000000e+000 0.000000e+000 0.000000e+000 0.000000e+000 0.000000e+000 0.000000e+000 0.000000e+000 0.000000e+000 0.000000e+000 0.000000e+000 0.000000e+000 0.000000e+000 0.000000e+000 0.000000e+000 0.000000e+000 0.000000e+000 0.000000e+000 0.000000e+000 0.000000e+000 0.000000e+000 0.000000e+000 0.000000e+000 0.000000e+000 0.000000e+000 0.000000e+000 0.000000e+000 0.000000e+000 0.000000e+000 0.000000e+000 0.000000e+000 0.000000e+000 0.000000e+000 0.000000e+000 0.000000e+000 0.000000e+000
<VARIANCE> 39
 9.359503e+001 3.679459e+001 4.499012e+001 6.351903e+001 6.475761e+001 6.529059e+001 3.928167e+001 6.018552e+001 4.288419e+001 3.339623e+001 3.708072e+001 1.868259e+001 5.973125e+001 2.821502e+000 1.631565e+000 1.523291e+000 1.894124e+000 2.418094e+000 2.534702e+000 2.151116e+000 2.636228e+000 2.226562e+000 1.935865e+000 1.857413e+000 1.305851e+000 1.719570e+000 3.393596e-001 2.469798e-001 2.173008e-001 2.656330e-001 3.564706e-001 3.952440e-001 3.678456e-001 4.340220e-001 3.816188e-001 3.429941e-001 3.167496e-001 2.403777e-001 2.375354e-001
<GCONST> 1.156467e+002
<STATE> 3
<MEAN> 39
 0.000000e+000 0.000000e+000 0.000000e+000 0.000000e+000 0.000000e+000 0.000000e+000 0.000000e+000 0.000000e+000 0.000000e+000 0.000000e+000 0.000000e+000 0.000000e+000 0.000000e+000 0.000000e+000 0.000000e+000 0.000000e+000 0.000000e+000 0.000000e+000 0.000000e+000 0.000000e+000 0.000000e+000 0.000000e+000 0.000000e+000 0.000000e+000 0.000000e+000 0.000000e+000 0.000000e+000 0.000000e+000 0.000000e+000 0.000000e+000 0.000000e+000 0.000000e+000 0.000000e+000 0.000000e+000 0.000000e+000 0.000000e+000 0.000000e+000 0.000000e+000 0.000000e+000
<VARIANCE> 39
 9.359503e+001 3.679459e+001 4.499012e+001 6.351903e+001 6.475761e+001 6.529059e+001 3.928167e+001 6.018552e+001 4.288419e+001 3.339623e+001 3.708072e+001 1.868259e+001 5.973125e+001 2.821502e+000 1.631565e+000 1.523291e+000 1.894124e+000 2.418094e+000 2.534702e+000 2.151116e+000 2.636228e+000 2.226562e+000 1.935865e+000 1.857413e+000 1.305851e+000 1.719570e+000 3.393596e-001 2.469798e-001 2.173008e-001 2.656330e-001 3.564706e-001 3.952440e-001 3.678456e-001 4.340220e-001 3.816188e-001 3.429941e-001 3.167496e-001 2.403777e-001 2.375354e-001
<GCONST> 1.156467e+002
<STATE> 4
<MEAN> 39
 0.000000e+000 0.000000e+000 0.000000e+000 0.000000e+000 0.000000e+000 0.000000e+000 0.000000e+000 0.000000e+000 0.000000e+000 0.000000e+000 0.000000e+000 0.000000e+000 0.000000e+000 0.000000e+000 0.000000e+000 0.000000e+000 0.000000e+000 0.000000e+000 0.000000e+000 0.000000e+000 0.000000e+000 0.000000e+000 0.000000e+000 0.000000e+000 0.000000e+000 0.000000e+000 0.000000e+000 0.000000e+000 0.000000e+000 0.000000e+000 0.000000e+000 0.000000e+000 0.000000e+000 0.000000e+000 0.000000e+000 0.000000e+000 0.000000e+000 0.000000e+000 0.000000e+000
<VARIANCE> 39
 9.359503e+001 3.679459e+001 4.499012e+001 6.351903e+001 6.475761e+001 6.529059e+001 3.928167e+001 6.018552e+001 4.288419e+001 3.339623e+001 3.708072e+001 1.868259e+001 5.973125e+001 2.821502e+000 1.631565e+000 1.523291e+000 1.894124e+000 2.418094e+000 2.534702e+000 2.151116e+000 2.636228e+000 2.226562e+000 1.935865e+000 1.857413e+000 1.305851e+000 1.719570e+000 3.393596e-001 2.469798e-001 2.173008e-001 2.656330e-001 3.564706e-001 3.952440e-001 3.678456e-001 4.340220e-001 3.816188e-001 3.429941e-001 3.167496e-001 2.403777e-001 2.375354e-001
<GCONST> 1.156467e+002
<TRANSP> 5
 0.000000e+000 1.000000e+000 0.000000e+000 0.000000e+000 0.000000e+000
 0.000000e+000 6.000000e-001 4.000000e-001 0.000000e+000 0.000000e+000
 0.000000e+000 0.000000e+000 6.000000e-001 4.000000e-001 0.000000e+000
 0.000000e+000 0.000000e+000 0.000000e+000 7.000000e-001 3.000000e-001
 0.000000e+000 0.000000e+000 0.000000e+000 0.000000e+000 0.000000e+000
<ENDHMM>
~h "d"
<BEGINHMM>
<NUMSTATES> 5
<STATE> 2
<MEAN> 39
 0.000000e+000 0.000000e+000 0.000000e+000 0.000000e+000 0.000000e+000 0.000000e+000 0.000000e+000 0.000000e+000 0.000000e+000 0.000000e+000 0.000000e+000 0.000000e+000 0.000000e+000 0.000000e+000 0.000000e+000 0.000000e+000 0.000000e+000 0.000000e+000 0.000000e+000 0.000000e+000 0.000000e+000 0.000000e+000 0.000000e+000 0.000000e+000 0.000000e+000 0.000000e+000 0.000000e+000 0.000000e+000 0.000000e+000 0.000000e+000 0.000000e+000 0.000000e+000 0.000000e+000 0.000000e+000 0.000000e+000 0.000000e+000 0.000000e+000 0.000000e+000 0.000000e+000
<VARIANCE> 39
 9.359503e+001 3.679459e+001 4.499012e+001 6.351903e+001 6.475761e+001 6.529059e+001 3.928167e+001 6.018552e+001 4.288419e+001 3.339623e+001 3.708072e+001 1.868259e+001 5.973125e+001 2.821502e+000 1.631565e+000 1.523291e+000 1.894124e+000 2.418094e+000 2.534702e+000 2.151116e+000 2.636228e+000 2.226562e+000 1.935865e+000 1.857413e+000 1.305851e+000 1.719570e+000 3.393596e-001 2.469798e-001 2.173008e-001 2.656330e-001 3.564706e-001 3.952440e-001 3.678456e-001 4.340220e-001 3.816188e-001 3.429941e-001 3.167496e-001 2.403777e-001 2.375354e-001
<GCONST> 1.156467e+002
<STATE> 3
<MEAN> 39
 0.000000e+000 0.000000e+000 0.000000e+000 0.000000e+000 0.000000e+000 0.000000e+000 0.000000e+000 0.000000e+000 0.000000e+000 0.000000e+000 0.000000e+000 0.000000e+000 0.000000e+000 0.000000e+000 0.000000e+000 0.000000e+000 0.000000e+000 0.000000e+000 0.000000e+000 0.000000e+000 0.000000e+000 0.000000e+000 0.000000e+000 0.000000e+000 0.000000e+000 0.000000e+000 0.000000e+000 0.000000e+000 0.000000e+000 0.000000e+000 0.000000e+000 0.000000e+000 0.000000e+000 0.000000e+000 0.000000e+000 0.000000e+000 0.000000e+000 0.000000e+000 0.000000e+000
<VARIANCE> 39
 9.359503e+001 3.679459e+001 4.499012e+001 6.351903e+001 6.475761e+001 6.529059e+001 3.928167e+001 6.018552e+001 4.288419e+001 3.339623e+001 3.708072e+001 1.868259e+001 5.973125e+001 2.821502e+000 1.631565e+000 1.523291e+000 1.894124e+000 2.418094e+000 2.534702e+000 2.151116e+000 2.636228e+000 2.226562e+000 1.935865e+000 1.857413e+000 1.305851e+000 1.719570e+000 3.393596e-001 2.469798e-001 2.173008e-001 2.656330e-001 3.564706e-001 3.952440e-001 3.678456e-001 4.340220e-001 3.816188e-001 3.429941e-001 3.167496e-001 2.403777e-001 2.375354e-001
<GCONST> 1.156467e+002
<STATE> 4
<MEAN> 39
 0.000000e+000 0.000000e+000 0.000000e+000 0.000000e+000 0.000000e+000 0.000000e+000 0.000000e+000 0.000000e+000 0.000000e+000 0.000000e+000 0.000000e+000 0.000000e+000 0.000000e+000 0.000000e+000 0.000000e+000 0.000000e+000 0.000000e+000 0.000000e+000 0.000000e+000 0.000000e+000 0.000000e+000 0.000000e+000 0.000000e+000 0.000000e+000 0.000000e+000 0.000000e+000 0.000000e+000 0.000000e+000 0.000000e+000 0.000000e+000 0.000000e+000 0.000000e+000 0.000000e+000 0.000000e+000 0.000000e+000 0.000000e+000 0.000000e+000 0.000000e+000 0.000000e+000
<VARIANCE> 39
 9.359503e+001 3.679459e+001 4.499012e+001 6.351903e+001 6.475761e+001 6.529059e+001 3.928167e+001 6.018552e+001 4.288419e+001 3.339623e+001 3.708072e+001 1.868259e+001 5.973125e+001 2.821502e+000 1.631565e+000 1.523291e+000 1.894124e+000 2.418094e+000 2.534702e+000 2.151116e+000 2.636228e+000 2.226562e+000 1.935865e+000 1.857413e+000 1.305851e+000 1.719570e+000 3.393596e-001 2.469798e-001 2.173008e-001 2.656330e-001 3.564706e-001 3.952440e-001 3.678456e-001 4.340220e-001 3.816188e-001 3.429941e-001 3.167496e-001 2.403777e-001 2.375354e-001
<GCONST> 1.156467e+002
<TRANSP> 5
 0.000000e+000 1.000000e+000 0.000000e+000 0.000000e+000 0.000000e+000
 0.000000e+000 6.000000e-001 4.000000e-001 0.000000e+000 0.000000e+000
 0.000000e+000 0.000000e+000 6.000000e-001 4.000000e-001 0.000000e+000
 0.000000e+000 0.000000e+000 0.000000e+000 7.000000e-001 3.000000e-001
 0.000000e+000 0.000000e+000 0.000000e+000 0.000000e+000 0.000000e+000
<ENDHMM>
~h "e"
<BEGINHMM>
<NUMSTATES> 5
<STATE> 2
<MEAN> 39
 0.000000e+000 0.000000e+000 0.000000e+000 0.000000e+000 0.000000e+000 0.000000e+000 0.000000e+000 0.000000e+000 0.000000e+000 0.000000e+000 0.000000e+000 0.000000e+000 0.000000e+000 0.000000e+000 0.000000e+000 0.000000e+000 0.000000e+000 0.000000e+000 0.000000e+000 0.000000e+000 0.000000e+000 0.000000e+000 0.000000e+000 0.000000e+000 0.000000e+000 0.000000e+000 0.000000e+000 0.000000e+000 0.000000e+000 0.000000e+000 0.000000e+000 0.000000e+000 0.000000e+000 0.000000e+000 0.000000e+000 0.000000e+000 0.000000e+000 0.000000e+000 0.000000e+000
<VARIANCE> 39
 9.359503e+001 3.679459e+001 4.499012e+001 6.351903e+001 6.475761e+001 6.529059e+001 3.928167e+001 6.018552e+001 4.288419e+001 3.339623e+001 3.708072e+001 1.868259e+001 5.973125e+001 2.821502e+000 1.631565e+000 1.523291e+000 1.894124e+000 2.418094e+000 2.534702e+000 2.151116e+000 2.636228e+000 2.226562e+000 1.935865e+000 1.857413e+000 1.305851e+000 1.719570e+000 3.393596e-001 2.469798e-001 2.173008e-001 2.656330e-001 3.564706e-001 3.952440e-001 3.678456e-001 4.340220e-001 3.816188e-001 3.429941e-001 3.167496e-001 2.403777e-001 2.375354e-001
<GCONST> 1.156467e+002
<STATE> 3
<MEAN> 39
 0.000000e+000 0.000000e+000 0.000000e+000 0.000000e+000 0.000000e+000 0.000000e+000 0.000000e+000 0.000000e+000 0.000000e+000 0.000000e+000 0.000000e+000 0.000000e+000 0.000000e+000 0.000000e+000 0.000000e+000 0.000000e+000 0.000000e+000 0.000000e+000 0.000000e+000 0.000000e+000 0.000000e+000 0.000000e+000 0.000000e+000 0.000000e+000 0.000000e+000 0.000000e+000 0.000000e+000 0.000000e+000 0.000000e+000 0.000000e+000 0.000000e+000 0.000000e+000 0.000000e+000 0.000000e+000 0.000000e+000 0.000000e+000 0.000000e+000 0.000000e+000 0.000000e+000
<VARIANCE> 39
 9.359503e+001 3.679459e+001 4.499012e+001 6.351903e+001 6.475761e+001 6.529059e+001 3.928167e+001 6.018552e+001 4.288419e+001 3.339623e+001 3.708072e+001 1.868259e+001 5.973125e+001 2.821502e+000 1.631565e+000 1.523291e+000 1.894124e+000 2.418094e+000 2.534702e+000 2.151116e+000 2.636228e+000 2.226562e+000 1.935865e+000 1.857413e+000 1.305851e+000 1.719570e+000 3.393596e-001 2.469798e-001 2.173008e-001 2.656330e-001 3.564706e-001 3.952440e-001 3.678456e-001 4.340220e-001 3.816188e-001 3.429941e-001 3.167496e-001 2.403777e-001 2.375354e-001
<GCONST> 1.156467e+002
<STATE> 4
<MEAN> 39
 0.000000e+000 0.000000e+000 0.000000e+000 0.000000e+000 0.000000e+000 0.000000e+000 0.000000e+000 0.000000e+000 0.000000e+000 0.000000e+000 0.000000e+000 0.000000e+000 0.000000e+000 0.000000e+000 0.000000e+000 0.000000e+000 0.000000e+000 0.000000e+000 0.000000e+000 0.000000e+000 0.000000e+000 0.000000e+000 0.000000e+000 0.000000e+000 0.000000e+000 0.000000e+000 0.000000e+000 0.000000e+000 0.000000e+000 0.000000e+000 0.000000e+000 0.000000e+000 0.000000e+000 0.000000e+000 0.000000e+000 0.000000e+000 0.000000e+000 0.000000e+000 0.000000e+000
<VARIANCE> 39
 9.359503e+001 3.679459e+001 4.499012e+001 6.351903e+001 6.475761e+001 6.529059e+001 3.928167e+001 6.018552e+001 4.288419e+001 3.339623e+001 3.708072e+001 1.868259e+001 5.973125e+001 2.821502e+000 1.631565e+000 1.523291e+000 1.894124e+000 2.418094e+000 2.534702e+000 2.151116e+000 2.636228e+000 2.226562e+000 1.935865e+000 1.857413e+000 1.305851e+000 1.719570e+000 3.393596e-001 2.469798e-001 2.173008e-001 2.656330e-001 3.564706e-001 3.952440e-001 3.678456e-001 4.340220e-001 3.816188e-001 3.429941e-001 3.167496e-001 2.403777e-001 2.375354e-001
<GCONST> 1.156467e+002
<TRANSP> 5
 0.000000e+000 1.000000e+000 0.000000e+000 0.000000e+000 0.000000e+000
 0.000000e+000 6.000000e-001 4.000000e-001 0.000000e+000 0.000000e+000
 0.000000e+000 0.000000e+000 6.000000e-001 4.000000e-001 0.000000e+000
 0.000000e+000 0.000000e+000 0.000000e+000 7.000000e-001 3.000000e-001
 0.000000e+000 0.000000e+000 0.000000e+000 0.000000e+000 0.000000e+000
<ENDHMM>
~h "f"
<BEGINHMM>
<NUMSTATES> 5
<STATE> 2
<MEAN> 39
 0.000000e+000 0.000000e+000 0.000000e+000 0.000000e+000 0.000000e+000 0.000000e+000 0.000000e+000 0.000000e+000 0.000000e+000 0.000000e+000 0.000000e+000 0.000000e+000 0.000000e+000 0.000000e+000 0.000000e+000 0.000000e+000 0.000000e+000 0.000000e+000 0.000000e+000 0.000000e+000 0.000000e+000 0.000000e+000 0.000000e+000 0.000000e+000 0.000000e+000 0.000000e+000 0.000000e+000 0.000000e+000 0.000000e+000 0.000000e+000 0.000000e+000 0.000000e+000 0.000000e+000 0.000000e+000 0.000000e+000 0.000000e+000 0.000000e+000 0.000000e+000 0.000000e+000
<VARIANCE> 39
 9.359503e+001 3.679459e+001 4.499012e+001 6.351903e+001 6.475761e+001 6.529059e+001 3.928167e+001 6.018552e+001 4.288419e+001 3.339623e+001 3.708072e+001 1.868259e+001 5.973125e+001 2.821502e+000 1.631565e+000 1.523291e+000 1.894124e+000 2.418094e+000 2.534702e+000 2.151116e+000 2.636228e+000 2.226562e+000 1.935865e+000 1.857413e+000 1.305851e+000 1.719570e+000 3.393596e-001 2.469798e-001 2.173008e-001 2.656330e-001 3.564706e-001 3.952440e-001 3.678456e-001 4.340220e-001 3.816188e-001 3.429941e-001 3.167496e-001 2.403777e-001 2.375354e-001
<GCONST> 1.156467e+002
<STATE> 3
<MEAN> 39
 0.000000e+000 0.000000e+000 0.000000e+000 0.000000e+000 0.000000e+000 0.000000e+000 0.000000e+000 0.000000e+000 0.000000e+000 0.000000e+000 0.000000e+000 0.000000e+000 0.000000e+000 0.000000e+000 0.000000e+000 0.000000e+000 0.000000e+000 0.000000e+000 0.000000e+000 0.000000e+000 0.000000e+000 0.000000e+000 0.000000e+000 0.000000e+000 0.000000e+000 0.000000e+000 0.000000e+000 0.000000e+000 0.000000e+000 0.000000e+000 0.000000e+000 0.000000e+000 0.000000e+000 0.000000e+000 0.000000e+000 0.000000e+000 0.000000e+000 0.000000e+000 0.000000e+000
<VARIANCE> 39
 9.359503e+001 3.679459e+001 4.499012e+001 6.351903e+001 6.475761e+001 6.529059e+001 3.928167e+001 6.018552e+001 4.288419e+001 3.339623e+001 3.708072e+001 1.868259e+001 5.973125e+001 2.821502e+000 1.631565e+000 1.523291e+000 1.894124e+000 2.418094e+000 2.534702e+000 2.151116e+000 2.636228e+000 2.226562e+000 1.935865e+000 1.857413e+000 1.305851e+000 1.719570e+000 3.393596e-001 2.469798e-001 2.173008e-001 2.656330e-001 3.564706e-001 3.952440e-001 3.678456e-001 4.340220e-001 3.816188e-001 3.429941e-001 3.167496e-001 2.403777e-001 2.375354e-001
<GCONST> 1.156467e+002
<STATE> 4
<MEAN> 39
 0.000000e+000 0.000000e+000 0.000000e+000 0.000000e+000 0.000000e+000 0.000000e+000 0.000000e+000 0.000000e+000 0.000000e+000 0.000000e+000 0.000000e+000 0.000000e+000 0.000000e+000 0.000000e+000 0.000000e+000 0.000000e+000 0.000000e+000 0.000000e+000 0.000000e+000 0.000000e+000 0.000000e+000 0.000000e+000 0.000000e+000 0.000000e+000 0.000000e+000 0.000000e+000 0.000000e+000 0.000000e+000 0.000000e+000 0.000000e+000 0.000000e+000 0.000000e+000 0.000000e+000 0.000000e+000 0.000000e+000 0.000000e+000 0.000000e+000 0.000000e+000 0.000000e+000
<VARIANCE> 39
 9.359503e+001 3.679459e+001 4.499012e+001 6.351903e+001 6.475761e+001 6.529059e+001 3.928167e+001 6.018552e+001 4.288419e+001 3.339623e+001 3.708072e+001 1.868259e+001 5.973125e+001 2.821502e+000 1.631565e+000 1.523291e+000 1.894124e+000 2.418094e+000 2.534702e+000 2.151116e+000 2.636228e+000 2.226562e+000 1.935865e+000 1.857413e+000 1.305851e+000 1.719570e+000 3.393596e-001 2.469798e-001 2.173008e-001 2.656330e-001 3.564706e-001 3.952440e-001 3.678456e-001 4.340220e-001 3.816188e-001 3.429941e-001 3.167496e-001 2.403777e-001 2.375354e-001
<GCONST> 1.156467e+002
<TRANSP> 5
 0.000000e+000 1.000000e+000 0.000000e+000 0.000000e+000 0.000000e+000
 0.000000e+000 6.000000e-001 4.000000e-001 0.000000e+000 0.000000e+000
 0.000000e+000 0.000000e+000 6.000000e-001 4.000000e-001 0.000000e+000
 0.000000e+000 0.000000e+000 0.000000e+000 7.000000e-001 3.000000e-001
 0.000000e+000 0.000000e+000 0.000000e+000 0.000000e+000 0.000000e+000
<ENDHMM>
~h "g"
<BEGINHMM>
<NUMSTATES> 5
<STATE> 2
<MEAN> 39
 0.000000e+000 0.000000e+000 0.000000e+000 0.000000e+000 0.000000e+000 0.000000e+000 0.000000e+000 0.000000e+000 0.000000e+000 0.000000e+000 0.000000e+000 0.000000e+000 0.000000e+000 0.000000e+000 0.000000e+000 0.000000e+000 0.000000e+000 0.000000e+000 0.000000e+000 0.000000e+000 0.000000e+000 0.000000e+000 0.000000e+000 0.000000e+000 0.000000e+000 0.000000e+000 0.000000e+000 0.000000e+000 0.000000e+000 0.000000e+000 0.000000e+000 0.000000e+000 0.000000e+000 0.000000e+000 0.000000e+000 0.000000e+000 0.000000e+000 0.000000e+000 0.000000e+000
<VARIANCE> 39
 9.359503e+001 3.679459e+001 4.499012e+001 6.351903e+001 6.475761e+001 6.529059e+001 3.928167e+001 6.018552e+001 4.288419e+001 3.339623e+001 3.708072e+001 1.868259e+001 5.973125e+001 2.821502e+000 1.631565e+000 1.523291e+000 1.894124e+000 2.418094e+000 2.534702e+000 2.151116e+000 2.636228e+000 2.226562e+000 1.935865e+000 1.857413e+000 1.305851e+000 1.719570e+000 3.393596e-001 2.469798e-001 2.173008e-001 2.656330e-001 3.564706e-001 3.952440e-001 3.678456e-001 4.340220e-001 3.816188e-001 3.429941e-001 3.167496e-001 2.403777e-001 2.375354e-001
<GCONST> 1.156467e+002
<STATE> 3
<MEAN> 39
 0.000000e+000 0.000000e+000 0.000000e+000 0.000000e+000 0.000000e+000 0.000000e+000 0.000000e+000 0.000000e+000 0.000000e+000 0.000000e+000 0.000000e+000 0.000000e+000 0.000000e+000 0.000000e+000 0.000000e+000 0.000000e+000 0.000000e+000 0.000000e+000 0.000000e+000 0.000000e+000 0.000000e+000 0.000000e+000 0.000000e+000 0.000000e+000 0.000000e+000 0.000000e+000 0.000000e+000 0.000000e+000 0.000000e+000 0.000000e+000 0.000000e+000 0.000000e+000 0.000000e+000 0.000000e+000 0.000000e+000 0.000000e+000 0.000000e+000 0.000000e+000 0.000000e+000
<VARIANCE> 39
 9.359503e+001 3.679459e+001 4.499012e+001 6.351903e+001 6.475761e+001 6.529059e+001 3.928167e+001 6.018552e+001 4.288419e+001 3.339623e+001 3.708072e+001 1.868259e+001 5.973125e+001 2.821502e+000 1.631565e+000 1.523291e+000 1.894124e+000 2.418094e+000 2.534702e+000 2.151116e+000 2.636228e+000 2.226562e+000 1.935865e+000 1.857413e+000 1.305851e+000 1.719570e+000 3.393596e-001 2.469798e-001 2.173008e-001 2.656330e-001 3.564706e-001 3.952440e-001 3.678456e-001 4.340220e-001 3.816188e-001 3.429941e-001 3.167496e-001 2.403777e-001 2.375354e-001
<GCONST> 1.156467e+002
<STATE> 4
<MEAN> 39
 0.000000e+000 0.000000e+000 0.000000e+000 0.000000e+000 0.000000e+000 0.000000e+000 0.000000e+000 0.000000e+000 0.000000e+000 0.000000e+000 0.000000e+000 0.000000e+000 0.000000e+000 0.000000e+000 0.000000e+000 0.000000e+000 0.000000e+000 0.000000e+000 0.000000e+000 0.000000e+000 0.000000e+000 0.000000e+000 0.000000e+000 0.000000e+000 0.000000e+000 0.000000e+000 0.000000e+000 0.000000e+000 0.000000e+000 0.000000e+000 0.000000e+000 0.000000e+000 0.000000e+000 0.000000e+000 0.000000e+000 0.000000e+000 0.000000e+000 0.000000e+000 0.000000e+000
<VARIANCE> 39
 9.359503e+001 3.679459e+001 4.499012e+001 6.351903e+001 6.475761e+001 6.529059e+001 3.928167e+001 6.018552e+001 4.288419e+001 3.339623e+001 3.708072e+001 1.868259e+001 5.973125e+001 2.821502e+000 1.631565e+000 1.523291e+000 1.894124e+000 2.418094e+000 2.534702e+000 2.151116e+000 2.636228e+000 2.226562e+000 1.935865e+000 1.857413e+000 1.305851e+000 1.719570e+000 3.393596e-001 2.469798e-001 2.173008e-001 2.656330e-001 3.564706e-001 3.952440e-001 3.678456e-001 4.340220e-001 3.816188e-001 3.429941e-001 3.167496e-001 2.403777e-001 2.375354e-001
<GCONST> 1.156467e+002
<TRANSP> 5
 0.000000e+000 1.000000e+000 0.000000e+000 0.000000e+000 0.000000e+000
 0.000000e+000 6.000000e-001 4.000000e-001 0.000000e+000 0.000000e+000
 0.000000e+000 0.000000e+000 6.000000e-001 4.000000e-001 0.000000e+000
 0.000000e+000 0.000000e+000 0.000000e+000 7.000000e-001 3.000000e-001
 0.000000e+000 0.000000e+000 0.000000e+000 0.000000e+000 0.000000e+000
<ENDHMM>
~h "h"
<BEGINHMM>
<NUMSTATES> 5
<STATE> 2
<MEAN> 39
 0.000000e+000 0.000000e+000 0.000000e+000 0.000000e+000 0.000000e+000 0.000000e+000 0.000000e+000 0.000000e+000 0.000000e+000 0.000000e+000 0.000000e+000 0.000000e+000 0.000000e+000 0.000000e+000 0.000000e+000 0.000000e+000 0.000000e+000 0.000000e+000 0.000000e+000 0.000000e+000 0.000000e+000 0.000000e+000 0.000000e+000 0.000000e+000 0.000000e+000 0.000000e+000 0.000000e+000 0.000000e+000 0.000000e+000 0.000000e+000 0.000000e+000 0.000000e+000 0.000000e+000 0.000000e+000 0.000000e+000 0.000000e+000 0.000000e+000 0.000000e+000 0.000000e+000
<VARIANCE> 39
 9.359503e+001 3.679459e+001 4.499012e+001 6.351903e+001 6.475761e+001 6.529059e+001 3.928167e+001 6.018552e+001 4.288419e+001 3.339623e+001 3.708072e+001 1.868259e+001 5.973125e+001 2.821502e+000 1.631565e+000 1.523291e+000 1.894124e+000 2.418094e+000 2.534702e+000 2.151116e+000 2.636228e+000 2.226562e+000 1.935865e+000 1.857413e+000 1.305851e+000 1.719570e+000 3.393596e-001 2.469798e-001 2.173008e-001 2.656330e-001 3.564706e-001 3.952440e-001 3.678456e-001 4.340220e-001 3.816188e-001 3.429941e-001 3.167496e-001 2.403777e-001 2.375354e-001
<GCONST> 1.156467e+002
<STATE> 3
<MEAN> 39
 0.000000e+000 0.000000e+000 0.000000e+000 0.000000e+000 0.000000e+000 0.000000e+000 0.000000e+000 0.000000e+000 0.000000e+000 0.000000e+000 0.000000e+000 0.000000e+000 0.000000e+000 0.000000e+000 0.000000e+000 0.000000e+000 0.000000e+000 0.000000e+000 0.000000e+000 0.000000e+000 0.000000e+000 0.000000e+000 0.000000e+000 0.000000e+000 0.000000e+000 0.000000e+000 0.000000e+000 0.000000e+000 0.000000e+000 0.000000e+000 0.000000e+000 0.000000e+000 0.000000e+000 0.000000e+000 0.000000e+000 0.000000e+000 0.000000e+000 0.000000e+000 0.000000e+000
<VARIANCE> 39
 9.359503e+001 3.679459e+001 4.499012e+001 6.351903e+001 6.475761e+001 6.529059e+001 3.928167e+001 6.018552e+001 4.288419e+001 3.339623e+001 3.708072e+001 1.868259e+001 5.973125e+001 2.821502e+000 1.631565e+000 1.523291e+000 1.894124e+000 2.418094e+000 2.534702e+000 2.151116e+000 2.636228e+000 2.226562e+000 1.935865e+000 1.857413e+000 1.305851e+000 1.719570e+000 3.393596e-001 2.469798e-001 2.173008e-001 2.656330e-001 3.564706e-001 3.952440e-001 3.678456e-001 4.340220e-001 3.816188e-001 3.429941e-001 3.167496e-001 2.403777e-001 2.375354e-001
<GCONST> 1.156467e+002
<STATE> 4
<MEAN> 39
 0.000000e+000 0.000000e+000 0.000000e+000 0.000000e+000 0.000000e+000 0.000000e+000 0.000000e+000 0.000000e+000 0.000000e+000 0.000000e+000 0.000000e+000 0.000000e+000 0.000000e+000 0.000000e+000 0.000000e+000 0.000000e+000 0.000000e+000 0.000000e+000 0.000000e+000 0.000000e+000 0.000000e+000 0.000000e+000 0.000000e+000 0.000000e+000 0.000000e+000 0.000000e+000 0.000000e+000 0.000000e+000 0.000000e+000 0.000000e+000 0.000000e+000 0.000000e+000 0.000000e+000 0.000000e+000 0.000000e+000 0.000000e+000 0.000000e+000 0.000000e+000 0.000000e+000
<VARIANCE> 39
 9.359503e+001 3.679459e+001 4.499012e+001 6.351903e+001 6.475761e+001 6.529059e+001 3.928167e+001 6.018552e+001 4.288419e+001 3.339623e+001 3.708072e+001 1.868259e+001 5.973125e+001 2.821502e+000 1.631565e+000 1.523291e+000 1.894124e+000 2.418094e+000 2.534702e+000 2.151116e+000 2.636228e+000 2.226562e+000 1.935865e+000 1.857413e+000 1.305851e+000 1.719570e+000 3.393596e-001 2.469798e-001 2.173008e-001 2.656330e-001 3.564706e-001 3.952440e-001 3.678456e-001 4.340220e-001 3.816188e-001 3.429941e-001 3.167496e-001 2.403777e-001 2.375354e-001
<GCONST> 1.156467e+002
<TRANSP> 5
 0.000000e+000 1.000000e+000 0.000000e+000 0.000000e+000 0.000000e+000
 0.000000e+000 6.000000e-001 4.000000e-001 0.000000e+000 0.000000e+000
 0.000000e+000 0.000000e+000 6.000000e-001 4.000000e-001 0.000000e+000
 0.000000e+000 0.000000e+000 0.000000e+000 7.000000e-001 3.000000e-001
 0.000000e+000 0.000000e+000 0.000000e+000 0.000000e+000 0.000000e+000
<ENDHMM>
~h "j"
<BEGINHMM>
<NUMSTATES> 5
<STATE> 2
<MEAN> 39
 0.000000e+000 0.000000e+000 0.000000e+000 0.000000e+000 0.000000e+000 0.000000e+000 0.000000e+000 0.000000e+000 0.000000e+000 0.000000e+000 0.000000e+000 0.000000e+000 0.000000e+000 0.000000e+000 0.000000e+000 0.000000e+000 0.000000e+000 0.000000e+000 0.000000e+000 0.000000e+000 0.000000e+000 0.000000e+000 0.000000e+000 0.000000e+000 0.000000e+000 0.000000e+000 0.000000e+000 0.000000e+000 0.000000e+000 0.000000e+000 0.000000e+000 0.000000e+000 0.000000e+000 0.000000e+000 0.000000e+000 0.000000e+000 0.000000e+000 0.000000e+000 0.000000e+000
<VARIANCE> 39
 9.359503e+001 3.679459e+001 4.499012e+001 6.351903e+001 6.475761e+001 6.529059e+001 3.928167e+001 6.018552e+001 4.288419e+001 3.339623e+001 3.708072e+001 1.868259e+001 5.973125e+001 2.821502e+000 1.631565e+000 1.523291e+000 1.894124e+000 2.418094e+000 2.534702e+000 2.151116e+000 2.636228e+000 2.226562e+000 1.935865e+000 1.857413e+000 1.305851e+000 1.719570e+000 3.393596e-001 2.469798e-001 2.173008e-001 2.656330e-001 3.564706e-001 3.952440e-001 3.678456e-001 4.340220e-001 3.816188e-001 3.429941e-001 3.167496e-001 2.403777e-001 2.375354e-001
<GCONST> 1.156467e+002
<STATE> 3
<MEAN> 39
 0.000000e+000 0.000000e+000 0.000000e+000 0.000000e+000 0.000000e+000 0.000000e+000 0.000000e+000 0.000000e+000 0.000000e+000 0.000000e+000 0.000000e+000 0.000000e+000 0.000000e+000 0.000000e+000 0.000000e+000 0.000000e+000 0.000000e+000 0.000000e+000 0.000000e+000 0.000000e+000 0.000000e+000 0.000000e+000 0.000000e+000 0.000000e+000 0.000000e+000 0.000000e+000 0.000000e+000 0.000000e+000 0.000000e+000 0.000000e+000 0.000000e+000 0.000000e+000 0.000000e+000 0.000000e+000 0.000000e+000 0.000000e+000 0.000000e+000 0.000000e+000 0.000000e+000
<VARIANCE> 39
 9.359503e+001 3.679459e+001 4.499012e+001 6.351903e+001 6.475761e+001 6.529059e+001 3.928167e+001 6.018552e+001 4.288419e+001 3.339623e+001 3.708072e+001 1.868259e+001 5.973125e+001 2.821502e+000 1.631565e+000 1.523291e+000 1.894124e+000 2.418094e+000 2.534702e+000 2.151116e+000 2.636228e+000 2.226562e+000 1.935865e+000 1.857413e+000 1.305851e+000 1.719570e+000 3.393596e-001 2.469798e-001 2.173008e-001 2.656330e-001 3.564706e-001 3.952440e-001 3.678456e-001 4.340220e-001 3.816188e-001 3.429941e-001 3.167496e-001 2.403777e-001 2.375354e-001
<GCONST> 1.156467e+002
<STATE> 4
<MEAN> 39
 0.000000e+000 0.000000e+000 0.000000e+000 0.000000e+000 0.000000e+000 0.000000e+000 0.000000e+000 0.000000e+000 0.000000e+000 0.000000e+000 0.000000e+000 0.000000e+000 0.000000e+000 0.000000e+000 0.000000e+000 0.000000e+000 0.000000e+000 0.000000e+000 0.000000e+000 0.000000e+000 0.000000e+000 0.000000e+000 0.000000e+000 0.000000e+000 0.000000e+000 0.000000e+000 0.000000e+000 0.000000e+000 0.000000e+000 0.000000e+000 0.000000e+000 0.000000e+000 0.000000e+000 0.000000e+000 0.000000e+000 0.000000e+000 0.000000e+000 0.000000e+000 0.000000e+000
<VARIANCE> 39
 9.359503e+001 3.679459e+001 4.499012e+001 6.351903e+001 6.475761e+001 6.529059e+001 3.928167e+001 6.018552e+001 4.288419e+001 3.339623e+001 3.708072e+001 1.868259e+001 5.973125e+001 2.821502e+000 1.631565e+000 1.523291e+000 1.894124e+000 2.418094e+000 2.534702e+000 2.151116e+000 2.636228e+000 2.226562e+000 1.935865e+000 1.857413e+000 1.305851e+000 1.719570e+000 3.393596e-001 2.469798e-001 2.173008e-001 2.656330e-001 3.564706e-001 3.952440e-001 3.678456e-001 4.340220e-001 3.816188e-001 3.429941e-001 3.167496e-001 2.403777e-001 2.375354e-001
<GCONST> 1.156467e+002
<TRANSP> 5
 0.000000e+000 1.000000e+000 0.000000e+000 0.000000e+000 0.000000e+000
 0.000000e+000 6.000000e-001 4.000000e-001 0.000000e+000 0.000000e+000
 0.000000e+000 0.000000e+000 6.000000e-001 4.000000e-001 0.000000e+000
 0.000000e+000 0.000000e+000 0.000000e+000 7.000000e-001 3.000000e-001
 0.000000e+000 0.000000e+000 0.000000e+000 0.000000e+000 0.000000e+000
<ENDHMM>
~h "k"
<BEGINHMM>
<NUMSTATES> 5
<STATE> 2
<MEAN> 39
 0.000000e+000 0.000000e+000 0.000000e+000 0.000000e+000 0.000000e+000 0.000000e+000 0.000000e+000 0.000000e+000 0.000000e+000 0.000000e+000 0.000000e+000 0.000000e+000 0.000000e+000 0.000000e+000 0.000000e+000 0.000000e+000 0.000000e+000 0.000000e+000 0.000000e+000 0.000000e+000 0.000000e+000 0.000000e+000 0.000000e+000 0.000000e+000 0.000000e+000 0.000000e+000 0.000000e+000 0.000000e+000 0.000000e+000 0.000000e+000 0.000000e+000 0.000000e+000 0.000000e+000 0.000000e+000 0.000000e+000 0.000000e+000 0.000000e+000 0.000000e+000 0.000000e+000
<VARIANCE> 39
 9.359503e+001 3.679459e+001 4.499012e+001 6.351903e+001 6.475761e+001 6.529059e+001 3.928167e+001 6.018552e+001 4.288419e+001 3.339623e+001 3.708072e+001 1.868259e+001 5.973125e+001 2.821502e+000 1.631565e+000 1.523291e+000 1.894124e+000 2.418094e+000 2.534702e+000 2.151116e+000 2.636228e+000 2.226562e+000 1.935865e+000 1.857413e+000 1.305851e+000 1.719570e+000 3.393596e-001 2.469798e-001 2.173008e-001 2.656330e-001 3.564706e-001 3.952440e-001 3.678456e-001 4.340220e-001 3.816188e-001 3.429941e-001 3.167496e-001 2.403777e-001 2.375354e-001
<GCONST> 1.156467e+002
<STATE> 3
<MEAN> 39
 0.000000e+000 0.000000e+000 0.000000e+000 0.000000e+000 0.000000e+000 0.000000e+000 0.000000e+000 0.000000e+000 0.000000e+000 0.000000e+000 0.000000e+000 0.000000e+000 0.000000e+000 0.000000e+000 0.000000e+000 0.000000e+000 0.000000e+000 0.000000e+000 0.000000e+000 0.000000e+000 0.000000e+000 0.000000e+000 0.000000e+000 0.000000e+000 0.000000e+000 0.000000e+000 0.000000e+000 0.000000e+000 0.000000e+000 0.000000e+000 0.000000e+000 0.000000e+000 0.000000e+000 0.000000e+000 0.000000e+000 0.000000e+000 0.000000e+000 0.000000e+000 0.000000e+000
<VARIANCE> 39
 9.359503e+001 3.679459e+001 4.499012e+001 6.351903e+001 6.475761e+001 6.529059e+001 3.928167e+001 6.018552e+001 4.288419e+001 3.339623e+001 3.708072e+001 1.868259e+001 5.973125e+001 2.821502e+000 1.631565e+000 1.523291e+000 1.894124e+000 2.418094e+000 2.534702e+000 2.151116e+000 2.636228e+000 2.226562e+000 1.935865e+000 1.857413e+000 1.305851e+000 1.719570e+000 3.393596e-001 2.469798e-001 2.173008e-001 2.656330e-001 3.564706e-001 3.952440e-001 3.678456e-001 4.340220e-001 3.816188e-001 3.429941e-001 3.167496e-001 2.403777e-001 2.375354e-001
<GCONST> 1.156467e+002
<STATE> 4
<MEAN> 39
 0.000000e+000 0.000000e+000 0.000000e+000 0.000000e+000 0.000000e+000 0.000000e+000 0.000000e+000 0.000000e+000 0.000000e+000 0.000000e+000 0.000000e+000 0.000000e+000 0.000000e+000 0.000000e+000 0.000000e+000 0.000000e+000 0.000000e+000 0.000000e+000 0.000000e+000 0.000000e+000 0.000000e+000 0.000000e+000 0.000000e+000 0.000000e+000 0.000000e+000 0.000000e+000 0.000000e+000 0.000000e+000 0.000000e+000 0.000000e+000 0.000000e+000 0.000000e+000 0.000000e+000 0.000000e+000 0.000000e+000 0.000000e+000 0.000000e+000 0.000000e+000 0.000000e+000
<VARIANCE> 39
 9.359503e+001 3.679459e+001 4.499012e+001 6.351903e+001 6.475761e+001 6.529059e+001 3.928167e+001 6.018552e+001 4.288419e+001 3.339623e+001 3.708072e+001 1.868259e+001 5.973125e+001 2.821502e+000 1.631565e+000 1.523291e+000 1.894124e+000 2.418094e+000 2.534702e+000 2.151116e+000 2.636228e+000 2.226562e+000 1.935865e+000 1.857413e+000 1.305851e+000 1.719570e+000 3.393596e-001 2.469798e-001 2.173008e-001 2.656330e-001 3.564706e-001 3.952440e-001 3.678456e-001 4.340220e-001 3.816188e-001 3.429941e-001 3.167496e-001 2.403777e-001 2.375354e-001
<GCONST> 1.156467e+002
<TRANSP> 5
 0.000000e+000 1.000000e+000 0.000000e+000 0.000000e+000 0.000000e+000
 0.000000e+000 6.000000e-001 4.000000e-001 0.000000e+000 0.000000e+000
 0.000000e+000 0.000000e+000 6.000000e-001 4.000000e-001 0.000000e+000
 0.000000e+000 0.000000e+000 0.000000e+000 7.000000e-001 3.000000e-001
 0.000000e+000 0.000000e+000 0.000000e+000 0.000000e+000 0.000000e+000
<ENDHMM>
~h "l"
<BEGINHMM>
<NUMSTATES> 5
<STATE> 2
<MEAN> 39
 0.000000e+000 0.000000e+000 0.000000e+000 0.000000e+000 0.000000e+000 0.000000e+000 0.000000e+000 0.000000e+000 0.000000e+000 0.000000e+000 0.000000e+000 0.000000e+000 0.000000e+000 0.000000e+000 0.000000e+000 0.000000e+000 0.000000e+000 0.000000e+000 0.000000e+000 0.000000e+000 0.000000e+000 0.000000e+000 0.000000e+000 0.000000e+000 0.000000e+000 0.000000e+000 0.000000e+000 0.000000e+000 0.000000e+000 0.000000e+000 0.000000e+000 0.000000e+000 0.000000e+000 0.000000e+000 0.000000e+000 0.000000e+000 0.000000e+000 0.000000e+000 0.000000e+000
<VARIANCE> 39
 9.359503e+001 3.679459e+001 4.499012e+001 6.351903e+001 6.475761e+001 6.529059e+001 3.928167e+001 6.018552e+001 4.288419e+001 3.339623e+001 3.708072e+001 1.868259e+001 5.973125e+001 2.821502e+000 1.631565e+000 1.523291e+000 1.894124e+000 2.418094e+000 2.534702e+000 2.151116e+000 2.636228e+000 2.226562e+000 1.935865e+000 1.857413e+000 1.305851e+000 1.719570e+000 3.393596e-001 2.469798e-001 2.173008e-001 2.656330e-001 3.564706e-001 3.952440e-001 3.678456e-001 4.340220e-001 3.816188e-001 3.429941e-001 3.167496e-001 2.403777e-001 2.375354e-001
<GCONST> 1.156467e+002
<STATE> 3
<MEAN> 39
 0.000000e+000 0.000000e+000 0.000000e+000 0.000000e+000 0.000000e+000 0.000000e+000 0.000000e+000 0.000000e+000 0.000000e+000 0.000000e+000 0.000000e+000 0.000000e+000 0.000000e+000 0.000000e+000 0.000000e+000 0.000000e+000 0.000000e+000 0.000000e+000 0.000000e+000 0.000000e+000 0.000000e+000 0.000000e+000 0.000000e+000 0.000000e+000 0.000000e+000 0.000000e+000 0.000000e+000 0.000000e+000 0.000000e+000 0.000000e+000 0.000000e+000 0.000000e+000 0.000000e+000 0.000000e+000 0.000000e+000 0.000000e+000 0.000000e+000 0.000000e+000 0.000000e+000
<VARIANCE> 39
 9.359503e+001 3.679459e+001 4.499012e+001 6.351903e+001 6.475761e+001 6.529059e+001 3.928167e+001 6.018552e+001 4.288419e+001 3.339623e+001 3.708072e+001 1.868259e+001 5.973125e+001 2.821502e+000 1.631565e+000 1.523291e+000 1.894124e+000 2.418094e+000 2.534702e+000 2.151116e+000 2.636228e+000 2.226562e+000 1.935865e+000 1.857413e+000 1.305851e+000 1.719570e+000 3.393596e-001 2.469798e-001 2.173008e-001 2.656330e-001 3.564706e-001 3.952440e-001 3.678456e-001 4.340220e-001 3.816188e-001 3.429941e-001 3.167496e-001 2.403777e-001 2.375354e-001
<GCONST> 1.156467e+002
<STATE> 4
<MEAN> 39
 0.000000e+000 0.000000e+000 0.000000e+000 0.000000e+000 0.000000e+000 0.000000e+000 0.000000e+000 0.000000e+000 0.000000e+000 0.000000e+000 0.000000e+000 0.000000e+000 0.000000e+000 0.000000e+000 0.000000e+000 0.000000e+000 0.000000e+000 0.000000e+000 0.000000e+000 0.000000e+000 0.000000e+000 0.000000e+000 0.000000e+000 0.000000e+000 0.000000e+000 0.000000e+000 0.000000e+000 0.000000e+000 0.000000e+000 0.000000e+000 0.000000e+000 0.000000e+000 0.000000e+000 0.000000e+000 0.000000e+000 0.000000e+000 0.000000e+000 0.000000e+000 0.000000e+000
<VARIANCE> 39
 9.359503e+001 3.679459e+001 4.499012e+001 6.351903e+001 6.475761e+001 6.529059e+001 3.928167e+001 6.018552e+001 4.288419e+001 3.339623e+001 3.708072e+001 1.868259e+001 5.973125e+001 2.821502e+000 1.631565e+000 1.523291e+000 1.894124e+000 2.418094e+000 2.534702e+000 2.151116e+000 2.636228e+000 2.226562e+000 1.935865e+000 1.857413e+000 1.305851e+000 1.719570e+000 3.393596e-001 2.469798e-001 2.173008e-001 2.656330e-001 3.564706e-001 3.952440e-001 3.678456e-001 4.340220e-001 3.816188e-001 3.429941e-001 3.167496e-001 2.403777e-001 2.375354e-001
<GCONST> 1.156467e+002
<TRANSP> 5
 0.000000e+000 1.000000e+000 0.000000e+000 0.000000e+000 0.000000e+000
 0.000000e+000 6.000000e-001 4.000000e-001 0.000000e+000 0.000000e+000
 0.000000e+000 0.000000e+000 6.000000e-001 4.000000e-001 0.000000e+000
 0.000000e+000 0.000000e+000 0.000000e+000 7.000000e-001 3.000000e-001
 0.000000e+000 0.000000e+000 0.000000e+000 0.000000e+000 0.000000e+000
<ENDHMM>
~h "m"
<BEGINHMM>
<NUMSTATES> 5
<STATE> 2
<MEAN> 39
 0.000000e+000 0.000000e+000 0.000000e+000 0.000000e+000 0.000000e+000 0.000000e+000 0.000000e+000 0.000000e+000 0.000000e+000 0.000000e+000 0.000000e+000 0.000000e+000 0.000000e+000 0.000000e+000 0.000000e+000 0.000000e+000 0.000000e+000 0.000000e+000 0.000000e+000 0.000000e+000 0.000000e+000 0.000000e+000 0.000000e+000 0.000000e+000 0.000000e+000 0.000000e+000 0.000000e+000 0.000000e+000 0.000000e+000 0.000000e+000 0.000000e+000 0.000000e+000 0.000000e+000 0.000000e+000 0.000000e+000 0.000000e+000 0.000000e+000 0.000000e+000 0.000000e+000
<VARIANCE> 39
 9.359503e+001 3.679459e+001 4.499012e+001 6.351903e+001 6.475761e+001 6.529059e+001 3.928167e+001 6.018552e+001 4.288419e+001 3.339623e+001 3.708072e+001 1.868259e+001 5.973125e+001 2.821502e+000 1.631565e+000 1.523291e+000 1.894124e+000 2.418094e+000 2.534702e+000 2.151116e+000 2.636228e+000 2.226562e+000 1.935865e+000 1.857413e+000 1.305851e+000 1.719570e+000 3.393596e-001 2.469798e-001 2.173008e-001 2.656330e-001 3.564706e-001 3.952440e-001 3.678456e-001 4.340220e-001 3.816188e-001 3.429941e-001 3.167496e-001 2.403777e-001 2.375354e-001
<GCONST> 1.156467e+002
<STATE> 3
<MEAN> 39
 0.000000e+000 0.000000e+000 0.000000e+000 0.000000e+000 0.000000e+000 0.000000e+000 0.000000e+000 0.000000e+000 0.000000e+000 0.000000e+000 0.000000e+000 0.000000e+000 0.000000e+000 0.000000e+000 0.000000e+000 0.000000e+000 0.000000e+000 0.000000e+000 0.000000e+000 0.000000e+000 0.000000e+000 0.000000e+000 0.000000e+000 0.000000e+000 0.000000e+000 0.000000e+000 0.000000e+000 0.000000e+000 0.000000e+000 0.000000e+000 0.000000e+000 0.000000e+000 0.000000e+000 0.000000e+000 0.000000e+000 0.000000e+000 0.000000e+000 0.000000e+000 0.000000e+000
<VARIANCE> 39
 9.359503e+001 3.679459e+001 4.499012e+001 6.351903e+001 6.475761e+001 6.529059e+001 3.928167e+001 6.018552e+001 4.288419e+001 3.339623e+001 3.708072e+001 1.868259e+001 5.973125e+001 2.821502e+000 1.631565e+000 1.523291e+000 1.894124e+000 2.418094e+000 2.534702e+000 2.151116e+000 2.636228e+000 2.226562e+000 1.935865e+000 1.857413e+000 1.305851e+000 1.719570e+000 3.393596e-001 2.469798e-001 2.173008e-001 2.656330e-001 3.564706e-001 3.952440e-001 3.678456e-001 4.340220e-001 3.816188e-001 3.429941e-001 3.167496e-001 2.403777e-001 2.375354e-001
<GCONST> 1.156467e+002
<STATE> 4
<MEAN> 39
 0.000000e+000 0.000000e+000 0.000000e+000 0.000000e+000 0.000000e+000 0.000000e+000 0.000000e+000 0.000000e+000 0.000000e+000 0.000000e+000 0.000000e+000 0.000000e+000 0.000000e+000 0.000000e+000 0.000000e+000 0.000000e+000 0.000000e+000 0.000000e+000 0.000000e+000 0.000000e+000 0.000000e+000 0.000000e+000 0.000000e+000 0.000000e+000 0.000000e+000 0.000000e+000 0.000000e+000 0.000000e+000 0.000000e+000 0.000000e+000 0.000000e+000 0.000000e+000 0.000000e+000 0.000000e+000 0.000000e+000 0.000000e+000 0.000000e+000 0.000000e+000 0.000000e+000
<VARIANCE> 39
 9.359503e+001 3.679459e+001 4.499012e+001 6.351903e+001 6.475761e+001 6.529059e+001 3.928167e+001 6.018552e+001 4.288419e+001 3.339623e+001 3.708072e+001 1.868259e+001 5.973125e+001 2.821502e+000 1.631565e+000 1.523291e+000 1.894124e+000 2.418094e+000 2.534702e+000 2.151116e+000 2.636228e+000 2.226562e+000 1.935865e+000 1.857413e+000 1.305851e+000 1.719570e+000 3.393596e-001 2.469798e-001 2.173008e-001 2.656330e-001 3.564706e-001 3.952440e-001 3.678456e-001 4.340220e-001 3.816188e-001 3.429941e-001 3.167496e-001 2.403777e-001 2.375354e-001
<GCONST> 1.156467e+002
<TRANSP> 5
 0.000000e+000 1.000000e+000 0.000000e+000 0.000000e+000 0.000000e+000
 0.000000e+000 6.000000e-001 4.000000e-001 0.000000e+000 0.000000e+000
 0.000000e+000 0.000000e+000 6.000000e-001 4.000000e-001 0.000000e+000
 0.000000e+000 0.000000e+000 0.000000e+000 7.000000e-001 3.000000e-001
 0.000000e+000 0.000000e+000 0.000000e+000 0.000000e+000 0.000000e+000
<ENDHMM>
~h "n"
<BEGINHMM>
<NUMSTATES> 5
<STATE> 2
<MEAN> 39
 0.000000e+000 0.000000e+000 0.000000e+000 0.000000e+000 0.000000e+000 0.000000e+000 0.000000e+000 0.000000e+000 0.000000e+000 0.000000e+000 0.000000e+000 0.000000e+000 0.000000e+000 0.000000e+000 0.000000e+000 0.000000e+000 0.000000e+000 0.000000e+000 0.000000e+000 0.000000e+000 0.000000e+000 0.000000e+000 0.000000e+000 0.000000e+000 0.000000e+000 0.000000e+000 0.000000e+000 0.000000e+000 0.000000e+000 0.000000e+000 0.000000e+000 0.000000e+000 0.000000e+000 0.000000e+000 0.000000e+000 0.000000e+000 0.000000e+000 0.000000e+000 0.000000e+000
<VARIANCE> 39
 9.359503e+001 3.679459e+001 4.499012e+001 6.351903e+001 6.475761e+001 6.529059e+001 3.928167e+001 6.018552e+001 4.288419e+001 3.339623e+001 3.708072e+001 1.868259e+001 5.973125e+001 2.821502e+000 1.631565e+000 1.523291e+000 1.894124e+000 2.418094e+000 2.534702e+000 2.151116e+000 2.636228e+000 2.226562e+000 1.935865e+000 1.857413e+000 1.305851e+000 1.719570e+000 3.393596e-001 2.469798e-001 2.173008e-001 2.656330e-001 3.564706e-001 3.952440e-001 3.678456e-001 4.340220e-001 3.816188e-001 3.429941e-001 3.167496e-001 2.403777e-001 2.375354e-001
<GCONST> 1.156467e+002
<STATE> 3
<MEAN> 39
 0.000000e+000 0.000000e+000 0.000000e+000 0.000000e+000 0.000000e+000 0.000000e+000 0.000000e+000 0.000000e+000 0.000000e+000 0.000000e+000 0.000000e+000 0.000000e+000 0.000000e+000 0.000000e+000 0.000000e+000 0.000000e+000 0.000000e+000 0.000000e+000 0.000000e+000 0.000000e+000 0.000000e+000 0.000000e+000 0.000000e+000 0.000000e+000 0.000000e+000 0.000000e+000 0.000000e+000 0.000000e+000 0.000000e+000 0.000000e+000 0.000000e+000 0.000000e+000 0.000000e+000 0.000000e+000 0.000000e+000 0.000000e+000 0.000000e+000 0.000000e+000 0.000000e+000
<VARIANCE> 39
 9.359503e+001 3.679459e+001 4.499012e+001 6.351903e+001 6.475761e+001 6.529059e+001 3.928167e+001 6.018552e+001 4.288419e+001 3.339623e+001 3.708072e+001 1.868259e+001 5.973125e+001 2.821502e+000 1.631565e+000 1.523291e+000 1.894124e+000 2.418094e+000 2.534702e+000 2.151116e+000 2.636228e+000 2.226562e+000 1.935865e+000 1.857413e+000 1.305851e+000 1.719570e+000 3.393596e-001 2.469798e-001 2.173008e-001 2.656330e-001 3.564706e-001 3.952440e-001 3.678456e-001 4.340220e-001 3.816188e-001 3.429941e-001 3.167496e-001 2.403777e-001 2.375354e-001
<GCONST> 1.156467e+002
<STATE> 4
<MEAN> 39
 0.000000e+000 0.000000e+000 0.000000e+000 0.000000e+000 0.000000e+000 0.000000e+000 0.000000e+000 0.000000e+000 0.000000e+000 0.000000e+000 0.000000e+000 0.000000e+000 0.000000e+000 0.000000e+000 0.000000e+000 0.000000e+000 0.000000e+000 0.000000e+000 0.000000e+000 0.000000e+000 0.000000e+000 0.000000e+000 0.000000e+000 0.000000e+000 0.000000e+000 0.000000e+000 0.000000e+000 0.000000e+000 0.000000e+000 0.000000e+000 0.000000e+000 0.000000e+000 0.000000e+000 0.000000e+000 0.000000e+000 0.000000e+000 0.000000e+000 0.000000e+000 0.000000e+000
<VARIANCE> 39
 9.359503e+001 3.679459e+001 4.499012e+001 6.351903e+001 6.475761e+001 6.529059e+001 3.928167e+001 6.018552e+001 4.288419e+001 3.339623e+001 3.708072e+001 1.868259e+001 5.973125e+001 2.821502e+000 1.631565e+000 1.523291e+000 1.894124e+000 2.418094e+000 2.534702e+000 2.151116e+000 2.636228e+000 2.226562e+000 1.935865e+000 1.857413e+000 1.305851e+000 1.719570e+000 3.393596e-001 2.469798e-001 2.173008e-001 2.656330e-001 3.564706e-001 3.952440e-001 3.678456e-001 4.340220e-001 3.816188e-001 3.429941e-001 3.167496e-001 2.403777e-001 2.375354e-001
<GCONST> 1.156467e+002
<TRANSP> 5
 0.000000e+000 1.000000e+000 0.000000e+000 0.000000e+000 0.000000e+000
 0.000000e+000 6.000000e-001 4.000000e-001 0.000000e+000 0.000000e+000
 0.000000e+000 0.000000e+000 6.000000e-001 4.000000e-001 0.000000e+000
 0.000000e+000 0.000000e+000 0.000000e+000 7.000000e-001 3.000000e-001
 0.000000e+000 0.000000e+000 0.000000e+000 0.000000e+000 0.000000e+000
<ENDHMM>
~h "p"
<BEGINHMM>
<NUMSTATES> 5
<STATE> 2
<MEAN> 39
 0.000000e+000 0.000000e+000 0.000000e+000 0.000000e+000 0.000000e+000 0.000000e+000 0.000000e+000 0.000000e+000 0.000000e+000 0.000000e+000 0.000000e+000 0.000000e+000 0.000000e+000 0.000000e+000 0.000000e+000 0.000000e+000 0.000000e+000 0.000000e+000 0.000000e+000 0.000000e+000 0.000000e+000 0.000000e+000 0.000000e+000 0.000000e+000 0.000000e+000 0.000000e+000 0.000000e+000 0.000000e+000 0.000000e+000 0.000000e+000 0.000000e+000 0.000000e+000 0.000000e+000 0.000000e+000 0.000000e+000 0.000000e+000 0.000000e+000 0.000000e+000 0.000000e+000
<VARIANCE> 39
 9.359503e+001 3.679459e+001 4.499012e+001 6.351903e+001 6.475761e+001 6.529059e+001 3.928167e+001 6.018552e+001 4.288419e+001 3.339623e+001 3.708072e+001 1.868259e+001 5.973125e+001 2.821502e+000 1.631565e+000 1.523291e+000 1.894124e+000 2.418094e+000 2.534702e+000 2.151116e+000 2.636228e+000 2.226562e+000 1.935865e+000 1.857413e+000 1.305851e+000 1.719570e+000 3.393596e-001 2.469798e-001 2.173008e-001 2.656330e-001 3.564706e-001 3.952440e-001 3.678456e-001 4.340220e-001 3.816188e-001 3.429941e-001 3.167496e-001 2.403777e-001 2.375354e-001
<GCONST> 1.156467e+002
<STATE> 3
<MEAN> 39
 0.000000e+000 0.000000e+000 0.000000e+000 0.000000e+000 0.000000e+000 0.000000e+000 0.000000e+000 0.000000e+000 0.000000e+000 0.000000e+000 0.000000e+000 0.000000e+000 0.000000e+000 0.000000e+000 0.000000e+000 0.000000e+000 0.000000e+000 0.000000e+000 0.000000e+000 0.000000e+000 0.000000e+000 0.000000e+000 0.000000e+000 0.000000e+000 0.000000e+000 0.000000e+000 0.000000e+000 0.000000e+000 0.000000e+000 0.000000e+000 0.000000e+000 0.000000e+000 0.000000e+000 0.000000e+000 0.000000e+000 0.000000e+000 0.000000e+000 0.000000e+000 0.000000e+000
<VARIANCE> 39
 9.359503e+001 3.679459e+001 4.499012e+001 6.351903e+001 6.475761e+001 6.529059e+001 3.928167e+001 6.018552e+001 4.288419e+001 3.339623e+001 3.708072e+001 1.868259e+001 5.973125e+001 2.821502e+000 1.631565e+000 1.523291e+000 1.894124e+000 2.418094e+000 2.534702e+000 2.151116e+000 2.636228e+000 2.226562e+000 1.935865e+000 1.857413e+000 1.305851e+000 1.719570e+000 3.393596e-001 2.469798e-001 2.173008e-001 2.656330e-001 3.564706e-001 3.952440e-001 3.678456e-001 4.340220e-001 3.816188e-001 3.429941e-001 3.167496e-001 2.403777e-001 2.375354e-001
<GCONST> 1.156467e+002
<STATE> 4
<MEAN> 39
 0.000000e+000 0.000000e+000 0.000000e+000 0.000000e+000 0.000000e+000 0.000000e+000 0.000000e+000 0.000000e+000 0.000000e+000 0.000000e+000 0.000000e+000 0.000000e+000 0.000000e+000 0.000000e+000 0.000000e+000 0.000000e+000 0.000000e+000 0.000000e+000 0.000000e+000 0.000000e+000 0.000000e+000 0.000000e+000 0.000000e+000 0.000000e+000 0.000000e+000 0.000000e+000 0.000000e+000 0.000000e+000 0.000000e+000 0.000000e+000 0.000000e+000 0.000000e+000 0.000000e+000 0.000000e+000 0.000000e+000 0.000000e+000 0.000000e+000 0.000000e+000 0.000000e+000
<VARIANCE> 39
 9.359503e+001 3.679459e+001 4.499012e+001 6.351903e+001 6.475761e+001 6.529059e+001 3.928167e+001 6.018552e+001 4.288419e+001 3.339623e+001 3.708072e+001 1.868259e+001 5.973125e+001 2.821502e+000 1.631565e+000 1.523291e+000 1.894124e+000 2.418094e+000 2.534702e+000 2.151116e+000 2.636228e+000 2.226562e+000 1.935865e+000 1.857413e+000 1.305851e+000 1.719570e+000 3.393596e-001 2.469798e-001 2.173008e-001 2.656330e-001 3.564706e-001 3.952440e-001 3.678456e-001 4.340220e-001 3.816188e-001 3.429941e-001 3.167496e-001 2.403777e-001 2.375354e-001
<GCONST> 1.156467e+002
<TRANSP> 5
 0.000000e+000 1.000000e+000 0.000000e+000 0.000000e+000 0.000000e+000
 0.000000e+000 6.000000e-001 4.000000e-001 0.000000e+000 0.000000e+000
 0.000000e+000 0.000000e+000 6.000000e-001 4.000000e-001 0.000000e+000
 0.000000e+000 0.000000e+000 0.000000e+000 7.000000e-001 3.000000e-001
 0.000000e+000 0.000000e+000 0.000000e+000 0.000000e+000 0.000000e+000
<ENDHMM>
~h "r"
<BEGINHMM>
<NUMSTATES> 5
<STATE> 2
<MEAN> 39
 0.000000e+000 0.000000e+000 0.000000e+000 0.000000e+000 0.000000e+000 0.000000e+000 0.000000e+000 0.000000e+000 0.000000e+000 0.000000e+000 0.000000e+000 0.000000e+000 0.000000e+000 0.000000e+000 0.000000e+000 0.000000e+000 0.000000e+000 0.000000e+000 0.000000e+000 0.000000e+000 0.000000e+000 0.000000e+000 0.000000e+000 0.000000e+000 0.000000e+000 0.000000e+000 0.000000e+000 0.000000e+000 0.000000e+000 0.000000e+000 0.000000e+000 0.000000e+000 0.000000e+000 0.000000e+000 0.000000e+000 0.000000e+000 0.000000e+000 0.000000e+000 0.000000e+000
<VARIANCE> 39
 9.359503e+001 3.679459e+001 4.499012e+001 6.351903e+001 6.475761e+001 6.529059e+001 3.928167e+001 6.018552e+001 4.288419e+001 3.339623e+001 3.708072e+001 1.868259e+001 5.973125e+001 2.821502e+000 1.631565e+000 1.523291e+000 1.894124e+000 2.418094e+000 2.534702e+000 2.151116e+000 2.636228e+000 2.226562e+000 1.935865e+000 1.857413e+000 1.305851e+000 1.719570e+000 3.393596e-001 2.469798e-001 2.173008e-001 2.656330e-001 3.564706e-001 3.952440e-001 3.678456e-001 4.340220e-001 3.816188e-001 3.429941e-001 3.167496e-001 2.403777e-001 2.375354e-001
<GCONST> 1.156467e+002
<STATE> 3
<MEAN> 39
 0.000000e+000 0.000000e+000 0.000000e+000 0.000000e+000 0.000000e+000 0.000000e+000 0.000000e+000 0.000000e+000 0.000000e+000 0.000000e+000 0.000000e+000 0.000000e+000 0.000000e+000 0.000000e+000 0.000000e+000 0.000000e+000 0.000000e+000 0.000000e+000 0.000000e+000 0.000000e+000 0.000000e+000 0.000000e+000 0.000000e+000 0.000000e+000 0.000000e+000 0.000000e+000 0.000000e+000 0.000000e+000 0.000000e+000 0.000000e+000 0.000000e+000 0.000000e+000 0.000000e+000 0.000000e+000 0.000000e+000 0.000000e+000 0.000000e+000 0.000000e+000 0.000000e+000
<VARIANCE> 39
 9.359503e+001 3.679459e+001 4.499012e+001 6.351903e+001 6.475761e+001 6.529059e+001 3.928167e+001 6.018552e+001 4.288419e+001 3.339623e+001 3.708072e+001 1.868259e+001 5.973125e+001 2.821502e+000 1.631565e+000 1.523291e+000 1.894124e+000 2.418094e+000 2.534702e+000 2.151116e+000 2.636228e+000 2.226562e+000 1.935865e+000 1.857413e+000 1.305851e+000 1.719570e+000 3.393596e-001 2.469798e-001 2.173008e-001 2.656330e-001 3.564706e-001 3.952440e-001 3.678456e-001 4.340220e-001 3.816188e-001 3.429941e-001 3.167496e-001 2.403777e-001 2.375354e-001
<GCONST> 1.156467e+002
<STATE> 4
<MEAN> 39
 0.000000e+000 0.000000e+000 0.000000e+000 0.000000e+000 0.000000e+000 0.000000e+000 0.000000e+000 0.000000e+000 0.000000e+000 0.000000e+000 0.000000e+000 0.000000e+000 0.000000e+000 0.000000e+000 0.000000e+000 0.000000e+000 0.000000e+000 0.000000e+000 0.000000e+000 0.000000e+000 0.000000e+000 0.000000e+000 0.000000e+000 0.000000e+000 0.000000e+000 0.000000e+000 0.000000e+000 0.000000e+000 0.000000e+000 0.000000e+000 0.000000e+000 0.000000e+000 0.000000e+000 0.000000e+000 0.000000e+000 0.000000e+000 0.000000e+000 0.000000e+000 0.000000e+000
<VARIANCE> 39
 9.359503e+001 3.679459e+001 4.499012e+001 6.351903e+001 6.475761e+001 6.529059e+001 3.928167e+001 6.018552e+001 4.288419e+001 3.339623e+001 3.708072e+001 1.868259e+001 5.973125e+001 2.821502e+000 1.631565e+000 1.523291e+000 1.894124e+000 2.418094e+000 2.534702e+000 2.151116e+000 2.636228e+000 2.226562e+000 1.935865e+000 1.857413e+000 1.305851e+000 1.719570e+000 3.393596e-001 2.469798e-001 2.173008e-001 2.656330e-001 3.564706e-001 3.952440e-001 3.678456e-001 4.340220e-001 3.816188e-001 3.429941e-001 3.167496e-001 2.403777e-001 2.375354e-001
<GCONST> 1.156467e+002
<TRANSP> 5
 0.000000e+000 1.000000e+000 0.000000e+000 0.000000e+000 0.000000e+000
 0.000000e+000 6.000000e-001 4.000000e-001 0.000000e+000 0.000000e+000
 0.000000e+000 0.000000e+000 6.000000e-001 4.000000e-001 0.000000e+000
 0.000000e+000 0.000000e+000 0.000000e+000 7.000000e-001 3.000000e-001
 0.000000e+000 0.000000e+000 0.000000e+000 0.000000e+000 0.000000e+000
<ENDHMM>
~h "s"
<BEGINHMM>
<NUMSTATES> 5
<STATE> 2
<MEAN> 39
 0.000000e+000 0.000000e+000 0.000000e+000 0.000000e+000 0.000000e+000 0.000000e+000 0.000000e+000 0.000000e+000 0.000000e+000 0.000000e+000 0.000000e+000 0.000000e+000 0.000000e+000 0.000000e+000 0.000000e+000 0.000000e+000 0.000000e+000 0.000000e+000 0.000000e+000 0.000000e+000 0.000000e+000 0.000000e+000 0.000000e+000 0.000000e+000 0.000000e+000 0.000000e+000 0.000000e+000 0.000000e+000 0.000000e+000 0.000000e+000 0.000000e+000 0.000000e+000 0.000000e+000 0.000000e+000 0.000000e+000 0.000000e+000 0.000000e+000 0.000000e+000 0.000000e+000
<VARIANCE> 39
 9.359503e+001 3.679459e+001 4.499012e+001 6.351903e+001 6.475761e+001 6.529059e+001 3.928167e+001 6.018552e+001 4.288419e+001 3.339623e+001 3.708072e+001 1.868259e+001 5.973125e+001 2.821502e+000 1.631565e+000 1.523291e+000 1.894124e+000 2.418094e+000 2.534702e+000 2.151116e+000 2.636228e+000 2.226562e+000 1.935865e+000 1.857413e+000 1.305851e+000 1.719570e+000 3.393596e-001 2.469798e-001 2.173008e-001 2.656330e-001 3.564706e-001 3.952440e-001 3.678456e-001 4.340220e-001 3.816188e-001 3.429941e-001 3.167496e-001 2.403777e-001 2.375354e-001
<GCONST> 1.156467e+002
<STATE> 3
<MEAN> 39
 0.000000e+000 0.000000e+000 0.000000e+000 0.000000e+000 0.000000e+000 0.000000e+000 0.000000e+000 0.000000e+000 0.000000e+000 0.000000e+000 0.000000e+000 0.000000e+000 0.000000e+000 0.000000e+000 0.000000e+000 0.000000e+000 0.000000e+000 0.000000e+000 0.000000e+000 0.000000e+000 0.000000e+000 0.000000e+000 0.000000e+000 0.000000e+000 0.000000e+000 0.000000e+000 0.000000e+000 0.000000e+000 0.000000e+000 0.000000e+000 0.000000e+000 0.000000e+000 0.000000e+000 0.000000e+000 0.000000e+000 0.000000e+000 0.000000e+000 0.000000e+000 0.000000e+000
<VARIANCE> 39
 9.359503e+001 3.679459e+001 4.499012e+001 6.351903e+001 6.475761e+001 6.529059e+001 3.928167e+001 6.018552e+001 4.288419e+001 3.339623e+001 3.708072e+001 1.868259e+001 5.973125e+001 2.821502e+000 1.631565e+000 1.523291e+000 1.894124e+000 2.418094e+000 2.534702e+000 2.151116e+000 2.636228e+000 2.226562e+000 1.935865e+000 1.857413e+000 1.305851e+000 1.719570e+000 3.393596e-001 2.469798e-001 2.173008e-001 2.656330e-001 3.564706e-001 3.952440e-001 3.678456e-001 4.340220e-001 3.816188e-001 3.429941e-001 3.167496e-001 2.403777e-001 2.375354e-001
<GCONST> 1.156467e+002
<STATE> 4
<MEAN> 39
 0.000000e+000 0.000000e+000 0.000000e+000 0.000000e+000 0.000000e+000 0.000000e+000 0.000000e+000 0.000000e+000 0.000000e+000 0.000000e+000 0.000000e+000 0.000000e+000 0.000000e+000 0.000000e+000 0.000000e+000 0.000000e+000 0.000000e+000 0.000000e+000 0.000000e+000 0.000000e+000 0.000000e+000 0.000000e+000 0.000000e+000 0.000000e+000 0.000000e+000 0.000000e+000 0.000000e+000 0.000000e+000 0.000000e+000 0.000000e+000 0.000000e+000 0.000000e+000 0.000000e+000 0.000000e+000 0.000000e+000 0.000000e+000 0.000000e+000 0.000000e+000 0.000000e+000
<VARIANCE> 39
 9.359503e+001 3.679459e+001 4.499012e+001 6.351903e+001 6.475761e+001 6.529059e+001 3.928167e+001 6.018552e+001 4.288419e+001 3.339623e+001 3.708072e+001 1.868259e+001 5.973125e+001 2.821502e+000 1.631565e+000 1.523291e+000 1.894124e+000 2.418094e+000 2.534702e+000 2.151116e+000 2.636228e+000 2.226562e+000 1.935865e+000 1.857413e+000 1.305851e+000 1.719570e+000 3.393596e-001 2.469798e-001 2.173008e-001 2.656330e-001 3.564706e-001 3.952440e-001 3.678456e-001 4.340220e-001 3.816188e-001 3.429941e-001 3.167496e-001 2.403777e-001 2.375354e-001
<GCONST> 1.156467e+002
<TRANSP> 5
 0.000000e+000 1.000000e+000 0.000000e+000 0.000000e+000 0.000000e+000
 0.000000e+000 6.000000e-001 4.000000e-001 0.000000e+000 0.000000e+000
 0.000000e+000 0.000000e+000 6.000000e-001 4.000000e-001 0.000000e+000
 0.000000e+000 0.000000e+000 0.000000e+000 7.000000e-001 3.000000e-001
 0.000000e+000 0.000000e+000 0.000000e+000 0.000000e+000 0.000000e+000
<ENDHMM>
~h "t"
<BEGINHMM>
<NUMSTATES> 5
<STATE> 2
<MEAN> 39
 0.000000e+000 0.000000e+000 0.000000e+000 0.000000e+000 0.000000e+000 0.000000e+000 0.000000e+000 0.000000e+000 0.000000e+000 0.000000e+000 0.000000e+000 0.000000e+000 0.000000e+000 0.000000e+000 0.000000e+000 0.000000e+000 0.000000e+000 0.000000e+000 0.000000e+000 0.000000e+000 0.000000e+000 0.000000e+000 0.000000e+000 0.000000e+000 0.000000e+000 0.000000e+000 0.000000e+000 0.000000e+000 0.000000e+000 0.000000e+000 0.000000e+000 0.000000e+000 0.000000e+000 0.000000e+000 0.000000e+000 0.000000e+000 0.000000e+000 0.000000e+000 0.000000e+000
<VARIANCE> 39
 9.359503e+001 3.679459e+001 4.499012e+001 6.351903e+001 6.475761e+001 6.529059e+001 3.928167e+001 6.018552e+001 4.288419e+001 3.339623e+001 3.708072e+001 1.868259e+001 5.973125e+001 2.821502e+000 1.631565e+000 1.523291e+000 1.894124e+000 2.418094e+000 2.534702e+000 2.151116e+000 2.636228e+000 2.226562e+000 1.935865e+000 1.857413e+000 1.305851e+000 1.719570e+000 3.393596e-001 2.469798e-001 2.173008e-001 2.656330e-001 3.564706e-001 3.952440e-001 3.678456e-001 4.340220e-001 3.816188e-001 3.429941e-001 3.167496e-001 2.403777e-001 2.375354e-001
<GCONST> 1.156467e+002
<STATE> 3
<MEAN> 39
 0.000000e+000 0.000000e+000 0.000000e+000 0.000000e+000 0.000000e+000 0.000000e+000 0.000000e+000 0.000000e+000 0.000000e+000 0.000000e+000 0.000000e+000 0.000000e+000 0.000000e+000 0.000000e+000 0.000000e+000 0.000000e+000 0.000000e+000 0.000000e+000 0.000000e+000 0.000000e+000 0.000000e+000 0.000000e+000 0.000000e+000 0.000000e+000 0.000000e+000 0.000000e+000 0.000000e+000 0.000000e+000 0.000000e+000 0.000000e+000 0.000000e+000 0.000000e+000 0.000000e+000 0.000000e+000 0.000000e+000 0.000000e+000 0.000000e+000 0.000000e+000 0.000000e+000
<VARIANCE> 39
 9.359503e+001 3.679459e+001 4.499012e+001 6.351903e+001 6.475761e+001 6.529059e+001 3.928167e+001 6.018552e+001 4.288419e+001 3.339623e+001 3.708072e+001 1.868259e+001 5.973125e+001 2.821502e+000 1.631565e+000 1.523291e+000 1.894124e+000 2.418094e+000 2.534702e+000 2.151116e+000 2.636228e+000 2.226562e+000 1.935865e+000 1.857413e+000 1.305851e+000 1.719570e+000 3.393596e-001 2.469798e-001 2.173008e-001 2.656330e-001 3.564706e-001 3.952440e-001 3.678456e-001 4.340220e-001 3.816188e-001 3.429941e-001 3.167496e-001 2.403777e-001 2.375354e-001
<GCONST> 1.156467e+002
<STATE> 4
<MEAN> 39
 0.000000e+000 0.000000e+000 0.000000e+000 0.000000e+000 0.000000e+000 0.000000e+000 0.000000e+000 0.000000e+000 0.000000e+000 0.000000e+000 0.000000e+000 0.000000e+000 0.000000e+000 0.000000e+000 0.000000e+000 0.000000e+000 0.000000e+000 0.000000e+000 0.000000e+000 0.000000e+000 0.000000e+000 0.000000e+000 0.000000e+000 0.000000e+000 0.000000e+000 0.000000e+000 0.000000e+000 0.000000e+000 0.000000e+000 0.000000e+000 0.000000e+000 0.000000e+000 0.000000e+000 0.000000e+000 0.000000e+000 0.000000e+000 0.000000e+000 0.000000e+000 0.000000e+000
<VARIANCE> 39
 9.359503e+001 3.679459e+001 4.499012e+001 6.351903e+001 6.475761e+001 6.529059e+001 3.928167e+001 6.018552e+001 4.288419e+001 3.339623e+001 3.708072e+001 1.868259e+001 5.973125e+001 2.821502e+000 1.631565e+000 1.523291e+000 1.894124e+000 2.418094e+000 2.534702e+000 2.151116e+000 2.636228e+000 2.226562e+000 1.935865e+000 1.857413e+000 1.305851e+000 1.719570e+000 3.393596e-001 2.469798e-001 2.173008e-001 2.656330e-001 3.564706e-001 3.952440e-001 3.678456e-001 4.340220e-001 3.816188e-001 3.429941e-001 3.167496e-001 2.403777e-001 2.375354e-001
<GCONST> 1.156467e+002
<TRANSP> 5
 0.000000e+000 1.000000e+000 0.000000e+000 0.000000e+000 0.000000e+000
 0.000000e+000 6.000000e-001 4.000000e-001 0.000000e+000 0.000000e+000
 0.000000e+000 0.000000e+000 6.000000e-001 4.000000e-001 0.000000e+000
 0.000000e+000 0.000000e+000 0.000000e+000 7.000000e-001 3.000000e-001
 0.000000e+000 0.000000e+000 0.000000e+000 0.000000e+000 0.000000e+000
<ENDHMM>
~h "v"
<BEGINHMM>
<NUMSTATES> 5
<STATE> 2
<MEAN> 39
 0.000000e+000 0.000000e+000 0.000000e+000 0.000000e+000 0.000000e+000 0.000000e+000 0.000000e+000 0.000000e+000 0.000000e+000 0.000000e+000 0.000000e+000 0.000000e+000 0.000000e+000 0.000000e+000 0.000000e+000 0.000000e+000 0.000000e+000 0.000000e+000 0.000000e+000 0.000000e+000 0.000000e+000 0.000000e+000 0.000000e+000 0.000000e+000 0.000000e+000 0.000000e+000 0.000000e+000 0.000000e+000 0.000000e+000 0.000000e+000 0.000000e+000 0.000000e+000 0.000000e+000 0.000000e+000 0.000000e+000 0.000000e+000 0.000000e+000 0.000000e+000 0.000000e+000
<VARIANCE> 39
 9.359503e+001 3.679459e+001 4.499012e+001 6.351903e+001 6.475761e+001 6.529059e+001 3.928167e+001 6.018552e+001 4.288419e+001 3.339623e+001 3.708072e+001 1.868259e+001 5.973125e+001 2.821502e+000 1.631565e+000 1.523291e+000 1.894124e+000 2.418094e+000 2.534702e+000 2.151116e+000 2.636228e+000 2.226562e+000 1.935865e+000 1.857413e+000 1.305851e+000 1.719570e+000 3.393596e-001 2.469798e-001 2.173008e-001 2.656330e-001 3.564706e-001 3.952440e-001 3.678456e-001 4.340220e-001 3.816188e-001 3.429941e-001 3.167496e-001 2.403777e-001 2.375354e-001
<GCONST> 1.156467e+002
<STATE> 3
<MEAN> 39
 0.000000e+000 0.000000e+000 0.000000e+000 0.000000e+000 0.000000e+000 0.000000e+000 0.000000e+000 0.000000e+000 0.000000e+000 0.000000e+000 0.000000e+000 0.000000e+000 0.000000e+000 0.000000e+000 0.000000e+000 0.000000e+000 0.000000e+000 0.000000e+000 0.000000e+000 0.000000e+000 0.000000e+000 0.000000e+000 0.000000e+000 0.000000e+000 0.000000e+000 0.000000e+000 0.000000e+000 0.000000e+000 0.000000e+000 0.000000e+000 0.000000e+000 0.000000e+000 0.000000e+000 0.000000e+000 0.000000e+000 0.000000e+000 0.000000e+000 0.000000e+000 0.000000e+000
<VARIANCE> 39
