~o
<STREAMINFO> 1 39
<VECSIZE> 39<NULLD><MFCC_D_A_Z_0><DIAGC>
~v "varFloor1"
<VARIANCE> 39
 4.523474e-01 4.349623e-01 5.587159e-01 4.703701e-01 4.823047e-01 5.304551e-01 4.353040e-01 4.869473e-01 4.624474e-01 3.693606e-01 4.004097e-01 3.509813e-01 5.471653e-01 2.330913e-02 2.466555e-02 2.563740e-02 2.954882e-02 3.147662e-02 3.057111e-02 3.026480e-02 3.443770e-02 3.174854e-02 2.755729e-02 2.752207e-02 2.388169e-02 2.149356e-02 3.535317e-03 3.849010e-03 4.014212e-03 5.076190e-03 5.653717e-03 5.329614e-03 5.601436e-03 6.335261e-03 5.767984e-03 5.168673e-03 5.073818e-03 4.362396e-03 3.201174e-03
~s "silst"
<MEAN> 39
 -3.855477e-01 1.198095e+00 -1.920674e+00 7.897167e-01 6.644705e-01 -8.444889e-01 1.109864e+00 3.852013e-01 2.959289e-01 -1.580507e-01 -5.582407e-01 1.327214e+00 -7.539862e+00 -1.298409e-01 -1.825958e-02 -1.526980e-01 -3.274417e-02 -3.688433e-02 -7.214203e-02 -5.769324e-02 -5.322063e-04 4.188726e-02 6.674991e-03 -2.001634e-03 1.093561e-02 -2.194410e-01 1.012049e-02 1.829067e-03 3.919422e-02 8.810617e-03 2.030522e-02 3.229846e-02 2.235785e-02 2.438018e-03 -1.618188e-02 5.020836e-03 -1.031003e-03 -1.407994e-02 8.146173e-02
<VARIANCE> 39
 1.238723e+01 1.535929e+01 2.504141e+01 2.045552e+01 2.486905e+01 3.104195e+01 2.740333e+01 3.034401e+01 2.863879e+01 2.537789e+01 2.730792e+01 2.272664e+01 1.759301e+01 3.425881e-01 5.282845e-01 8.078790e-01 1.021051e+00 1.304597e+00 1.533694e+00 1.675147e+00 1.736080e+00 1.739195e+00 1.722722e+00 1.626315e+00 1.460318e+00 2.373442e-01 6.392331e-02 1.031090e-01 1.561851e-01 2.042561e-01 2.587580e-01 2.967058e-01 3.278002e-01 3.494081e-01 3.540922e-01 3.470542e-01 3.278943e-01 2.961809e-01 4.576491e-02
<GCONST> 9.209333e+01
~h "F"
<BEGINHMM>
<NUMSTATES> 5
<STATE> 2
<MEAN> 39
 8.109221e+00 -6.629374e+00 -8.874632e+00 -1.045835e+01 -5.084611e+00 1.026864e+01 -1.095497e+00 7.122883e-01 -6.933248e+00 -1.157306e+01 -6.206954e+00 -1.184628e+01 6.711406e+00 -2.289779e-01 4.158391e-01 1.276902e+00 1.685648e+00 1.245272e-02 -1.562347e+00 -2.795474e-01 -1.278593e+00 -3.935751e-01 1.343567e+00 -6.613739e-01 -4.454478e-02 -2.632787e-01 -2.389567e-01 4.545181e-01 7.333638e-02 2.850676e-01 4.589987e-01 -1.976664e-01 2.896160e-01 -1.683825e-01 4.051599e-02 6.391990e-01 3.405454e-01 1.462017e-01 -1.767438e-01
<VARIANCE> 39
 3.997815e+00 1.891327e+01 4.256401e+01 4.932813e+01 1.536864e+01 1.606673e+01 6.450562e+00 4.673734e+01 1.042169e+01 5.731250e+01 8.607624e+01 9.401904e+01 2.823486e+00 3.623814e-01 3.016506e+00 1.666166e+00 1.488482e+00 1.284104e+00 2.368832e+00 1.101283e+00 1.327599e+00 1.519332e+00 6.887292e+00 4.057868e+00 1.338222e+00 9.080835e-01 8.183917e-02 3.488516e-01 4.314592e-01 4.248912e-01 6.462644e-01 3.514818e-01 3.412960e-01 3.598398e-01 3.460963e-01 5.365839e-01 4.156421e-01 4.673385e-01 1.005512e-01
<GCONST> 1.032812e+02
<STATE> 3
<MEAN> 39
 6.730465e+00 -1.807523e+00 -2.204183e+00 -2.936205e+00 -4.741481e+00 4.742623e+00 -6.806580e-01 -9.192760e+00 -1.036878e+01 2.306632e-01 -1.314217e+00 -5.650055e+00 4.909430e+00 -8.169500e-01 2.156522e+00 1.001532e-01 2.884041e+00 2.264460e+00 -1.093784e+00 1.611488e+00 -3.589008e-01 2.503941e-01 1.465999e+00 -9.156139e-01 1.465969e+00 -1.421933e+00 -7.875580e-01 7.602030e-02 -5.034292e-01 -9.257556e-03 7.239673e-01 6.357264e-01 3.040922e-01 1.110404e+00 1.203505e+00 -6.296946e-01 1.369317e-01 6.423736e-01 -1.035802e-01
<VARIANCE> 39
 2.858179e+00 1.660262e+01 2.955733e+01 7.116081e+01 1.887157e+01 3.856170e+01 1.138685e+01 6.442646e+01 9.453760e+00 3.897181e+01 2.386433e+01 3.943159e+01 3.485814e+00 6.491802e-01 6.424174e-01 2.245006e+00 1.612260e+00 3.125772e+00 3.972129e+00 1.053987e+00 5.424138e+00 2.545234e+00 2.121039e+00 3.849227e+00 6.511792e+00 1.395992e-01 1.325791e-01 3.560132e-01 3.602178e-01 4.640332e-01 6.053157e-01 9.357781e-01 2.595600e-01 7.714926e-01 2.210427e-01 6.571730e-01 3.945666e-01 5.017149e-01 1.017638e-01
<GCONST> 1.051411e+02
<STATE> 4
<MEAN> 39
 2.848511e+00 4.055273e+00 -3.547476e+00 2.515702e+00 4.713161e+00 5.215521e+00 6.013973e+00 -5.301790e+00 -4.586602e+00 3.488988e-01 -2.836546e+00 -8.834255e-01 1.265427e+00 -3.350562e+00 1.687139e+00 -5.003191e-01 1.809580e+00 1.800876e+00 2.752468e-02 9.998499e-01 2.514573e+00 3.404259e+00 -2.498550e-02 5.414175e-01 2.489516e+00 -1.244357e+00 -5.961046e-01 -7.329865e-01 -1.880808e-01 -8.008770e-01 -1.088903e+00 -1.555474e-01 -8.714589e-01 1.491425e-01 1.979382e-01 -4.749791e-01 2.376238e-01 -1.070221e-01 3.524291e-01
<VARIANCE> 39
 1.511038e+01 2.284839e+01 1.698455e+01 3.401394e+01 1.292278e+01 4.002375e+01 1.155807e+01 1.685312e+01 2.647479e+01 2.155925e+01 2.637346e+01 1.900848e+01 2.537079e+00 6.010412e-01 2.044213e+00 2.632977e+00 3.526418e+00 6.650495e+00 4.217454e+00 1.849872e+00 3.088393e+00 1.772950e+00 1.096010e+00 1.387993e+00 1.699047e+00 5.975916e-01 1.802292e-01 1.711550e-01 1.972908e-01 3.409359e-01 4.991881e-01 8.022058e-01 2.630803e-01 8.620121e-01 3.978350e-01 2.049514e-01 8.968104e-01 1.030692e+00 3.812222e-02
<GCONST> 1.029855e+02
<TRANSP> 5
 0.000000e+00 1.000000e+00 0.000000e+00 0.000000e+00 0.000000e+00
 0.000000e+00 6.656407e-01 3.343593e-01 0.000000e+00 0.000000e+00
 0.000000e+00 0.000000e+00 5.372424e-01 4.627576e-01 0.000000e+00
 0.000000e+00 0.000000e+00 0.000000e+00 4.989432e-01 5.010569e-01
 0.000000e+00 0.000000e+00 0.000000e+00 0.000000e+00 0.000000e+00
<ENDHMM>
~h "J"
<BEGINHMM>
<NUMSTATES> 5
<STATE> 2
<MEAN> 39
 5.378976e+00 4.685376e+00 4.278320e+00 3.603861e+00 -3.534544e-01 -2.146738e+00 1.681172e-01 -4.812149e+00 -4.465866e+00 -1.163098e+00 -1.692921e+00 -6.255853e-01 -5.694931e-01 6.929761e-02 5.112913e-01 5.597373e-01 -5.084394e-01 -2.660722e-01 3.418109e-01 -2.379587e-01 -3.834237e-01 -6.220163e-01 -6.655794e-02 3.000713e-01 6.256483e-02 2.174618e-01 -4.243739e-01 -4.680382e-01 2.477971e-01 -5.529132e-01 -3.701458e-01 2.386853e-01 -1.653856e-01 6.353576e-01 2.359721e-01 -7.362161e-02 1.053585e-01 6.718770e-02 4.561869e-01
<VARIANCE> 39
 9.285660e+00 1.915460e+01 1.888877e+01 2.594768e+01 2.680593e+01 2.791289e+01 3.435338e+01 4.308564e+01 3.497104e+01 3.405227e+01 3.337893e+01 2.882706e+01 1.280900e+01 1.439409e+00 1.866690e+00 2.295061e+00 2.865113e+00 2.694289e+00 2.705172e+00 3.063918e+00 5.100236e+00 3.054796e+00 2.811894e+00 2.582690e+00 2.240904e+00 1.558809e+00 1.758194e-01 2.854743e-01 4.229382e-01 3.890692e-01 5.333911e-01 5.322253e-01 5.792992e-01 8.411957e-01 5.982782e-01 5.789810e-01 5.182199e-01 4.255951e-01 1.395070e-01
<GCONST> 1.141136e+02
<STATE> 3
<MEAN> 39
 1.931413e+00 4.494149e+00 8.786523e+00 -3.535888e+00 -2.538418e+00 1.604627e+00 -3.367054e+00 -2.354972e+00 -5.162149e+00 -1.752775e+00 -2.815510e-01 -1.068903e-01 2.906603e+00 -1.000332e+00 -8.716439e-01 1.723253e+00 -1.634686e+00 -1.883350e+00 1.031498e+00 -3.569720e-01 1.068748e+00 9.178008e-02 -2.723403e-01 3.961308e-01 3.012685e-01 1.224228e+00 6.317692e-02 -3.520072e-01 -1.682789e-01 4.116178e-01 -2.831536e-01 -2.712975e-01 3.603275e-01 9.557956e-02 2.256605e-01 5.152999e-03 -9.391075e-02 -1.601061e-02 5.765965e-04
<VARIANCE> 39
 9.149597e+00 1.928440e+01 2.253246e+01 4.603199e+01 3.235892e+01 4.188002e+01 4.084993e+01 4.422560e+01 3.717625e+01 3.088473e+01 3.350238e+01 3.188174e+01 9.880396e+00 8.843380e-01 1.473629e+00 1.701681e+00 2.475519e+00 2.802559e+00 3.178489e+00 3.352116e+00 4.212070e+00 2.800421e+00 3.039098e+00 2.775340e+00 2.237547e+00 7.313251e-01 1.304370e-01 1.718796e-01 2.735574e-01 3.982407e-01 3.692930e-01 4.918294e-01 4.619809e-01 5.003664e-01 4.588698e-01 3.872611e-01 3.695084e-01 3.249634e-01 7.971799e-02
<GCONST> 1.094458e+02
<STATE> 4
<MEAN> 39
 4.682153e-01 4.982749e-02 1.116038e+01 -3.784929e+00 -8.979270e+00 1.464663e+00 -3.761109e-01 1.186620e+00 -4.397972e+00 -2.892267e+00 -7.473758e-02 6.607313e-01 5.863064e+00 -2.336829e-01 -1.384779e+00 1.838759e-01 2.082947e-01 -1.290997e+00 -5.112308e-01 6.043015e-01 1.181702e+00 5.135236e-01 -2.559070e-01 -6.156265e-02 5.560666e-02 7.878687e-01 2.468928e-01 1.019079e-01 -5.658891e-01 4.700037e-01 6.109366e-01 -3.477953e-01 -6.161362e-04 -1.737756e-01 1.357749e-01 1.048718e-01 -1.452023e-01 -1.366605e-01 -2.900002e-01
<VARIANCE> 39
 1.012817e+01 1.982883e+01 2.391142e+01 4.336229e+01 3.267439e+01 4.336954e+01 4.115207e+01 5.389931e+01 3.616897e+01 3.441986e+01 3.542040e+01 3.436217e+01 1.237029e+01 4.097869e-01 1.121792e+00 1.747193e+00 1.551791e+00 2.308821e+00 2.361743e+00 2.390224e+00 2.607516e+00 2.447544e+00 2.016927e+00 1.985595e+00 1.681550e+00 5.050918e-01 1.032818e-01 1.539806e-01 2.548389e-01 3.355999e-01 3.708150e-01 4.502651e-01 4.512159e-01 5.486013e-01 3.984639e-01 4.207831e-01 3.746451e-01 3.371992e-01 7.270795e-02
<GCONST> 1.052339e+02
<TRANSP> 5
 0.000000e+00 1.000000e+00 0.000000e+00 0.000000e+00 0.000000e+00
 0.000000e+00 7.026631e-01 2.973368e-01 0.000000e+00 0.000000e+00
 0.000000e+00 0.000000e+00 5.052634e-01 4.947366e-01 0.000000e+00
 0.000000e+00 0.000000e+00 0.000000e+00 5.439026e-01 4.560974e-01
 0.000000e+00 0.000000e+00 0.000000e+00 0.000000e+00 0.000000e+00
<ENDHMM>
~h "L"
<BEGINHMM>
<NUMSTATES> 5
<STATE> 2
<MEAN> 39
 5.166886e+00 -5.799590e+00 -6.948565e-01 -4.217228e+00 -9.663070e-01 1.458366e+00 -4.816754e+00 -2.468149e+00 3.322786e+00 3.107518e+00 -7.616581e-01 -4.194823e+00 6.351923e+00 3.664519e-01 3.201229e-01 6.218773e-01 4.593725e-01 -1.252068e-02 6.278534e-02 -5.246106e-01 -1.205913e+00 -3.727398e-01 2.431205e-01 2.300519e-01 1.863860e-01 -5.962541e-01 -1.788750e-01 2.038962e-01 1.734456e-01 2.205569e-01 -9.319697e-02 -1.769412e-01 2.359483e-01 2.211165e-01 -3.514374e-01 -2.978460e-01 5.095718e-02 2.391749e-01 -6.764612e-02
<VARIANCE> 39
 1.006277e+01 2.379067e+01 4.217006e+01 5.372216e+01 3.641549e+01 6.956329e+01 5.350978e+01 5.461144e+01 4.840736e+01 4.674297e+01 5.634434e+01 3.940940e+01 1.678860e+01 5.789421e-01 1.586690e+00 2.546273e+00 4.093512e+00 3.233449e+00 5.203409e+00 4.013073e+00 4.506284e+00 3.956579e+00 3.303954e+00 3.258917e+00 2.970721e+00 8.122459e-01 1.043027e-01 2.420223e-01 3.258249e-01 4.671349e-01 5.667653e-01 6.531279e-01 6.320335e-01 7.780771e-01 7.215103e-01 6.299769e-01 5.976186e-01 5.227084e-01 1.187560e-01
<GCONST> 1.202105e+02
<STATE> 3
<MEAN> 39
 5.235909e+00 -3.475849e+00 3.192241e+00 5.703796e-01 -8.205370e-01 -7.710869e-01 -6.150299e+00 -4.727753e+00 1.088329e+00 1.999169e+00 -1.957138e-01 -2.259235e+00 3.549872e+00 -2.580148e-01 5.437661e-01 7.966806e-01 6.745069e-01 -1.046072e-01 -6.344154e-01 9.091073e-02 4.173970e-01 -8.027501e-01 -7.412179e-01 4.569667e-02 5.584518e-01 -3.726959e-01 -2.565804e-01 -5.561235e-02 -1.364967e-01 -3.002802e-01 -3.020707e-01 1.314595e-02 4.469140e-01 6.590223e-01 -8.340767e-02 -1.662493e-01 6.197770e-02 6.720465e-02 2.745665e-01
<VARIANCE> 39
 9.854632e+00 2.169602e+01 4.029021e+01 5.475073e+01 3.556985e+01 5.699967e+01 5.928605e+01 5.281766e+01 4.608527e+01 4.826569e+01 4.982654e+01 3.668242e+01 1.381524e+01 5.520964e-01 1.794886e+00 2.204314e+00 3.762274e+00 2.930995e+00 3.916516e+00 3.397351e+00 4.774051e+00 3.874654e+00 3.499444e+00 3.082144e+00 2.812145e+00 1.161463e+00 1.137518e-01 3.346927e-01 4.127591e-01 7.293175e-01 8.368396e-01 8.458822e-01 9.356805e-01 9.671977e-01 9.515823e-01 7.879769e-01 7.902586e-01 6.151472e-01 1.733694e-01
<GCONST> 1.228225e+02
<STATE> 4
<MEAN> 39
 3.816804e+00 -2.927086e+00 4.994737e+00 1.025234e+00 -2.212816e+00 -3.347073e+00 -4.989305e+00 -5.876006e-01 -3.268635e-01 -6.502537e-01 -4.720082e-01 -1.944422e-01 3.826423e+00 -5.203083e-01 2.973437e-01 4.483008e-01 -1.220042e-01 -1.137339e+00 -2.482012e-01 9.139975e-01 6.880094e-01 -8.647493e-01 -1.784456e-01 4.570643e-01 4.291773e-01 2.765369e-01 -7.461380e-02 -4.408862e-03 -1.854395e-01 -2.502094e-01 -1.650846e-01 2.906915e-01 2.043169e-01 -1.537699e-01 3.404040e-02 2.324508e-01 4.391292e-02 -1.661592e-01 1.235835e-01
<VARIANCE> 39
 1.011581e+01 2.178151e+01 4.594547e+01 4.911808e+01 3.560484e+01 5.837875e+01 5.119424e+01 5.353934e+01 4.363544e+01 4.573444e+01 4.180579e+01 3.429085e+01 1.668472e+01 7.141336e-01 2.307001e+00 2.939838e+00 3.864635e+00 4.788171e+00 4.164128e+00 4.403570e+00 5.503108e+00 5.154783e+00 4.643279e+00 3.926898e+00 3.455298e+00 1.453258e+00 1.065156e-01 2.394030e-01 3.525093e-01 5.570868e-01 6.247969e-01 6.583706e-01 7.336831e-01 7.761195e-01 6.476961e-01 7.048772e-01 5.794528e-01 4.836430e-01 1.395044e-01
<GCONST> 1.225234e+02
<TRANSP> 5
 0.000000e+00 1.000000e+00 0.000000e+00 0.000000e+00 0.000000e+00
 0.000000e+00 5.257893e-01 4.742106e-01 0.000000e+00 0.000000e+00
 0.000000e+00 0.000000e+00 3.672705e-01 6.327295e-01 0.000000e+00
 0.000000e+00 0.000000e+00 0.000000e+00 3.754635e-01 6.245365e-01
 0.000000e+00 0.000000e+00 0.000000e+00 0.000000e+00 0.000000e+00
<ENDHMM>
~h "N"
<BEGINHMM>
<NUMSTATES> 5
<STATE> 2
<MEAN> 39
 5.523686e+00 -6.472773e-01 1.995379e+00 6.319862e-01 -3.983326e+00 1.066750e-02 3.085964e+00 -3.529418e+00 -6.739370e+00 -7.993035e-01 -1.021302e+00 -4.990886e+00 3.345380e+00 3.604420e-01 1.204438e+00 7.637021e-01 1.267948e+00 -5.808880e-01 -5.907869e-01 5.325649e-01 -1.608878e+00 -5.736398e-01 7.377377e-01 1.826083e-01 8.373042e-02 -1.147460e+00 -6.335026e-02 8.365475e-02 -1.855485e-01 -1.006567e-01 2.902437e-01 2.762355e-01 -1.141297e-01 6.014884e-02 2.617947e-01 -5.509361e-02 3.792562e-02 2.229802e-01 -1.472954e-01
<VARIANCE> 39
 8.598927e+00 1.693859e+01 3.691620e+01 3.150451e+01 4.801046e+01 3.751560e+01 4.973246e+01 6.607556e+01 4.606992e+01 4.000551e+01 4.278992e+01 3.932111e+01 8.644277e+00 5.505462e-01 1.723024e+00 2.538779e+00 2.096376e+00 3.247245e+00 2.734972e+00 3.202867e+00 3.327905e+00 3.552969e+00 2.946857e+00 2.850063e+00 2.619298e+00 5.753519e-01 8.042550e-02 1.509498e-01 3.730837e-01 3.296151e-01 5.439746e-01 4.845415e-01 5.346990e-01 6.995153e-01 6.471270e-01 5.014645e-01 5.162054e-01 5.234128e-01 6.498567e-02
<GCONST> 1.123989e+02
<STATE> 3
<MEAN> 39
 6.657098e+00 3.862586e+00 3.505874e+00 4.130053e+00 -3.973064e+00 -8.189467e-01 4.216949e+00 -7.443139e+00 -7.048085e+00 1.058890e+00 -1.603442e-01 -3.237661e+00 -6.103637e-01 -1.885360e-01 1.245844e+00 3.905808e-02 6.431579e-01 1.019520e+00 2.363333e-01 -1.564839e-01 -6.137301e-02 4.289322e-01 7.302541e-02 1.039438e-01 7.249733e-01 -1.488445e+00 -4.212779e-01 -3.630337e-01 -4.054933e-01 -4.100148e-01 5.598641e-01 2.719167e-01 -2.289061e-01 7.750449e-01 4.370296e-01 -2.273303e-01 -1.037166e-01 1.739348e-01 -2.019679e-02
<VARIANCE> 39
 6.276628e+00 1.254708e+01 1.893335e+01 2.317639e+01 3.161908e+01 3.030645e+01 4.569446e+01 4.453047e+01 3.839351e+01 3.522980e+01 3.799797e+01 2.437928e+01 7.225497e+00 6.426174e-01 1.100686e+00 1.502512e+00 1.640277e+00 2.951547e+00 2.335200e+00 2.881915e+00 3.945548e+00 3.090219e+00 2.568569e+00 2.379503e+00 2.545018e+00 7.644677e-01 1.104380e-01 2.682171e-01 3.884532e-01 3.727918e-01 5.359442e-01 4.738179e-01 6.448480e-01 5.602436e-01 6.617560e-01 5.242022e-01 5.408860e-01 4.206035e-01 8.438671e-02
<GCONST> 1.082987e+02
<STATE> 4
<MEAN> 39
 4.334947e+00 5.925045e+00 2.436328e+00 4.585610e+00 1.907248e+00 8.837728e-01 3.187891e+00 -3.373079e+00 -3.825737e+00 1.936673e-01 -5.131892e-02 -5.013531e-01 -4.744580e+00 -1.455820e+00 -3.986646e-01 -1.320473e+00 -5.961950e-01 1.525679e+00 5.755639e-01 -4.163015e-01 1.451048e+00 1.427718e+00 -1.757609e-01 -1.321855e-01 9.603778e-01 -1.398157e+00 -4.308066e-01 -8.464342e-01 -3.433960e-01 -4.792273e-01 -4.170930e-01 -2.124648e-01 -1.971369e-01 1.507418e-01 -9.142549e-02 -1.918828e-02 -1.009720e-01 -1.937705e-01 5.999241e-01
<VARIANCE> 39
 7.290001e+00 1.197993e+01 1.906840e+01 1.861919e+01 2.764910e+01 2.608631e+01 3.088422e+01 3.013841e+01 3.152861e+01 2.693728e+01 2.694003e+01 2.260301e+01 9.400853e+00 8.032247e-01 1.571673e+00 2.216568e+00 2.401325e+00 3.489592e+00 2.890270e+00 3.941622e+00 3.840714e+00 3.661852e+00 3.096697e+00 3.517765e+00 2.485425e+00 7.920703e-01 1.985195e-01 3.012165e-01 4.067569e-01 3.954900e-01 5.676064e-01 5.407222e-01 6.448947e-01 6.273902e-01 6.126673e-01 5.405331e-01 5.036420e-01 4.947047e-01 2.138260e-01
<GCONST> 1.113625e+02
<TRANSP> 5
 0.000000e+00 1.000000e+00 0.000000e+00 0.000000e+00 0.000000e+00
 0.000000e+00 6.271355e-01 3.728645e-01 0.000000e+00 0.000000e+00
 0.000000e+00 0.000000e+00 5.981948e-01 4.018053e-01 0.000000e+00
 0.000000e+00 0.000000e+00 0.000000e+00 4.695857e-01 5.304143e-01
 0.000000e+00 0.000000e+00 0.000000e+00 0.000000e+00 0.000000e+00
<ENDHMM>
~h "S"
<BEGINHMM>
<NUMSTATES> 5
<STATE> 2
<MEAN> 39
 -8.965688e+00 3.009012e+00 6.029077e+00 4.933322e+00 2.167990e+00 7.998481e-01 2.274582e+00 -5.297834e-01 5.194114e+00 -1.338585e+00 9.231327e-01 1.437488e+00 4.147622e+00 -4.510767e+00 8.166421e-01 6.896467e-01 -2.209843e-01 3.880650e-01 1.464174e-01 7.637371e-01 1.729664e-01 1.306693e+00 -3.618833e-01 3.006465e-01 6.181352e-01 3.348363e-01 2.028199e-01 -4.339849e-01 -3.417516e-01 -7.359100e-01 -5.879655e-01 -1.524250e-01 -4.129454e-01 -1.799421e-01 -4.076755e-01 -7.702310e-02 2.479340e-03 -1.214177e-01 3.976584e-02
<VARIANCE> 39
 5.577817e+01 2.661835e+01 4.012413e+01 3.294310e+01 4.756433e+01 4.406042e+01 4.759118e+01 5.086604e+01 4.662735e+01 3.906947e+01 3.338520e+01 2.784860e+01 1.567813e+01 2.270427e+00 4.060066e+00 3.623256e+00 4.106705e+00 5.337166e+00 4.806160e+00 4.664870e+00 4.819211e+00 4.500843e+00 3.819728e+00 4.120765e+00 2.938822e+00 1.104659e+00 1.097196e+00 5.147325e-01 4.369298e-01 5.019521e-01 7.068900e-01 7.706851e-01 8.321210e-01 7.006570e-01 7.742522e-01 6.988920e-01 5.747099e-01 5.173135e-01 1.753794e-01
<GCONST> 1.286142e+02
<STATE> 3
<MEAN> 39
 -1.951956e+01 2.669354e+00 5.805278e+00 -3.767680e-01 -1.484075e+00 -1.402490e+00 1.217556e+00 -2.058289e+00 4.805622e+00 -3.925434e+00 1.644833e+00 2.085996e+00 5.099215e+00 -1.152599e-01 -4.366473e-02 -3.006895e-01 -4.519116e-01 -2.919642e-01 -2.909318e-01 -3.748004e-01 -7.025836e-02 -2.676956e-01 -3.303650e-01 -9.513269e-02 -6.501100e-02 -2.566081e-01 1.017910e+00 -1.164060e-02 -6.725714e-02 2.821988e-01 1.311877e-01 3.690055e-02 -7.723076e-02 1.346826e-01 -1.689780e-01 1.034778e-01 -2.879874e-02 -1.026704e-01 -2.307445e-01
<VARIANCE> 39
 1.316883e+01 3.414037e+01 2.667066e+01 3.205117e+01 4.060493e+01 4.711290e+01 4.460829e+01 5.120626e+01 4.063359e+01 3.562156e+01 4.796349e+01 2.721986e+01 9.543490e+00 2.507628e+00 1.326501e+00 1.278884e+00 2.163526e+00 2.014518e+00 2.326985e+00 2.404468e+00 2.650150e+00 2.334388e+00 2.221975e+00 2.026092e+00 1.683695e+00 5.250255e-01 4.134553e-01 2.827744e-01 2.785204e-01 3.261543e-01 4.204658e-01 4.853592e-01 4.729989e-01 5.232616e-01 4.865282e-01 4.502849e-01 4.523540e-01 3.702480e-01 1.098808e-01
<GCONST> 1.113357e+02
<STATE> 4
<MEAN> 39
 -1.017373e+01 2.955640e+00 3.611242e+00 1.027741e+00 -4.178789e-01 -1.752723e+00 -5.784823e-01 -8.343203e-01 3.284561e+00 -3.684236e+00 8.026502e-01 1.113847e+00 9.514067e-01 3.841794e+00 -3.294834e-01 -4.140546e-01 1.982958e-01 -1.952584e-01 -5.667635e-01 -4.818986e-01 7.406309e-02 -7.678347e-01 2.742387e-01 -4.012299e-02 -3.716515e-01 -9.148976e-01 3.235868e-02 -2.709148e-01 1.132753e-01 -9.961535e-02 -1.722004e-01 -6.455635e-02 4.373830e-02 -5.333741e-02 2.785886e-04 1.265466e-01 6.624824e-02 1.469224e-02 2.766136e-01
<VARIANCE> 39
 4.732900e+01 2.903250e+01 3.232918e+01 3.591237e+01 3.973315e+01 4.330101e+01 4.090436e+01 4.781820e+01 4.209504e+01 3.272385e+01 3.898825e+01 2.615539e+01 2.274799e+01 2.612093e+00 2.846758e+00 3.150331e+00 3.049442e+00 3.612584e+00 3.625481e+00 3.661448e+00 3.796062e+00 3.514207e+00 3.017121e+00 3.285257e+00 2.415372e+00 2.812463e+00 9.264503e-01 4.019694e-01 3.777194e-01 5.154408e-01 5.136931e-01 5.889437e-01 6.366965e-01 6.004892e-01 5.703502e-01 5.357543e-01 5.186312e-01 4.217732e-01 2.840662e-01
<GCONST> 1.244630e+02
<TRANSP> 5
 0.000000e+00 1.000000e+00 0.000000e+00 0.000000e+00 0.000000e+00
 0.000000e+00 6.511366e-01 3.488634e-01 0.000000e+00 0.000000e+00
 0.000000e+00 0.000000e+00 8.058867e-01 1.941133e-01 0.000000e+00
 0.000000e+00 0.000000e+00 0.000000e+00 6.801044e-01 3.198956e-01
 0.000000e+00 0.000000e+00 0.000000e+00 0.000000e+00 0.000000e+00
<ENDHMM>
~h "Z"
<BEGINHMM>
<NUMSTATES> 5
<STATE> 2
<MEAN> 39
 -2.434381e+00 2.754445e+00 5.043401e+00 3.672190e+00 5.491536e-01 -1.941182e+00 -1.926055e+00 -3.985383e+00 4.801971e+00 -1.019054e+00 -1.091852e+00 6.490763e-01 3.639774e+00 -3.157275e+00 2.244391e+00 1.736595e+00 4.258429e-01 9.439982e-01 2.342661e-01 9.093577e-01 -1.415249e-01 1.122267e+00 -8.731648e-01 4.411146e-02 6.115453e-01 3.986509e-01 -2.407858e-01 -6.383290e-02 -1.322564e-01 -4.518927e-01 6.479953e-03 4.403951e-01 1.762375e-01 3.196827e-01 -1.695418e-01 -4.764822e-02 2.136932e-01 -5.035904e-02 -2.158681e-02
<VARIANCE> 39
 3.083431e+01 2.760876e+01 3.749392e+01 3.422017e+01 3.859779e+01 3.975212e+01 5.074213e+01 5.651074e+01 3.953254e+01 4.721916e+01 3.085674e+01 2.681619e+01 2.678843e+01 3.205135e+00 3.190013e+00 2.925982e+00 3.177977e+00 3.782813e+00 5.267197e+00 5.772315e+00 4.833184e+00 3.977406e+00 3.863635e+00 3.986371e+00 2.915127e+00 1.990481e+00 6.803730e-01 5.411298e-01 4.235875e-01 4.647271e-01 6.501284e-01 7.178360e-01 8.565325e-01 6.918277e-01 6.230164e-01 6.588230e-01 5.504253e-01 4.832920e-01 1.632197e-01
<GCONST> 1.272277e+02
<STATE> 3
<MEAN> 39
 -1.319698e+01 8.160020e+00 9.086803e+00 2.030936e+00 2.918071e+00 1.684319e+00 1.049186e+00 -1.984511e+00 6.405037e+00 -3.763977e+00 8.987747e-01 1.864626e+00 4.807707e+00 2.587309e-02 -9.300465e-02 1.510648e-02 -3.304780e-02 -2.542859e-01 -2.225884e-01 -1.201703e-01 3.105364e-01 -2.492086e-01 -2.601063e-01 1.096521e-01 1.719153e-02 6.323619e-02 1.244270e+00 -7.171060e-01 -3.361929e-01 1.149466e-01 -4.662663e-01 -4.490549e-01 -4.074188e-01 -4.417529e-02 -3.419003e-01 1.659838e-01 -6.719027e-02 -1.626259e-01 1.906477e-02
<VARIANCE> 39
 2.004022e+01 2.350122e+01 3.590589e+01 3.393397e+01 3.632006e+01 4.255484e+01 5.532195e+01 4.858646e+01 4.104367e+01 4.353840e+01 3.576234e+01 2.734253e+01 9.877205e+00 5.773750e+00 1.847804e+00 1.684910e+00 1.665063e+00 2.342434e+00 3.248325e+00 2.957507e+00 2.433999e+00 2.728614e+00 2.268200e+00 1.993706e+00 1.704544e+00 6.025672e-01 3.990652e-01 3.906441e-01 3.758387e-01 3.643945e-01 4.764302e-01 5.904392e-01 6.337650e-01 5.458177e-01 5.387425e-01 5.212767e-01 4.866512e-01 4.016206e-01 9.645916e-02
<GCONST> 1.153648e+02
<STATE> 4
<MEAN> 39
 -3.206228e+00 2.396657e+00 6.891332e+00 3.950267e+00 -1.817617e+00 -3.965149e+00 -2.550503e+00 -2.064890e+00 4.110412e+00 -3.273792e+00 4.026970e-02 1.103272e+00 5.726840e+00 3.336084e+00 -2.700128e+00 -5.238826e-01 3.789895e-02 -1.917324e+00 -1.174462e+00 -1.067050e+00 5.252632e-01 -6.665750e-01 4.806433e-01 -8.545389e-02 -4.281179e-01 3.719000e-01 -2.793157e-01 -9.778526e-02 5.467370e-02 -3.166001e-01 8.550616e-02 3.721880e-01 1.399645e-01 2.355548e-01 6.431507e-02 1.660624e-01 3.238019e-02 -6.719871e-02 -8.315701e-04
<VARIANCE> 39
 2.192255e+01 2.608107e+01 2.816983e+01 2.794182e+01 3.303515e+01 3.068641e+01 3.725328e+01 3.743655e+01 4.194363e+01 3.373138e+01 2.560513e+01 2.428858e+01 1.302311e+01 1.681824e+00 2.446651e+00 2.412797e+00 2.501944e+00 3.380389e+00 3.906697e+00 4.782568e+00 4.091794e+00 3.732169e+00 3.575991e+00 3.164257e+00 2.549719e+00 8.566414e-01 4.724011e-01 4.258827e-01 2.524533e-01 2.922631e-01 4.539842e-01 4.360258e-01 5.308441e-01 4.712069e-01 4.588520e-01 4.429759e-01 3.805041e-01 3.550318e-01 1.036829e-01
<GCONST> 1.153247e+02
<TRANSP> 5
 0.000000e+00 1.000000e+00 0.000000e+00 0.000000e+00 0.000000e+00
 0.000000e+00 6.419764e-01 3.580237e-01 0.000000e+00 0.000000e+00
 0.000000e+00 0.000000e+00 7.767219e-01 2.232781e-01 0.000000e+00
 0.000000e+00 0.000000e+00 0.000000e+00 5.753890e-01 4.246110e-01
 0.000000e+00 0.000000e+00 0.000000e+00 0.000000e+00 0.000000e+00
<ENDHMM>
~h "a"
<BEGINHMM>
<NUMSTATES> 5
<STATE> 2
<MEAN> 39
 3.633622e+00 -8.161735e+00 -5.985776e+00 -4.604090e+00 2.626337e+00 2.542214e+00 1.267355e+00 2.814537e+00 3.639899e+00 1.302556e+00 -4.119339e+00 -5.264790e+00 7.240952e+00 4.380613e-01 -1.972360e+00 -1.003800e+00 -1.018270e+00 8.527939e-01 1.083769e+00 6.046416e-01 6.143762e-01 4.228778e-01 -3.242013e-01 -7.982517e-01 -1.101229e+00 1.659235e+00 -3.122532e-01 6.005834e-01 3.282279e-01 4.662920e-01 4.659298e-03 -2.035441e-01 -2.337576e-02 -3.167287e-01 -3.003171e-01 -9.612028e-02 2.683064e-01 3.778841e-01 -5.118853e-01
<VARIANCE> 39
 1.286529e+01 2.602872e+01 2.780555e+01 3.683893e+01 4.403460e+01 6.324630e+01 4.548800e+01 4.823660e+01 5.062817e+01 4.261978e+01 4.376956e+01 3.931722e+01 3.254147e+01 1.738073e+00 2.462437e+00 2.453193e+00 3.136769e+00 3.356647e+00 3.959876e+00 3.505961e+00 4.197729e+00 4.099539e+00 3.397264e+00 3.589697e+00 3.212675e+00 2.264828e+00 3.317091e-01 4.446453e-01 3.690555e-01 4.967155e-01 6.252024e-01 7.286734e-01 6.345573e-01 7.455567e-01 7.071452e-01 6.159524e-01 6.440161e-01 5.990233e-01 3.824566e-01
<GCONST> 1.254355e+02
<STATE> 3
<MEAN> 39
 4.001684e+00 -1.035974e+01 -7.017453e+00 -5.155038e+00 4.854683e+00 5.074130e+00 2.411892e+00 2.011536e+00 2.853211e+00 -8.736394e-02 -4.793192e+00 -6.150367e+00 9.268704e+00 4.093378e-02 1.886290e-01 7.866176e-02 1.885311e-01 1.572854e-02 -2.420723e-01 -8.785229e-03 -1.371477e-02 -6.012655e-02 -1.723273e-03 9.027378e-02 6.573641e-02 -1.376754e-01 1.351601e-02 5.187376e-01 3.324396e-01 2.783425e-01 -2.309244e-01 -3.175563e-01 -1.788447e-01 -1.495942e-01 -1.375121e-01 1.325610e-01 2.407923e-01 2.781681e-01 -3.853752e-01
<VARIANCE> 39
 9.612849e+00 1.934029e+01 2.192735e+01 3.926113e+01 3.461632e+01 5.457862e+01 4.112954e+01 4.515019e+01 4.981963e+01 4.089694e+01 3.712863e+01 3.500644e+01 1.240780e+01 3.500746e-01 9.223424e-01 1.164336e+00 1.371209e+00 1.795798e+00 2.408551e+00 1.865850e+00 2.112401e+00 1.792495e+00 1.837832e+00 1.978982e+00 1.642119e+00 3.996235e-01 9.289964e-02 2.387948e-01 1.957602e-01 2.967147e-01 3.081554e-01 3.318307e-01 3.617485e-01 4.305586e-01 4.041076e-01 3.415821e-01 3.523213e-01 3.548876e-01 1.371171e-01
<GCONST> 1.028255e+02
<STATE> 4
<MEAN> 39
 4.452207e+00 -5.836162e+00 -4.110268e+00 -2.147474e+00 3.014960e+00 1.524388e-01 5.686918e-01 2.832190e+00 2.678263e+00 1.442953e+00 -2.932258e+00 -4.159069e+00 5.849801e+00 -9.516692e-02 2.363887e+00 1.357734e+00 1.623677e+00 -4.199733e-02 -7.196070e-01 -4.095152e-01 -7.421426e-01 -7.483549e-01 1.095297e-01 8.216314e-01 1.266451e+00 -2.133009e+00 -2.480206e-01 2.351681e-01 3.880785e-02 1.369090e-01 9.084510e-02 2.641210e-01 1.037049e-01 -2.174860e-01 -1.313038e-01 -1.663035e-01 5.541613e-03 1.222315e-01 -3.400686e-01
<VARIANCE> 39
 1.010773e+01 2.623462e+01 3.131067e+01 4.148386e+01 4.000338e+01 6.293375e+01 4.774691e+01 5.177629e+01 4.983027e+01 4.870708e+01 4.561767e+01 3.833593e+01 2.452503e+01 1.136796e+00 2.002620e+00 2.034141e+00 2.808231e+00 3.526910e+00 3.756162e+00 3.530632e+00 4.291184e+00 3.795757e+00 3.276407e+00 3.129596e+00 2.885718e+00 1.702488e+00 2.302581e-01 4.793589e-01 4.276496e-01 5.704378e-01 5.245710e-01 7.020835e-01 6.257019e-01 7.342782e-01 6.224238e-01 5.946273e-01 6.289532e-01 5.576746e-01 3.293243e-01
<GCONST> 1.231085e+02
<TRANSP> 5
 0.000000e+00 1.000000e+00 0.000000e+00 0.000000e+00 0.000000e+00
 0.000000e+00 5.369202e-01 4.630798e-01 0.000000e+00 0.000000e+00
 0.000000e+00 0.000000e+00 7.548462e-01 2.451538e-01 0.000000e+00
 0.000000e+00 0.000000e+00 0.000000e+00 6.000816e-01 3.999183e-01
 0.000000e+00 0.000000e+00 0.000000e+00 0.000000e+00 0.000000e+00
<ENDHMM>
~h "b"
<BEGINHMM>
<NUMSTATES> 5
<STATE> 2
<MEAN> 39
 6.392003e+00 4.686840e+00 2.106766e+00 3.824512e+00 4.777281e+00 3.452719e+00 -2.038799e-01 -3.132698e+00 -3.182253e+00 -2.551623e+00 -2.553575e-01 -7.421914e-01 -4.436002e+00 -1.275553e-01 1.753636e+00 7.109471e-01 1.650400e+00 1.518914e+00 2.906047e-01 1.110665e+00 9.895920e-02 -3.479173e-01 -7.212252e-01 -9.325234e-01 -1.625052e-01 -1.950620e+00 -2.524227e-01 -5.339653e-01 -1.974308e-01 -5.719244e-01 -6.735638e-01 -1.430870e-01 -1.447096e-01 2.032527e-01 2.889844e-01 2.813848e-01 1.374064e-01 -1.711856e-03 7.383871e-01
<VARIANCE> 39
 7.860016e+00 1.610354e+01 1.962322e+01 2.493931e+01 2.050120e+01 3.043634e+01 2.853622e+01 2.897533e+01 2.791852e+01 2.674011e+01 2.705048e+01 2.694056e+01 1.046899e+01 8.343864e-01 1.746449e+00 2.176141e+00 3.411366e+00 2.550152e+00 3.095415e+00 3.040086e+00 3.120057e+00 3.258193e+00 3.031849e+00 2.792877e+00 2.474004e+00 1.600348e+00 1.136496e-01 2.873237e-01 3.232662e-01 4.081525e-01 4.535264e-01 4.164070e-01 4.751226e-01 5.356710e-01 5.381960e-01 4.889833e-01 5.132267e-01 4.382297e-01 2.474169e-01
<GCONST> 1.101045e+02
<STATE> 3
<MEAN> 39
 5.448361e+00 6.840627e+00 2.818963e+00 5.266725e+00 4.969832e+00 3.029989e+00 1.636445e+00 -1.683634e+00 -2.097340e+00 -2.364901e+00 -1.229294e+00 -5.492111e-01 -6.466655e+00 -2.745995e-01 -3.282803e-01 -2.178850e-01 -2.220864e-01 -4.981803e-01 -1.369012e-01 -1.402151e-01 3.769319e-03 1.913353e-01 1.710360e-01 2.229870e-01 2.993279e-01 4.908310e-01 8.037311e-03 -7.494016e-01 -1.573149e-01 -6.465917e-01 -8.077975e-01 -1.134712e-01 -4.752443e-01 -1.066839e-01 3.959270e-03 1.879086e-01 4.448107e-01 1.492405e-01 9.482335e-01
<VARIANCE> 39
 7.276800e+00 1.425848e+01 1.677152e+01 1.979620e+01 1.883893e+01 2.618848e+01 2.587843e+01 2.653449e+01 2.741872e+01 2.419162e+01 2.427676e+01 2.368129e+01 8.333037e+00 5.582786e-01 1.391414e+00 1.541684e+00 2.300501e+00 1.920383e+00 2.200174e+00 2.077127e+00 2.162107e+00 2.096816e+00 2.108063e+00 2.037955e+00 1.758002e+00 1.369202e+00 1.541493e-01 3.454099e-01 4.994842e-01 6.268824e-01 5.552351e-01 6.024864e-01 5.639082e-01 6.460456e-01 6.545880e-01 6.351803e-01 5.839063e-01 4.986653e-01 2.579179e-01
<GCONST> 1.071969e+02
<STATE> 4
<MEAN> 39
 4.441384e+00 2.868181e+00 1.344710e+00 3.287391e+00 2.110776e+00 2.098088e+00 -9.017413e-01 -2.561187e+00 -1.822073e+00 -1.778623e+00 7.812763e-01 8.126038e-01 -1.577200e+00 -3.884938e-02 -2.028599e+00 -1.060140e-01 -1.750828e+00 -2.730694e+00 -3.822670e-01 -1.238436e+00 -8.759959e-02 5.038358e-02 4.539726e-01 1.227597e+00 4.168389e-01 2.816326e+00 7.347932e-02 -1.436782e-01 2.064367e-01 -3.418844e-01 -3.829343e-01 6.641611e-02 -3.714259e-02 3.537865e-02 -5.779337e-02 8.128104e-02 5.479640e-02 -1.579510e-01 2.673147e-01
<VARIANCE> 39
 1.118845e+01 1.895046e+01 2.375860e+01 3.629791e+01 2.524803e+01 3.687354e+01 3.502539e+01 2.920564e+01 2.939575e+01 2.902328e+01 2.833467e+01 2.524982e+01 1.779416e+01 1.403746e+00 2.920953e+00 6.668338e+00 7.668880e+00 4.368912e+00 6.481788e+00 4.727969e+00 5.879371e+00 5.871796e+00 5.863262e+00 4.356641e+00 4.182564e+00 1.682128e+00 1.873395e-01 3.861725e-01 3.916607e-01 5.634010e-01 5.910202e-01 5.683836e-01 6.410593e-01 6.426480e-01 6.565782e-01 5.991036e-01 6.329069e-01 4.749157e-01 3.280343e-01
<GCONST> 1.233718e+02
<TRANSP> 5
 0.000000e+00 1.000000e+00 0.000000e+00 0.000000e+00 0.000000e+00
 0.000000e+00 4.338953e-01 5.661047e-01 0.000000e+00 0.000000e+00
 0.000000e+00 0.000000e+00 6.323642e-01 3.676359e-01 0.000000e+00
 0.000000e+00 0.000000e+00 0.000000e+00 3.629505e-01 6.370495e-01
 0.000000e+00 0.000000e+00 0.000000e+00 0.000000e+00 0.000000e+00
<ENDHMM>
~h "c"
<BEGINHMM>
<NUMSTATES> 5
<STATE> 2
<MEAN> 39
 -4.953935e-01 3.459823e+00 2.623133e-01 1.667732e+00 1.670010e+00 -1.802221e+00 4.499827e-02 1.163255e+00 1.372177e+00 -3.727120e-02 -2.120986e-01 1.547043e+00 -6.172837e+00 -1.055988e+00 2.192377e-01 -8.953409e-01 -7.989363e-01 1.700210e-01 7.363708e-02 9.167156e-02 -2.299611e-01 -6.145550e-02 1.065275e-01 8.141492e-02 1.039053e-01 -6.062059e-01 -4.910148e-01 -1.072739e-01 2.374019e-01 -3.002855e-01 -3.088896e-01 -1.171781e-01 -1.533045e-01 -9.135519e-02 -8.707666e-02 -2.342686e-02 -6.204629e-02 -4.927023e-02 8.411283e-01
<VARIANCE> 39
 2.064036e+01 1.972873e+01 3.713876e+01 2.678062e+01 2.827171e+01 3.293488e+01 2.945616e+01 3.188847e+01 3.161585e+01 2.730495e+01 2.917333e+01 2.384257e+01 1.408201e+01 2.664226e+00 2.093484e+00 3.074013e+00 2.554520e+00 2.789290e+00 3.171690e+00 3.000327e+00 2.928607e+00 2.918462e+00 2.461694e+00 2.376046e+00 2.132614e+00 3.204090e+00 3.623446e-01 4.775463e-01 6.397039e-01 5.083460e-01 6.143923e-01 5.783626e-01 5.708256e-01 5.558026e-01 5.264064e-01 4.787889e-01 4.517536e-01 4.310474e-01 2.688605e-01
<GCONST> 1.177246e+02
<STATE> 3
<MEAN> 39
 -1.051392e+01 5.497443e+00 7.951970e-01 -3.634777e+00 1.476174e+00 -1.649693e+00 -1.562925e-01 -2.870484e-01 2.686951e-01 3.245643e-01 -6.697479e-01 1.996212e+00 -1.609649e+00 -3.908796e-01 -1.192667e-01 1.534634e+00 1.644991e-01 -7.159263e-01 6.553563e-02 7.411215e-02 -2.283486e-01 -3.477587e-01 -2.425166e-01 -8.273835e-02 2.581795e-02 1.077234e+00 9.611126e-01 -3.546023e-01 3.749182e-01 5.311744e-01 -4.043051e-01 -1.952692e-01 -1.184509e-01 5.151092e-02 -7.307296e-02 -1.295325e-01 8.708519e-02 -4.477046e-02 1.440210e-02
<VARIANCE> 39
 2.950470e+01 1.993359e+01 3.405074e+01 2.841436e+01 2.878337e+01 3.598001e+01 3.643382e+01 3.213298e+01 3.462494e+01 2.848044e+01 3.264808e+01 2.358614e+01 1.372265e+01 5.513269e+00 2.056527e+00 3.510468e+00 3.314662e+00 2.785200e+00 2.703931e+00 2.678603e+00 2.847211e+00 2.822536e+00 2.474378e+00 2.226617e+00 1.960485e+00 1.635522e+00 5.869654e-01 3.899795e-01 6.151986e-01 5.132811e-01 5.955828e-01 6.022646e-01 6.324748e-01 6.071588e-01 6.392881e-01 5.526003e-01 5.306038e-01 4.359510e-01 2.747054e-01
<GCONST> 1.195325e+02
<STATE> 4
<MEAN> 39
 -3.307753e+00 2.766805e+00 6.617016e+00 1.580782e+00 -3.117903e+00 -3.969468e+00 -1.228312e+00 -5.741050e-01 -9.986959e-01 -1.478041e+00 -4.638491e-01 2.091187e+00 2.534900e-01 2.104207e+00 -1.331742e+00 7.495798e-01 7.407583e-01 -1.420687e+00 -8.492843e-01 -6.442503e-01 2.492259e-01 -5.644915e-02 -1.647907e-01 3.373757e-01 -1.538176e-01 8.150580e-01 -8.092019e-02 -1.009932e-01 -5.844443e-01 -2.940804e-01 2.483886e-01 1.362311e-01 1.032505e-02 1.746575e-01 2.104400e-01 1.963353e-01 7.291090e-02 -1.222073e-01 -9.001095e-02
<VARIANCE> 39
 2.551637e+01 2.514795e+01 4.515204e+01 2.811358e+01 3.607592e+01 3.605759e+01 3.440233e+01 3.467583e+01 3.371585e+01 2.796634e+01 2.702721e+01 2.296772e+01 2.902266e+01 3.761452e+00 3.089563e+00 6.099666e+00 3.686651e+00 5.316637e+00 4.070681e+00 4.268345e+00 4.476942e+00 5.060720e+00 3.948158e+00 3.594265e+00 2.963142e+00 2.839683e+00 5.099511e-01 3.872196e-01 5.843421e-01 4.753454e-01 6.681943e-01 6.316323e-01 5.840948e-01 5.975783e-01 5.663357e-01 5.152448e-01 4.891880e-01 4.365385e-01 2.806039e-01
<GCONST> 1.253203e+02
<TRANSP> 5
 0.000000e+00 1.000000e+00 0.000000e+00 0.000000e+00 0.000000e+00
 0.000000e+00 6.892068e-01 3.107932e-01 0.000000e+00 0.000000e+00
 0.000000e+00 0.000000e+00 6.625287e-01 3.374713e-01 0.000000e+00
 0.000000e+00 0.000000e+00 0.000000e+00 4.941392e-01 5.058609e-01
 0.000000e+00 0.000000e+00 0.000000e+00 0.000000e+00 0.000000e+00
<ENDHMM>
~h "d"
<BEGINHMM>
<NUMSTATES> 5
<STATE> 2
<MEAN> 39
 4.495416e+00 4.673227e+00 3.021792e+00 4.387344e+00 4.971814e+00 6.395490e-01 -1.744898e+00 -1.731420e+00 -2.118795e-02 -3.471435e-01 -1.994682e+00 -2.244084e+00 -4.046993e+00 3.921522e-02 1.261078e+00 4.336092e-01 1.307721e+00 8.851759e-01 5.645212e-01 1.127503e+00 2.168567e-01 -3.934776e-01 -8.296309e-01 -5.578431e-01 5.608281e-02 -1.731421e+00 -2.554762e-01 -6.227156e-01 -2.582293e-01 -6.405927e-01 -5.610361e-01 -1.483934e-01 -9.691568e-02 8.202479e-02 1.973642e-01 2.566233e-01 1.690652e-01 8.714161e-02 8.728632e-01
<VARIANCE> 39
 8.251783e+00 1.730137e+01 2.248010e+01 2.511502e+01 2.539092e+01 3.800164e+01 3.030063e+01 3.407153e+01 2.879994e+01 3.138881e+01 2.831750e+01 2.409724e+01 1.326271e+01 9.489022e-01 1.841112e+00 2.037284e+00 2.952578e+00 2.634409e+00 3.357569e+00 3.465861e+00 3.455959e+00 3.225135e+00 3.128996e+00 3.044845e+00 2.564157e+00 2.010481e+00 1.644930e-01 2.639725e-01 3.112210e-01 4.088187e-01 4.874353e-01 5.300861e-01 6.205046e-01 6.332201e-01 5.565708e-01 5.247221e-01 4.732595e-01 4.277385e-01 3.153030e-01
<GCONST> 1.133154e+02
<STATE> 3
<MEAN> 39
 3.270185e+00 5.601982e+00 3.272166e+00 5.090172e+00 5.067144e+00 9.391605e-01 1.477284e-01 -7.136481e-01 2.646302e-01 -8.348567e-01 -2.057822e+00 -1.223326e+00 -5.010692e+00 -7.767355e-01 -7.259299e-01 9.158109e-02 -5.905141e-01 -5.039864e-01 -5.259275e-01 -4.814400e-01 -1.475306e-01 2.693268e-01 3.914513e-01 1.725320e-01 3.464312e-01 1.235287e+00 4.956886e-04 -6.973303e-01 -1.413540e-01 -6.855653e-01 -6.841894e-01 -2.566110e-01 -6.318969e-01 -1.959056e-01 1.677959e-01 4.117082e-01 2.602811e-01 -3.419097e-02 1.079807e+00
<VARIANCE> 39
 1.128471e+01 1.661550e+01 2.248837e+01 2.276093e+01 2.412327e+01 3.320037e+01 2.909345e+01 3.216654e+01 2.727059e+01 2.731434e+01 2.500686e+01 2.289718e+01 1.326518e+01 1.188212e+00 1.854937e+00 1.899788e+00 2.403325e+00 2.596291e+00 3.047113e+00 3.623574e+00 3.394295e+00 3.159811e+00 2.674077e+00 2.516840e+00 2.178004e+00 2.039016e+00 2.716736e-01 3.885038e-01 5.245099e-01 6.157039e-01 6.221533e-01 7.308000e-01 7.635378e-01 8.806437e-01 8.137739e-01 6.726539e-01 7.189893e-01 5.904154e-01 3.214264e-01
<GCONST> 1.165011e+02
<STATE> 4
<MEAN> 39
 1.314273e+00 1.290714e+00 2.970413e+00 1.363550e+00 2.041847e+00 -1.987573e+00 -4.909236e+00 -2.096758e+00 2.120932e+00 1.915314e+00 -1.092011e+00 -7.012110e-01 2.276139e+00 3.590383e-01 -1.507491e+00 -7.275842e-01 -1.583764e+00 -1.634923e+00 -2.431208e-01 -1.230467e+00 -4.393546e-01 5.967996e-01 1.077014e+00 4.272471e-01 -2.723570e-01 2.332756e+00 3.911904e-01 -5.861725e-03 -2.308252e-01 -1.077664e-01 -7.770615e-02 4.621055e-01 3.380415e-01 6.031569e-02 -1.953977e-01 -1.182736e-01 8.083262e-02 -1.832828e-01 -1.759808e-01
<VARIANCE> 39
 1.366485e+01 1.881576e+01 2.545358e+01 3.076052e+01 3.302230e+01 4.381014e+01 4.604020e+01 4.141821e+01 3.757693e+01 3.543199e+01 2.924072e+01 2.692356e+01 2.100378e+01 1.494175e+00 2.791536e+00 3.803779e+00 4.012488e+00 3.843380e+00 4.937328e+00 5.403308e+00 6.183352e+00 5.756044e+00 4.200572e+00 4.717877e+00 3.767458e+00 2.390266e+00 2.573068e-01 4.112577e-01 4.331382e-01 5.276403e-01 6.809754e-01 7.010005e-01 9.255552e-01 7.625751e-01 6.900967e-01 6.639831e-01 6.355331e-01 5.503053e-01 4.436965e-01
<GCONST> 1.257141e+02
<TRANSP> 5
 0.000000e+00 1.000000e+00 0.000000e+00 0.000000e+00 0.000000e+00
 0.000000e+00 4.541869e-01 5.458131e-01 0.000000e+00 0.000000e+00
 0.000000e+00 0.000000e+00 4.919368e-01 5.080632e-01 0.000000e+00
 0.000000e+00 0.000000e+00 0.000000e+00 4.517567e-01 5.482433e-01
 0.000000e+00 0.000000e+00 0.000000e+00 0.000000e+00 0.000000e+00
<ENDHMM>
~h "e"
<BEGINHMM>
<NUMSTATES> 5
<STATE> 2
<MEAN> 39
 2.505324e+00 -6.102694e+00 4.576057e+00 1.869598e-01 -6.614966e+00 -5.854470e+00 -3.785030e+00 5.199513e+00 3.038814e+00 -5.919334e-01 -1.058367e+00 -8.224187e-01 8.040685e+00 1.956681e-01 -1.040340e+00 2.662317e-01 -5.160955e-01 -8.161263e-01 -6.226423e-01 9.069216e-02 1.340665e+00 2.543354e-01 -2.250909e-01 -1.686219e-01 6.363624e-02 8.869725e-01 -3.039826e-01 7.974252e-01 -1.563220e-01 2.361699e-01 6.356465e-01 3.549226e-01 3.187697e-01 -6.460329e-01 -4.022239e-01 4.864186e-02 1.050617e-01 8.334007e-02 -6.772999e-01
<VARIANCE> 39
 1.077004e+01 1.833575e+01 3.390459e+01 2.778330e+01 3.778757e+01 3.902881e+01 4.714389e+01 3.941629e+01 4.925885e+01 3.761064e+01 3.597288e+01 3.341096e+01 1.337322e+01 1.565676e+00 1.984930e+00 2.490202e+00 2.397393e+00 3.285025e+00 3.056338e+00 3.681852e+00 3.862570e+00 3.699595e+00 3.127601e+00 3.125104e+00 2.827067e+00 1.307129e+00 3.578231e-01 3.052052e-01 4.094681e-01 4.186907e-01 5.836078e-01 5.648302e-01 7.095639e-01 7.337972e-01 7.511339e-01 6.113854e-01 6.254448e-01 5.068491e-01 2.056578e-01
<GCONST> 1.193718e+02
<STATE> 3
<MEAN> 39
 2.045761e+00 -6.330852e+00 4.892968e+00 -6.293655e-01 -7.143741e+00 -5.960843e+00 -1.271274e+00 6.544868e+00 2.294626e+00 -1.226837e+00 -1.584432e+00 -4.341746e-01 8.314418e+00 6.505947e-02 5.784013e-01 -1.852434e-02 3.426718e-01 4.786264e-01 -3.904052e-02 1.546270e-01 -3.992241e-01 -4.241134e-01 2.911511e-02 2.173658e-02 4.429400e-02 -5.313094e-01 -4.253330e-03 5.141761e-01 -7.817997e-02 3.109346e-01 4.517962e-01 2.408241e-01 3.244365e-03 -5.044640e-01 -1.555038e-01 8.377428e-02 5.891276e-02 -5.751621e-03 -4.971352e-01
<VARIANCE> 39
 9.654965e+00 1.625300e+01 2.860915e+01 2.701686e+01 3.384031e+01 3.757105e+01 5.301347e+01 4.044655e+01 5.138311e+01 3.541853e+01 3.483036e+01 3.106188e+01 1.278439e+01 5.553318e-01 1.145845e+00 1.527376e+00 1.449517e+00 2.067675e+00 1.784924e+00 2.132806e+00 2.372948e+00 2.260705e+00 1.898871e+00 1.846560e+00 1.713969e+00 7.015056e-01 1.645951e-01 2.629062e-01 2.467946e-01 2.882914e-01 4.032866e-01 4.198985e-01 5.437133e-01 5.522648e-01 4.900927e-01 4.195140e-01 3.976544e-01 3.346394e-01 1.724074e-01
<GCONST> 1.066487e+02
<STATE> 4
<MEAN> 39
 2.559843e+00 -1.680863e+00 5.097306e+00 2.645111e+00 -3.423358e+00 -5.749990e+00 -2.058470e+00 2.842893e+00 3.651081e-01 -6.148968e-01 -7.876698e-01 1.695102e-01 3.444693e+00 -4.629472e-02 1.915342e+00 -4.032478e-01 1.100826e+00 1.837745e+00 8.827509e-01 5.643706e-01 -1.154815e+00 -4.181864e-01 1.054912e-01 8.905974e-02 7.750106e-02 -2.154716e+00 -2.296703e-01 5.626873e-02 -1.839247e-01 -1.494285e-01 -4.184191e-02 2.104468e-01 1.684459e-01 -1.088208e-02 6.586456e-02 3.294514e-02 6.115132e-02 3.587228e-02 -1.190201e-01
<VARIANCE> 39
 1.111925e+01 2.327960e+01 3.293000e+01 3.101979e+01 3.854770e+01 4.191029e+01 4.912013e+01 4.276885e+01 4.609710e+01 3.669558e+01 3.530273e+01 3.329890e+01 2.611683e+01 1.488132e+00 2.335163e+00 2.413995e+00 2.619831e+00 3.585725e+00 3.323016e+00 4.246306e+00 4.450322e+00 4.097806e+00 3.370854e+00 3.102110e+00 2.736773e+00 1.872444e+00 2.341659e-01 4.135602e-01 4.197882e-01 4.162252e-01 6.172515e-01 5.734411e-01 6.059613e-01 6.384020e-01 6.511633e-01 5.274003e-01 5.147403e-01 4.590510e-01 3.064364e-01
<GCONST> 1.211023e+02
<TRANSP> 5
 0.000000e+00 1.000000e+00 0.000000e+00 0.000000e+00 0.000000e+00
 0.000000e+00 3.476657e-01 6.523342e-01 0.000000e+00 0.000000e+00
 0.000000e+00 0.000000e+00 6.181344e-01 3.818656e-01 0.000000e+00
 0.000000e+00 0.000000e+00 0.000000e+00 4.725740e-01 5.274260e-01
 0.000000e+00 0.000000e+00 0.000000e+00 0.000000e+00 0.000000e+00
<ENDHMM>
~h "f"
<BEGINHMM>
<NUMSTATES> 5
<STATE> 2
<MEAN> 39
 -2.581311e+00 4.010763e+00 1.574184e-01 5.893071e+00 3.541186e+00 1.764154e+00 2.483757e+00 3.220990e+00 2.309260e+00 1.500227e+00 7.641089e-01 2.537827e+00 -1.738932e+00 -2.859977e+00 5.408636e-01 -4.521249e-01 6.900528e-01 8.143894e-02 -2.984420e-01 -1.255590e-01 2.535961e-01 8.279973e-01 2.254133e-01 -1.705637e-01 6.389648e-01 -7.305598e-01 -6.133052e-02 -6.799681e-01 -1.273088e-01 -6.659902e-01 -7.368574e-01 -3.925221e-01 -4.684948e-01 -2.687972e-01 -2.451512e-01 -1.841720e-01 -1.001854e-01 -2.843252e-01 5.217918e-01
<VARIANCE> 39
 2.586465e+01 1.603866e+01 2.481238e+01 2.435394e+01 2.567530e+01 3.308578e+01 2.878999e+01 3.030742e+01 2.841288e+01 2.670922e+01 2.456038e+01 2.215492e+01 1.639492e+01 2.476186e+00 3.057777e+00 3.388026e+00 3.899745e+00 4.129350e+00 4.204748e+00 3.945984e+00 4.134179e+00 3.901629e+00 3.122723e+00 3.451226e+00 2.734329e+00 1.674972e+00 4.892096e-01 3.285656e-01 3.929811e-01 4.815965e-01 5.413274e-01 5.223312e-01 5.579468e-01 5.645939e-01 5.963361e-01 5.387375e-01 4.754390e-01 4.411483e-01 1.619523e-01
<GCONST> 1.184368e+02
<STATE> 3
<MEAN> 39
 -8.784976e+00 1.387684e+00 -2.868203e+00 3.774040e+00 -7.380335e-01 -2.000742e+00 -1.435515e+00 1.280845e+00 1.348825e+00 3.945707e-01 -5.022959e-01 2.158415e+00 -1.364411e+00 -4.232281e-01 -4.883646e-01 -1.130071e-01 -2.518046e-01 -3.044671e-01 -2.679783e-01 -1.845485e-01 -2.948896e-01 -2.514268e-01 -2.396465e-01 -1.526084e-01 -1.904169e-01 3.051689e-01 7.498202e-01 -3.395957e-03 3.312510e-01 -1.006022e-01 8.392480e-02 2.430599e-01 2.643640e-01 4.213254e-03 -1.818655e-01 -4.718742e-02 1.179386e-01 -1.081753e-01 1.885962e-01
<VARIANCE> 39
 1.479666e+01 1.884061e+01 2.476287e+01 2.149426e+01 2.598452e+01 3.185027e+01 3.086475e+01 3.175822e+01 2.889560e+01 2.508525e+01 2.874730e+01 2.118090e+01 1.347851e+01 3.154793e+00 1.204221e+00 1.886320e+00 1.590353e+00 2.185187e+00 2.430052e+00 2.522102e+00 2.301151e+00 2.202845e+00 2.002621e+00 1.936476e+00 1.641059e+00 7.123612e-01 3.584510e-01 3.339498e-01 4.227264e-01 4.760890e-01 4.941898e-01 5.100031e-01 5.279999e-01 5.807787e-01 5.557396e-01 4.891579e-01 4.968491e-01 4.185289e-01 1.655996e-01
<GCONST> 1.099952e+02
<STATE> 4
<MEAN> 39
 -5.078599e+00 1.239769e+00 -7.233267e-01 3.864672e+00 1.025189e+00 -1.945805e-01 1.533691e+00 1.267106e+00 2.575181e-01 -2.661387e-01 -3.609432e-01 1.370902e+00 -1.359601e-01 2.374499e+00 -1.646361e-01 1.053390e+00 -1.172821e+00 -8.656206e-01 6.632435e-01 4.445205e-01 -3.759363e-01 -9.240095e-01 -3.977932e-01 4.382745e-01 -5.635809e-01 1.177731e+00 2.617930e-01 -1.045853e-01 7.806465e-02 -4.305290e-01 -4.515113e-01 3.866360e-02 -2.551465e-01 -1.166377e-01 -7.500694e-02 3.030742e-02 1.665871e-01 -9.087320e-02 2.308092e-01
<VARIANCE> 39
 4.417432e+01 1.947329e+01 4.194098e+01 3.157158e+01 3.140685e+01 3.847158e+01 3.316864e+01 3.327282e+01 3.192655e+01 2.535044e+01 2.666453e+01 2.089249e+01 1.538192e+01 7.208690e+00 3.253453e+00 6.012501e+00 5.255044e+00 4.076329e+00 4.874554e+00 4.719919e+00 4.884327e+00 5.014211e+00 3.857010e+00 4.402093e+00 3.367173e+00 1.613751e+00 6.262731e-01 4.154071e-01 4.518022e-01 5.497422e-01 5.241270e-01 5.527187e-01 6.326832e-01 6.426992e-01 6.078851e-01 5.451090e-01 5.871391e-01 4.475728e-01 2.121880e-01
<GCONST> 1.254810e+02
<TRANSP> 5
 0.000000e+00 1.000000e+00 0.000000e+00 0.000000e+00 0.000000e+00
 0.000000e+00 5.180230e-01 4.819770e-01 0.000000e+00 0.000000e+00
 0.000000e+00 0.000000e+00 7.381464e-01 2.618536e-01 0.000000e+00
 0.000000e+00 0.000000e+00 0.000000e+00 4.670739e-01 5.329261e-01
 0.000000e+00 0.000000e+00 0.000000e+00 0.000000e+00 0.000000e+00
<ENDHMM>
~h "g"
<BEGINHMM>
<NUMSTATES> 5
<STATE> 2
<MEAN> 39
 4.118221e+00 1.393080e+00 4.354016e+00 5.388423e+00 5.451872e-02 -3.188436e+00 -1.546413e+00 1.302364e+00 -5.194371e+00 -1.789830e+00 2.094800e+00 -1.215179e+00 -1.639144e+00 1.425303e-01 1.556242e+00 6.439101e-03 9.805747e-01 1.435705e+00 9.338316e-01 6.289130e-01 -4.560631e-01 -1.791535e-01 -4.828967e-01 -6.025299e-01 -7.229090e-02 -2.015018e+00 -2.206792e-01 -3.949729e-01 -3.494248e-01 -4.295193e-01 -2.070319e-01 2.307392e-02 1.782960e-02 1.156601e-01 5.892313e-01 2.568052e-01 -1.344966e-01 -1.487231e-02 5.560605e-01
<VARIANCE> 39
 9.407084e+00 2.059758e+01 3.723928e+01 2.767603e+01 4.018703e+01 5.304156e+01 4.263000e+01 5.554553e+01 4.272435e+01 3.916647e+01 4.603957e+01 3.244372e+01 1.630318e+01 8.688583e-01 1.491601e+00 2.547056e+00 2.644789e+00 3.048858e+00 3.571932e+00 3.868185e+00 3.957498e+00 4.192013e+00 3.549779e+00 3.439445e+00 2.648126e+00 1.621693e+00 1.547126e-01 2.394015e-01 3.318184e-01 3.309097e-01 5.482097e-01 6.655481e-01 6.437275e-01 6.358021e-01 6.938897e-01 6.423922e-01 6.119066e-01 5.060014e-01 2.804522e-01
<GCONST> 1.188567e+02
<STATE> 3
<MEAN> 39
 4.040624e+00 4.285199e+00 2.569068e+00 5.222861e+00 2.483588e+00 -5.647904e-01 -3.328177e-01 -4.096539e-02 -2.876607e+00 -1.312885e+00 4.396118e-01 -1.009507e+00 -4.846951e+00 -7.753279e-01 -1.750550e-01 -5.526168e-02 5.884138e-02 -2.488702e-02 -2.465011e-01 -1.435783e-01 1.831650e-01 2.522155e-01 4.330921e-01 1.096478e-02 1.724802e-01 5.140253e-01 -2.256723e-01 -5.884979e-01 1.809570e-01 -3.907239e-01 -6.898167e-01 -3.812890e-01 -2.833245e-01 1.204055e-01 -5.377669e-02 2.211466e-01 2.740851e-01 5.559249e-02 9.848648e-01
<VARIANCE> 39
 8.545311e+00 1.646009e+01 2.671270e+01 2.318367e+01 2.605465e+01 3.441119e+01 3.119745e+01 3.475614e+01 3.467664e+01 2.692320e+01 3.427564e+01 2.501148e+01 1.144499e+01 1.129727e+00 1.921692e+00 2.452071e+00 2.335477e+00 3.075417e+00 3.696890e+00 3.320151e+00 3.757676e+00 3.571864e+00 3.125073e+00 3.092288e+00 2.458910e+00 1.819413e+00 2.672082e-01 3.496232e-01 4.943161e-01 4.428049e-01 5.976449e-01 6.151717e-01 6.815164e-01 7.735013e-01 8.596570e-01 6.947009e-01 7.065109e-01 5.112614e-01 2.214807e-01
<GCONST> 1.168126e+02
<STATE> 4
<MEAN> 39
 4.276627e-01 6.058882e-01 4.556892e+00 4.735511e+00 -1.210046e+00 -4.507791e+00 -1.682818e+00 1.490625e+00 -3.585019e+00 6.399450e-01 1.428888e+00 -1.177481e-01 1.646946e+00 -2.800880e-01 -8.656185e-01 5.216278e-01 -9.968757e-01 -1.774290e+00 -7.686472e-01 -3.131351e-01 2.494458e-01 2.585022e-01 3.460853e-01 2.683713e-01 -1.733402e-02 2.014946e+00 3.336326e-01 -6.992242e-03 -1.280896e-01 -2.358917e-01 -2.671739e-02 3.040709e-01 1.418988e-01 -3.861180e-02 1.897267e-01 -1.987820e-01 -1.213798e-01 -1.527260e-01 -9.501518e-02
<VARIANCE> 39
 1.618521e+01 2.220382e+01 5.141719e+01 3.246129e+01 5.564215e+01 4.964568e+01 4.760641e+01 5.126259e+01 4.630415e+01 3.907306e+01 4.426699e+01 2.829043e+01 1.882282e+01 2.117959e+00 3.186530e+00 3.938633e+00 3.134684e+00 4.746618e+00 4.554953e+00 4.558831e+00 5.421924e+00 6.061378e+00 4.382660e+00 4.438504e+00 3.364054e+00 1.822452e+00 2.881477e-01 3.967191e-01 5.665312e-01 5.257103e-01 1.140367e+00 8.137395e-01 7.769625e-01 8.482005e-01 8.203587e-01 7.373294e-01 7.604280e-01 5.753076e-01 3.811210e-01
<GCONST> 1.293951e+02
<TRANSP> 5
 0.000000e+00 1.000000e+00 0.000000e+00 0.000000e+00 0.000000e+00
 0.000000e+00 4.368611e-01 5.631388e-01 0.000000e+00 0.000000e+00
 0.000000e+00 0.000000e+00 5.816900e-01 4.183100e-01 0.000000e+00
 0.000000e+00 0.000000e+00 0.000000e+00 5.384924e-01 4.615076e-01
 0.000000e+00 0.000000e+00 0.000000e+00 0.000000e+00 0.000000e+00
<ENDHMM>
~h "h"
<BEGINHMM>
<NUMSTATES> 5
<STATE> 2
<MEAN> 39
 2.992511e+00 -5.357950e-01 -2.282929e+00 1.217752e+00 4.484724e+00 2.534080e+00 8.716901e-01 5.427207e-01 8.058000e-01 -8.250394e-02 -1.997957e+00 -1.624496e+00 3.408779e+00 3.097833e-01 6.229897e-01 -6.113654e-01 -2.971171e-01 1.078599e+00 1.036277e+00 4.269993e-01 -7.153571e-01 -3.301738e-01 4.149832e-01 2.917071e-01 -1.934515e-01 -3.556310e-01 9.801015e-02 -1.502927e-01 5.352340e-02 -3.781606e-01 -5.063815e-01 3.593431e-02 1.312659e-02 -1.039241e-01 -2.095025e-01 2.819687e-02 2.767388e-01 7.077723e-02 1.133682e-01
<VARIANCE> 39
 1.351092e+01 2.241495e+01 2.843142e+01 4.025841e+01 4.240018e+01 4.946134e+01 5.207114e+01 4.547506e+01 3.962193e+01 4.641039e+01 4.728072e+01 3.181310e+01 1.866356e+01 1.035441e+00 1.797304e+00 2.396893e+00 2.534050e+00 3.029349e+00 3.357630e+00 3.249363e+00 3.218411e+00 2.903603e+00 2.799971e+00 2.895246e+00 2.586315e+00 9.273934e-01 1.440699e-01 2.435760e-01 3.141251e-01 3.855840e-01 4.928617e-01 4.472076e-01 5.378963e-01 5.019522e-01 5.103999e-01 5.471554e-01 5.235084e-01 4.559668e-01 1.158639e-01
<GCONST> 1.155906e+02
<STATE> 3
<MEAN> 39
 4.619765e+00 1.480177e+00 -3.946700e+00 -1.305890e+00 5.248346e+00 5.827679e+00 2.702924e+00 -1.332421e+00 -6.711836e-01 1.424686e+00 5.848893e-01 -1.120018e+00 2.526345e+00 5.687718e-01 1.369362e-01 -5.029594e-01 -1.080840e+00 -4.949131e-01 7.220765e-01 5.310620e-01 -5.809382e-01 -6.944992e-01 8.030014e-02 6.786708e-01 2.527375e-01 3.960647e-02 1.374560e-02 -3.774406e-01 1.563949e-01 -2.498231e-01 -5.924389e-01 -1.536674e-01 -2.085598e-01 6.223137e-02 3.423575e-02 -7.457985e-02 6.919881e-02 4.455883e-02 2.550406e-01
<VARIANCE> 39
 8.750983e+00 2.275284e+01 2.477319e+01 3.354202e+01 3.653324e+01 4.079834e+01 4.830621e+01 3.667853e+01 3.290386e+01 3.733690e+01 4.065627e+01 3.212612e+01 1.551735e+01 7.076181e-01 1.449836e+00 1.603365e+00 2.278122e+00 2.289420e+00 2.752948e+00 2.510826e+00 2.599762e+00 2.458351e+00 2.621680e+00 2.645694e+00 2.293198e+00 7.110541e-01 1.153090e-01 2.374540e-01 2.817883e-01 3.171678e-01 4.000233e-01 3.990860e-01 4.724298e-01 4.632047e-01 4.054849e-01 4.642784e-01 4.319599e-01 3.907818e-01 1.077410e-01
<GCONST> 1.088297e+02
<STATE> 4
<MEAN> 39
 6.146884e+00 2.123758e-01 -5.400164e+00 -4.863462e+00 1.836520e+00 6.761957e+00 3.350041e+00 -2.431581e+00 -2.089731e+00 1.280974e+00 2.180008e+00 -6.631255e-01 3.873944e+00 3.643255e-01 -5.742818e-01 -3.290667e-02 -1.171775e+00 -1.124787e+00 4.654938e-01 -1.166629e-01 -4.105859e-01 -2.657161e-01 1.549198e-01 6.644050e-01 1.555953e-01 4.333245e-01 -1.602999e-01 -1.363813e-01 2.654143e-01 9.381580e-02 -6.390376e-02 -1.544364e-01 -3.012742e-01 1.045976e-01 1.954263e-01 4.489261e-03 -7.639904e-02 -4.397529e-02 3.768430e-02
<VARIANCE> 39
 8.480127e+00 2.043264e+01 2.952626e+01 3.762460e+01 3.151781e+01 4.040355e+01 4.747107e+01 3.760318e+01 3.396659e+01 3.777137e+01 4.298255e+01 3.451994e+01 1.269982e+01 6.088750e-01 1.586013e+00 1.600927e+00 2.355294e+00 2.320950e+00 2.337752e+00 2.578272e+00 2.500572e+00 2.290726e+00 2.740974e+00 2.331948e+00 2.140983e+00 7.399234e-01 9.005106e-02 1.818705e-01 2.170746e-01 2.744498e-01 2.965311e-01 3.417746e-01 3.931179e-01 3.877797e-01 3.503076e-01 3.814000e-01 3.689976e-01 3.276135e-01 8.295314e-02
<GCONST> 1.057559e+02
<TRANSP> 5
 0.000000e+00 1.000000e+00 0.000000e+00 0.000000e+00 0.000000e+00
 0.000000e+00 4.335775e-01 5.664226e-01 0.000000e+00 0.000000e+00
 0.000000e+00 0.000000e+00 4.286486e-01 5.713513e-01 0.000000e+00
 0.000000e+00 0.000000e+00 0.000000e+00 4.047395e-01 5.952604e-01
 0.000000e+00 0.000000e+00 0.000000e+00 0.000000e+00 0.000000e+00
<ENDHMM>
~h "i"
<BEGINHMM>
<NUMSTATES> 5
<STATE> 2
<MEAN> 39
 5.306302e-01 -8.126094e-01 1.299066e+01 4.810565e+00 -9.297242e+00 -4.854957e+00 -3.007051e+00 -3.134038e-01 -6.608290e+00 -3.710807e+00 3.096313e+00 1.139718e+00 4.351037e+00 3.486498e-02 -2.705668e-01 1.903943e+00 -3.926157e-01 -1.883424e+00 6.789216e-02 -2.987657e-01 -1.238852e-01 -1.245148e+00 -1.174197e-01 6.908393e-01 4.647363e-02 7.908428e-01 -1.780065e-01 4.305559e-01 -8.598229e-01 -1.500842e-01 8.827938e-01 3.409846e-01 2.934311e-01 -1.790836e-01 4.599824e-01 3.839375e-01 -3.065591e-01 -1.431568e-01 -4.463562e-01
<VARIANCE> 39
 1.127769e+01 1.955843e+01 2.790320e+01 3.692810e+01 2.944449e+01 3.807587e+01 3.643954e+01 4.579736e+01 4.052955e+01 4.138394e+01 2.988721e+01 2.669146e+01 1.252151e+01 2.381809e+00 2.018022e+00 3.048672e+00 3.219764e+00 3.635357e+00 3.573476e+00 4.108529e+00 4.375891e+00 4.031348e+00 3.839340e+00 3.315912e+00 2.637955e+00 1.108494e+00 3.354477e-01 3.252458e-01 5.338388e-01 5.251430e-01 6.587529e-01 6.687428e-01 6.869521e-01 8.765225e-01 7.652596e-01 6.633828e-01 5.576441e-01 5.111461e-01 1.892469e-01
<GCONST> 1.209938e+02
<STATE> 3
<MEAN> 39
 -6.057512e-01 1.309705e+00 1.502915e+01 8.421312e-01 -1.041353e+01 -1.588835e+00 -2.930342e+00 -3.556542e+00 -7.076441e+00 -1.136354e+00 1.867575e+00 2.335837e-01 4.387072e+00 6.765567e-02 4.892260e-01 -4.966407e-01 1.093318e-01 6.550531e-01 9.224238e-02 3.538908e-01 -9.962577e-03 2.414064e-01 2.174182e-01 -2.500377e-01 -5.976567e-02 -4.445571e-01 3.026915e-02 1.292281e-01 -6.299983e-01 2.273154e-01 6.271809e-01 -4.889337e-02 2.161280e-01 1.709240e-01 3.586667e-01 9.431306e-04 -1.043405e-01 1.687188e-02 -3.187549e-01
<VARIANCE> 39
 1.017694e+01 1.907668e+01 2.642068e+01 5.198317e+01 2.923248e+01 4.471946e+01 3.569540e+01 5.147787e+01 4.440134e+01 4.755560e+01 4.189973e+01 3.093137e+01 1.113407e+01 8.159264e-01 1.218665e+00 1.740678e+00 1.952808e+00 2.293391e+00 2.234452e+00 2.390730e+00 2.391234e+00 2.269081e+00 2.114763e+00 1.833563e+00 1.608471e+00 7.519524e-01 2.058997e-01 2.280334e-01 3.967593e-01 4.154995e-01 5.115506e-01 4.789337e-01 4.774733e-01 5.563555e-01 5.527546e-01 5.277283e-01 4.727341e-01 3.706695e-01 1.275687e-01
<GCONST> 1.104288e+02
<STATE> 4
<MEAN> 39
 8.938747e-01 3.323995e+00 8.979247e+00 4.789846e+00 -3.630367e+00 -2.963615e+00 2.713418e-01 -8.547084e-01 -4.355944e+00 -1.264952e+00 1.107627e+00 6.931964e-01 -3.956733e-01 -5.314345e-02 7.422904e-01 -2.286813e+00 2.621768e-01 2.249911e+00 3.705649e-01 8.189377e-01 3.713319e-01 1.387390e+00 3.703794e-01 -4.108007e-01 4.334277e-02 -1.449826e+00 -2.580465e-01 -1.554096e-01 -1.889832e-01 -3.234041e-01 -1.393321e-01 1.387662e-01 -1.670293e-01 -1.282344e-01 4.983036e-02 4.058644e-02 1.237492e-02 1.284112e-02 7.817230e-02
<VARIANCE> 39
 1.312557e+01 2.267108e+01 2.832807e+01 3.212044e+01 3.636243e+01 4.668490e+01 4.169951e+01 4.448835e+01 4.313725e+01 3.543990e+01 3.064198e+01 2.556267e+01 2.667593e+01 2.050015e+00 2.536594e+00 2.561383e+00 3.206824e+00 3.474047e+00 3.776420e+00 3.986219e+00 4.444044e+00 3.976349e+00 3.973922e+00 3.338362e+00 2.882901e+00 1.648458e+00 2.032113e-01 2.843453e-01 4.412214e-01 3.676338e-01 6.466091e-01 6.199957e-01 6.110275e-01 6.252057e-01 6.519006e-01 5.268857e-01 4.625438e-01 4.080156e-01 1.950453e-01
<GCONST> 1.202387e+02
<TRANSP> 5
 0.000000e+00 1.000000e+00 0.000000e+00 0.000000e+00 0.000000e+00
 0.000000e+00 4.935926e-01 5.064074e-01 0.000000e+00 0.000000e+00
 0.000000e+00 0.000000e+00 6.987353e-01 3.012647e-01 0.000000e+00
 0.000000e+00 0.000000e+00 0.000000e+00 5.206389e-01 4.793611e-01
 0.000000e+00 0.000000e+00 0.000000e+00 0.000000e+00 0.000000e+00
<ENDHMM>
~h "j"
<BEGINHMM>
<NUMSTATES> 5
<STATE> 2
<MEAN> 39
 4.773809e-01 6.205366e-01 9.864011e+00 1.265460e+00 -6.505339e+00 -2.948539e+00 -4.289861e+00 -1.779993e-01 -2.331023e+00 -9.965861e-01 9.312536e-01 6.551536e-01 3.519476e+00 -2.071664e-01 -1.498990e-01 1.520346e+00 -3.691848e-02 -1.427324e+00 -5.289626e-01 -7.343355e-02 1.717654e-01 -5.561455e-01 -2.633487e-01 4.344509e-01 4.517102e-01 7.883441e-01 4.263962e-02 -9.393689e-02 -4.086315e-01 -1.603723e-01 1.693226e-01 1.525117e-01 1.964449e-01 -9.457622e-03 8.744576e-02 1.238566e-01 3.294289e-02 -6.055826e-02 -2.853690e-02
<VARIANCE> 39
 1.419186e+01 4.221358e+01 6.208848e+01 4.049925e+01 4.307777e+01 4.637045e+01 4.826586e+01 5.950227e+01 5.471753e+01 4.446725e+01 3.904836e+01 3.021861e+01 3.333700e+01 8.889183e-01 2.045622e+00 4.293069e+00 2.223358e+00 3.383112e+00 3.224400e+00 3.607024e+00 4.107169e+00 3.518679e+00 3.404213e+00 2.757659e+00 2.317288e+00 1.714414e+00 1.129858e-01 2.759716e-01 5.833067e-01 3.564405e-01 5.692623e-01 5.936561e-01 5.674351e-01 6.977290e-01 6.311309e-01 5.037908e-01 4.714136e-01 4.025985e-01 1.443883e-01
<GCONST> 1.208649e+02
<STATE> 3
<MEAN> 39
 9.194968e-01 -3.424066e+00 1.003374e+01 6.208941e-01 -1.075965e+01 -5.470561e+00 -2.907480e+00 3.136621e+00 -1.339855e+00 -1.141591e+00 2.928805e+00 1.365546e+00 7.336262e+00 2.804590e-02 -3.223434e-01 -2.263381e-01 -1.749464e-01 -1.873904e-01 -2.689113e-01 3.412294e-01 5.181826e-01 2.874933e-01 7.695670e-02 -1.240437e-02 3.711272e-02 2.263891e-01 8.677877e-02 -1.967781e-03 -3.043378e-01 8.436156e-03 3.252106e-01 9.980262e-02 -1.693539e-02 -1.755385e-02 1.312841e-01 2.229301e-02 -1.617890e-01 -1.332217e-01 -7.994471e-02
<VARIANCE> 39
 9.981399e+00 1.928667e+01 3.690665e+01 3.486117e+01 2.898682e+01 3.393368e+01 4.261461e+01 4.948783e+01 5.352064e+01 4.490166e+01 3.702983e+01 2.954554e+01 1.275657e+01 2.749209e-01 8.569612e-01 1.543225e+00 8.930069e-01 1.176731e+00 1.431789e+00 1.681168e+00 2.019814e+00 2.008397e+00 1.460846e+00 1.463984e+00 1.192735e+00 4.364446e-01 4.364274e-02 9.652889e-02 2.077284e-01 1.615982e-01 2.425206e-01 2.468661e-01 2.565429e-01 3.128500e-01 3.072554e-01 2.932671e-01 2.675917e-01 2.268128e-01 4.943775e-02
<GCONST> 9.497684e+01
<STATE> 4
<MEAN> 39
 1.813381e+00 -4.767131e+00 6.556748e+00 2.245672e-01 -9.095480e+00 -6.121071e+00 -2.583672e+00 5.429366e+00 6.829941e-01 -1.037860e+00 1.341223e+00 3.759944e-01 7.814150e+00 3.918038e-01 -4.367741e-01 -1.389912e+00 -1.496134e-01 1.122626e+00 2.513407e-01 1.209417e-01 3.747066e-01 7.068485e-01 3.125822e-02 -7.652482e-01 -6.093461e-01 6.374755e-02 8.318652e-02 2.459084e-01 -1.583091e-01 6.770963e-02 5.182724e-01 3.652934e-01 -7.824368e-02 -4.814106e-01 -1.551459e-01 4.964343e-02 -7.666338e-02 -1.410240e-01 -2.848372e-01
<VARIANCE> 39
 1.082061e+01 1.921226e+01 3.398128e+01 3.444918e+01 3.643478e+01 3.807071e+01 5.408295e+01 4.915719e+01 5.429923e+01 4.262877e+01 4.020929e+01 3.068748e+01 1.488797e+01 3.578098e-01 1.541425e+00 2.657241e+00 1.512459e+00 2.102959e+00 2.451327e+00 2.946769e+00 3.806722e+00 3.486464e+00 2.851557e+00 2.922224e+00 2.154430e+00 6.459177e-01 6.877613e-02 1.368903e-01 2.488515e-01 3.030612e-01 3.772226e-01 3.793190e-01 4.565256e-01 4.270132e-01 4.546157e-01 4.388773e-01 4.580279e-01 3.527358e-01 9.654164e-02
<GCONST> 1.087165e+02
<TRANSP> 5
 0.000000e+00 1.000000e+00 0.000000e+00 0.000000e+00 0.000000e+00
 0.000000e+00 6.191522e-01 3.808478e-01 0.000000e+00 0.000000e+00
 0.000000e+00 0.000000e+00 7.181577e-01 2.818423e-01 0.000000e+00
 0.000000e+00 0.000000e+00 0.000000e+00 3.352984e-01 6.647016e-01
 0.000000e+00 0.000000e+00 0.000000e+00 0.000000e+00 0.000000e+00
<ENDHMM>
~h "k"
<BEGINHMM>
<NUMSTATES> 5
<STATE> 2
<MEAN> 39
 3.040119e-01 1.389090e+00 -2.361876e+00 1.450113e+00 1.473825e+00 -1.721524e+00 2.026960e-01 1.228736e+00 4.516093e-01 -1.229943e-01 4.654479e-01 1.263188e+00 -7.486290e+00 -7.037082e-01 -5.306954e-01 -9.166098e-01 -4.607684e-01 -3.058412e-02 1.739143e-01 -2.583136e-01 -3.552002e-01 -1.312575e-01 1.329405e-01 -2.546116e-01 5.025774e-02 -3.414040e-01 -1.510351e-01 -2.718317e-01 -3.159947e-02 -1.387977e-01 2.234886e-02 8.986028e-02 -8.658063e-02 3.810607e-02 -2.429975e-01 6.869099e-02 5.543751e-02 -1.570116e-01 8.575805e-01
<VARIANCE> 39
 1.156550e+01 1.726248e+01 2.804572e+01 2.527817e+01 2.924221e+01 3.648935e+01 2.908402e+01 3.678185e+01 3.144328e+01 2.788908e+01 3.050360e+01 2.505302e+01 1.164689e+01 1.464815e+00 2.066993e+00 3.000194e+00 2.718918e+00 3.619801e+00 4.059706e+00 3.353810e+00 3.618042e+00 3.856281e+00 3.217040e+00 3.131736e+00 2.453519e+00 3.362930e+00 2.781388e-01 3.535022e-01 5.508942e-01 5.635501e-01 7.294989e-01 6.846675e-01 5.969620e-01 6.540295e-01 6.394014e-01 5.949664e-01 5.836549e-01 4.675142e-01 2.535595e-01
<GCONST> 1.187547e+02
<STATE> 3
<MEAN> 39
 -4.692747e+00 -2.725004e+00 -6.039193e+00 -2.426731e-01 3.942700e+00 2.003158e-01 -1.290343e+00 9.328067e-01 -2.106514e+00 1.832033e+00 2.537873e-01 5.945224e-01 -2.097646e+00 -2.524251e-03 1.852855e-01 3.736566e-01 -1.671576e-01 1.826919e-01 4.067016e-01 7.604166e-02 -7.330415e-02 -4.785189e-01 2.445866e-01 3.137918e-01 -1.876427e-01 1.475162e+00 7.967047e-01 5.185030e-01 7.440333e-01 2.379104e-02 -5.792881e-01 -2.079172e-01 1.512748e-01 -7.797405e-02 8.169501e-02 -2.798528e-01 1.647935e-01 -1.268613e-02 -3.899186e-02
<VARIANCE> 39
 1.932829e+01 2.333102e+01 5.652074e+01 4.261371e+01 5.017923e+01 5.615645e+01 4.814756e+01 4.345145e+01 4.977652e+01 4.036686e+01 3.915790e+01 3.059531e+01 1.817284e+01 2.888121e+00 2.928366e+00 4.839564e+00 2.956700e+00 4.035758e+00 4.302834e+00 3.631854e+00 3.902802e+00 3.992663e+00 3.465155e+00 3.486928e+00 2.716717e+00 2.213470e+00 3.170876e-01 5.154063e-01 6.992766e-01 7.591302e-01 9.301147e-01 8.858559e-01 9.497285e-01 8.679269e-01 9.895459e-01 8.386330e-01 8.125984e-01 7.064661e-01 4.369113e-01
<GCONST> 1.303300e+02
<STATE> 4
<MEAN> 39
 -4.996263e-01 2.164114e+00 -5.760602e-01 9.039248e-01 1.427088e+00 -1.091820e+00 1.447401e-01 1.065283e-01 -2.879866e+00 3.199056e-01 9.748275e-01 3.460376e-01 -1.045003e+00 2.058018e+00 4.361514e-01 1.678097e+00 -4.971220e-01 -1.814142e+00 -2.464936e-01 -2.824931e-02 -3.175515e-01 -3.730140e-01 -5.977305e-01 6.262615e-01 -2.159860e-01 1.341451e+00 1.406099e-01 -4.267007e-01 -1.535645e-01 -2.718705e-01 -2.807641e-01 6.145627e-02 -1.031693e-01 3.892102e-02 1.868961e-01 -3.343486e-02 2.775413e-02 -2.042608e-02 5.490367e-03
<VARIANCE> 39
 2.615597e+01 1.787906e+01 5.668644e+01 3.118350e+01 4.146361e+01 4.919791e+01 3.503363e+01 4.021163e+01 3.907707e+01 3.027304e+01 3.476143e+01 2.404931e+01 1.992307e+01 2.066141e+00 2.881273e+00 4.446631e+00 4.322330e+00 4.339610e+00 4.605712e+00 5.297420e+00 5.561159e+00 5.981173e+00 4.583715e+00 5.517590e+00 4.380865e+00 2.724825e+00 3.364256e-01 3.221428e-01 5.608771e-01 4.684613e-01 6.467139e-01 6.540605e-01 6.220254e-01 6.355780e-01 6.980879e-01 5.814240e-01 5.976949e-01 4.778998e-01 2.587129e-01
<GCONST> 1.267326e+02
<TRANSP> 5
 0.000000e+00 1.000000e+00 0.000000e+00 0.000000e+00 0.000000e+00
 0.000000e+00 7.392447e-01 2.607553e-01 0.000000e+00 0.000000e+00
 0.000000e+00 0.000000e+00 5.811012e-01 4.188989e-01 0.000000e+00
 0.000000e+00 0.000000e+00 0.000000e+00 3.735987e-01 6.264013e-01
 0.000000e+00 0.000000e+00 0.000000e+00 0.000000e+00 0.000000e+00
<ENDHMM>
~h "l"
<BEGINHMM>
<NUMSTATES> 5
<STATE> 2
<MEAN> 39
 5.939629e+00 -2.308746e+00 -2.757273e+00 -4.442365e+00 -1.088818e+00 4.087563e+00 5.074825e-01 -6.005361e+00 -1.383514e+00 3.383446e+00 2.794118e+00 -1.315917e+00 3.828852e+00 1.314025e+00 -5.672436e-01 2.017595e-01 -4.939468e-01 -5.392308e-01 4.063090e-01 -1.379316e-01 -1.314363e+00 -4.399206e-01 8.810767e-01 5.487486e-01 -2.078469e-01 3.944674e-01 -4.603750e-01 2.587331e-02 6.131948e-03 -6.297290e-03 1.951653e-01 -9.952735e-02 -1.457627e-01 5.873932e-01 2.426540e-01 -3.033466e-01 -2.706731e-01 -3.481922e-02 8.897437e-03
<VARIANCE> 39
 1.430412e+01 2.813659e+01 2.529894e+01 4.751307e+01 4.380707e+01 5.524894e+01 5.908255e+01 4.576461e+01 5.015731e+01 3.889719e+01 4.319897e+01 3.630669e+01 1.662716e+01 2.935695e+00 3.036107e+00 2.822478e+00 7.364520e+00 4.074551e+00 6.292869e+00 5.142614e+00 4.498628e+00 4.405208e+00 3.883033e+00 4.398051e+00 3.772160e+00 2.134320e+00 2.744408e-01 3.431298e-01 3.862150e-01 5.626752e-01 6.981043e-01 6.838486e-01 7.685873e-01 7.423223e-01 8.363651e-01 6.553223e-01 6.314685e-01 5.774119e-01 1.579963e-01
<GCONST> 1.275742e+02
<STATE> 3
<MEAN> 39
 7.107388e+00 -3.095040e+00 -1.950743e+00 -5.914575e+00 -2.626886e+00 5.717610e+00 8.714349e-01 -7.861053e+00 -1.971150e+00 4.131210e+00 3.913405e+00 -7.295994e-01 4.256938e+00 1.045631e-02 -3.523193e-01 4.098277e-02 -3.871000e-01 4.619211e-01 6.743190e-02 -7.383129e-01 5.061881e-01 4.983776e-01 1.431415e-01 -2.725749e-01 -6.044697e-01 3.611241e-01 -4.803112e-01 5.989376e-02 -1.498984e-01 4.870629e-02 3.789478e-01 -1.375837e-01 -1.115045e-01 8.308767e-01 3.955964e-01 -3.500559e-01 -3.946820e-01 -1.813792e-01 5.976919e-02
<VARIANCE> 39
 9.035251e+00 2.186915e+01 2.580876e+01 5.446729e+01 4.452751e+01 5.373470e+01 5.957902e+01 5.034748e+01 4.627988e+01 4.120561e+01 4.593742e+01 3.688913e+01 1.208503e+01 1.219765e+00 2.311024e+00 2.286877e+00 5.571052e+00 3.527540e+00 4.574742e+00 4.296571e+00 3.853625e+00 4.158143e+00 3.195961e+00 3.226192e+00 3.404094e+00 1.318578e+00 2.177822e-01 3.558852e-01 4.029900e-01 7.889209e-01 7.576091e-01 7.812651e-01 8.197064e-01 8.850303e-01 8.091030e-01 7.502590e-01 7.358287e-01 6.486009e-01 1.766078e-01
<GCONST> 1.243861e+02
<STATE> 4
<MEAN> 39
 5.362300e+00 -4.117585e+00 -1.883540e+00 -4.608650e+00 5.290436e-01 3.186394e+00 -3.191128e+00 -3.176333e+00 1.712196e+00 3.530144e+00 7.178878e-01 -3.956084e+00 5.242524e+00 -6.422345e-01 -1.864074e-01 2.075198e-01 2.675913e-01 2.124442e-01 -7.719966e-01 -2.442766e-01 1.864841e+00 7.323278e-01 -8.337885e-01 -9.277489e-01 -2.268869e-01 4.125951e-01 -2.175029e-01 1.961851e-01 8.653740e-02 1.562265e-01 -2.288428e-01 -8.960411e-02 4.066554e-01 8.295699e-02 -2.885373e-01 -2.809583e-01 7.586483e-02 3.703539e-01 -1.049782e-01
<VARIANCE> 39
 9.020506e+00 2.412506e+01 3.876347e+01 7.286858e+01 3.634078e+01 6.285408e+01 6.044600e+01 4.571434e+01 5.024276e+01 4.182293e+01 5.003678e+01 4.097582e+01 1.954828e+01 9.612867e-01 2.373486e+00 3.353093e+00 4.314132e+00 4.871139e+00 5.492173e+00 4.300401e+00 5.161117e+00 4.950601e+00 4.135361e+00 3.937300e+00 4.211987e+00 1.312977e+00 2.130048e-01 3.009154e-01 3.545009e-01 7.823930e-01 6.678937e-01 7.082475e-01 7.923714e-01 7.842882e-01 8.422335e-01 6.770437e-01 7.228966e-01 6.062948e-01 1.779162e-01
<GCONST> 1.265288e+02
<TRANSP> 5
 0.000000e+00 1.000000e+00 0.000000e+00 0.000000e+00 0.000000e+00
 0.000000e+00 1.811396e-01 8.188605e-01 0.000000e+00 0.000000e+00
 0.000000e+00 0.000000e+00 4.117773e-01 5.882227e-01 0.000000e+00
 0.000000e+00 0.000000e+00 0.000000e+00 3.663494e-01 6.336506e-01
 0.000000e+00 0.000000e+00 0.000000e+00 0.000000e+00 0.000000e+00
<ENDHMM>
~h "m"
<BEGINHMM>
<NUMSTATES> 5
<STATE> 2
<MEAN> 39
 6.344271e+00 9.182438e-01 2.533212e+00 4.088799e+00 8.916441e-01 6.720561e-01 1.023857e+00 -7.236856e+00 -6.830845e+00 -7.548277e-01 1.663116e+00 -2.520469e+00 4.737201e-01 2.245805e-01 1.158855e+00 1.081999e+00 1.782324e+00 5.128413e-01 -5.085072e-01 4.454422e-01 -2.304287e+00 -1.774490e+00 4.464625e-01 2.552707e-01 -2.384735e-01 -9.153995e-01 -2.527011e-01 -2.590952e-01 -1.216988e-01 -4.696206e-01 -2.448947e-01 1.096693e-01 -1.125935e-01 5.796504e-01 4.790627e-01 -1.832915e-02 -1.903675e-01 6.457945e-02 3.469772e-01
<VARIANCE> 39
 7.653910e+00 2.014423e+01 2.225475e+01 2.893817e+01 2.595053e+01 3.668259e+01 4.134471e+01 4.179142e+01 4.253472e+01 3.293134e+01 3.516733e+01 3.223911e+01 1.531501e+01 9.104816e-01 1.872120e+00 2.818495e+00 2.734192e+00 2.821062e+00 3.337914e+00 3.597571e+00 3.827898e+00 4.625447e+00 3.538048e+00 3.878570e+00 3.143565e+00 1.227951e+00 1.236579e-01 2.447762e-01 3.939478e-01 3.696065e-01 4.439933e-01 4.010023e-01 4.948769e-01 6.441147e-01 6.930308e-01 5.079207e-01 5.710785e-01 4.602235e-01 1.151340e-01
<GCONST> 1.146091e+02
<STATE> 3
<MEAN> 39
 6.400640e+00 2.022542e+00 4.049585e+00 5.459549e+00 5.401263e-01 1.412911e-01 1.228231e+00 -9.467384e+00 -7.616713e+00 1.249355e-01 1.076798e+00 -2.649416e+00 -4.748144e-02 -1.239307e-02 1.499909e-01 1.580664e-02 9.306538e-03 -1.167128e-01 2.899930e-02 2.999429e-02 9.223586e-02 1.944284e-01 2.570491e-02 -2.303984e-01 2.060727e-03 -9.333777e-02 -1.445934e-01 -3.176120e-01 -2.684051e-01 -5.593067e-01 -2.036320e-01 1.724548e-01 -1.146675e-01 8.224270e-01 5.645581e-01 -1.773927e-01 -1.108993e-01 1.249193e-01 2.606938e-01
<VARIANCE> 39
 6.121577e+00 1.751184e+01 1.741332e+01 2.535812e+01 2.604975e+01 3.869579e+01 4.300508e+01 3.979721e+01 4.283878e+01 3.634734e+01 3.978287e+01 3.358145e+01 1.089262e+01 3.159652e-01 1.152158e+00 1.001870e+00 1.322982e+00 1.391158e+00 1.567947e+00 1.659720e+00 2.276026e+00 2.168004e+00 1.880348e+00 1.873562e+00 1.610019e+00 6.875672e-01 1.240248e-01 2.597730e-01 3.827447e-01 3.979892e-01 4.140406e-01 3.897859e-01 4.776745e-01 6.381912e-01 7.327194e-01 5.312702e-01 5.764380e-01 4.560687e-01 1.361259e-01
<GCONST> 1.046517e+02
<STATE> 4
<MEAN> 39
 6.047825e+00 1.131737e+00 2.376266e+00 3.755093e+00 1.747895e-01 6.224905e-01 6.018912e-01 -5.943281e+00 -4.872800e+00 -7.768949e-01 -2.799066e-02 -2.600654e+00 3.110118e-01 -5.422513e-01 -8.124882e-01 -5.192835e-01 -1.428361e+00 -6.835371e-01 4.203717e-01 -2.368625e-01 2.375854e+00 1.646905e+00 -4.885443e-01 -5.162200e-01 4.009154e-01 6.495711e-01 -2.877248e-01 -1.728293e-01 -1.033115e-02 -3.436122e-01 -1.339568e-01 5.912763e-02 -1.647713e-02 3.578688e-01 1.266776e-01 -4.484898e-02 1.239716e-02 1.239246e-01 1.936728e-01
<VARIANCE> 39
 7.843105e+00 2.316682e+01 2.405399e+01 3.216544e+01 2.857907e+01 3.890524e+01 4.408781e+01 4.592919e+01 4.662202e+01 3.462737e+01 3.881191e+01 3.226432e+01 1.952914e+01 1.099722e+00 3.058863e+00 3.766584e+00 3.642452e+00 4.174397e+00 3.516985e+00 3.750256e+00 4.913226e+00 5.318961e+00 3.930656e+00 4.160659e+00 3.396368e+00 2.271439e+00 1.796641e-01 3.262012e-01 4.314406e-01 4.543922e-01 4.927244e-01 4.806924e-01 5.510274e-01 8.342277e-01 7.868616e-01 5.520151e-01 6.161186e-01 4.839450e-01 1.592517e-01
<GCONST> 1.210252e+02
<TRANSP> 5
 0.000000e+00 1.000000e+00 0.000000e+00 0.000000e+00 0.000000e+00
 0.000000e+00 3.787890e-01 6.212110e-01 0.000000e+00 0.000000e+00
 0.000000e+00 0.000000e+00 6.453465e-01 3.546534e-01 0.000000e+00
 0.000000e+00 0.000000e+00 0.000000e+00 4.480421e-01 5.519579e-01
 0.000000e+00 0.000000e+00 0.000000e+00 0.000000e+00 0.000000e+00
<ENDHMM>
~h "n"
<BEGINHMM>
<NUMSTATES> 5
<STATE> 2
<MEAN> 39
 5.541214e+00 2.543142e+00 3.974622e+00 4.581326e+00 -7.181184e-01 -1.277429e+00 1.387255e+00 -7.549773e+00 -4.360839e+00 1.750364e+00 -2.449949e+00 -2.386351e+00 -3.553216e-01 4.066767e-01 5.056477e-01 6.825101e-01 7.470421e-01 -2.875229e-01 -2.507398e-01 2.832105e-01 -1.345816e+00 -5.421562e-01 4.949853e-01 -3.040168e-01 -1.040049e-01 -2.120335e-01 -2.404099e-01 -4.533339e-01 -3.372135e-01 -5.658701e-01 9.325707e-02 2.319043e-01 -2.150511e-01 8.515496e-01 3.821011e-01 -2.299122e-01 8.594519e-02 2.030344e-02 3.842722e-01
<VARIANCE> 39
 8.922645e+00 1.967024e+01 2.104370e+01 2.379427e+01 2.930782e+01 3.413084e+01 3.709444e+01 4.187278e+01 3.864443e+01 3.756654e+01 3.745874e+01 3.044549e+01 1.471219e+01 9.789326e-01 1.995862e+00 2.212974e+00 2.154919e+00 2.477397e+00 2.639189e+00 2.806088e+00 4.186489e+00 3.317232e+00 2.837601e+00 2.668082e+00 2.501154e+00 1.661822e+00 1.497714e-01 2.994604e-01 4.396991e-01 4.285709e-01 5.377870e-01 5.131567e-01 5.807178e-01 7.850481e-01 6.912346e-01 5.722983e-01 5.503332e-01 4.671972e-01 1.733409e-01
<GCONST> 1.146624e+02
<STATE> 3
<MEAN> 39
 5.633656e+00 2.034945e+00 4.320813e+00 4.939640e+00 -9.425001e-01 -1.612795e+00 1.065291e+00 -8.246720e+00 -4.373669e+00 2.874527e+00 -2.596603e+00 -2.889620e+00 4.196202e-01 -1.382339e-01 -1.173679e+00 -6.564341e-01 -1.135193e+00 5.012232e-01 4.285171e-01 -6.452352e-01 1.709394e+00 7.222282e-01 -4.181953e-01 -1.645494e-01 -3.704015e-01 1.051037e+00 -3.033703e-01 -5.923865e-01 -5.249907e-01 -7.640904e-01 2.102017e-01 4.282377e-01 -1.673534e-01 1.160927e+00 4.565282e-01 -4.732669e-01 5.474831e-02 3.815646e-02 4.261572e-01
<VARIANCE> 39
 7.037303e+00 1.836621e+01 1.992673e+01 2.445023e+01 2.962650e+01 3.576453e+01 3.730947e+01 4.248339e+01 3.969143e+01 3.945843e+01 3.915408e+01 3.141194e+01 1.125465e+01 8.645454e-01 2.481095e+00 2.688245e+00 2.489812e+00 2.922997e+00 3.166357e+00 3.115487e+00 4.444987e+00 3.898801e+00 3.159375e+00 3.095205e+00 2.911278e+00 1.866533e+00 1.792890e-01 3.490225e-01 5.156840e-01 4.389841e-01 6.517470e-01 5.928263e-01 6.699060e-01 8.284437e-01 8.929117e-01 6.840357e-01 6.760678e-01 5.536863e-01 1.742393e-01
<GCONST> 1.177850e+02
<STATE> 4
<MEAN> 39
 4.820972e+00 -1.501805e+00 1.678882e+00 6.903700e-01 1.141834e+00 -2.876346e-01 -1.312270e+00 -1.324804e+00 -1.746271e+00 3.191113e-01 -3.016007e+00 -3.825419e+00 3.286721e+00 -5.020232e-01 -1.636606e+00 -1.155180e+00 -1.781064e+00 5.010389e-01 1.081311e+00 -3.870264e-01 2.712032e+00 1.031004e+00 -9.558145e-01 -1.081573e-01 -7.748594e-02 1.297508e+00 -1.563185e-01 2.883710e-02 -5.707638e-02 -3.862383e-02 -1.455428e-01 1.972262e-01 2.527825e-01 -1.311591e-01 -3.533570e-02 -6.684001e-02 9.342430e-02 1.869487e-01 -6.196383e-02
<VARIANCE> 39
 7.489059e+00 2.556782e+01 2.900376e+01 2.814732e+01 3.138915e+01 4.168969e+01 3.870761e+01 4.837498e+01 4.110541e+01 3.952267e+01 3.984570e+01 3.652520e+01 1.775709e+01 1.102074e+00 3.228935e+00 3.943191e+00 3.107808e+00 4.358611e+00 3.917388e+00 3.951463e+00 5.223763e+00 5.698349e+00 4.070572e+00 4.393254e+00 3.655506e+00 2.007373e+00 1.616322e-01 2.862427e-01 3.371184e-01 3.672400e-01 4.213324e-01 4.973277e-01 5.565796e-01 7.088207e-01 5.911178e-01 5.419089e-01 5.092551e-01 4.488193e-01 1.673105e-01
<GCONST> 1.201010e+02
<TRANSP> 5
 0.000000e+00 1.000000e+00 0.000000e+00 0.000000e+00 0.000000e+00
 0.000000e+00 5.121943e-01 4.878057e-01 0.000000e+00 0.000000e+00
 0.000000e+00 0.000000e+00 3.451016e-01 6.548984e-01 0.000000e+00
 0.000000e+00 0.000000e+00 0.000000e+00 2.471912e-01 7.528088e-01
 0.000000e+00 0.000000e+00 0.000000e+00 0.000000e+00 0.000000e+00
<ENDHMM>
~h "o"
<BEGINHMM>
<NUMSTATES> 5
<STATE> 2
<MEAN> 39
 6.134329e+00 -1.080815e+00 -4.557035e+00 -8.816943e+00 -1.868042e+00 6.478950e+00 -2.164013e+00 -2.831338e+00 -3.399678e-01 1.919060e+00 3.778556e+00 -8.849419e-01 5.012734e+00 1.004376e+00 -6.415889e-01 -5.806431e-01 -2.153164e+00 -8.488680e-01 1.569129e+00 -7.459121e-03 -3.534579e-01 -1.906668e-01 3.208496e-01 1.147833e+00 -8.742941e-02 1.195131e+00 -5.126061e-01 1.833678e-01 2.376847e-01 6.629921e-01 3.634965e-01 -3.754389e-01 1.187789e-01 6.390493e-02 -8.712189e-02 -1.366629e-01 -2.183681e-01 1.339129e-01 -5.169863e-01
<VARIANCE> 39
 1.043332e+01 2.262231e+01 2.612079e+01 3.999706e+01 3.777469e+01 4.535578e+01 6.071930e+01 3.974025e+01 4.475679e+01 4.902800e+01 4.903804e+01 4.194211e+01 1.916310e+01 1.854057e+00 1.789716e+00 2.512175e+00 3.786950e+00 3.742032e+00 3.498034e+00 4.227333e+00 3.919894e+00 3.851231e+00 3.905777e+00 3.806377e+00 3.270378e+00 1.489514e+00 3.074209e-01 3.869211e-01 4.099399e-01 6.501639e-01 6.176339e-01 6.935652e-01 9.146184e-01 7.336992e-01 7.741674e-01 8.237462e-01 7.824358e-01 6.795545e-01 2.641804e-01
<GCONST> 1.249548e+02
<STATE> 3
<MEAN> 39
 6.565989e+00 -1.569510e+00 -5.228496e+00 -1.145703e+01 -2.018156e+00 9.017978e+00 -4.057340e-01 -3.181258e+00 -1.039874e+00 1.446170e+00 4.785534e+00 -3.455016e-01 5.894480e+00 3.527566e-02 8.852082e-02 1.331785e-01 2.013342e-01 2.108849e-01 -9.312767e-03 -1.379446e-01 -2.296929e-01 -1.969447e-01 6.174117e-02 1.133225e-01 3.987648e-02 -1.416306e-01 -2.093199e-01 2.621590e-01 2.710017e-01 7.789903e-01 3.092737e-01 -4.362259e-01 -5.915652e-02 -2.649468e-02 -1.532323e-02 -6.293093e-02 -2.906784e-01 1.782295e-02 -3.903938e-01
<VARIANCE> 39
 8.521209e+00 1.744824e+01 2.540599e+01 3.962292e+01 3.949001e+01 3.990731e+01 5.086659e+01 3.816610e+01 3.852886e+01 4.529682e+01 4.512150e+01 4.222387e+01 1.208498e+01 3.761196e-01 1.060556e+00 1.046376e+00 2.265960e+00 1.725736e+00 1.915008e+00 2.927310e+00 1.983157e+00 2.434621e+00 2.466407e+00 2.134458e+00 2.011538e+00 5.980521e-01 1.785226e-01 2.342538e-01 2.644579e-01 4.499682e-01 4.417002e-01 4.163990e-01 5.005901e-01 5.133126e-01 4.806595e-01 5.075521e-01 5.163431e-01 4.314719e-01 1.586074e-01
<GCONST> 1.085614e+02
<STATE> 4
<MEAN> 39
 6.086677e+00 -4.545230e-01 -3.260846e+00 -6.653636e+00 6.733332e-01 5.808727e+00 -3.774587e+00 -3.984477e+00 -1.387840e+00 2.526541e+00 4.032819e+00 -8.238704e-01 3.912905e+00 -6.989158e-01 1.247391e+00 1.085283e+00 2.523423e+00 1.189855e+00 -1.062659e+00 2.540539e-01 5.897205e-02 1.192072e-02 -3.969941e-01 -8.104229e-01 3.009075e-01 -1.545583e+00 -3.861984e-01 2.264599e-01 6.328830e-02 3.133454e-01 -1.167549e-02 -1.780532e-01 3.764710e-01 2.240736e-01 1.094287e-01 -1.842199e-01 -1.938304e-01 1.229950e-01 -2.943842e-01
<VARIANCE> 39
 9.482083e+00 2.165505e+01 2.752370e+01 4.169302e+01 3.687138e+01 4.695237e+01 5.927069e+01 4.000168e+01 4.366601e+01 4.599796e+01 4.821952e+01 3.879817e+01 1.989386e+01 1.735870e+00 2.474770e+00 2.283586e+00 3.538920e+00 3.857446e+00 3.596197e+00 4.628428e+00 4.451252e+00 4.313529e+00 4.070373e+00 3.836815e+00 3.260498e+00 1.914411e+00 2.944831e-01 3.951254e-01 4.134707e-01 7.025507e-01 5.951456e-01 6.346448e-01 8.184413e-01 6.690690e-01 7.190068e-01 7.349862e-01 7.040477e-01 5.787422e-01 2.672111e-01
<GCONST> 1.248300e+02
<TRANSP> 5
 0.000000e+00 1.000000e+00 0.000000e+00 0.000000e+00 0.000000e+00
 0.000000e+00 4.181402e-01 5.818598e-01 0.000000e+00 0.000000e+00
 0.000000e+00 0.000000e+00 6.553584e-01 3.446416e-01 0.000000e+00
 0.000000e+00 0.000000e+00 0.000000e+00 4.790814e-01 5.209186e-01
 0.000000e+00 0.000000e+00 0.000000e+00 0.000000e+00 0.000000e+00
<ENDHMM>
~h "p"
<BEGINHMM>
<NUMSTATES> 5
<STATE> 2
<MEAN> 39
 1.557604e+00 3.240191e+00 -5.832886e-01 1.931833e+00 2.291167e+00 5.873714e-01 1.380799e+00 6.947296e-01 9.437397e-01 4.731671e-03 7.860140e-01 1.558556e+00 -8.086967e+00 -7.244450e-01 -2.354060e-01 -7.105690e-01 -3.561261e-01 -4.995592e-01 -6.995401e-01 -2.125654e-01 4.387497e-03 2.103162e-01 6.313887e-02 -2.008056e-01 1.556906e-01 -8.464377e-01 -1.978750e-02 -3.365485e-01 -5.729935e-02 -2.631771e-01 -3.246255e-01 -6.272292e-02 -2.605850e-01 -1.503234e-01 -1.101867e-01 -1.572190e-02 -1.595786e-03 -1.029200e-01 7.572165e-01
<VARIANCE> 39
 1.086210e+01 1.599428e+01 2.516076e+01 2.483337e+01 2.500574e+01 3.267562e+01 2.560640e+01 2.805401e+01 2.757681e+01 2.481429e+01 2.590317e+01 2.258102e+01 9.973009e+00 1.052360e+00 1.083127e+00 1.503073e+00 2.020619e+00 1.990849e+00 2.272316e+00 2.200772e+00 2.407533e+00 2.329197e+00 2.083050e+00 2.100342e+00 1.799318e+00 1.446786e+00 1.977699e-01 3.053356e-01 3.816162e-01 5.459877e-01 5.649253e-01 4.926044e-01 4.673000e-01 5.145501e-01 5.018973e-01 4.620270e-01 4.457517e-01 3.974120e-01 1.884220e-01
<GCONST> 1.075103e+02
<STATE> 3
<MEAN> 39
 -1.177051e+00 1.849833e+00 -2.875193e+00 5.117126e-03 -7.484897e-01 -2.990223e+00 -1.047065e+00 -9.362131e-01 1.420070e-01 -4.836008e-01 -4.179448e-01 1.660620e+00 -8.551152e+00 -5.811745e-02 -6.239818e-01 -1.559027e-01 -2.616913e-02 2.636875e-02 3.713323e-01 -1.168070e-01 -7.947691e-02 6.247638e-02 4.976582e-02 -1.343690e-01 -2.397481e-01 1.650331e+00 6.223492e-01 -1.628594e-01 2.415806e-01 -2.054670e-02 6.840073e-02 6.142368e-01 1.918834e-01 1.048977e-01 6.303446e-02 1.060855e-01 2.000101e-01 -1.130316e-01 9.358211e-01
<VARIANCE> 39
 1.059231e+01 1.219714e+01 2.033404e+01 1.954070e+01 2.202252e+01 3.051571e+01 2.658295e+01 2.847152e+01 2.866709e+01 2.402891e+01 2.655476e+01 2.258608e+01 1.394327e+01 1.745057e+00 1.488544e+00 2.028581e+00 2.426906e+00 2.311643e+00 3.481718e+00 2.752359e+00 2.832247e+00 2.788414e+00 2.529240e+00 2.396859e+00 2.150560e+00 2.160350e+00 2.765153e-01 3.599119e-01 4.463251e-01 7.070042e-01 5.842652e-01 7.141614e-01 6.211853e-01 6.471649e-01 6.698624e-01 5.944448e-01 5.856379e-01 5.155025e-01 2.920600e-01
<GCONST> 1.136851e+02
<STATE> 4
<MEAN> 39
 5.933241e-01 4.566550e-01 -2.259711e+00 1.139809e+00 1.885123e+00 1.142288e+00 7.396460e-01 2.916988e-01 1.289036e+00 2.663218e-01 -3.296416e-02 6.616597e-01 -1.132715e+00 2.130163e+00 -1.128376e+00 8.077022e-03 -1.073459e+00 -9.296286e-01 1.346580e+00 -2.856995e-02 -3.032905e-02 5.991149e-02 3.027222e-01 4.958639e-01 -4.582168e-01 3.395067e+00 3.209773e-01 -1.447610e-01 9.557601e-02 -3.237556e-01 -4.775155e-01 -2.830615e-02 -1.364841e-01 -1.048912e-01 -1.027158e-01 4.241382e-02 1.471745e-01 -7.480131e-03 -1.241082e-01
<VARIANCE> 39
 2.730916e+01 1.824283e+01 2.249950e+01 2.927084e+01 2.330646e+01 3.324091e+01 2.915047e+01 2.940302e+01 2.779897e+01 2.513479e+01 2.647611e+01 2.135611e+01 2.278442e+01 2.407208e+00 3.987304e+00 4.751908e+00 7.289103e+00 4.803477e+00 7.395157e+00 5.490080e+00 5.357327e+00 5.725890e+00 4.946287e+00 4.768727e+00 4.315300e+00 2.857473e+00 5.171246e-01 4.150643e-01 4.779884e-01 7.722378e-01 5.790280e-01 6.949439e-01 6.176898e-01 6.434753e-01 6.349346e-01 5.875882e-01 6.247981e-01 4.779033e-01 4.637987e-01
<GCONST> 1.266419e+02
<TRANSP> 5
 0.000000e+00 1.000000e+00 0.000000e+00 0.000000e+00 0.000000e+00
 0.000000e+00 6.630951e-01 3.369049e-01 0.000000e+00 0.000000e+00
 0.000000e+00 0.000000e+00 5.537618e-01 4.462382e-01 0.000000e+00
 0.000000e+00 0.000000e+00 0.000000e+00 4.299898e-01 5.700102e-01
 0.000000e+00 0.000000e+00 0.000000e+00 0.000000e+00 0.000000e+00
<ENDHMM>
~h "r"
<BEGINHMM>
<NUMSTATES> 5
<STATE> 2
<MEAN> 39
 5.104857e+00 -5.155143e+00 -1.774992e+00 1.967962e+00 -2.406429e+00 -1.934651e+00 -4.049393e+00 6.199918e-01 4.615317e+00 3.413898e+00 2.365388e-01 -2.819479e+00 5.544171e+00 7.866811e-01 -9.169763e-01 6.996672e-01 1.388083e+00 -7.921256e-01 -2.706736e-01 -5.545750e-01 -2.518780e-01 4.587626e-01 1.300105e-01 -7.588085e-02 6.357294e-02 1.064018e-01 -3.076613e-01 1.849301e-01 1.587930e-01 -1.878633e-01 4.807217e-02 1.197989e-01 2.606169e-01 8.694809e-02 -4.181142e-01 -3.111387e-01 -3.384399e-03 2.596311e-01 -4.045528e-01
<VARIANCE> 39
 1.104334e+01 2.113327e+01 3.507058e+01 2.998057e+01 3.578641e+01 4.590120e+01 4.598324e+01 5.302076e+01 3.950106e+01 3.683620e+01 3.948002e+01 3.139182e+01 1.934339e+01 1.450008e+00 2.520247e+00 2.891207e+00 3.472182e+00 4.074590e+00 3.712177e+00 3.590468e+00 4.078009e+00 3.793209e+00 3.661179e+00 3.581908e+00 2.965431e+00 2.787307e+00 2.510799e-01 3.761508e-01 4.273664e-01 6.623876e-01 6.541336e-01 7.267297e-01 7.135854e-01 8.355138e-01 7.462245e-01 6.748937e-01 6.817256e-01 5.489095e-01 5.375624e-01
<GCONST> 1.245078e+02
<STATE> 3
<MEAN> 39
 5.013660e+00 -4.146469e+00 3.731839e-01 6.037475e+00 -1.499814e+00 -1.950052e+00 -3.809324e+00 -1.310233e+00 3.914306e+00 2.768508e+00 1.930882e-01 -9.677549e-01 2.395664e+00 9.480074e-02 -6.278171e-01 7.458674e-01 1.162858e-01 -6.144996e-01 -4.757649e-02 -1.270922e-01 4.681879e-01 -4.575702e-01 -4.516614e-01 3.521251e-03 3.107970e-01 1.530138e-02 -2.251775e-01 -1.318739e-02 -1.132704e-01 -9.155839e-01 -9.215643e-02 1.518456e-01 2.150867e-01 4.459754e-01 -3.410562e-01 -1.920484e-01 1.029312e-01 -7.750764e-02 3.188803e-01
<VARIANCE> 39
 1.088666e+01 2.018128e+01 3.867344e+01 2.848969e+01 4.049405e+01 3.649533e+01 3.752188e+01 4.677534e+01 3.548096e+01 3.631332e+01 3.010335e+01 2.547061e+01 1.462806e+01 8.381925e-01 1.761656e+00 3.082806e+00 2.472440e+00 2.830748e+00 3.173901e+00 3.009899e+00 3.596144e+00 3.333636e+00 3.205199e+00 2.885801e+00 2.477912e+00 1.030798e+00 2.394074e-01 3.766922e-01 4.116942e-01 5.781065e-01 7.984068e-01 7.257593e-01 7.618415e-01 8.267961e-01 8.209063e-01 7.593092e-01 7.791245e-01 5.239671e-01 3.157892e-01
<GCONST> 1.193230e+02
<STATE> 4
<MEAN> 39
 5.578465e+00 -7.346683e+00 3.998434e-01 2.922578e+00 -4.596365e+00 -1.968022e+00 -4.734863e+00 2.006430e+00 3.313646e+00 1.748753e+00 1.850491e-01 -1.569038e+00 5.232006e+00 -9.429231e-02 -5.709385e-01 2.598524e-01 -1.405458e+00 -5.391228e-01 2.618310e-01 2.644877e-01 9.944983e-01 -8.322164e-01 -5.107414e-01 1.617085e-01 -8.356491e-02 7.290149e-01 -2.105490e-01 3.534292e-01 -1.600271e-01 -4.168540e-01 2.942691e-01 1.043286e-01 3.121904e-01 -9.003232e-02 -1.936691e-01 -3.693893e-02 4.611191e-02 -5.173438e-02 4.248534e-02
<VARIANCE> 39
 1.175267e+01 2.442455e+01 5.675020e+01 2.947146e+01 3.986134e+01 4.316130e+01 4.421558e+01 5.291543e+01 4.320442e+01 4.222812e+01 3.941185e+01 3.482652e+01 1.453252e+01 1.058750e+00 2.573000e+00 3.469862e+00 2.766852e+00 4.177375e+00 3.966632e+00 3.932827e+00 4.785649e+00 4.679968e+00 3.938339e+00 4.080309e+00 3.015767e+00 1.359140e+00 1.326410e-01 2.433136e-01 3.507406e-01 4.276564e-01 5.594118e-01 4.973174e-01 5.686814e-01 6.223932e-01 5.557443e-01 5.932541e-01 5.295786e-01 4.462626e-01 1.711370e-01
<GCONST> 1.201484e+02
<TRANSP> 5
 0.000000e+00 1.000000e+00 0.000000e+00 0.000000e+00 0.000000e+00
 0.000000e+00 3.774433e-01 6.225567e-01 0.000000e+00 0.000000e+00
 0.000000e+00 0.000000e+00 3.194598e-01 6.805403e-01 0.000000e+00
 0.000000e+00 0.000000e+00 0.000000e+00 2.636240e-01 7.363760e-01
 0.000000e+00 0.000000e+00 0.000000e+00 0.000000e+00 0.000000e+00
<ENDHMM>
~h "s"
<BEGINHMM>
<NUMSTATES> 5
<STATE> 2
<MEAN> 39
 -8.717607e+00 9.910284e+00 -7.875651e-01 3.730485e+00 6.365366e+00 -1.088116e+00 2.278256e+00 2.073553e+00 1.140216e+00 1.476494e+00 3.679611e-01 2.048569e+00 2.139129e+00 -3.837165e+00 1.821666e+00 -1.431529e+00 4.978884e-01 7.128462e-01 -2.902657e-01 5.740306e-01 8.613133e-01 5.915759e-01 -2.541586e-01 1.095469e-01 8.757074e-01 -4.789286e-01 3.941441e-01 -8.295119e-01 -1.911360e-01 -5.685443e-01 -8.421288e-01 -1.434700e-01 -4.788003e-01 -3.391587e-01 -2.636155e-01 -1.507857e-01 -4.281378e-02 -2.098386e-01 6.736517e-02
<VARIANCE> 39
 3.836343e+01 2.315372e+01 3.596554e+01 3.641476e+01 4.047508e+01 4.792293e+01 4.328278e+01 4.034126e+01 3.480918e+01 3.300340e+01 3.003078e+01 2.778888e+01 1.366131e+01 2.248638e+00 3.960541e+00 3.803304e+00 4.825301e+00 4.982213e+00 5.077529e+00 4.397260e+00 4.429526e+00 3.752692e+00 3.387022e+00 3.793521e+00 2.955598e+00 1.076010e+00 7.569067e-01 4.693918e-01 4.484438e-01 5.319704e-01 5.837563e-01 6.255587e-01 7.132919e-01 7.464278e-01 6.224857e-01 6.207846e-01 5.417370e-01 5.117055e-01 1.199805e-01
<GCONST> 1.249365e+02
<STATE> 3
<MEAN> 39
 -1.542255e+01 9.865169e+00 -6.191120e+00 2.126499e+00 2.040311e+00 -3.623151e+00 3.010485e-01 8.620391e-01 1.735292e-01 -5.400845e-01 -7.380449e-02 2.648362e+00 9.435858e-01 1.555896e-02 -4.105055e-01 -2.696844e-01 -3.390402e-01 -4.442363e-01 -3.214224e-01 -3.996673e-01 -3.039759e-01 -1.530627e-01 -2.113134e-01 -2.179169e-01 -1.273854e-01 -2.997572e-01 8.338413e-01 -2.982229e-01 4.502756e-01 2.835866e-02 1.032635e-01 1.289959e-01 4.309885e-02 -5.327667e-02 1.693399e-03 1.088178e-01 5.463366e-03 -1.437372e-01 -3.800640e-02
<VARIANCE> 39
 1.685243e+01 1.867974e+01 2.973774e+01 4.399629e+01 3.820555e+01 4.415664e+01 4.042007e+01 3.343255e+01 3.270003e+01 2.873233e+01 3.235971e+01 2.484423e+01 1.049055e+01 1.633142e+00 1.160296e+00 1.892974e+00 1.472807e+00 2.047371e+00 2.150483e+00 2.238558e+00 2.214859e+00 2.072944e+00 2.009343e+00 1.885012e+00 1.629877e+00 4.757799e-01 3.545842e-01 2.660462e-01 3.031789e-01 3.573586e-01 3.986629e-01 4.748112e-01 4.672910e-01 4.960071e-01 4.561167e-01 4.350277e-01 4.459743e-01 3.754095e-01 1.056122e-01
<GCONST> 1.083225e+02
<STATE> 4
<MEAN> 39
 -9.033866e+00 6.287040e+00 -3.134638e+00 1.371920e+00 2.967782e+00 -3.474320e+00 -3.279203e-01 1.720341e-01 4.947108e-01 -6.402308e-03 -8.484372e-01 1.313617e+00 -9.701261e-01 3.224209e+00 -1.306154e+00 8.144690e-01 -3.423132e-01 -3.129477e-01 2.852288e-01 -1.432609e-01 -6.183422e-01 -1.323427e-01 2.977667e-01 3.736793e-02 -6.356412e-01 -4.271740e-01 2.005899e-01 -1.196969e-01 -5.449610e-02 -1.251826e-01 -1.634025e-01 1.401421e-01 2.890628e-03 -5.150255e-02 -6.559610e-02 4.023899e-02 8.959768e-02 -3.253912e-02 2.311352e-01
<VARIANCE> 39
 3.564311e+01 2.249580e+01 3.212694e+01 3.542495e+01 3.580087e+01 4.373750e+01 4.352831e+01 3.646914e+01 3.579095e+01 2.914950e+01 3.206572e+01 2.622611e+01 1.913007e+01 2.641906e+00 2.441762e+00 2.947119e+00 3.105141e+00 2.965834e+00 3.772487e+00 3.707844e+00 3.707481e+00 3.511822e+00 3.030033e+00 3.382255e+00 2.710887e+00 2.538212e+00 7.278773e-01 3.963601e-01 4.211108e-01 4.713705e-01 5.214851e-01 5.927676e-01 6.320435e-01 6.307448e-01 5.895884e-01 5.365517e-01 5.600815e-01 4.625774e-01 2.542667e-01
<GCONST> 1.225644e+02
<TRANSP> 5
 0.000000e+00 1.000000e+00 0.000000e+00 0.000000e+00 0.000000e+00
 0.000000e+00 6.370410e-01 3.629590e-01 0.000000e+00 0.000000e+00
 0.000000e+00 0.000000e+00 7.902337e-01 2.097664e-01 0.000000e+00
 0.000000e+00 0.000000e+00 0.000000e+00 6.490079e-01 3.509921e-01
 0.000000e+00 0.000000e+00 0.000000e+00 0.000000e+00 0.000000e+00
<ENDHMM>
~h "t"
<BEGINHMM>
<NUMSTATES> 5
<STATE> 2
<MEAN> 39
 -1.884778e-01 2.922460e+00 -1.520561e+00 8.015301e-01 1.289567e+00 -1.326129e+00 1.171063e-01 2.725410e-01 9.882702e-01 9.463926e-02 3.254661e-01 1.354323e+00 -7.878766e+00 -7.503216e-01 -5.360314e-01 -3.187084e-01 -4.766335e-01 -2.760953e-01 -2.968085e-01 2.716429e-02 5.623093e-02 -6.471425e-02 -2.434104e-01 -1.074600e-01 2.536674e-01 -2.294060e-01 -1.776496e-01 -2.350574e-01 1.479543e-01 -1.296690e-01 -5.204655e-02 -5.075695e-02 -1.717494e-01 -6.590013e-02 -1.059512e-02 6.416751e-02 -8.400241e-02 -1.435097e-01 9.365603e-01
<VARIANCE> 39
 1.481667e+01 1.642729e+01 2.876141e+01 2.567348e+01 2.949913e+01 3.674270e+01 2.773506e+01 3.107593e+01 3.015401e+01 2.667558e+01 2.915100e+01 2.419553e+01 1.156743e+01 1.831835e+00 1.638955e+00 2.278481e+00 2.248482e+00 2.507675e+00 2.867568e+00 2.810804e+00 2.839695e+00 2.495370e+00 2.401238e+00 2.439852e+00 2.072678e+00 3.283771e+00 3.022013e-01 3.750049e-01 4.948384e-01 5.577170e-01 6.501614e-01 5.951884e-01 5.843934e-01 6.073378e-01 5.638309e-01 5.067432e-01 5.050607e-01 4.503432e-01 3.116785e-01
<GCONST> 1.152546e+02
<STATE> 3
<MEAN> 39
 -7.092332e+00 3.911438e-01 -5.714717e-01 -9.900513e-01 2.015378e+00 -2.451949e+00 -5.048430e-02 9.307151e-01 6.239529e-01 -7.634447e-01 -7.226705e-01 2.322442e+00 -2.507596e+00 3.219355e-01 -4.892338e-01 4.741787e-01 -6.003093e-02 1.867509e-01 -1.325454e-01 -5.900135e-01 -1.137887e-01 3.285141e-01 3.852662e-01 -3.472349e-01 -6.619467e-01 2.580462e+00 1.121432e+00 3.310378e-02 -1.089522e-02 3.179889e-02 -2.996202e-01 1.855809e-01 -2.816964e-01 -2.307658e-01 7.186256e-02 2.757435e-01 1.481372e-01 -4.018545e-01 2.292541e-01
<VARIANCE> 39
 1.703768e+01 2.531109e+01 2.959217e+01 2.710683e+01 2.995452e+01 3.825904e+01 3.845866e+01 3.529295e+01 3.300287e+01 2.717700e+01 3.390329e+01 2.388361e+01 1.938149e+01 3.870078e+00 2.546600e+00 3.624764e+00 3.346380e+00 3.569427e+00 4.365099e+00 4.216718e+00 4.132525e+00 4.152131e+00 3.381963e+00 3.721192e+00 3.129444e+00 3.142558e+00 3.743654e-01 6.037837e-01 7.635372e-01 6.530808e-01 6.976047e-01 8.418183e-01 8.261336e-01 9.029487e-01 8.584882e-01 7.089803e-01 9.271427e-01 6.264206e-01 4.965914e-01
<GCONST> 1.270300e+02
<STATE> 4
<MEAN> 39
 -1.955184e-01 1.200035e+00 -5.248365e-01 -2.427714e-01 1.660338e+00 -3.299900e+00 -2.936969e+00 -8.267220e-01 2.096253e+00 1.629722e+00 -1.923208e+00 -1.435951e+00 2.148128e+00 2.701701e+00 -9.374070e-01 6.633380e-03 -5.916882e-01 -9.431520e-01 4.600224e-01 -1.111606e+00 -6.450258e-01 3.520006e-01 9.270762e-01 2.197822e-01 -1.374483e+00 2.237548e+00 1.530377e-01 -1.728640e-01 -1.209846e-01 -2.017314e-01 -2.655786e-01 3.622616e-01 1.833484e-01 2.998112e-02 -1.960780e-01 -1.209867e-01 3.195064e-01 1.356724e-01 -4.908459e-01
<VARIANCE> 39
 1.805197e+01 1.936190e+01 2.763218e+01 2.787778e+01 2.718986e+01 3.587931e+01 4.105502e+01 3.342814e+01 3.185127e+01 2.834144e+01 2.898693e+01 2.492720e+01 2.650904e+01 2.577724e+00 3.992041e+00 6.267510e+00 4.632787e+00 4.482016e+00 6.532714e+00 5.674536e+00 6.594931e+00 6.644845e+00 5.065529e+00 7.569836e+00 4.754744e+00 3.405693e+00 4.162831e-01 3.350508e-01 4.199095e-01 4.372990e-01 5.414647e-01 6.118336e-01 7.401190e-01 6.121300e-01 5.893286e-01 5.561250e-01 5.854052e-01 5.255937e-01 4.001485e-01
<GCONST> 1.272062e+02
<TRANSP> 5
 0.000000e+00 1.000000e+00 0.000000e+00 0.000000e+00 0.000000e+00
 0.000000e+00 7.332819e-01 2.667181e-01 0.000000e+00 0.000000e+00
 0.000000e+00 0.000000e+00 5.018384e-01 4.981616e-01 0.000000e+00
 0.000000e+00 0.000000e+00 0.000000e+00 2.536314e-01 7.463686e-01
 0.000000e+00 0.000000e+00 0.000000e+00 0.000000e+00 0.000000e+00
<ENDHMM>
~h "u"
<BEGINHMM>
<NUMSTATES> 5
<STATE> 2
<MEAN> 39
 5.998386e+00 2.982505e+00 -1.338442e+00 -3.093423e+00 -2.200572e+00 3.939344e+00 -3.463550e+00 -5.946755e+00 -4.478480e+00 -1.144984e+00 3.625167e+00 7.036522e-01 1.501087e+00 1.030228e+00 5.695964e-01 -1.035096e-01 -1.473574e+00 -1.049286e+00 1.084360e+00 1.330973e-01 -6.207166e-01 -1.194024e+00 -6.266090e-01 7.711564e-01 5.289961e-01 4.207955e-01 -3.717122e-01 -8.560048e-02 1.482263e-01 3.190917e-01 1.876992e-01 -2.446640e-01 2.025790e-01 3.739000e-01 2.980747e-01 -3.246850e-02 -3.339505e-01 -3.503425e-02 -2.212567e-01
<VARIANCE> 39
 1.059455e+01 2.134530e+01 2.750604e+01 3.751919e+01 3.267786e+01 4.049817e+01 5.551187e+01 4.855012e+01 4.223376e+01 5.043718e+01 4.508032e+01 3.441201e+01 1.864335e+01 1.380200e+00 1.833975e+00 2.621017e+00 2.889674e+00 3.215963e+00 3.698554e+00 4.486319e+00 4.649890e+00 4.095577e+00 4.058351e+00 4.065079e+00 3.059938e+00 1.430879e+00 2.573607e-01 3.202701e-01 4.184994e-01 5.779473e-01 6.317789e-01 6.198383e-01 8.015382e-01 8.529829e-01 7.593206e-01 8.271366e-01 7.609303e-01 6.005560e-01 2.099359e-01
<GCONST> 1.231761e+02
<STATE> 3
<MEAN> 39
 7.365611e+00 4.712384e+00 -1.241428e+00 -6.302323e+00 -4.563172e+00 5.434659e+00 5.531937e-02 -4.466233e+00 -5.727087e+00 -3.603370e+00 2.205975e+00 1.501029e+00 1.078343e+00 -9.591385e-03 4.988008e-02 1.523278e-01 2.535252e-01 1.427012e-01 1.271407e-02 -2.158990e-02 -7.214845e-02 1.063317e-01 3.776982e-02 -6.027848e-02 -3.554706e-02 -1.474044e-01 -2.442255e-01 -1.319624e-01 7.913919e-02 4.997576e-01 3.652036e-01 -2.251065e-01 -6.961939e-02 3.903172e-02 2.851649e-01 2.435788e-01 -1.043666e-01 -1.167122e-01 -1.257025e-01
<VARIANCE> 39
 7.352348e+00 1.875008e+01 2.365549e+01 3.403640e+01 3.184307e+01 3.746719e+01 4.584325e+01 4.403313e+01 3.657902e+01 4.361363e+01 4.339895e+01 3.407157e+01 1.193969e+01 3.654422e-01 1.027708e+00 1.133109e+00 2.054947e+00 2.101398e+00 1.859611e+00 2.865008e+00 2.804331e+00 2.265637e+00 2.652410e+00 2.709939e+00 2.048419e+00 7.254103e-01 1.355461e-01 1.688824e-01 2.550692e-01 3.817370e-01 3.936919e-01 4.444203e-01 4.652987e-01 5.478957e-01 5.391535e-01 4.979998e-01 5.486436e-01 4.248970e-01 1.114342e-01
<GCONST> 1.074598e+02
<STATE> 4
<MEAN> 39
 5.499689e+00 3.024225e+00 6.002855e-01 -4.528811e-01 -6.708645e-01 3.802146e+00 -3.814656e+00 -6.469536e+00 -3.411535e+00 -7.418857e-01 2.743303e+00 4.456246e-01 5.034350e-01 -9.454835e-01 -3.717923e-02 8.455012e-01 1.849017e+00 1.066985e+00 -1.046430e+00 4.646258e-02 6.966817e-01 1.247486e+00 4.973684e-01 -7.294602e-01 -2.160164e-01 -6.602429e-01 -3.297695e-01 1.046946e-01 -1.896614e-02 -2.761374e-02 -1.218370e-02 -2.119852e-01 3.370263e-01 4.285800e-01 1.008269e-01 -1.490041e-01 -2.120200e-01 7.449182e-02 -1.511972e-01
<VARIANCE> 39
 1.057187e+01 2.188132e+01 3.333857e+01 3.858595e+01 3.659032e+01 4.496652e+01 7.078124e+01 5.529270e+01 4.269711e+01 4.605532e+01 4.459770e+01 3.515319e+01 2.604142e+01 1.439017e+00 2.095327e+00 2.727317e+00 3.184016e+00 4.497125e+00 3.798954e+00 5.561893e+00 5.285653e+00 4.237187e+00 4.526464e+00 3.997776e+00 3.375748e+00 2.065051e+00 2.806171e-01 3.464035e-01 5.089463e-01 6.477594e-01 7.363226e-01 6.955674e-01 9.998214e-01 9.233473e-01 8.017840e-01 7.892352e-01 7.963991e-01 5.899001e-01 2.560299e-01
<GCONST> 1.271600e+02
<TRANSP> 5
 0.000000e+00 1.000000e+00 0.000000e+00 0.000000e+00 0.000000e+00
 0.000000e+00 4.119518e-01 5.880482e-01 0.000000e+00 0.000000e+00
 0.000000e+00 0.000000e+00 7.075999e-01 2.924000e-01 0.000000e+00
 0.000000e+00 0.000000e+00 0.000000e+00 5.111905e-01 4.888095e-01
 0.000000e+00 0.000000e+00 0.000000e+00 0.000000e+00 0.000000e+00
<ENDHMM>
~h "v"
<BEGINHMM>
<NUMSTATES> 5
<STATE> 2
<MEAN> 39
 4.393108e+00 2.328251e+00 -7.846559e-01 2.131687e+00 2.658005e+00 3.222466e+00 -1.399353e+00 -2.824929e+00 -1.808047e+00 -2.226296e-01 1.832799e+00 5.174745e-01 -1.136626e+00 -2.342171e-02 3.650179e-01 2.033806e-01 5.555043e-01 1.272667e-01 9.406838e-02 -5.967275e-02 -1.831788e-01 -2.265298e-01 -1.928565e-01 1.078890e-01 1.610678e-01 -2.310737e-01 -7.290161e-02 -5.700721e-01 -3.995948e-02 -5.639381e-01 -5.165405e-01 -2.001837e-01 7.580810e-03 3.281583e-01 2.473031e-01 1.993045e-01 -6.211405e-02 -2.183459e-01 5.966594e-01
<VARIANCE> 39
 1.601513e+01 2.240844e+01 2.411678e+01 4.149677e+01 2.425599e+01 3.412046e+01 3.237125e+01 3.059076e+01 2.989503e+01 2.916806e+01 2.960189e+01 2.718146e+01 1.873025e+01 1.635029e+00 1.723844e+00 1.834480e+00 2.987572e+00 2.049352e+00 2.734927e+00 2.532444e+00 2.359981e+00 2.506413e+00 2.609524e+00 2.359227e+00 2.155821e+00 1.376665e+00 2.307724e-01 3.190241e-01 4.328712e-01 5.079402e-01 5.714031e-01 5.113248e-01 5.492324e-01 6.109837e-01 6.577048e-01 6.035239e-01 6.027432e-01 5.282344e-01 2.433300e-01
<GCONST> 1.146220e+02
<STATE> 3
<MEAN> 39
 4.343647e+00 1.299499e+00 -1.022250e+00 1.147709e+00 1.379978e+00 2.879595e+00 -2.022674e+00 -2.872561e+00 -1.559020e+00 4.007215e-01 2.629486e+00 4.814208e-01 3.299793e-01 2.011848e-01 -1.142346e+00 3.594543e-02 -8.713468e-01 -1.133763e+00 -4.360832e-01 -2.492165e-01 4.949122e-01 4.094636e-01 4.472859e-01 1.786385e-01 -3.804558e-01 1.152286e+00 -6.400660e-02 -4.908403e-01 9.706587e-02 -4.495990e-01 -4.393137e-01 -1.659465e-01 5.626925e-02 3.345790e-01 1.862561e-01 9.137593e-02 -1.570856e-01 -2.180862e-01 4.951178e-01
<VARIANCE> 39
 1.727152e+01 2.213168e+01 2.804686e+01 4.877759e+01 2.397846e+01 3.895638e+01 3.514528e+01 3.118122e+01 2.983437e+01 2.972492e+01 3.105370e+01 2.876527e+01 1.625893e+01 1.444847e+00 1.836302e+00 3.029279e+00 3.597571e+00 2.633554e+00 3.653640e+00 3.176910e+00 3.170769e+00 3.552019e+00 3.341259e+00 2.949724e+00 2.630212e+00 1.304387e+00 2.503098e-01 2.583514e-01 3.845237e-01 4.309644e-01 5.349500e-01 4.616103e-01 5.183083e-01 6.318920e-01 6.439863e-01 5.532119e-01 5.526768e-01 5.045988e-01 1.684528e-01
<GCONST> 1.166402e+02
<STATE> 4
<MEAN> 39
 5.298753e+00 -1.876121e+00 -1.631736e+00 -1.695386e+00 -9.418786e-01 2.306441e+00 -2.568557e+00 -1.551398e+00 1.388619e-01 1.953211e+00 3.154835e+00 -9.312417e-01 3.231401e+00 -5.143638e-02 -1.428420e+00 2.414140e-01 -9.110509e-01 -1.163633e+00 -5.673833e-01 -4.727053e-02 9.658508e-01 7.087266e-01 3.226101e-01 -3.928972e-01 -7.529733e-01 1.420745e+00 -1.681855e-01 2.330820e-02 1.601848e-01 4.157139e-02 3.899747e-02 -1.699940e-02 1.478880e-01 8.245411e-02 -6.537366e-02 -1.723123e-01 -2.495013e-01 -3.074251e-03 2.091391e-02
<VARIANCE> 39
